encog,BasicNetwork,java,3.4.0,1,1590056225618
[BASIC]
[BASIC:PARAMS]
[BASIC:NETWORK]
beginTraining=0
connectionLimit=0
contextTargetOffset=0,0,0
contextTargetSize=0,0,0
endTraining=2
hasContext=f
inputCount=325
layerCounts=235,277,326
layerFeedCounts=235,276,325
layerContextCount=0,0,0
layerIndex=0,235,512
output=0,0,0,0,0,0,0,0,0,0,0.0000000016,0,0.0000000131,0,0.0000000002,0,0,0.0000000003,0,0,0.000000029,0.0000000058,0,0,0,0,0.0000000003,0,0.0000013581,0,0.0000591892,0.0000000001,0,0,0,0,0,0,0.0000000639,0,0.0000000004,0,0,0,0.0000000966,0,0,0,0,0.0000000189,0,0,0.0000000003,0,0,0,0.0000002926,0,0,0,0,0,0.0000000012,0,0,0,0,0,0,0,0,0,0,0,0,0,0.0000000004,0,0,0,0,0,0,0,0,0,0,0,0,0,0.0000000001,0,0,0.0000000029,0,0,0,0,0.0000000455,0.0000039026,0.0022608833,0,0,0,0,0,0,0,0,0.0000127935,0.0000000001,0,0,0.0000000008,0,0,0,0.0000000063,0,0.0000000001,0,0,0,0,0,0,0,0,0,0,0.0000000002,0,0,0,0,0,0,0,0.0000016458,0.0000054987,0,0,0,0,0,0,0,0,0,0,0,0,0.0000006297,0.0000000125,0,0,0,0,0,0,0,0,0.0000000479,0,0,0,0,0,0,0.9976171684,0.0000071428,0,0,0,0,0.0000000019,0.0000000004,0.0000000023,0,0,0.0000000002,0.0000000008,0,0,0,0,0,0,0.0000000028,0,0,0,0,0,0,0.0000000002,0,0,0.000000757,0,0,0,0,0,0.0000000002,0,0,0,0,0.0000004779,0,0.0000278806,0.0000000024,0,0,0,0,0,0,0,0,0,0,0,0,0,0,0,0,0,0.0000000001,0.0000000186,0.000000001,0,0,-0.5642985492,0.9990522085,-0.9999999964,-0.8682578356,0.9996664697,-0.0941277071,0.9998950852,0.3478570064,0.5431398258,0.9915991816,0.987695504,-0.8687270188,-0.7779505186,-0.9260114527,0.6779583519,0.9974562251,0.9897014234,-0.7881463597,-0.9999943768,-0.9937628824,0.998914764,-0.8763997615,-0.9999889226,0.997261942,-0.7147254778,-0.9998475292,-0.9998506443,0.0644707344,0.995074759,0.9986944774,0.0323691338,-0.5185919012,-0.9250750433,0.9821064973,0.9998490894,0.9704578287,-0.9910780349,-0.9429522258,-0.885119519,-0.9649555797,0.915082435,0.9394651649,0.6361255338,-0.9998061401,-0.9288582879,0.1654570533,-0.4316903281,-0.9987886337,-0.9997642045,0.9999840954,0.9999604893,0.9865274989,-0.9902530435,0.6899574471,-0.9983606605,0.9952368703,-0.7590362077,-0.6683405105,0.6680734573,0.9973874006,0.9999935399,-0.2277609924,0.6347833587,0.5893768636,0.9954327708,-0.9605711852,0.0812951355,0.424951811,-0.1708420951,-0.7545069957,-0.6691514545,-0.9875157723,-0.9945166228,-0.9547642351,0.9987932825,-0.9972452966,0.9999550895,-0.999940058,0.9704622991,-0.7061765348,0.9887463495,0.4149265988,-0.4437886685,-0.9464851349,-0.9242403203,0.8815844998,0.9999651914,-0.9999483466,-0.9977398035,-0.6346191423,-0.7965521423,-0.998247937,0.3829412342,0.5666275211,0.9985156373,0.8786148577,-0.3412772219,-0.4856196754,-0.0763061967,-0.5311347203,0.662775753,0.7881586844,-0.1199611625,-0.7308507634,-0.8779637302,-0.9989288388,0.9999671407,0.9999967871,0.803518382,0.9999926922,-0.9999365772,-0.9998365648,0.9540092162,0.9383469406,-0.8833424981,0.9994357684,0.9935802762,0.9996575478,0.2587845463,0.8890884717,0.6736926858,0.9535013667,-0.9990329937,0.9999809559,0.995869435,-0.9996854826,0.8834419735,0.7144473318,0.6196722934,-0.9988939491,-0.9999895935,0.5563523984,0.89464261,0.5032783923,0.9905899517,-0.9930904677,-0.9699445497,0.7833082048,0.7713733069,-0.9999257938,0.4548484302,-0.8020091801,-0.9996945255,-0.1033488619,-0.6094491576,0.9407380931,0.9823471002,-0.9999736684,-0.9814951346,0.9286683331,-0.9973634888,0.7981184525,0.9946468142,-0.9996061642,-0.8870580902,0.4728290153,0.932284492,0.8979386094,-0.9911484396,-0.9999994344,-0.9986636376,-0.78256545,0.9684163588,0.990203363,-0.664596196,-0.3935985652,-0.3927034015,0.9999712459,0.9969617324,0.9570853587,-0.950508073,-0.1427251115,-0.1899803029,0.9999993562,0.9996613313,0.8290627474,0.0292712189,-0.9862402293,0.9386534013,-0.57409849,0.9965971134,-0.9990617285,-0.9979176515,-0.9790051041,0.999943417,0.8643168228,-0.9786609819,0.9657891668,-0.9943676217,0.9997987133,0.9780892044,-0.9453129636,0.9462103381,0.9998009434,0.9970102052,0.9715414545,0.9907095059,-0.1862537365,0.9433213674,0.9150601478,-0.8587913719,-0.7654433222,0.8150141669,0.9962359589,-0.9999943795,0.5889646088,0.9807929123,-0.9999352539,0.6749231715,0.9885640608,-0.7714648178,0.7725824911,0.992079247,0.9989687945,-0.9521508093,-0.2915741605,-0.0235665074,0.9997243681,-0.9990124142,0.9903597118,-0.999400976,-0.8956264541,0.043604194,-0.5994426657,0.9869808626,0.9999340308,0.9999838646,0.9985814315,0.3533820905,0.9723642637,0.6321991102,-0.9980037732,0.6447535964,-0.9915955808,-0.9995419398,0.345177556,0.9547119634,-0.0253258818,-0.9999995243,0.9920045151,0.1095361887,0.9593558864,-0.9998353177,-0.9948346254,0.9994025857,0.5330659694,-0.3298423222,-0.9259926699,-0.9105294139,0.8896120204,-0.9654444158,0.8774938676,-0.999554057,0.5676482589,-0.9998914715,0.4022437835,0.8243181449,0.9996208257,0.6335766885,0.9351794757,-0.7425718121,0.9996394232,-0.9974887079,0.9873969533,-0.9987234883,0.148652306,0.980329051,0.9940389474,-0.9839606194,-0.9972790147,-0.8864732794,-0.9273394409,-0.0927209894,-0.7369349639,0.9999071165,0.5234933223,1,0.5,0.5,0.5,0,0,0,0,0,0,0,0,0,0,0,0.5,0.5,0,0,0,0,0,0,0,0,0,0.5,0,0,0,0,0.5,0,0.5,0,0,0,0,0,0,0,0,0,0,0,0,0.5,0.5,0,0,0,0,0,0,0,0,0,0,0,0,0,0,0.5,0,0.5,0,0,0,0,0,0,0,0,0.5,0,0,0,0.5,0,0,0,0,0,0,0,0,0,0,0,0,0,0,0,0,0,0.5,0.5,0.5,0,0,0,0,0,0,0,0,0,0,0.5,0,0,0,0,0,0,0,0,0,0,0,0.5,0,0,0,0,1,0.5,0.5,0.5,0.5,0.5,0.5,0,0,0,0,0.5,0.5,0.5,1,1,0,0.5,0.5,0.5,0.5,0.5,0.5,1,0.5,0.5,0.5,0.5,0.5,0.5,0.5,0.5,1,0.5,0,0,0,0,0.5,0,0,0,0,0,0,0.5,0,0.5,0.5,0,0,0,0,0,0,0,0,0,0,0,0,0,0,0.5,0.5,0,0,0,0,0,0,0,0,0,0,0,0,0,0.5,0.5,0,0,0,0,0,0.5,0,0.5,0,0,0,0,0,0,0.5,0,0,0,0,0,0,0,0,0,0,0,0,0,0,0.5,0,0,0,0,0,0,0.5,0,0.5,0,0,0,0,0,0,0.5,0.5,0,0,0,0,0.5,0,0.5,0.5,0,0,0,0,0,0.5,0,0,0,0,0,0,0,0,0,0,0,0,0,0,0,0.5,0.5,0,0,0,0,0,0,0,0,0,0,0,0,0,0.5,0.5,0,0,0,0.5,0,0,0,0,0,0,0,0.5,0,0,0.5,0,0,0,0,0,0,0,0,0,0,0,0,0,1
outputCount=235
weightIndex=0,65095,155071
weights=##0
##double#155071
   0.7027415573,0.1265704263,-0.4196315526,0.6758736097,-0.2093148007,0.673652446,-1.9572432412,-0.5948283679,-0.2871304674,0.6848716343,0.274356942,-0.2282971085,0.1397248569,0.1984037207,-0.0345490271,0.2037962741,-0.174055926,-0.0364741238,0.5704212732,0.3398826628,0.7454392296,-0.8526095574,-1.1742038297,-0.1977168449,-0.5007946861,0.9435072062,-0.2937352923,-0.2145011041,-0.148610517,0.2414825561,0.078464815,-0.0350636567,-1.0492400588,0.0388236015,-0.9765252069,-0.0143815911,-0.8895776937,-0.1786097604,-0.0035309295,0.0000976469,-0.5046688843,0.635593921,-0.0053569421,0.5566665501,-0.3002854979,0.1003240384,-0.97182598,0.7765159506,0.0938729518,0.4384721201,0.2975259541,-0.2013833837,-0.744846526,0.4727707848,0.5343713427,-0.2821294808,1.2499559343,-0.9711935564,-0.3209868469,-0.1940963954,0.6815449266,-0.3016591283,0.1744846709,0.3065567612,0.0476858943,-0.0889734668,0.0382452332,-0.7673677553,-0.7832754158,0.8773529742,0.2121508209,-0.1022965551,0.4280218264,0.5113125064,0.2839689002,-0.4137807199,0.3194555024,-0.2072950028,0.4868033193,-0.2522110425,0.2833102799,0.8423463762,-0.3041753144,-0.1090861231,0.260680254,0.7611992573,-0.3475317472,-0.416967867,0.0585676244,0.6352945061,-0.5150192497,-0.3575606812,0.0872148169,-0.1726624367,-0.632181399,0.38656484,0.980955232,-0.3864320414,0.5487600572,0.4589553235,0.4838673024,0.5052934962,-0.6897788798,-0.6090330022,0.3505238397,0.4799495471,-0.0769751727,0.9012950218,-0.7597076404,0.146456246,0.3908345573,0.7299310704,-0.5624197196,0.6007574188,0.1430212222,-0.5773385448,-1.2999851697,-0.2008389851,0.7976428108,-0.4416586109,-0.8553604879,0.6075996712,-0.5390006538,-0.1539960976,0.6053775009,-0.1461354382,-0.5662340688,-0.3059227598,-0.9482692071,-0.7734781756,-0.1281351473,0.7498583454,-0.3100393227,0.0583396087,0.4100211434,0.6900782625,-0.1156297216,-0.3580536245,0.3436354992,-0.4039590066,0.0633769299,0.1140556794,0.8976079319,-0.9357714603,-0.4035123611,-0.1619933257,0.7266540955,-0.1225144266,0.9611810959,0.8381818604,-0.8463773635,-0.3262256744,-0.366025719,0.4298455333,0.3504636796,-0.6882477621,-0.2847918091,-0.0161683015,0.9921697061,0.5784443757,0.5897503451,0.9188644977,-0.1978967211,0.533184737,0.1790529136,0.1771225606,-0.3532891476,0.5201043721,0.5493046592,-0.5857157208,-0.1418475095,0.4494623323,0.0748657179,1.4021139324,0.1109201746,0.7389948411,0.5950181358,-0.1394082265,0.9332037958,-0.4124198935,-0.8451496376,-0.8253826036,-0.4781336415,0.0179550052,0.1226497338,0.2957203765,-0.5320790017,0.0571797613,-1.6665042283,0.103197158,0.6612760728,0.3760087816,0.2594560824,-0.8314969988,-0.538198428,-0.7613453648,0.6249073893,-0.8778165415,-0.828871873,-0.7483631154,0.054123351,-0.307163805,0.154565258,0.5662126621,-0.4868950347,-0.3377072935,-0.6255933466,0.4467444777,-0.1355435182,-0.160444348,-0.4279326923,-0.7633739046,0.3593885135,0.4341420004,1.5888151873,-0.71886902,0.2227208379,-0.4606138881,-0.7211317564,0.2549342581,-0.504752146,-0.1827494307,-0.1001164181,0.9158142066,0.6424722598,0.4126078099,-0.6418097576,0.75691476,-0.4373447573,-0.0115061356,-0.2855929737,0.1950557589,0.0252585005,-0.7600989456,-0.1720390046,-0.7131763047,-0.283908764,-0.1664439061,0.5595312346,0.7562069932,-0.6055776291,0.0288111473,-0.2609206807,0.8012032391,0.1299076971,0.5855898529,-0.4903861305,-0.8149629301,0.9042932558,-0.523594193,1.2811490569,-0.1464952826,0.6194371647,0.2404783413,0.8951324766,1.0140732325,0.5956864886,-0.9828832964,-0.9493722512,0.8737687989,-0.4084364239,0.7635117829,-0.7564085979,-0.0614166092,0.0035378442,-0.0128219285,-0.14206324,-0.0159680261,-0.3048041619,0.7635301027,0.2435942304,-0.0450277787,0.4889129851,0.4235936787,-0.97852603,1.2988973903,0.8101943369,-0.0980095357,0.6177508123,-0.050619357,-0.2892911027,-0.4832971696,0.263244471,0.6726705036,-0.2183194532,-0.1339029713,0.0445009598,-0.7395603352,-0.7959632484,0.8777944293,-0.1593883495,-0.193719243,0.2031391803,0.1110750527,0.8676075884,0.8459027927,-0.211786451,0.6087268886,1.2179550541,-0.7451268991,-0.0337019696,-0.3496108293,0.7867991342,0.6838204222,0.3435520554,-0.7300365903,-0.9981077882,0.0809578383,-0.0585361389,0.2331651796,-0.6980170321,-0.1077811615,-0.3946080646,-0.415383488,-0.4434025188,0.2530290353,0.2337750649,-0.3605515642,0.9669990712,-0.5203307915,0.4565578624,-0.3013511398,0.2151074868,-0.8480434744,0.0667029595,0.407809995,-0.606171824,-0.6387541148,-0.3161864886,-0.6575415748,-0.4649136766,-0.783310299,-1.2523587382,-0.1260880539,-1.0922601625,0.3994777668,-0.5024091668,-0.0704697204,-0.5698547126,-0.0086828986,-0.3543796101,0.1032012854,-0.7068014111,0.2366326923,-0.9861772086,-0.1281998056,0.8508711176,0.0455425579,0.3258902638,0.185273991,0.6012567471,0.8026688079,0.2899257212,0.3009000415,0.060729566,-0.9264693741,0.4993696541,0.33083853,0.6032745801,-0.2440073723,1.5486050877,-0.6235513935,-0.4965727507,-1.0549253522,0.5358439452,0.7684552025,0.1741099065,0.2632945335,-0.5552766752,-0.7905761915,0.1640802391,-0.1838545815,0.0974807155,0.0354432947,-0.6981937749,-0.0893740721,-0.547066331,0.2256865835,0.075582454,0.5360700442,-0.005257495,0.7716710452,-0.4720929164,-0.0293044757,0.6619273984,-0.2181848749,0.3966018785,0.1123368053,0.5212854763,-0.2968923871,0.557637985,0.8886315298,-0.167028591,-0.8821776018,-0.2333239267,-1.0120889459,0.8346240683,-0.1027065603,-0.0112928619,-0.3962813966,-0.4542907247,-0.2471216054,0.9263041381,-0.6716673875,-0.6318406263,0.725081673,-0.4412060061,0.6240092223,0.7244030915,-0.1995335171,-0.6315437681,0.2489325671,-0.546782918,-0.445011838,-0.6433091599,0.3574596002,0.5144258907,-0.5409677555,-0.3407498897,-0.9588421414,0.6626475649,-0.3128993051,-0.018789683,-0.1463800721,0.2574913993,0.4504210244,0.2444491331,0.527837412,-0.0522814128,-0.3482832165,-0.6570612944,-0.6891077031,-0.6579775391,-0.1444627056,-0.2968194042,-0.3141948077,0.8476166212,0.1712388966,-0.5193336754,0.8504752192,0.8523558942,0.2121488169,-0.5612665665,-0.0161806993,-0.1082816908,-0.1952661162,-0.4621425142,0.5165468841,-0.8361924414,-0.3734088671,-0.0080370507,-0.7559306173,0.2896479432,-0.3914012567,-0.7693010201,0.5505667974,0.0219927434,-0.5158895985,-0.1642203539,0.6098033477,0.0197569756,0.2429812515,-0.5937544631,-0.3351452449,-0.4768467237,-0.6618261363,-0.5349845478,-0.6896839193,-0.2570513316,-0.1363689175,0.1106744275,-0.341467081,0.545100874,0.1227925496,0.0602166168,0.0962309962,0.1599795644,-0.3273457197,-0.242948332,-0.0459037281,-1.2295692431,1.0780527594,0.9808831899,0.6526131442,-0.6793258841,0.6726162156,-0.6213260789,0.4779476295,0.3931147712,0.646795031,-0.7135402409,0.7310177208,-0.2353084251,0.0288461109,0.4216464046,-0.6203175677,-0.6535985569,0.6637426066,-0.3796419251,-0.9065442252,-0.6750977774,0.2176373581,0.2244639179,-0.2642263842,-0.6548821208,0.4553777664,0.6470593203,0.3287560917,1.3978643171,-0.3094944114,0.0091891967,0.3002169934,-0.5097403814,0.7241857597,1.8237365589,0.1914055366,-0.6370117532,-0.8701120757,-0.9397830296,-0.4172454687,1.1393074038,0.8164374629,-0.3227861958,-0.2146080628,-0.1685675224,-0.6896186429,-0.7567267902,-0.9597454161,0.1649676872,-0.2073456428,0.6114224807,-0.0927264478,-0.1713033513,0.5035469779,-0.0482957354,-0.4796569337,-0.5519242684,0.0253769635,-0.4068368018,0.0659250051,0.1490102289,0.984411795,0.4505725065,-0.9170608545,-0.2803977596,0.6654385818,-0.0956595329,-0.6812747763,0.647409994,0.4091827235,0.1354864274,0.2527054586,-0.6518833017,-0.0440265537,-0.093425094,0.3001844512,0.1919415444,0.988271092,-0.3299224928,0.3805357246,-0.0319465544,0.6628906699,0.2410624164,0.113082817,0.2188755963,-0.2918072013,0.0013882782,-0.1228736511,-0.772424147,-0.1705230435,-0.0076761478,-0.7716832759,-0.7080751566,-0.2067907817,0.1390741853,0.7982501908,0.7637786731,-0.9694480436,-0.2808077232,-0.0470857889,-0.1336302801,0.2135854634,-0.3958866984,0.4052449171,0.6983824534,-0.1131408674,0.4162545553,-0.0099766453,0.3734040556,-0.2793589639,-0.6463021854,0.3020997722,0.3051775939,0.9873405425,-0.5063080845,0.3066198884,0.3995602438,-0.1182793736,0.6041942489,1.2619443359,-0.3961982655,0.213926119,0.9612037275,1.111665485,0.4298625576,0.409551262,0.763880906,0.1376491816,-0.2886803149,-0.3489394999,-0.6447637233,0.0733937241,0.2083794797,-0.4232171806,0.266129271,-0.9575788979,-0.7582618887,-0.1083486433,0.443718201,-0.2783977786,-0.0178509031,-0.8497167387,-0.5056450782,-0.2348080722,-0.1044788361,-0.3983574495,-0.6414824799,0.7143278832,0.6761399242,-0.6033284239,0.2093419155,-0.049795692,0.0188700062,0.6237564586,-0.666901102,-0.1137914468,0.3789986294,0.348917176,-0.3058895196,-0.1363362044,-0.2216754579,-0.4577648881,-0.8260849452,0.0164130447,-0.2495805131,-0.0206740544,-0.3309199739,0.7709706853,0.6185064593,0.5750820225,-0.2261582471,0.0710810702,0.2426313642,-0.2064459274,0.6697284537,-0.3236373249,-0.6703248026,-0.5662536657,-0.4301865655,0.0063538288,-0.0201364742,-0.044439774,0.3311561374,0.4246045655,0.5012037995,0.526936531,-0.3150379417,0.3955508465,0.6757116864,-0.4441387071,-0.5751727508,-0.52918819,-0.3796665694,-0.8913829702,0.357730691,-0.4243070671,-0.7562572307,0.136100353,-1.664128143,0.5828294701,0.1446583706,0.4877432652,2.0566787771,-0.0321567671,-0.4237706263,0.9115459638,-0.454048519,-0.034587628,0.5713662199,0.1091567712,0.2120311968,0.745287638,-0.4723377169,-0.161946945,-0.3117389017,0.0570727913,0.3178263258,0.1195933214,-0.2958175728,0.5194812533,-0.9364293699,0.4025829725,-0.0562166369,-0.7036540874,0.2062906359,-0.1046484972,-0.9401915212,0.3451734365,-0.1421808953,0.4458265968,0.8469386559,-1.0897398363,-0.7463148716,-0.195050823,-0.2927576847,0.1445993685,-0.2359720378,0.1077844956,-0.3715713454,-0.9099011566,-0.7767056834,0.2878155412,0.8135785834,0.712749845,-0.2868844945,0.25809649,0.2047753687,0.4399342568,-1.004980065,0.0857250796,0.8419246386,0.3967082263,1.0051236946,0.245046021,0.8484992488,0.7541026474,0.1618010987,-0.7937901656,-0.0197214688,0.7891594876,0.7898502663,-0.8909426434,-0.584322609,-1.2339894006,0.6580213868,0.064314817,-0.3978975379,0.6965746185,0.1635635918,-0.7175113052,-0.9443669817,0.3465859981,-0.4354127352,-0.9257259021,0.3818649387,-0.7610930638,0.6426211617,-0.1095525127,-0.0210736636,-0.054767423,0.2193993505,-0.1319569394,-0.7435779576,-0.3031942635,0.5761354118,0.0695036849,0.9381208236,-0.7283115856,0.1180600978,-0.8795554844,0.0471455816,0.0846093899,-0.7200961935,-0.9126454282,-0.8706280077,-0.9819560917,0.105106089,0.4426361309,-0.2331035631,-0.5115570472,-0.1077936268,-0.8514557219,0.8279958328,0.0001268363,0.9106764274,0.4890297594,0.5864885312,-1.4285151146,0.0910983511,-0.4296083234,-0.6925032125,0.5157055654,-0.1710826044,-0.1833765358,-0.1507782884,-0.1518630831,-0.698151214,-0.7801303581,0.3349216186,0.8578661243,-0.4229967835,-0.6057281598,0.7789467504,0.6239570336,-0.7264020166,0.204531933,-0.8204175453,0.1164168784,0.5563534491,0.2323914759,0.2970127045,-0.8360108195,0.0246885931,-0.8676251324,0.2471682314,0.7886302563,-0.4432754661,-0.6020359907,0.4700333953,-0.3916160347,-0.3123677097,-0.3689129256,-0.9664393677,-0.0272589988,0.246034751,-0.2175628309,0.4215817893,0.9973522825,-0.3056171277,0.3318945216,0.5240195316,0.1890226307,-0.2980356507,0.6567206129,-0.2170224043,-0.8573107581,-0.0034901425,-0.8557076258,0.1138486169,0.0622809458,-0.0621767178,-0.3759418998,-0.8460460639,0.3861584158,-0.8808074259,-0.3825040233,-0.3434994174,0.1974177642,0.0289612032,0.7956440512,-0.0399967905,0.2395603784,-0.311163437,0.1060340186,0.1033715468,0.8353194874,0.4470135563,0.5893051837,-0.6633410244,-0.4978586193,-0.3544952985,-0.2098129647,0.1454764438,-0.1040742996,0.7935894048,0.1022923894,0.2806279638,-0.1410955697,-0.8945868659,-0.3861529669,-0.2666288372,0.1155077,-0.2143482993,-0.4824595683,-0.1894261591,0.7400890589,0.7814857707,0.0919106498,-0.528022285,-0.3198262275,0.5798334511,0.4496667954,0.1378253842,-0.7312913266,0.3136104852,-0.4996531867,0.2307669499,0.8005857806,0.7133774344,-0.1943590196,-0.6547294523,-0.2016890236,0.5475300695,-0.099995293,-0.588331126,0.8087888391,-0.8983701715,0.5592994566,0.2077952337,0.9327467556,-0.4262559255,-0.06346232,0.9312637392,0.487806683,0.8871506252,0.8006843161,0.3781757207,-0.5037865815,-0.5826398915,0.1181842861,0.7680347248,0.4011851424,-0.1018652766,-0.380622671,-0.0336410492,-0.9123762484,-0.7188758478,-0.0112288248,0.4355922512,0.194018549,-0.4853455165,0.3648590849,-0.4102027106,-0.0388312509,0.299779603,-0.2657831413,0.499739037,0.6803339764,0.3082596596,0.8798903748,-0.1664044558,0.13967487,-0.4098518821,-0.3299785502,0.5215486391,-0.4121037991,-0.7238538688,-0.5731996045,0.9800810871,-0.1667519279,0.5384762476,0.1634113323,0.7909427503,-0.1790050687,-0.1842730404,-0.2124724508,0.5971096866,0.354713957,-0.8131805814,-0.109055887,0.0649237095,0.1054689799,-0.5555133329,-0.5184400386,-0.4976104096,-0.7551519765,-0.9460904647,-0.4136941831,0.3544081486,-0.663012723,0.4068764443,-0.7674683674,0.3981398727,0.7617468932,-0.6249129086,-0.3721770166,0.9048649485,0.2591666625,-0.4953251135,0.9311858332,-0.7043757365,0.1988901405,0.2362687376,0.185875524,0.0865229918,-0.1068382168,0.4673310118,0.01485888,-0.2101065386,-0.8061289021,-0.7333522997,0.4198343829,0.1978915435,-0.8840797935,-0.4754044199,0.6618132064,-0.8724124652,0.0915501122,-0.6327343838,-0.8947031701,1.5834475071,-0.5241802693,-0.5637193227,0.4980566883,-0.702263431,-0.9723318818,-0.2182819752,-0.9645642043,-0.2432663576,0.5808157808,0.1341320696,-0.4262363863,-0.3652271337,0.870034484,-0.5420772643,-0.519853942,-0.5053827363,0.6853170157,0.0135140994,-0.162256475,-0.3871273804,1.4185593491,0.8377507532,-0.1066504915,0.9480943735,0.1619491695,0.6685145466,0.43093127,-0.468514462,-0.3038338415,0.3356535027,0.295058668,-0.3914527206,0.243694418,-0.8374171978,0.8204005122,0.238356303,-0.0174018641,-0.1211817309,-0.64879354,-0.6305479125,-0.0163034395,-0.4437885903,-0.9692496266,-0.0726145738,-0.2020712164,0.6092824783,0.6625489029,0.6527409354,-0.1288336517,-0.1365600925,-0.6388325793,0.866097201,0.5913367707,-0.2407724156,0.1312336674,-0.5734003852,0.8586900426,-0.8894670035,-0.6686555482,-0.7500849615,0.3869407497,-0.2551961174,-0.3271721013,-0.2059638457,0.5425046801,0.6493290063,0.1014562881,0.0939370225,-1.0053209828,-0.1584219307,-0.3750074226,-0.6377574239,0.7693938863,-0.3180678136,-0.4030454082,-0.5176382766,0.769743553,-0.4147537012,0.0495916749,0.4330301252,0.0755586924,0.5243100976,0.8741354401,0.3156242844,-0.4896163532,-0.9165809752,0.5025933284,0.665656824,-0.310492573,-0.8708498989,-0.4045863334,-0.4215828814,0.3361805146,-0.7888419862,-0.5705050422,-0.7253204277,-0.0434745181,-0.361334259,-0.1962547819,0.0166735136,0.4309918295,-0.0246469531,-0.5701783601,-0.1563051343,0.0402075726,0.1941275578,-0.9233068149,-0.439334278,0.0222363099,-0.8853666797,-0.0572356811,-0.1106426196,-0.5371715465,0.6112086677,-0.5714638301,-0.0120938486,0.9586634615,-0.5179491887,0.5323584249,0.3125031835,-0.6920262067,-0.9756617402,-0.453338656,0.8360041576,0.8477444094,0.0483091606,-0.047864717,1.3273012179,-0.2123716957,0.3802017095,1.7946241627,-0.0495447221,0.0117203231,0.8878895307,0.3562662911,0.2170190528,-0.7089356658,0.2596297838,0.7740518973,-0.840746087,0.7967987402,-0.1839120006,-0.4882620994,0.5061804948,-0.6565488842,0.203869551,0.3752169568,0.3429096125,0.3250748841,1.0202010817,-1.8672967165,0.4758211701,-0.5264076003,-0.3589614274,0.2710281002,-0.3315018534,0.3891237897,-0.3382291146,-0.5780299011,-0.6315856758,0.4979717266,-0.16676123,0.1733498943,0.4461077002,-0.4768297791,-0.890658684,-1.5099507437,-0.2407399798,0.931683736,0.3076258602,-0.1491093714,-0.4737639114,-0.9068267602,0.3399555137,0.2432376429,0.094425179,-0.2048484791,0.4455886947,-0.3794916634,-0.3666503538,-0.1322168144,0.3173752601,-0.9969990219,-1.329797749,-0.2192813374,0.2128678885,-0.5416982427,-0.0667422301,0.6775052425,0.6042097605,0.2646714172,0.7312501515,0.9634341485,0.7810986027,-0.7520587819,-0.4239479321,0.3305758231,0.8264520798,0.4626065047,-0.079915394,-0.8791621027,0.309785867,0.5416279962,0.6087088184,0.1014887228,-0.2529328734,0.1117279079,0.0806079008,0.0122687456,-0.213099797,0.2238937017,-0.1709197722,-0.8718162025,0.3160994619,-0.3706568522,1.1186135112,0.6888530495,0.5918895622,-0.4360392604,0.789651528,0.2443652559,0.8943176241,-0.831086476,-0.5657130006,0.5328718185,-0.6424759304,-0.0891412646,-0.6092927596,0.3849232207,1.0817878616,-0.3650914806,0.9051290397,-0.3365503021,0.2425147336,-0.0764882368,0.1563685838,0.3466635614,-0.2841512649,0.7017374328,-0.5545064004,0.3781870144,0.5964212934,0.2877237412,0.1650054532,0.9547416772,-0.2146138412,0.5574107496,0.9713234754,-0.3592549039,-0.3263726459,-0.1260662058,-0.2351921873,0.3894550032,-0.1917951588,-1.952347627,0.7044882817,0.0450308152,0.0502792497,0.677993018,0.0654875955,0.0712543078,0.5637189898,-0.7505092815,-0.248162896,0.626564013,-0.7713446428,-0.6015628676,-0.0777462079,0.7847681279,0.8749834288,-0.4608026141,-0.1622562602,0.0641780494,-1.1314399727,0.5286544777,0.3447319989,0.1693670037,0.3429478771,0.1351045512,0.9655011191,0.5955542286,-0.8804641546,-0.3692996908,0.1439019882,-0.0898555686,-0.7095636405,0.9295736731,0.1574044868,0.6691526192,0.2828728537,-1.3349937008,-0.2436321039,0.3090269924,-0.2629939309,-0.4027640112,0.671197543,-0.2357462319,0.2827850949,-0.9329168183,-0.2382761698,0.6328161939,-0.7954633597,0.7621690348,-0.4846348515,-0.6093532492,0.0755160816,-1.3173791746,0.6395254554,-0.7158185878,0.0481232082,0.2119795823,0.4614618465,0.1019856256,-0.0001356856,0.1121838748,-0.6715781158,-0.1484985157,0.8314311187,-0.5808488848,0.3546584696,0.2834953469,-0.9252010709,0.1102330097,0.0691838827,-0.7247589315,-0.7471293677,-0.3439386064,0.6972128442,-0.0362120146,-0.2045429041,-0.422701369,-0.6489974895,-0.145624539,0.4876391815,0.5969764139,-0.0859563155,-0.0621060138,0.6254973841,0.6130053555,0.0270207885,0.1532233045,1.0889540388,0.3232201989,-0.2744189899,0.3807880187,-0.4924456524,-0.8050570891,0.1372462537,0.1614581432,-0.3664800681,-0.6664587921,0.2034421947,0.7340995012,-0.5958497054,0.0309163837,-0.9886849095,0.1341523823,-0.8764146531,-0.7336675312,0.3541765447,0.7953058039,0.9498019241,0.3918379706,0.7079222723,-0.628955863,-0.8881786905,0.9269081917,0.4944620086,0.897499785,0.9627572431,-0.537123135,0.4899704676,0.8360279672,-0.7887333569,0.9094937244,-1.0458085091,-0.0097390993,0.6848247267,0.6659152074,0.392022934,-0.7423645134,-0.3923165761,-0.7176980573,-0.5703095419,1.0146572465,-0.8209828819,0.4084972211,-0.1665790361,0.7159917712,0.4921301908,0.4905539741,-0.2312026108,0.4568561821,0.46499216,0.1064007186,-0.9482707387,0.7138998104,0.5077855406,0.5332811019,0.1718711782,-0.7442601282,-0.7169582901,0.248963116,-0.8200623141,0.4010715837,0.5777501798,0.5797427508,0.0525731881,0.4634086355,0.6348495077,-0.1238197262,-0.3425180148,0.5996278001,-0.8592004936,-0.8616153878,-0.3997270734,0.3639484432,0.3445173823,-0.416460585,0.5678963845,0.5040152056,0.0508807648,0.4434861092,-0.9614847201,-0.9035245564,0.7923888265,-0.1448655938,0.7169261228,0.3080231264,0.3526985793,-1.2762355571,0.1793131034,0.3175098373,0.4437074259,0.4663291899,-0.8769310276,0.4605088576,-0.1929292386,-0.0495621921,-0.7016701364,-0.0751713307,0.9836659288,-0.7304152389,-0.7073384304,-0.2979756983,-0.7777352076,0.3296169423,0.7275967267,-0.0978087725,-0.4099199785,1.3726573963,-0.1039915888,-0.7757964621,-0.3605335737,-0.8510432137,-0.4886973856,-0.1483322981,-0.8444693415,0.1599301822,0.093982664,-0.7533681909,-0.1746626281,-0.625360401,-0.701226736,0.1782286211,0.7814518318,0.9502513706,-0.9065360538,-0.7568459661,0.263830893,0.8057976283,0.4165496692,-0.5839101619,-0.4148597598,0.6364474374,-0.8412623024,-0.3800220348,-0.0772350876,-0.2571605659,0.7179746092,0.2645642534,-0.3245094223,-0.5331761914,0.5076208332,0.606758863,0.6100581839,0.4800673183,0.9056082391,0.1014998665,0.1668811647,0.8264824313,-0.6378845285,0.3490812005,0.64258321,-0.5575673107,-0.3053802595,0.1398319907,-0.5018181249,0.7487350167,-0.6336995791,0.243100639,-0.2653914489,-0.6231028431,0.3356470734,0.0838447032,0.682762725,0.6457788758,0.4358984274,-0.9192201621,0.5478519881,0.4009710247,-0.495834516,-0.0062939275,0.3134393445,0.9045778992,-0.2745653415,0.0283228173,0.2787652654,-0.9521824889,-0.5779206116,0.1960579482,0.7846746408,0.7737288116,-0.8865841296,-0.0552440079,0.9297123005,0.5758430397,-0.1163692856,-0.5197216134,-0.7291024151,-0.3924374437,0.5593018529,-0.4402142214,-0.4135090374,0.5345030265,0.7021506492,-0.7263448883,-0.0678898155,0.2541100202,0.986881617,0.1940089574,0.1132650916,0.8162776914,-1.5620520383,-0.4547033816,0.3526540063,0.3302643509,0.3491873298,0.2317094765,-0.1811381442,0.1729010407,0.1259735967,-0.1810962683,0.4457811941,-0.3329976733,-0.4222263905,-0.1975298875,0.0551317215,-0.078302884,0.9556737412,0.6015462982,0.622061952,0.4087964551,-0.5441447896,-0.4075092304,0.4688923737,-0.797024133,-0.3918028908,0.7618202171,-0.9297783367,0.6042665511,1.7701799179,0.5935734259,0.9490855473,-0.6943870665,0.1036933123,-0.0382015301,-0.0553464665,0.0499020903,0.720965276,0.0421828438,-0.2810767048,-0.8067155995,-0.7870983803,0.005144111,0.5994116172,0.6858167279,-0.8280848273,-0.8963894663,-0.2382226435,0.1339896376,-0.494439918,-0.3023420949,-0.025701074,0.3381950213,0.7377953105,0.0929798776,0.9015952396,0.926204338,-0.3659780686,0.7426254558,-0.8403646742,0.2299884667,-0.5051953717,0.4175222501,0.2524678203,0.3289190575,0.0216176016,0.389452469,-0.4227445201,0.0345564018,-0.6719708932,0.9833156941,0.8398808366,0.2659916043,-0.518644635,-0.6362926417,0.2275501508,-0.0195929569,0.072434625,-0.014894152,-0.273275114,0.7361805444,0.9262737137,-0.3227312391,-0.5825647999,-0.2687254567,-0.9956559845,-0.4989181812,-0.773164093,0.6408732714,0.9141840115,0.1054019251,0.7507268375,0.1765361009,-0.6167747765,-0.348938308,-0.7059971571,0.8067267316,-0.0257863435,-0.5636000743,0.9012496555,-0.61245204,0.3401184104,1.1238832374,-0.5573889562,-0.8562899627,0.3122677544,-0.2237773026,0.7202474767,0.3692775908,0.3425844499,-0.5775409997,-0.5070686913,0.8113596719,-0.0166126592,0.3215232963,0.9449799738,-0.5556595311,0.1158873778,-0.104243347,-0.8952993641,0.4956355997,-0.7464742278,-0.7380870592,0.6611422601,-0.4518352674,-0.7582575873,-0.3996014266,-0.0870313614,-0.6746465628,-0.1424470271,0.6803542021,-0.6151024312,0.5745302294,-0.2971287704,0.5791441223,-0.7298591037,0.2578201779,0.0646720696,-0.2832275152,-0.708192572,-0.5233287735,-0.8552037404,-0.6601492078,0.2215581632,-0.8191295472,-0.7883404321,-0.1797939907,0.092705737,0.3617097331,0.6906997731,-0.2950104128,-0.2768956898,-0.6309909521,-0.4155582577,0.9691124035,0.6929458153,-0.0735549444,-0.1950353552,0.5723339174,0.4544296519,-0.6321479233,0.0529737186,-0.9726574883,-0.7287715849,-0.2294172827,-0.7068179675,-0.9729146642,-0.233586273,-0.2956966826,-0.5970701926,-0.3121459115,0.1766273341,-0.2947235564,0.4280072624,-0.8382514011,-0.5040971783,-0.1786418867,-0.0216980906,-0.8968858931,0.7093511428,0.41575437,-0.0009647648,-0.6584970321,-0.8084637903,0.7341312757,-0.20429761,-0.6113990436,-0.4866442031,0.0352263149,-0.129598976,-0.2284726964,-0.5628427241,0.6343795011,-0.0548357014,0.22473419,0.5287652239,-0.3214641211,1.3144048493,0.3060758007,0.7411922844,-0.7013881685,0.6730150178,0.7283229046,-0.5503911791,-0.8126365667,0.1368001038,0.638137515,0.5437512631,0.7232051914,0.584086763,0.4568404262,-0.977945315,0.0170478918,0.4883563693,0.2799263463,0.1985980904,0.870076044,0.7071573158,-0.5980896605,-0.4910058206,0.2034549356,0.5854842287,-0.4280624789,0.0198738363,-0.1284929422,0.2347014724,0.4541631084,-0.4630022037,-0.2500131776,-1.0831075777,0.9432357238,0.3818854778,-0.7946384525,-0.5076763163,-0.6859078127,0.7962271414,-0.2224015072,0.8630240408,0.0084642738,0.9694954377,0.9668092617,0.6564514365,-0.0828516573,-0.0678490167,-0.9520343756,-0.4847357316,-0.15753128,-0.4429407626,-0.977698498,-0.8052321889,0.8256428017,0.1282963432,-0.1931962348,0.179855853,-0.0970652898,0.4829071641,1.423910896,0.3532549327,-0.3654299817,-0.2397133144,-0.3723798966,0.6515427414,-0.7042095451,0.1659811247,0.6620392211,-0.1869313465,1.2409715843,-0.663743976,0.0849087463,0.0328024245,-0.7964244625,0.3203781826,0.778959774,-0.3502356611,-0.7153081718,0.9727572389,0.4922607975,0.5558102992,-0.0427511197,-0.0399973358,-0.4983866305,-0.1116459956,0.9931495706,0.9223609175,-0.0144138275,0.2762348629,0.9189731706,0.2663994926,-0.0768261142,0.2973486844,-0.7625934835,-0.7240645472,0.6104077562,0.8671013111,0.7277148157,0.5954081892,0.6497642178,0.9478455554,-0.4713272654,0.6710686864,1.1524102865,-0.2410198371,0.0767245878,-0.8124904172,-0.2693939684,0.3874688239,-0.4406814864,-0.6803442153,0.1649471039,-0.209764862,0.0555385404,-0.3264571002,0.5390667854,1.0585755066,-0.6245899126,0.4911592736,-0.3156572208,0.3382813664,-0.911025742,0.8929277285,0.0403529273,0.2818268377,-0.5289849606,-0.6344917071,-0.0045247659,-0.5764739354,0.0741089813,0.0133141447,-0.659244311,-0.0075514634,0.1171504692,0.7489213914,-0.3665562551,0.5627286257,-0.1641651225,-0.8108088082,-0.8182056785,0.4339191282,-0.477755686,-0.643878082,-0.6164408597,-0.4143435082,-0.4387758211,0.6659905882,0.5735648107,0.7517745259,0.4731004422,-0.0653520395,-0.2610179437,-0.1083124099,0.878201312,0.3631633563,0.6667260276,0.9547306898,0.7784166792,0.760899555,0.2069963878,0.1646699118,-0.8987462837,-0.1480250023,-0.9866846096,-0.8131346386,-0.6119857805,-0.4732249807,-0.4889451111,-0.069235398,0.0842165166,-0.2106304277,-0.6445144029,0.7367825364,0.7914276197,0.5288137957,0.8003428696,-0.6305481055,-0.2947180975,0.018303999,0.3864271801,-0.4398631419,-0.2230845532,0.5056621346,-0.6155392873,0.65681866,-0.910748575,0.4993549666,-0.4439842727,-0.252364431,0.1970926078,-0.4180735565,0.8534177266,-0.0206511114,-0.9777245185,-0.4945209634,0.2483427161,0.2875534339,-0.0901435004,-1.3444489865,0.0228179842,0.3002809925,-0.9345965555,-0.9354677857,-0.7775804054,-0.1993418164,0.8234627117,-0.4581882447,-1.1437676884,-0.8383156004,-0.0438356422,-0.4163779302,0.482390905,0.252543773,0.4628724468,0.9754442521,0.2761761285,-0.3087670061,-0.8493247449,0.0167173671,0.0071974502,0.3880080868,0.7779236223,0.5701851163,-0.9213014539,0.4234014394,-0.3685104341,-0.1651762406,-0.6880068834,-0.6874317933,0.0513046041,-0.6507678106,-0.6191510304,-0.9793967196,-0.1698338223,-0.2462277791,0.1745116106,-0.2971958479,-0.6022454601,0.479542696,-0.7015628358,-0.4925903843,-0.5977762348,0.2328045555,-0.9527820651,0.9161622039,-0.7514542952,0.8255021812,-0.5786022669,0.0920782908,0.5042011675,-0.154252479,0.0994039969,0.4777655107,0.4570696139,0.628273148,-0.2465439759,0.2487780796,0.4555527019,0.9464490428,0.8125413815,0.6401706902,-0.8287930702,0.5682498619,-0.3493922718,0.1613497167,0.4076957962,-0.6989923431,0.4077248859,-0.2036590262,0.471741047,-0.7070794568,0.3603321373,-0.2857509654,0.9765940976,-0.8435746201,0.7043845866,0.2007512932,0.8759887069,0.1008372348,-0.2162402272,0.4294069016,0.5970928744,-0.0168842995,0.1026371432,0.4507083635,0.2670257598,-0.4396259579,-0.6540947568,1.0207120881,-0.8865309728,0.4556942383,-0.5112724319,-0.6319195859,1.8161639351,1.1124486381,0.9506478818,-0.7336530832,-0.2656091836,0.7298244875,0.0369225422,-0.2727611821,1.3429313459,0.3790066467,-0.1030065363,-0.9787790468,-0.3678785096,-0.5574002951,0.5548931767,-0.6360492031,-0.2410999534,0.2246741728,1.2035697401,0.7871722293,-0.4969517376,-0.3352808773,0.1974716712,0.4456037381,-0.6477190644
   -0.0417274745,-0.2520339851,0.2921098453,-1.0282288807,-0.6496796183,-0.3421809821,-0.4389004291,-0.2186812956,0.9934162189,-0.4250663762,0.8240437645,-0.0658122156,0.4654310016,-0.833434527,0.1749013438,0.9068938555,-0.4624726556,0.9728810217,0.4783531024,0.1059589761,0.6168867624,-0.6098431427,0.2449773556,-0.6656396991,-0.3144267892,0.1697819749,-0.289405444,-0.0394633955,0.3577311826,0.7455835325,-0.6927206793,-0.8923581415,0.8079472189,-0.0147401753,0.3594748834,0.089726202,-0.0215731344,0.5236686642,0.673999995,0.9749052367,-0.2818420027,0.3483400741,0.223547476,0.2868431013,0.0726610073,1.062037442,-0.6330329231,0.3722479669,-0.2547507704,-0.364779647,0.2605825892,-0.0980517718,-1.1505564709,0.0047740767,0.0065808075,1.0837846746,0.3598847929,-0.7626393445,0.8641499911,0.2297478374,-0.1736816869,0.2572598307,-0.4675603698,-0.3821353339,0.5113064045,-0.7800581311,-0.195028378,0.4296759307,0.2107686668,-0.1241811638,-0.5680340699,-0.0735776592,-0.2192319389,-0.5388538636,0.0482084793,-0.0626817624,0.3976855344,-0.0586521319,-0.7368959552,-0.988026612,-0.000088894,-1.568192076,0.2495340995,0.1684011875,0.1805655874,0.3590874617,0.106313535,-0.6804388181,-0.2022498154,-0.6426277348,-0.4117749396,0.702200797,0.2580683578,0.3324613398,-0.1864824064,-0.2195154461,0.3729666426,0.1205040339,0.3126980738,-0.6146571224,0.4191300962,-0.1522304945,0.2387030775,0.3064028425,-0.7502635122,-0.3333851199,-0.208025964,0.838418423,-0.9423976759,-0.5378292981,0.1041111536,-0.6947253885,0.8152894788,-0.3627133501,0.480154957,0.1268874309,0.787479421,-0.7775680728,-1.0940113403,-0.9982414767,0.1508675622,-0.7290754055,0.237850511,0.415649138,0.1933212806,0.2379027094,0.712241528,0.0661574183,1.0289914655,0.6334857282,0.685542825,0.3792640512,-0.5794736788,0.624867606,0.3368153296,-0.4243907479,0.1800730089,-0.4022308423,-0.8915711871,0.3990721114,-0.7852860052,-0.1088961776,-0.5488848548,0.4948433052,-0.6352719876,0.7644621125,0.3591961442,0.3858442872,0.0965060301,-0.3219730117,-0.588728695,-0.2926495295,-0.0695453727,0.1945733666,-0.9788485536,-0.6846057612,0.0564543788,0.8788079753,0.3644032032,-0.9198759575,1.14138743,0.3531713731,0.3177416593,-0.5404127626,0.6363072416,-0.1185353193,0.0435134708,0.7895463291,0.3953005537,-0.3569524638,-0.2238122498,-0.295214297,0.1478564148,0.4793110181,0.3595924405,-0.786444405,0.3814214006,-0.0926042298,-0.6528984854,0.2204481475,0.6095245083,0.6697851457,0.5590718262,-0.0527622268,0.5416846168,-0.0784030989,0.146240817,0.4724027424,-0.1582212541,-0.1011174196,0.3690129651,0.8360986848,-0.36719292,0.8861477431,-0.5068670891,0.9194430022,-0.4168586157,-0.1167732037,-0.8437023432,0.4819776644,-0.3533577443,-0.782532022,-0.9182767626,0.8072100836,-0.3521612424,0.393006886,0.234784828,0.8016450868,-0.1443230862,0.0929695312,-0.7939166212,0.5534346556,0.8583013803,0.1326129353,-0.0191205647,-0.6944064478,-0.2426823196,0.3463468217,0.2242641808,0.687598916,-0.3365393826,1.0990999348,0.7739205799,0.8038526213,0.6520964759,0.8363780112,0.2974974143,0.0783907543,0.7101702393,0.3958174928,0.7685540553,0.1958072943,-0.6992189037,0.5944957519,0.7291043573,-0.8182278881,-0.8806234151,-1.1089740208,0.0232134428,-0.0257996163,-0.4699363877,0.7462098029,0.6047150361,0.2765683414,-0.3829461899,-0.1706458822,0.9723075823,0.4722031328,-0.4370320246,-0.3354634791,0.2459884639,0.8546082579,-0.2373877673,-0.0570016362,-0.7864073658,-0.0098487948,-0.4358709772,-0.2967595403,0.0715337552,0.0109645578,-0.0564419891,-0.8866712749,-0.1057988274,-0.2704132494,0.4992307571,0.1559797835,-0.0168599263,-0.2822212239,-1.1319526285,0.2421408783,-0.1946580456,-0.7507958936,-0.3203771186,-0.5847192456,0.920772101,0.4617542537,0.6681904457,0.5393899558,0.0392735651,-0.7973693328,0.6816877508,-0.9402888044,0.3744797907,-0.5778155256,-0.1272985175,1.2769336795,-0.5446678994,0.1578586375,0.7139644218,-0.0209432059,0.753180412,0.1906482102,-0.9206988843,0.3056165731,-0.383982731,-0.3058779105,0.797470886,0.0683096554,0.5741221014,-0.705492543,-0.7309064228,-0.7308060262,-0.5600625585,0.6252450003,-0.2535165384,-0.9827161392,-0.4559027583,-0.9605974727,0.1707898058,-0.8435539495,0.7519282416,0.942397815,-0.0058129511,0.678768653,0.1961583933,0.9075014763,-0.2366070527,-0.0948996984,-0.3734409625,0.756452617,-0.8389494432,-0.7093976452,0.6684862444,0.0472308365,0.363815265,-0.7129429205,0.1258863819,-0.4454419336,0.7948981972,0.1951133552,0.2059153116,0.5467155892,-0.7052845652,-0.8454668909,0.0260286056,0.7946765582,0.7867015129,0.5243321584,0.8367636381,0.9638800356,-0.500472139,0.7938178181,-0.4254191502,-0.7903752516,0.3362754046,-0.4040151243,-0.1643379183,-0.9196021925,0.5902180498,-0.2048276382,0.7802605346,0.1805120036,-0.0986970025,-0.1939929084,0.1466506911,0.5509217743,0.3803171083,0.1569602238,-0.0173537609,-0.6876336562,0.1024373503,-0.4097962086,-0.090810721,-0.4750947392,0.0953320211,-1.1200239637,0.1086037472,-0.4654614852,-0.1481186764,0.3088747122,-0.3886114736,-0.6295628204,0.4723902629,-0.1388155329,-0.3572192703,-0.3711629983,0.8783049814,-0.3200072406,-0.2502839774,-0.14004827,-0.4654530651,-0.9670881346,0.6130689376,0.6453535055,-0.3846726384,-0.039441807,-0.1056587389,-0.3801557385,-0.1521661897,-0.9367922196,0.70702318,0.739836854,-0.139297657,-0.6744082029,0.0344720639,-0.4016836038,0.0933336234,0.8860896747,0.3212047454,0.5271640852,-0.1598013103,0.2807763216,-0.1052022667,0.0074094019,-0.4200976034,-0.3767979235,0.4959671059,0.1334770826,-0.5018252928,-0.2612919695,-0.3568454644,-0.8756756038,-0.851974726,0.6150801119,0.9329373424,0.1924503627,0.3223428516,0.6449475554,0.2068906769,1.0241052462,-0.6200006283,0.0467141737,-0.501974267,0.0062031302,-0.8797107522,-0.4565273471,-0.1560049963,1.3843995562,0.1392584936,1.9620992747,-0.3507126359,0.2669128416,1.1126257917,-0.3529150416,-0.3002776075,-0.9412704293,-0.3231546466,0.0666710653,0.4696475721,0.6696136786,0.8064807777,0.0683517908,0.9710425576,-0.9376964897,0.9823605118,0.791030889,0.4852190891,-0.5082804246,0.2589465737,0.634100629,0.0925380888,0.758685233,-0.3491218048,0.7775210584,0.7750470916,0.3757778382,-0.0222203114,-0.6657089915,0.0328125405,-1.1928943903,-0.1681751927,0.8415904889,-0.7095316934,-0.5919940475,-0.8859398122,-0.8968244917,0.5722320155,0.7613053655,-0.122648141,0.1023555954,0.3530057645,-0.339481137,0.7631520618,0.0925489886,-0.7634910456,-0.8126166051,-0.0663092355,0.2231003682,0.6208611293,0.3746383358,0.9087783326,-0.6242994758,0.4757000694,0.6571580013,-0.682749763,-0.5893508486,-0.3687209084,-0.7476219498,-0.7547437864,-0.4046146153,0.5968938527,0.335435489,0.4574089509,-0.851344312,-0.0807955056,-0.2972111438,0.5741015566,0.3697652422,-0.6856135378,-0.7232171178,0.9331881348,-0.232647645,-0.3222359781,0.544171308,0.1350472529,0.1758126425,0.3016639369,0.1580284425,0.1647076413,0.6074950793,-0.889747672,-0.0500390674,-0.5560999923,0.74212958,0.5596451097,0.9926362251,-0.4265223095,-0.7457065237,0.6027011878,-0.4765203554,0.2924079855,-0.4149451919,-0.0638872739,-0.7209196161,0.587594501,0.2600073858,0.7721439775,0.0939048674,0.569705878,0.4984069868,-0.6518951579,0.1519850157,-0.4194736683,0.5048795317,-0.2395240738,0.9168254185,-0.4071368955,-0.4091839696,-0.2059523881,1.008318217,0.6224599429,-0.314378662,-0.7582973252,0.3671363671,0.9147917431,-0.4973289725,0.1185660829,-0.696788821,-0.1161937405,0.9890533286,-0.5030160518,0.9204357206,0.3533884361,0.7302815496,-0.1141810909,0.6832183582,0.3001009121,0.622282534,0.0081647469,0.6449559344,0.0254336236,-0.9222371794,-0.7750542357,-0.5967520107,-0.5083280196,-1.2020194388,0.5236650589,-0.6148693911,0.8068408362,-0.8757580105,-0.0773468182,-0.1187313875,0.1380752949,0.6625882587,0.6341015061,0.3795771614,-0.2714914118,0.213237014,0.367291887,-0.2214751922,0.6604693586,-0.7455969036,-0.4691042494,0.2919230836,0.0774404011,-0.0093008776,-0.2257841833,-0.0591171204,-0.164545712,-0.6265410906,0.9311970707,-0.6221208141,-0.6093426465,0.0427624939,0.2189890358,0.2484912942,0.980904492,0.3396672724,-0.4010101957,0.5107639978,0.6187825376,-0.3691072606,-0.9465487083,0.5365348338,0.9090461037,-0.7086078408,-0.3580052124,-1.2198440911,0.2796641485,0.2360740356,0.7127669049,-1.1306308931,-0.6464349411,-0.5845589336,-0.2730946287,-0.1344186435,0.344290124,0.7954580061,0.2012566368,-0.4563645195,-0.7151931845,0.7787378067,-0.9167083326,-0.624511361,-0.6344330256,-0.2700496778,-0.194361019,-0.663473251,-0.9768324924,0.2837925634,0.5045621288,-0.9528767318,0.042852693,0.8275763511,0.6701987944,0.0009922923,0.5821442879,0.6245120321,0.0312649351,-0.461183421,-0.1509904612,0.5635044151,0.8457416185,0.8352420819,-0.8667221117,0.9138891382,-0.1587741983,0.9776550072,-0.3630411183,-0.021898463,0.1340113386,0.2003330746,-0.2990786228,-0.9040376037,-0.8819518175,1.1517750856,-0.0611825314,-0.5217216282,0.2128761421,-0.4832134705,-0.0081794881,0.5720486075,-0.4261224738,-0.0295057466,-1.6027635085,0.05911514,-0.9649785298,0.4429978256,-0.9028055869,-0.2289191259,-0.7932115128,-0.3338312393,-0.9297602883,-0.2768775895,0.8949540107,0.2263162055,-0.3746238202,-0.1801444389,0.0034125049,0.4282460371,-0.4595330433,0.5636047458,0.3042421593,-0.2092267857,-0.2513039264,-0.440153057,0.2035567264,0.0422532658,0.6913815017,-0.0219757121,0.6433029039,-0.1347099498,-0.5885293454,-0.1678265174,0.2564852102,0.1006133351,0.1600903552,-0.7934670882,0.1367786467,-1.1974663569,-0.1047360794,0.629603686,-0.3560628926,-0.1953224895,0.8912608037,0.932369817,0.0148587479,-0.3582464369,1.0052855585,-0.2510672087,0.2006892017,-0.715618313,0.4236122936,-0.8518255582,0.9026926268,0.2032552112,0.7080208218,-0.251385143,0.630430131,0.767744191,0.3189539842,-0.9005945617,-0.680322392,-0.3220536114,-0.6808196479,0.7884073012,0.4250657076,-0.5281648158,-0.3830281343,0.6406732862,-0.027258104,-0.6975635517,0.7068874949,0.0651897193,0.721811034,0.1812783024,-0.6412469286,-0.0258160277,0.7867768478,0.6399348958,0.5304502605,-0.7527601127,-0.0649393092,0.3184592133,-0.624687065,0.1031672318,-0.9448014547,0.4857712263,0.7684676166,-0.2382573285,0.2119871429,-0.757948542,0.718531802,-0.6844550433,-0.6049629588,0.4281617709,-0.1082577568,0.1274680411,0.7778054962,0.9797544707,-0.9035338752,-0.0716282498,-0.1491515808,-0.0176720424,-1.308226762,-0.4329080334,0.6679106137,-1.3284727241,0.1563082662,-0.4974336517,0.6165689543,-1.8419276233,-0.296461609,-0.474031428,-0.6299627674,-0.5897019606,-0.38822074,-0.2740378047,0.7739790534,-0.4470039112,0.6119630905,-0.453577424,-0.0728973322,0.3405121406,-0.8792921673,-0.2819760248,0.719171302,-0.3795886212,0.528850366,0.9126350337,-0.251789468,-0.638245231,-0.3570796283,0.4682428336,0.7055684414,-0.2888753187,0.4961896669,0.5114860794,-0.5666414572,-0.9442258521,0.7291942963,-0.3839807413,-0.8209261117,-0.3795219347,-0.7019576915,-0.9295801723,-0.3035508411,-0.8399439428,-0.3618879549,-0.132253122,-0.5306600034,-0.912394043,-0.306969794,-0.7324300384,0.4165674396,0.4490363279,0.7489674868,-0.3586382092,0.7834140268,-0.1386898046,-0.3570463859,0.3067770228,0.3068567608,0.1817448695,-0.0122935573,-0.8221389496,-0.9752889573,-0.4799186274,0.1451627345,-0.1317614301,-0.332834389,-0.1576418543,0.356682231,0.372963511,-0.9719047202,0.6093907509,-0.7267623228,0.5399745177,-0.4763478691,-0.4721574935,0.3656720269,1.0243279952,-0.9160370177,0.2456632684,-0.214849517,0.9862303983,0.0829854259,0.6246671213,-0.9174697149,0.7855047698,-0.2286759362,-0.4140681185,0.6178923288,-0.96118631,1.0109447211,-0.4422521721,-0.756425513,-0.8861552099,-0.5561750611,0.5994724041,-0.9878800693,0.4309335399,-0.0941669715,-0.7460695344,-0.0163635823,0.404534701,0.329856977,0.5980068386,0.7764215159,-0.5546723044,-0.8814944309,0.8358548252,-0.8487598559,0.0043911223,0.7992953311,-0.1006975448,0.3602676941,0.9432731053,0.5216919745,0.7077217801,-0.8724456636,-0.2779182531,0.9009925615,-0.5990992489,1.9657467597,-0.5941126236,0.6043273112,-0.1187254636,-0.8515593233,0.1378382159,0.5856601442,0.1429065063,-0.1322786054,0.2008530882,0.7694159595,-0.4334232509,-0.4885338522,0.1725980876,0.5627998918,-0.1952748625,-0.1585979061,0.0613335388,-0.1623678109,0.5874500345,0.1947043327,-0.5402882958,-0.944438595,0.4828588021,-0.489803315,-0.7631379811,0.6493814479,0.7902373549,-0.4460999135,0.6216391009,-0.5929299471,0.7161988133,-0.2702664922,0.6390886951,-0.5214148722,-0.3758300639,-0.1358787038,0.5646157071,0.2423407487,0.5376077817,0.3341194505,-0.410161509,-0.6069691479,0.7553690108,0.2523920279,-0.165966523,0.0889639843,0.4843498851,-0.6914406529,-0.9259421422,0.7505473431,-0.3058860938,0.4321779265,0.1344839856,-0.1528237886,0.623651504,0.0793600187,-0.6109895092,-0.902692437,0.4021170295,0.4519096131,0.3579345967,-0.6643278882,0.5332333573,-0.2623708449,-0.7271334112,-0.4716183225,-0.2170224901,-0.9491123772,0.4028256795,0.0263426031,0.3015667481,-0.986984223,-0.8230527706,-0.0781243225,0.3869023806,-0.9378757955,-0.1346079219,0.6202788811,-0.6083866128,1.2220816459,-0.622874837,0.6073154019,0.5558116606,-0.6351229394,-0.5764543397,0.6025687589,0.604122095,0.8458545127,0.9001164716,0.2868903022,-0.5599413333,0.5085390785,-0.4401390696,-0.0709245217,0.4647006617,-0.7532501016,0.0385702483,-0.9633077987,-0.0571381152,1.130534829,0.6615318124,-0.494877516,-0.0304325719,-0.7673854628,-0.190341566,0.2991075626,0.6271377494,0.5895142168,-0.1085012249,-0.1011610278,-0.9002962869,0.97482872,-0.1859066659,0.8422092777,0.0141412822,-0.8238480979,-0.2092533791,0.9138225056,-0.2895340192,-0.7506928024,0.378291622,-0.684218777,0.2230941566,0.1710578386,0.4331280188,0.6769186885,-0.6185537301,0.3359338966,0.7680260023,0.2934826013,0.2003438492,-0.6679061655,0.9230024888,-0.587829706,0.7374547606,0.4313291545,0.0449685068,0.5853770559,0.3712068603,0.0876060962,1.0568131859,-0.5012775564,0.1412334803,0.5257120077,-0.6428352522,0.2450151442,-0.0297532055,-0.6091216716,-0.0778921389,-0.2937860398,-0.4418120109,0.6907857346,0.2115093879,0.5138485075,0.2774208757,0.2182684602,0.7287600991,0.527062966,0.7771908416,-0.0719569617,0.7104708197,-0.8269223381,-0.6081813952,0.8768237153,0.5453398229,-0.1013406291,0.5169252197,0.1742104525,-0.0081992636,-0.31885378,-0.3413203176,-0.7320639565,-0.8328273552,0.1799598292,0.1225430815,0.5453460099,0.1637362809,-0.460201458,-0.7639792252,-0.7723946169,0.8644776604,0.4755312952,-0.6906933491,0.3988867056,0.3103382979,0.1939856074,0.8278454855,0.434677607,-0.2878597077,0.9437549709,-0.3343179906,-0.161587093,-0.4753674834,0.9801252962,0.213213081,0.1105914486,-0.3291361305,0.6148192766,-0.5707747452,-0.2361823087,0.2863088832,0.7650696305,-0.1723085389,0.6193145226,-0.3924088062,-0.3787179893,-0.5065693557,0.0679711594,-0.8283526577,-0.9600492775,0.9454997317,-0.5569236866,-0.264935903,0.3538703602,-1.5142881673,-0.7971382482,-0.3957665677,0.7867448174,-0.3039643576,0.7785597343,0.4423397038,-0.2621266985,0.9188206182,-0.7336904698,0.1039316331,0.0549437801,1.5865402107,0.5606660552,0.9634412488,-0.0056246922,-0.1650405116,-0.4522127109,0.3202826774,-0.04769296,0.8569572601,0.5180934917,-0.4300155368,-0.6169055126,0.8343227827,-0.7417232799,0.4555414411,0.2989328768,0.5195473487,-0.1073932573,0.1269005494,0.6988497846,0.0280924351,-0.7953936022,-0.8079705548,0.0659694861,0.5929762572,0.2365986538,0.1285725503,0.7081164422,-0.2066891013,-0.5487201767,-0.4619031357,0.9517393833,0.6622396211,-0.5327149848,0.8668926844,-0.5330270505,0.4081982137,-0.7021733134,0.0081122812,-0.2362963512,0.7922290318,0.7365444464,-0.3184693788,-0.1132639232,0.9025500096,0.7709989478,-0.3197810206,-0.8153038453,0.1624971438,-0.2749311778,-0.0413450994,0.7063020091,0.0176205342,-0.5412957285,-0.7439161234,-0.0433373776,0.2341249757,0.5186989825,-0.0907750946,-0.3868022992,0.1415794159,0.3723259278,0.6978636877,0.2890076172,-0.9589401473,0.4103313835,-0.4065146218,-0.1115131672,-0.2260855189,-0.3353403115,0.7629190424,-0.3694762869,0.1097570372,-0.8569673384,0.0813665791,-0.5121234305,0.1658268461,-0.0364186348,-0.8562249707,-0.2647649598,-0.7329848723,-0.9403080502,-0.1022473342,-0.9466183273,-0.1252146278,0.4490747585,0.8623423475,-0.4349819825,-0.3164235423,-0.4349352297,-0.5823249991,-0.1995698257,-0.0700040753,0.3056004983,-0.1602192586,0.4979151325,-0.4751372606,0.6582113971,0.2786892814,0.3719740605,-0.843899385,-0.7356232974,0.1335615339,-0.131465775,0.0362427622,-0.3987471547,-0.0375312637,-0.6130802801,0.4053719349,-0.063490076,-0.7422658407,-0.7638070236,0.0823946336,0.3484099772,0.2897732572,-0.5532650155,0.4628563251,0.9780615588,0.0764672429,0.3929920082,-0.523225383,0.7756894328,-0.3190617503,-0.1116628846,-0.3534901069,-0.5122388329,-0.926954149,-0.6717024098,-0.0671366572,0.4102040558,0.3841694663,-0.3116409903,-0.7041563879,0.032127649,0.2222333186,0.1797417191,-0.1562927489,-0.165132876,-0.9647858017,0.5706051951,0.8487912793,0.2204629575,-1.220471139,-0.6943486367,0.1369228721,0.0574206297,-0.470722949,0.612892557,-0.1797658722,-0.2022838846,0.2853536135,1.068207187,0.4561448912,0.0835066952,0.4790043372,0.0433124228,-0.3482607198,-0.1413918307,-1.3236934671,-0.4842659753,-0.5230967251,0.1919982344,-0.9383395726,0.9632195637,0.826700784,0.2147750255,-0.2768692987,-0.5953740166,0.7062679728,0.8924024474,1.0183165389,0.2940473768,-0.5246615991,-0.2361963496,0.9662046208,-0.8047551117,0.4672887667,-0.5047712422,-0.9023733666,-0.5561361396,0.6137941052,0.4830692206,-0.1197742719,-0.3986274415,-0.3327102251,-0.3769064715,-0.0665704019,-0.4122644527,-0.0004090983,0.6677663472,0.5672282515,0.8198287136,0.978287418,0.3935692362,-0.5383739897,0.5224952202,0.8152356855,0.9816466184,0.5047636307,0.4591685729,0.6804913697,0.5467041538,0.8896844487,0.2778365473,-0.3890314871,-0.7929915414,-0.9178823823,0.7863244014,-0.1467565696,-0.238378435,-0.7524072608,-0.5220034643,-0.7662309121,0.5424237652,0.7199077522,-0.3744886528,-0.277908117,-0.4636782305,-0.4338937105,-0.0846160233,-0.749490211,0.2809003678,0.7470902491,0.4677445362,-0.3322334069,-0.5013550345,0.5765351424,0.6655417905,0.2856400906,0.6485148441,-0.2401219564,-0.4466793495,0.4545158109,-0.8820811461,-0.1854466652,-0.0077697181,-0.7975074975,0.3770074514,-0.2378233162,0.0484095581,0.2531163572,-0.4674708621,-0.8791472685,-0.7315571182,-0.1125073211,-0.4459294627,-0.2388079072,0.1602367664,-0.116586087,-0.5635730474,0.3175895327,0.1411407574,0.5490981917,0.2423787715,0.4366361203,-0.3956672398,-0.6357574908,-0.9098017889,-0.3355443501,0.7987312778,0.0626931005,-0.6202845733,-0.692559972,-0.1828271277,-0.9331827704,0.720432579,-0.6660592402,-0.2644669432,0.469068557,0.9213186166,0.0465309412,-0.3938331455,0.1101649679,1.2278078675,0.2732757357,-0.1135371058,-0.0466793113,0.5522880113,-0.6146939026,0.0264134861,0.4730244375,0.2349640336,0.5970218686,0.9192001718,0.7502363532,-0.2393766925,0.2077762716,0.1448443215,-0.3168845852,0.3275120568,-0.607306622,0.677467833,0.0206844748,-0.2847845623,-0.7889471721,0.6405830901,0.8150411257,0.1088949651,0.5494987447,-0.0100195566,-0.9526520301,0.9033755489,-0.4381115469,0.8750940287,-0.9913837132,0.6430308925,0.5620721516,0.7862568272,-0.579399315,-0.0041254892,-0.4614181916,-0.0742146808,-0.9595526412,0.6991661941,-0.6281926884,-0.816414199,0.2426676577,-0.5680973962,0.4981287675,-0.6379390285,-0.0477253215,-0.2340256562,0.1113930837,-0.2317229952,-0.8654090616,0.1829279555,-0.1743346405,-0.5559503196,-0.7165402833,0.6939526737,0.7151865366,-0.7621364851,-0.521478047,0.9530782437,0.6955362381,0.046804624,-0.3518654959,0.2182578743,-0.2502887589,0.6513638455,-0.9290718687,0.4004180233,0.351491775,-0.6085493531,-0.7397086553,-0.6230308594,-0.0388193598,-0.4514599255,-0.8316491088,-0.3208008398,-0.6889559412,0.8263155547,0.5596614234,-0.1810401332,0.7702642102,0.7185818157,-0.5766422802,-0.3555258184,0.0888252532,0.1048856727,-0.3758577291,0.4954549724,0.1098830842,-0.5899505459,0.7995307016,0.3848607622,-0.2927811827,0.7229331434,0.9813374394,-0.6262836032,-0.5413436494,0.0771478563,-0.2761129501,0.2365689469,-0.3169890892,1.3992175776,0.1859587005,0.7029085289,0.2943767571,0.7455829919,-0.2885772656,0.8729483216,-0.3501488742,-0.7957050553,-0.8690872233,0.6622195848,1.4348148558,-0.5758079274,0.3802218708,0.889515768,0.2817186723,-0.3131447259,0.2059338163,0.8127663158,0.3407424073,-0.1435264599,0.0484267087,-1.0004908422,-0.1734697794,-0.1226918848,0.2417772394,0.3058345127,0.2978425024,0.4313306044,0.5004934621,0.4493072126,0.4592329624,-0.1051147202,-0.9919971608,-0.8188370387,-0.7103810943,0.2337761218,-0.1439527362,0.652974687,0.7740105109,0.2571118925,0.5629238736,0.8150246519,0.0645009328,-0.168827406,0.7090484111,0.2299401323,0.9816936239,-0.5605731284,-0.2122337109,0.0625163315,0.6185969497,0.1217109203,0.1761621753,-0.5293707202,0.6892839217,0.3774131184,-0.2030829916,0.9336740585,-0.4515750128,-0.1851628872,0.3274063591,-0.0892992934,-0.2079614775,0.3648323196,0.8965450714,-0.0923382422,0.2980023559,-0.8293181242,-0.7954848058,0.47026089,0.5124289309,0.1511812285,-0.3053260255,-0.0166063606,-0.3791096992,0.9440929211,-0.7617510252,1.13125472,-0.1815362584,-0.1735383159,-0.2386174614,0.2270646074,0.567708189,-0.4789851305,-0.0896340977,-0.30416783,-0.514905484,-0.1703383503,0.1775606583,-1.2185943358,0.0661837885,0.0630918538,-0.4153467763,-1.0023408306,-0.6885281073,-0.4536825466,0.2985622689,0.6555527841,0.3176480038,-0.2289112614,-0.5707659038,-0.9352112768,-0.2563377776,-0.2722933454,-1.4936229817,-0.356333491,0.2559603502,-0.0176604023,0.9573207122,-0.4968190018,-0.8596540908,0.3379943232,-0.1654947021,-0.3517229,-0.6110761063,-0.3796000122,-1.1676624544,-0.2942653546,0.0067105365,-0.8075016492,0.0184646514,-0.6543038207,-0.3118160619,0.9000119518,0.1858973475,-0.1761093481,-0.3085583222,-0.2122617631,-0.3356874112,-0.6718194549,0.4379871283,0.3242279964,0.4223046796,-0.7300139638,-0.367577574,-0.4228882704,-0.8761526722,0.8365144558,-0.8685417282,-0.0289629273,-0.484941443,-0.5318399532,0.4191720728,0.1475579735,-0.0013125319,0.6630922141,-0.1289825585,0.3360411324,-0.418963908,0.7480898705,0.7901390994,-0.8666473247,-0.2265414724,-0.1645682044,-1.186682448,-0.041363432,-0.1100455107,-0.0566876541,-0.8354880101,-0.1128044681,0.6597983453,-0.5145038251,-0.4819634069,-1.0249655235,-0.6455891335,-0.3122099886,0.2490992516,0.1014969573,-0.7118650407,-0.3215615109,-0.7073748043,-0.879301528,-0.5068181721,0.95645955,0.6191945974,-0.5755661477,-0.6387355427,0.9399889613,-0.9999372921,-0.1059297655,-0.283675466,-0.3835221698,0.1329262621,-0.1096364613,0.6250121653,-0.3383929475,-0.955402498,0.4126395692,-0.594648204,-0.8730272809,-0.0196473355,0.2389775168,0.8905274483,-0.3431058956,0.7387457333,-0.7747587749,-0.9237390324,-0.5084747647,0.3066044684,-0.3193234806,-0.3742079552,0.2973340404,0.6697434188,-0.5269755547,0.2344071984,-0.8579816333,0.5907124029,-0.4849996199,0.8252827924,-0.2780530658,2.7784453923,0.4165464643,-0.8491998569,0.7683030216,0.5128848698,-0.3805064561,-0.5465055351,-0.0416333808,0.2820458236,0.658438983,0.3230384099,0.884079171,-0.4304693543,-0.7757389116,-0.1240860935,0.4511873356,-0.8977836742,0.9301062308,0.6968261832,0.6999678369,-0.5664752105,-0.1873145252,-0.4308278803,-0.1912511811,-1.1534600918,-0.2877578956,-0.3858458318,-0.1592729889,0.8536259698,-1.0019637244,0.2941699548,-0.5763874857,-0.2399661226,0.1433632212,0.4228065928,-0.0685865483,-0.7785106018,0.6208910676,0.7553720656,-0.4151245227,0.6374744304,0.8787714648,0.8977586507,0.8620786216,-0.0000530205,0.5340751478,1.0424472764,-0.721003363,-0.6262693571,-0.6010236991,0.0046716514,0.0924114827,-0.6138881072,0.4786002014,-0.0436550297,0.1083492412,-0.63892099,0.078501887,0.1668533345,-0.0085608404,-0.9978231304,0.1391001388,-0.7615918488,0.6607470076,-1.2300714946,0.9874251904,0.9890613405,0.3758893056,-0.4726933973,0.2058750303,0.3848556512,0.9806829789,-0.5405896644,0.4769090588,0.1780961715,-0.7134471656,0.248388105,0.2575441504,-0.672743164,0.1738137239,1.0277686449,-0.0767199171,0.7988645768,-0.6280146072,-0.6029481924,0.8653568439,-0.7549455185,0.5738336105,-0.3406809668,-0.9945004548,-0.9629444564,-0.6689019946,-0.8478174964,-0.0421182771,0.7519979386,-0.2471212733,-0.460295573,0.5440923613,-0.1907683088,-0.8396476921,-0.0603264668,0.213884015,0.2746088566,-0.7690212703,0.9442040339,0.0267145968,-0.3017531445,0.1772779479,0.4799084231,-0.4852314821,-0.1824444369,0.2692997891,0.4604305791,0.3323939553,-0.9473401015,0.4088768668,0.6813495072,0.1346786315,-0.3271821042,0.0786273164,0.4620256421,-0.409481754,0.7304391682,-0.8443992939,-0.5845212029,-0.9801980596,-0.5324680616,-0.6169545924,0.3813503489,-0.3324320617,-0.0482026673,0.8539708581,0.4551552176,0.64835185,-0.8344617088,0.8384365937,-0.4620510909,-0.3952460272,0.2675732803,0.5757564532,-0.3567370753,-0.9351998058,0.1990606464,-0.9665696528,-0.5930730596,-0.8547564209,0.4745420361,-0.0245269187,-0.1409938113,0.3212335491,-0.3015957875,0.0367226005,-0.8590894492,0.6639410966,-0.8993233235,0.0391846201,0.6266496742,-0.7762692829,0.5633570673,0.399592763,0.4138627533,-0.7243028885,-0.3199169183,0.6014924472,-0.5481593751,-0.5205372572,-0.1605792379,-0.7706059088,-0.9351621786,-0.2666241171,0.3836444676,0.5923227643,-0.4488935436,-0.0398044509,-0.3979850115,0.7008780173,-0.1866329376,-0.4945433736,-0.9699658556,0.0076641766,-0.7701937766,-0.2701114502,-0.3415339037,-0.7498636631,0.5149335896,-0.3173829473,0.7242915218,-0.3465578239,0.666222712,-0.0975917467,-0.1486233829,0.640220985,-0.2298362066,-0.2851638567,-0.1159415111,-0.4151861478,-0.2020666197,0.786650042,0.3318714799,-0.6152208432,0.3437432524,0.4713158564,0.7370399687,-0.7363834774,0.5529737304,-0.1824172352,-0.5193704202,-0.2095986208,0.546789685,0.0567476217,0.3527159294,-0.0013937035,-0.3643182883,0.1739049521,0.5397821365,-0.4006275714,0.499841807,-0.81914249,-0.2439581969,-0.1814714184,-0.2376620982,0.5725805414,0.3295715747,0.906005072,0.0937881357,0.5401723383,-0.0639647525,0.3839610053,-0.0806268748,0.0119955192,0.0692959264,0.4403537626,0.3781856898,-0.5121487443,-0.1199328227,-0.8059442746,0.3274199954,0.1773565088,0.5566373238,-0.7398974018,0.7313082885,0.9529734107,0.5469389495,-0.1231433374,0.0479688936,-0.9263252801,-0.7992782169,0.192381866,0.4093717834,0.0847441233,-0.9701157883,-0.2579812725,0.3777611807,-0.6576422051,-0.1954089352,-0.5251155474,0.5601642174,0.5100488185,-0.0115237935,-0.9948696041,0.7195593544,-0.1430317217,0.4420873327,0.6891802265,0.6593605913,0.4232644025,-0.8368114968,-0.3440068153,-0.9490779707,0.5081712825,-0.2887657811,-0.0687704755,0.7764334244,0.7267335006,0.6110599664,-0.0857138633,1.1016222553,-0.5261303675,-1.0138430843,0.6486603897,-0.5955064956,-0.7583767133,0.638429646,-1.1516098907,-0.3447337672,0.563624277,-0.89541806,-0.7440761854,-0.1279728851,-0.5902530811,0.1170523402,0.6900625941,-0.587187108,0.1668431936,-0.2579304016,0.7538636948,-0.2172891557,0.2157198592,0.6254474802,0.5894082238,0.9367663274,1.0081683865,0.4479940658,0.7196748215,0.1420288237,-0.7225346757,0.4800264701,0.898671467,-0.311407016,-0.5851794905,0.5483194119,0.1331450085,-0.1800253497,0.5621754644,0.0023116846,0.7119086389,-0.6615577023,-0.0237717594,-0.1733090601,-0.4141997526,0.3316244893,-0.0979684856,-0.160083129,0.6165971459,-0.343085562,0.9826849722,-0.6207265133,-0.0613324195,1.1797994646,-0.2061462114,-0.7486636589,0.0663598606,0.0650832607,-0.2426850542,0.3811738575,0.0013285239,-0.0671809488,-0.3828422616,1.1541179678,-0.5441757278,-0.1087378189,-0.0254997585,-0.1974098426,0.3514341916,-0.4850968156,0.4439243814,-0.9802831386,-0.2532498381,0.5964651379,0.9622408818,0.3255543703
   -1.3768771164,0.1818211302,-0.2854885462,1.017467215,0.6952536144,-0.7061665039,0.985251603,0.4031250338,-0.8059045766,0.4390921028,0.2071689842,0.5756165289,-0.7430354544,-0.3819600647,0.1623727656,-0.478779216,0.3642719155,-0.6322232986,0.6697974539,1.0162382302,-0.767554598,0.0800852678,-0.0016099518,0.4795973162,1.2594545471,-0.5542452044,-0.8493440777,-0.5651181931,-0.5330286577,-0.0274091747,0.6542482519,-0.4131282577,0.2979856543,-0.5540114429,-0.9133114329,-0.0893940043,-0.5364127446,0.6484371078,-0.5535372675,-0.7363584761,0.4798668495,0.4688239938,-0.6188870689,0.4156041584,1.0820183725,-0.3591012868,-0.0446997507,-0.9723462313,-0.0926090725,-0.628578057,1.1006511919,0.9219935052,0.4209549956,-0.0459124614,-0.4003323422,0.1065298935,1.1965404937,-0.0524921741,-0.4063831059,0.1840790939,0.5097658456,0.5075881207,0.28540577,0.3490675386,0.5829300078,-0.3148504451,-0.428919352,-1.3304840055,-0.8530397816,-0.1839654394,0.5412934912,-0.3550481443,0.3068533321,-0.0036004379,-0.3405595863,-0.4948245492,0.865155178,-0.8731658872,0.3153136037,-0.4936504558,-0.7607146953,0.9568338846,-0.0501067742,0.0511109184,-0.261074231,-0.0790930851,0.1336084904,-0.0330104741,-0.7710607195,0.3814724472,-0.4542635682,-0.4723962986,0.2427294068,-0.0059010214,-0.719210327,-0.8809544214,0.0782536342,-0.6572987237,0.4509245489,-0.7715634654,-0.1767247149,0.3430936612,-0.3893496285,0.9870620558,-0.0332583289,0.8043913139,0.6995780621,-0.1364618889,-0.7813229729,0.8281319535,-0.1670025453,-0.8891310897,0.9905614574,0.2998721855,0.0947590554,-0.1153195457,0.6266678634,0.2559403316,-0.1580054537,-0.2023459978,0.5796219741,0.6111572216,-0.5694227794,-0.3370596048,-0.9089334563,0.5913530317,-0.0154826511,0.1790387308,0.8242774582,0.3160284163,0.766368692,-0.5758679633,-0.1955614183,0.306893903,0.0562532903,0.303438324,-0.5607486523,0.2580919863,-0.3660071533,-0.9783914301,0.3688456581,0.1373621727,0.0021337515,0.0956687153,0.8835734186,0.0251522152,-0.226528328,-0.0923919511,-0.0272226988,0.2174898938,0.698745294,0.8505995114,-0.7904153442,-1.0199331436,-0.5460392292,0.478241165,0.8419548592,-0.9303066613,-0.4732424581,0.1460705591,0.043987012,0.7178268429,0.4337092475,0.6414954114,-0.0045543193,-0.6878251699,-0.167781879,0.0974395651,-0.0677028066,0.0900513018,0.1918673968,0.4401522599,0.1405565674,0.6593180294,-0.0574207759,-0.6299636588,0.7409241135,-0.7379636831,0.3364423708,0.8812148951,-0.7015936708,0.659870984,-0.14993787,0.0424021332,-0.1441410064,-0.1843351272,-0.5504894182,0.2462583988,0.6253146886,-0.2090980652,-0.257712047,0.1804583754,-0.0683755948,0.5936856532,-0.0668457632,-0.3819983409,0.2060908028,0.7661506067,-0.3367529154,0.898580851,0.3685737089,-0.2297671045,-0.5155053733,-0.1996070617,0.1238057784,0.0445826775,0.6048290649,-0.3205910683,0.921557115,-0.8472613361,0.5958801149,0.5906331358,0.0805752657,0.1424590697,0.5336440035,0.5091355898,0.4593543887,-0.2656501618,0.8820691777,-0.1047473896,-0.7114993745,0.292395293,-0.0088290737,0.3012296465,1.3751369112,-0.8670440673,-0.7436571549,0.2863404885,-0.2082583677,0.4721830017,0.5400940283,-0.1774800904,0.0273940817,-0.2297971095,-0.56863764,-0.7394955753,0.2795815286,0.6716665206,0.5394513731,-0.5177902157,-0.4885774354,-0.4099021298,-0.2236827263,0.8759958591,-0.5401476002,0.3011160043,0.2672454287,-0.0923031941,0.1300647705,-0.4901557472,0.4393165982,-0.664492135,0.7319526877,0.0119944931,-0.2523461228,0.4926918274,-0.2256716067,-0.737207843,-0.4123537207,-0.617353627,-0.2322968391,-0.3980830449,-0.7303157711,0.0969313443,1.2481947828,0.1382565686,-0.5133832037,-0.1683972391,-0.1822492751,0.0555170724,0.206354982,0.7729754061,-0.0975773767,0.1591612036,0.3262050348,-0.2176516272,-0.6799143766,0.0566503466,0.8086453454,-0.6689790796,-0.3532977569,0.7621014295,0.7986563933,0.1397985396,0.5568146164,0.4120886213,0.9664094645,0.1803207788,-0.2130500837,0.0105939235,0.6771636953,-0.9688158984,0.2342978046,-0.2879514771,-0.7304965636,0.3585551047,0.0862670444,0.5581196768,0.2958568304,-0.2615196394,0.7972027953,0.3883025163,-0.155235263,0.1587705736,0.2617386419,0.4403381362,0.3936896032,0.1293704398,-0.1331504019,0.156272586,0.0566258125,-0.8112303965,0.7923761294,0.7999132178,0.527827986,-0.4454880999,-0.4442473731,0.5374772455,0.5527646648,0.29789286,0.7012069806,0.4259545896,-0.3538062606,0.9963241797,0.2510145898,-0.4236144477,-0.7790799273,-0.4573815863,-0.1927742534,0.3400883075,-0.8546668911,0.6134041839,0.5919844356,0.5201708885,-0.0264832059,0.2888202646,0.5455626069,0.4337890338,0.8537361376,0.5096767883,0.0148915418,0.2392094621,-0.529274128,0.5067828397,-1.0792625364,0.5778760888,0.4681907416,-0.7489159188,0.4964905759,0.3798632907,0.0067434574,0.4842507072,0.0107779922,0.3334540809,0.2108458156,-0.8733081637,0.5196828167,0.2596393686,0.1405375808,-0.7470167156,-0.9375342321,0.6741763536,0.5847674322,0.2254329987,-0.6804192321,-0.490126191,-0.2536535617,-0.8261698765,0.3858194265,-0.3778076858,-0.6139372184,0.5848036302,-0.0024167207,0.7180912601,0.0375814492,0.2474270694,0.0852330255,-0.583127498,-0.200387185,-0.1682347573,-0.1467900007,0.015463452,0.9139220373,-0.1753171662,-0.5982398636,0.4734183921,0.3178468563,-0.7875853752,-0.8885196913,-0.8600946008,0.1934043135,-0.7269045173,0.916641725,-0.7413798354,0.6866578815,-0.1827676875,0.2045563138,0.445352223,0.8241183208,0.0740534365,0.5025928074,-0.4173023959,-0.5512678651,-0.83428907,-0.1481143247,-0.0305694234,-0.6780995723,0.6921706362,-0.213469187,-0.6033302437,0.3170153299,-0.0219557489,-0.1864002232,-0.0440180718,-0.0181153149,-0.7809908028,0.2344013666,0.8403911499,-0.3301016571,-0.671510821,0.3742495126,-0.3012893449,0.3934115391,0.4113972009,0.8585145306,0.7670575492,-0.6344967163,0.8113425584,-0.1380612075,0.2225061533,0.9365830396,0.8344125283,-0.3131668523,0.3596060786,0.1632840014,-0.1047224889,0.5506107892,0.9580082321,0.5240943283,0.0576985459,0.5605211231,1.0599400707,0.3795531812,-0.7315095036,-0.6576766962,0.4217370884,0.3671099659,-0.2537632483,-0.2471791294,-0.6494908016,0.1803569323,-0.5283395955,0.469734425,-0.8967322721,-0.3252967375,-0.1507649428,-0.099333722,-0.0623543449,-0.7492498637,-0.5945538665,0.6194109831,-0.8069202052,-0.7063672375,-0.1806233945,-0.1776207614,-0.5470067234,-0.4904019439,-0.042826762,-0.8317960937,0.3892751066,-0.9308829042,0.8991036995,-0.9064281729,0.306362034,-0.501223879,-0.3378333088,-0.3486117758,0.1428882088,-0.6095836781,0.1426617559,-0.4099503163,-0.2480864045,0.0710433637,0.1118060137,-0.1247405315,-0.6945383576,0.5856013108,0.8408178032,0.7665624349,0.5397128423,-1.4593817703,-0.6270559593,-0.9024688595,-0.6933062287,0.9001961736,0.1485622772,-0.025929222,-0.5463517339,-0.0093696215,0.2343845456,0.006377093,-0.8979777482,-0.2213781658,-0.2918026932,0.5200351593,0.0283922635,0.2116621519,0.523437247,-0.3927123693,0.4555956036,0.1782468068,0.0310269336,0.9633307036,-0.1792858773,0.4941756664,0.6133578757,-0.0412827883,-0.4697634844,0.6944863364,0.2344252877,0.1029747536,0.2890696348,-0.1294323978,0.3689517741,-0.2633649352,0.8562155051,-0.9244560032,-0.2492463094,-0.5622021212,0.7980430888,-0.6511774432,-0.5409173049,-0.1573978104,0.4484380077,0.0681353236,-0.5648815238,0.6878591887,-0.1856818984,0.4715453054,0.0335964189,-0.058760925,-0.3579876894,0.7082573249,-0.8886329588,0.2158745296,0.1626898275,1.0312368166,-0.802930718,-0.1045427307,0.0764956078,0.0270101558,0.2626998122,0.1302493755,0.610393628,-0.1143029405,-0.7050680163,0.4720488789,-0.1946035983,-0.5631263023,0.9375346913,0.8099234092,-0.7822774254,0.5456639184,-0.1072695413,-0.6417830719,-0.3268516612,0.1180347181,-0.3607879231,0.3215938787,-0.545494868,-0.8748913919,0.7087169516,0.4630783666,0.1234632325,-0.0314680526,-0.2667120451,-0.0982332676,-0.6123139414,0.0108817929,-0.7733562598,0.2324367888,0.2902784008,0.2128810224,-0.5952595003,-0.6362530064,-0.4385375989,-0.8447649853,0.0133759123,-0.3473974364,0.8422310878,-0.5877239242,0.5590552112,-0.2596120587,0.0060327597,-0.7550000171,-0.8646499727,0.7504556896,0.0719425423,-1.656479641,0.9075893368,-0.0431536081,0.935906046,-0.3139693765,0.5147211264,-0.9360002157,0.8558470017,-0.4709666405,-0.1254931302,0.1156331536,-0.1290205594,0.5923875029,0.2494129158,-0.1553850855,0.3235699215,-0.5552449987,0.1483325845,-0.2742958335,0.8618842698,-0.7806677634,-0.2306066891,-0.5647214069,-0.7666479179,0.7453141695,0.5735521276,-0.3086596988,-0.7147777503,-0.8750042112,0.257019746,-0.1874244289,0.1872447137,0.6878521779,0.1481355396,0.2150431655,-0.5078372217,-0.7751509322,0.6084680504,0.4441197562,-0.4821208453,-0.6569120161,0.1637178339,-0.243760445,-0.2452328173,-0.8585162781,-0.2898655773,0.2067470079,-0.6164069237,0.4142508613,-0.2914670795,0.0054687,-0.3478552799,0.397674589,0.2836249683,0.678433022,0.5683237323,0.0443889131,-0.7097938649,-0.1897992851,-0.0278969309,0.1798118313,-0.4738406115,0.5109300665,-0.6353050561,0.3555177491,-0.1022176295,0.3144353617,0.2436607388,0.6313123556,-0.0987029154,0.1401258707,0.4850888766,-0.4088480474,-0.3498249723,-0.3558240082,-0.6560208217,0.9476793315,-0.0478189469,-0.4313774863,0.525754491,-0.294964505,-0.1910180627,0.694167228,1.1180659222,-0.5342770494,-0.9980058108,-0.3986033429,-0.1320986085,0.2432843669,0.1213439521,0.5777690791,-0.1388845831,0.1694278296,0.6819384932,0.5819165614,-0.965738457,-0.8025185726,0.9527924037,-0.5416303868,-0.5096493953,-0.263362516,0.796591392,-0.8545650684,-0.4045331654,0.8460740096,0.928341092,0.019886275,0.7992339119,-0.521468431,0.1548697406,-0.5198136395,0.33079526,0.2658457941,-0.8386084733,-0.0284296946,0.3830954564,0.6511060281,0.3799800985,-0.6764529781,0.3849529663,-0.9548559281,0.1965070534,-0.488614895,-1.2957279827,-0.2359392978,-0.8750175283,-0.2019812168,-0.4702951789,-0.4910953147,0.7627742256,-0.1817805218,0.0378066652,-0.5148250883,-0.1341716827,0.2177712895,-0.9403296803,-0.2729771096,0.4528006661,-0.8816593212,0.2433406128,0.676512715,-0.2825690603,0.0036168667,-0.3229090505,0.1112151156,-0.9584041421,0.8128272165,0.9128110285,0.9547405431,-0.6397110887,-0.6220352552,-0.2831084393,0.1154431259,-0.8088936956,-0.0819958824,0.0339428419,-0.1228697623,0.7225211918,-0.0266657487,-0.5187476277,0.7629102629,0.0739244052,-0.1673172884,0.443675268,-0.0893150145,0.6564940526,0.8115155431,0.995062594,-0.3235541438,0.086343249,0.0659829408,0.8743216208,0.4298901137,0.9762787742,-0.8009554938,0.2144078855,0.4700184037,0.5931945245,-0.3679898083,-0.3799612339,-0.8529802386,0.1705949696,0.3609790633,0.5923734407,-0.3392360887,0.0383497476,0.782055744,-0.9824052539,0.6630657106,-0.2840549905,-0.4738062824,1.0185057673,-0.4448767408,0.1578034798,-0.4211420897,0.1428935706,0.4692332563,0.0913232088,0.3204927896,-0.1068641961,-0.3839977857,-0.4378183452,-0.2009539077,0.4298671411,-0.8013107773,-0.5202943683,-0.5954879599,0.6718493646,-0.5233068406,-0.4496433645,0.1537180707,1.2882718548,0.7469936508,-0.4127055002,0.3659799737,0.5057825455,-0.1160822509,-0.2758466052,-0.1508458989,0.8007557746,-0.6895508854,0.8245644002,0.9793561545,0.0045070652,-0.0202976064,-0.8721779773,0.0489129645,0.6914207587,0.0154563081,-0.0596081579,0.0465375097,0.0528413563,-0.8116890887,-0.9129296389,-0.6614618694,-0.0745900251,0.3227133835,-0.2523560618,-0.094657749,0.9037626716,0.5468345012,0.1848289896,0.8363178917,0.2187499184,-0.7733547265,-0.4463720231,-0.7303742593,-1.0153334357,0.4707273975,0.3167051411,-0.5300989145,-0.0454810775,0.3407104973,0.001516448,0.017539943,-0.6991858912,-0.6623897675,-0.4804381882,0.8317169445,0.2262654135,0.3798604049,-0.1693743746,0.2675120151,0.1104808469,0.7926177178,0.4609465784,0.2728525513,-0.0186153763,0.2009496845,-0.3645548407,-0.4056331694,0.3463016555,0.8057897863,0.5795071345,0.6956909433,0.0237497317,1.0149410027,-0.9216349563,-0.1152493227,-0.7909960772,0.0534847522,-0.4436255275,-0.6024561252,0.0457178981,0.886734224,-0.2486305005,-0.0815430041,-0.3261315079,-0.3345016193,0.8170032226,-0.658349139,0.3647085192,0.1725118493,-0.2456598239,0.2228943091,0.6949812332,-0.9307182664,0.8064811243,0.1622342447,0.1804450509,-0.0593387504,0.0285901145,0.9627225398,-0.1152306515,0.5570874266,0.1007726712,0.4018232815,-0.3084985873,-0.5421113451,0.2492332111,0.5241407633,0.8064027468,0.0092200273,0.568138274,0.5655004271,0.4238941697,0.0147184882,0.2032302528,0.4481742713,-0.9773450939,0.4273215898,0.8026840127,0.1895744239,-0.0626418776,-0.2034267781,0.5071300649,-0.876134305,-0.3037572207,0.3072765843,0.9657522351,-0.3890533207,0.3260746973,-0.0511286505,-0.4643532435,0.0822152725,0.2158712344,0.1126043582,-0.3496650078,-0.14880094,0.7551757938,0.2349815307,0.0845613412,-0.4125646889,-0.0589525518,-0.1181609584,0.5393552708,0.1798059708,0.2854859237,-0.1506679355,-0.2559464585,-0.3288103532,-0.4386548194,-0.3080434479,-0.2836802658,-0.5391270072,-0.9260158297,0.7090507978,-0.513725963,-0.5149859134,0.1999203741,0.4313964257,0.0257130335,-0.2587602211,-0.5648534283,-0.1017749361,0.1537928013,-0.8077612523,-0.2768585279,0.8408146714,-0.1232151286,-0.5854181566,-0.0798957477,0.0131569795,-0.9573102734,-0.804060138,-0.4750346888,0.6117328207,-0.1962059261,0.6368510559,0.3530538571,-0.4442934043,0.4289456629,-0.5469028778,0.2708794062,-0.612323166,0.3170105832,0.3098032084,-0.4292813324,-0.6155271831,0.7600410676,-0.103241457,-0.8437012274,0.9042669948,0.1498761787,0.332808956,0.6375445214,0.8360353614,0.2214098046,0.7357282508,-0.7384304011,-0.9932539353,0.6065408544,0.2861755439,0.0406909368,0.5233723629,-0.3406842806,0.5951261938,-0.8449767247,-0.1809328827,1.1589601887,-0.613589273,0.5146837336,0.5059024245,0.0731830946,-0.4504977846,-0.7191168554,0.726417727,-0.8739203572,-0.866213014,0.0408043862,-0.1578769074,-0.4725511901,-0.6973417135,-0.4384562645,0.4074683104,-0.2276624869,0.4665964456,-0.2564834035,0.2800425288,-0.3348182924,0.8175853785,-0.1136517918,0.6541459509,-0.1777938065,0.2097443873,-0.2055368973,-0.4881705798,-0.8641237581,0.655698823,0.0264021593,0.6674285427,0.0052668908,1.0315011056,-0.3446249984,0.5360838957,0.39908093,0.3051557304,0.9739728414,0.8539381022,0.0062508146,-0.0755595778,0.9900719861,0.1734695898,-0.5575432352,1.1326607809,0.3383213061,0.5061138126,-0.5804210794,-0.4899399819,0.3421791026,0.5718587326,0.4132607163,-0.797122878,-0.6374087673,0.2428204069,-0.4859627783,0.8766483815,-0.8114049578,-0.2048939631,0.6137540096,-0.6647998583,0.6272162217,0.7188073058,0.516272115,-0.2947616028,0.2129149938,0.0236170111,-0.2993057714,-0.4504958815,-0.5191168137,0.4876179445,-0.4744305958,-0.0984770853,0.6624651871,0.5341801692,0.5602812145,-0.5513192499,0.4525968867,0.1419908664,-0.6449738299,0.8787480242,0.2622405267,0.527686373,0.354337669,-0.6488640863,-0.1354668579,-0.2779913879,-0.1846089677,0.7487737938,-0.8647529541,-1.0082812745,-0.4394555495,0.5193502153,0.5313844477,-0.6717210756,-0.7472894968,-0.7600469275,-0.004163453,0.243466508,0.6362918996,0.100729358,-0.7440104253,-0.4597629489,0.0033035666,0.3537308492,-0.6829572341,-0.147000108,0.1306094887,0.8098592542,-0.4382577052,-0.4158523978,-0.1031246162,0.2633333822,-0.3274824604,0.6408221869,0.6554295852,-0.3478105828,-0.1441557513,-0.3122100624,0.4283774381,-0.4069139447,-0.6866108684,-0.0438790965,-0.1946372746,0.7809107729,0.6087313336,-0.4073165769,1.0098457995,0.932439859,-0.1378284912,0.917756059,0.1381437766,0.8787895027,-0.244567017,0.9337997473,0.8574534662,0.9613881824,0.4236080914,0.4821735141,0.2172116976,0.0340024426,0.3392726368,1.0549777726,0.5606210235,-0.0106931647,-1.1729620146,-0.0633692704,-0.7002432771,0.1152567875,0.3092845166,-0.1547588698,0.0878326995,-0.1045830189,-0.2010866216,0.7792404009,0.472749767,0.30431081,-0.1388717786,-0.8480402408,-0.1694479352,-0.4120837356,0.384794121,0.1378272226,0.3145794539,-0.787116208,0.6318680205,0.2103958673,0.7102414494,-0.0037445789,0.1399817476,-0.596980271,0.7870220325,0.2905897434,0.4522121453,0.1910585947,-0.0612868524,0.2869347333,0.0066497968,-0.1484826271,-0.1514282561,0.259855883,-0.55497873,-0.9006606174,0.4840038313,0.9490774469,0.588940459,-0.3243856347,-0.7171554187,0.4372124213,-0.0616412413,0.53162292,-0.0979432721,-0.2630305613,-0.1376538615,-0.3134288314,0.2393681476,0.2845944362,0.4917638137,0.0092439429,-0.3784262473,0.3368027656,-0.0527330057,-0.0261018725,-0.1726363213,0.8329832236,0.2028719689,-0.0028407245,0.589241711,-0.2560674297,0.1398706683,0.4504130074,0.2874958406,-0.2340728813,-0.1987650105,0.1935614733,-0.551486577,0.7647384247,0.9001699065,-0.1139770455,0.3723435543,-0.2385529549,-0.6040834841,-0.8250144608,0.2682034712,0.2943706767,0.4906159435,-0.3433919596,-0.0499334307,0.5614363726,-0.6098207158,-0.8450080206,-0.650150775,0.3363319205,-0.9456562976,0.3621691169,0.4138264973,0.7040735828,-0.6560238234,-0.0904135017,-0.651538443,0.076869839,-0.5182462641,0.9935008755,-0.2034598738,-0.57381083,0.5646040106,0.3713612933,-0.1336067445,0.5563300037,-0.4186665416,-0.701507293,0.9094810957,0.3249644633,-0.1040777103,0.2126845355,-0.8760741742,-0.7485335164,0.3603122174,0.805353764,0.9700556719,-0.0831459676,0.9521322491,0.6228987457,-0.8292959947,-0.3451266277,0.6065562915,0.2900148759,0.0305660692,0.3633739224,0.8469947699,-0.7343953259,0.1091647073,-0.5370748729,-0.3535141032,0.1687162482,-0.1753504433,-0.3411501721,0.1234352474,-0.607399128,-0.8844194758,0.1937219618,-0.190455764,0.9667996415,-0.7363161728,0.092981426,0.3602404707,0.4356494381,0.868817422,0.1581216394,-0.5337581213,1.6578859274,-1.0179836942,0.0592064339,0.102956944,1.4948651543,-0.569746886,-0.0057438158,-0.836728297,-0.2216126161,0.7386550445,-0.1873190132,-0.2321216692,0.0057840363,0.8813844282,0.3110316927,0.3639584611,-0.7032334111,0.7246167876,0.8333441666,0.3916419388,-0.2896921178,-0.108261099,0.5923514408,0.4596183188,0.3098366477,0.1606752473,0.1833819036,0.5243928726,-0.1240599383,0.899997832,0.343716025,-0.3214289145,0.6220725058,0.213424553,-0.1065804023,0.0718285444,0.0433653895,-0.5153814991,0.8255326345,-0.4250258708,0.4481456301,0.5155823611,-0.3009949655,-0.6256754251,0.4947299407,-0.6274812259,-1.1198123164,0.4426551774,-0.8999059449,0.2509403854,0.4100996939,0.5683623207,0.4635975864,-0.6195284074,0.5964818892,-0.0824932626,0.6996004243,0.7818546157,0.2259560369,0.175000213,0.0117930816,-0.1953577347,0.5225943107,0.7680961997,-0.7246084477,0.3247980288,-0.5299597978,-0.0185886829,-0.7971454112,0.5064050624,-0.0675458903,0.5442379076,0.0067987677,-0.6746268791,0.0384618789,-0.5674610008,0.6819821704,-0.0885044649,-0.4418993296,-0.932976035,-0.2317604862,0.7896326837,-0.2282015127,-0.8562389913,0.7088270758,-0.2234718138,0.0061765525,-1.028807778,0.4073904375,0.7002549302,-0.3745951728,-0.1001488111,-0.8474730967,-0.2013689142,-0.8122548299,-0.7321825355,-0.5127515174,-0.5095006974,0.3070932589,-0.6556838104,-0.0052654959,0.431341109,0.31802225,0.5309537312,0.261352335,0.8770744766,-0.0124238325,0.0830375209,-0.6676824204,0.4291969213,-0.1902234298,0.7146840305,-0.8022869017,-0.8839642198,-0.4199430879,-0.3229585728,0.1044583229,0.052243921,-0.9295641931,-0.5767009036,-0.9751501888,0.3385678531,-0.8446288547,0.2587972659,-0.0560491622,-0.6455887228,-0.0154795805,0.3072528192,-0.1530788437,0.0486869948,-0.1079154926,0.6520247814,-0.0706746498,0.4963187527,-0.2895849199,-0.3675652094,-0.5778797683,0.0653804011,-0.2672343154,0.1276153224,0.3885979233,0.1587521259,-0.8713851998,0.3595839152,-1.2815552489,0.4142954171,-0.4936322845,0.0821992028,-0.969934672,-0.580397262,-0.6105252488,0.2450426592,-0.4947121889,0.062669277,-0.5393047252,0.5477540379,-0.812952827,-0.6382334294,0.6254809612,-0.2338463063,0.1121982273,-0.2085226843,0.2580917382,-1.3993340105,0.3927048397,0.369413879,0.6792604573,0.9295803506,-0.4491708558,-0.3871074323,0.3799551375,-0.7215143019,0.753292042,-0.2994824819,0.262223087,0.4566041261,0.7127225608,0.2924587306,-0.0135134238,-0.8714767975,0.9791577136,-0.015057124,0.7334299806,-0.1305761406,-0.6316828674,-0.0182135585,-0.7705692693,0.4831230705,0.2543516078,-0.7524723156,0.0924879718,0.3163382935,0.4341037222,0.6762679754,0.0743937225,0.57929489,0.3454490317,-0.3718449552,0.4321007229,-0.3005146183,-0.2401704851,0.0980441522,0.3785158471,-0.4195051289,-0.0636971576,-0.5461682024,0.8212391658,-0.9397368394,0.6570620723,0.0155593586,-0.6362552365,0.7536640273,-0.8337343353,-0.7885544675,1.0807940673,-0.1778590765,-0.743656229,-0.8142353257,0.1957157589,-0.2527648719,0.0315648119,0.8256334676,0.7660954371,0.5941013207,0.9600536819,0.8698742868,-0.0647666401,0.1838626503,0.1314458344,0.1560600645,0.5620022475,-0.3308780677,0.5588707612,0.9047578313,0.7351554924,-0.3319751029,0.8281980338,-0.3200689132,0.0221338702,0.0380339683,0.5311361646,0.3962800861,0.5222315813,0.9305275984,0.7463683725,-0.8030659917,-0.2448048153,-0.2716105125,-0.1627489799,0.488156999,0.3165507156,-0.0268368694,-0.1133452036,0.1407130897,-0.7221046467,0.6240706479,-0.607089261,-0.9397989546,0.5318738248,-0.5138580755,0.6861851155,-0.4779625184,0.0926253243,0.9487738131,0.9175798203,-0.9449109835,-0.8721172514,-0.0631938406,0.8238873066,-0.5319929571,0.8153806079,-0.847363824,1.0373448712,-0.3190544167,-0.3903576798,-0.3268879175,-0.3798719079,-0.567608164,-0.1564159795,-0.5969465131,-0.257773101,-0.6209078044,0.4901768979,-0.5201215081,-0.4224084517,-0.7324370316,0.9363742641,-0.3108887973,-0.1835284994,0.0199778196,-0.7114949878,0.997404231,0.8699324703,0.9000759256,-0.9769368248,0.2431061603,0.4372809105,-0.9812579192,0.6263453491,-0.8606487853,0.4011663194,0.3263022611,0.7505683498,0.7186370582,0.3793341373,-0.3683091938,0.7873325063,-0.757542334,-0.5970768263,0.0085322003,0.1489118806,-0.0712239141,0.8059098106,-0.0398119409,-0.6820109002,0.2858132982,0.4818764546,-0.2894744572,0.2449505944,0.2563757979,-0.1648729293,0.2621223522,-0.3037231449,-0.2578465471,-0.8880436408,-0.4224594733,0.3963141953,-0.1684574484,0.776421514,-0.0754749085,0.9365986582,0.8867579053,-0.0423588826,-0.2393210787,-1.053753355,-0.4931345404,0.3556067336,-0.1340516102,0.2201964469,-0.7714464856,0.1271258603,0.0070328924,0.9459774006,0.3865585917,-0.2409578568,-0.2313653455,0.0080220909,0.2782668901,0.0856831902,-0.4445773299,-0.0291412601,1.7688540845,0.3586542347,-0.7104929706,-0.4446102558,0.9714645727,-0.2477934621,-0.820173447,0.4533032794,-0.2563425559,0.0633406973,-0.8269716584,0.1812949405,-0.0634622861,0.6791271998,0.6838469059,0.8549159886,-0.5509709168,-0.7874470362,0.2992829191,-0.5480159362,-0.3015844057,0.1195591861,0.7133599901,0.5325959972,0.5095528038,-0.5629150413,-0.2476364303,-1.0578509856,-0.0680734398,-0.9338789207,0.5768214781,0.5167270712,0.0164554198,0.4543884949,-0.6088474124,0.1162385425,-0.0679626534,-0.7809337529,-0.5640533937,0.4297849477,0.522446187,-0.4810144745,0.2562006286,-0.4728548281,0.392953325,-0.165693377,0.5766058834,-0.9920798159,0.2380586575,-0.4758358887,-0.4404434351,0.0500912722,0.8624465228,0.8226979979,-0.3470383266,0.3444739191,-0.7506382671,-0.4384619379,0.6835312581,0.0656827714,-0.1804679527,-0.1558461462,0.2926159317,-0.0069378976,0.4042241946,0.9213229898,0.2185690013,0.2234834525,0.082530198,-0.0245401337,0.1160858597,-0.2166815371,0.0321494124,0.3582124149,-0.451947638,0.1560327576,-0.0198310678,-0.6974257663,0.7920337777,0.8898154499,-0.5323276241,0.8700833941,-0.5218501755,-0.9488130217,0.2461707698,0.6358052463,-0.1543747892,-0.9387700432,-0.1752337514,-0.6153727827,-0.9627736102,0.0853664295,0.9629093041,0.9372132453,0.4379733528,-0.2848193753,-0.1770055713,0.3320937183,-0.3152998638,0.1473768827,0.3030577416,0.0938546134,0.1720721438,-0.1190899409,-0.4671209772,-0.4634546334,0.9787427317,-0.230936397,1.0644623939,-0.4707672791,-0.5527370382,0.49337655,0.152806243,-0.4138460796,-0.7725961395,-0.5052376395,-0.2237338199,-0.6535087707,0.6841607528,-0.107715477,0.8963122974,0.599945674,-0.2768106717,-0.4698310394,0.2252565466,0.9225339067,0.8697728613,-0.0905126602,0.7762803439,-0.5050522251,0.5267924542,0.0454706535,-0.0808105039,-0.9675725885,0.795039342,0.8488379169,0.8313095177,0.0358096653,0.6048864308,0.8404189252,-0.3807580191,-0.30189698,-0.8516943507,-0.3788826226,0.3011111726,0.221794548,-0.6137084387,-0.0226272247,0.8501468598,0.1592611179,0.5781220745,0.6700310744,0.1354655148,0.3823722405,0.2255215938,-0.6036318511,-0.4998411706,-0.1318142634,-0.801362723,-0.3533036023,0.7588997985,-0.6544866988,-0.3885409169,-0.6669193937,-0.5108573759,0.495658602,0.665166561,0.0823959296,0.8270261243,-0.9298703177,0.1625884169,0.3095944528,-0.4815956985,-1.161197859,0.6835021449,-0.0877808687,1.0849499273,-0.2143167671,-0.4964446183,0.0063384819,0.1372715175,0.4649122333,-0.297672937,0.0240957486,0.7894194321,-0.5721749118,0.6372470161,1.0398381685,0.7183978516,0.99937037,0.6557510329,-0.2708016599,0.3256994566,-0.392716097,0.4940651261,0.5227165303,0.0726035732,0.5464849658,-0.19396894,0.437054781,0.7530838055,0.602470623,-0.322645991,0.5416549005,0.1119519521,-0.863113334,0.8908443998,-0.9513927628,0.9333413966,-0.8112102262,0.2815496565,-0.9896847318,-0.242614573,0.149907226,0.5654645654,0.0600918418,-0.2092980336,-0.0537474409,0.6130484486,-0.0269651808,0.4212834464,0.6073862843,-0.3069691682,-0.8972983353,0.8499044898,0.2888296736,0.3132478058,0.192931105,-0.7701936331,0.5519274002,-0.9181873802,-0.8793984413,-0.0129261495,0.161339688,-0.35715754,-0.0742544596,0.8777267617,0.6889137445,-0.9765947472,0.1404718097,-0.3320382361,0.3958770303,-0.4802805171,0.1958228989,0.2763349488,0.833083347,0.3699743154,0.5341044496,0.6319068568,0.7853098535,0.0480515514,-0.9980404436,0.1253859883,-0.1917555556,-0.4736765783,-0.3547150579,-0.4375602269,-0.3947858969,0.9631433939,0.1925004759,-0.4520411288,-0.1338153514,0.6642148848,0.4587322822,0.3453445783,-0.6466784881,-0.1689673695,0.0903345292,-0.7169306025,-0.0196000361,-0.5083647283,-0.5439477003,0.7719228983,1.1901645886,-0.1578733179,0.0462471271,-0.9772057509,0.6748573477,0.3022122819,-0.1768472492,-0.1397857707,0.0951007532,-0.4715059223,0.4712642509,-0.2860379654,-0.7028697956,-0.1803047947,0.7952181393,0.3850563442,-0.0064893089,0.2854894673,0.5066765966,0.2562652606,-0.2669155215,-0.2307918985,0.9866944626,-0.1724924878,-0.4585521344,0.0409908975,0.1406531779,-0.6486779009,0.7336139943,-0.8263029598,0.337979411,-0.8435381728,0.5610369315,0.5220134833,0.5925619429,-0.5642018029,-0.8748527926,0.6173882279,0.0883185178,0.8072630979,-0.2128397341,-0.9947960026,-0.8273208556,-0.5394990482,0.157180397,-0.3350856603,-0.3500791802,0.879575344,0.2887969946,0.6981672133,0.0549990632,0.2802476268,0.4684535245,-0.6219159783,-0.7868995765,0.972788859,0.1882773812,0.8830369763,0.7861673041,-0.4123615624,0.9934122139,-1.3686994733,0.2084742695,0.5355664556,-0.7174169512,0.5794042993,0.023832897,-0.8653149575,0.6648187807,0.7120217614,0.694526173,0.4504319706,0.4195933428,-0.0493800431,0.257243894,0.3938068867,-0.9029833699,-0.1003374724,-0.9509706152,-0.3725003257,-0.6548356244,0.1755998545,-0.4817381539,0.9485590468,-0.900259987,-0.4242260907,-0.5208032967,1.2776565765,0.0671788077,-0.6938757964,0.5632713286,-0.1698353341,0.084390463,-0.5205744391,0.6456093451,0.104079054,0.6475965831,-0.5222580725,0.6912714741,-0.4278038216,0.6271659205,-0.5885135036,-0.3501698505,0.0339666555,0.8234292266,-0.2564764584,-0.344569443,0.7504962437,0.0412917929,-0.8678654039,0.1798135687,-0.2514721695,0.3576067636,-0.6726263068,-0.254785886,0.4627528885,0.0287748543,1.0149988721,0.25657872,-0.5736717339,0.4589702709,-0.7590397107,0.6603294293,0.8870632953,0.4532707694,0.0667979852
