encog,BasicNetwork,java,3.4.0,1,1590093652962
[BASIC]
[BASIC:PARAMS]
[BASIC:NETWORK]
beginTraining=0
connectionLimit=0
contextTargetOffset=0,0,0
contextTargetSize=0,0,0
endTraining=2
hasContext=f
inputCount=310
layerCounts=235,270,311
layerFeedCounts=235,269,310
layerContextCount=0,0,0
layerIndex=0,235,505
output=0,0,0,0.0000000001,0,0.0000000001,0,0,0.0000000007,0.0000000001,0,0.0000099258,0.0003329478,0.0000000002,0.000000001,0.0000002309,0.0000006354,0.0000910071,0.0000000104,0,0.008960104,0.0000027882,0.0000000064,0,0,0,0.0000000001,0,0.0026025145,0.0000134694,0.0002945147,0,0,0,0,0,0.0000000006,0.0000000032,0.000001406,0,0.0000000929,0.0000000074,0.0000001658,0.0000000019,0.0000000043,0,0,0.0000000003,0,0.0000000001,0,0,0.0000436306,0.0000000567,0.0000000021,0.0000000006,0.0024476069,0.0000000026,0.0000000002,0.0000000004,0.0000000289,0.0000000003,0.0000000483,0.0000000055,0,0.0000000275,0.0000000026,0,0,0.0000000026,0,0.0000000002,0,0.0000111715,0.0000000669,0,0.0000000047,0,0.0000000003,0.0000000041,0.0000000032,0.0000000036,0.0000000034,0,0.000000005,0,0,0.0000000005,0,0.0000000008,0.0000000144,0.0000000028,0,0.0000020253,0,0,0.0000042555,0.0000000014,0.0000317454,0.0001626605,0.836166212,0,0,0.0000000269,0,0,0.0000000001,0.0000000129,0,0.0000085555,0,0.0000000761,0.0000000264,0.0000000059,0,0.0000724801,0,0.0000000024,0.0000029635,0.0000000009,0,0.0000290707,0.0008858962,0,0,0.0000220376,0.0000000001,0,0,0.0000000004,0.0000000021,0,0,0.0000000004,0,0,0,0,0.0000173767,0.0018228428,0.0000024738,0,0,0,0,0,0,0,0.0000004539,0.0000000012,0,0.0000007248,0,0.0000010405,0,0.000000076,0.0000000002,0.0000000016,0.0000000004,0.0000000002,0,0.0000001706,0,0,0.0000000018,0.0000000099,0.0000000001,0,0,0.0299095912,0.0205314523,0,0,0,0.0000000163,0.0000000001,0.0000000001,0.0009257639,0,0,0.0000000013,0.0000000001,0,0,0.0000000186,0.0000000001,0,0,0.0000000297,0,0.0000000001,0.0000001019,0,0.0000000152,0,0.000018793,0,0,0.0002970339,0.0000000217,0.0000000054,0.0000000001,0,0.0000000001,0,0,0,0,0.0000000026,0.0676986657,0,0.0265558088,0,0.0000000005,0.0000000015,0,0.0000000009,0,0.0000000004,0,0.000000008,0.0000000837,0,0.0000000009,0.0000003908,0,0.0000000085,0,0.0000000001,0.0000000222,0,0.00001639,0.0000000007,0,0,0.5515203036,0.1936704283,-0.4115601967,-0.4669659147,-0.9967897474,-0.9999530035,-0.9795666783,-0.8656714537,0.9511189587,0.8679308396,0.9350402321,-0.6576246454,-0.9819819117,0.9977554436,0.9673640938,0.8842516807,0.9840408835,0.6940425465,0.6765293627,-0.0523356231,0.9952181121,0.1333147193,-0.3283116699,0.5534470848,-0.3953701171,-0.8117377548,-0.9950235228,-0.9945335537,-0.9610386988,0.7135074743,-0.8045004736,0.3077548816,-0.5509557016,0.6438986467,0.9879966378,-0.913810339,0.2743887682,-0.9259540334,-0.2144657726,0.1849192919,-0.2705209904,-0.060932147,0.2167399013,0.9995227146,0.8381692618,0.932713545,-0.960061127,-0.6740186922,-0.9786681819,-0.9859753265,0.9673246464,0.0993055784,-0.9983971477,-0.8168802113,0.591515121,-0.6783743497,-0.2099174214,-0.9818871345,0.5041709485,-0.7790437615,-0.6642937353,0.9981189368,-0.9724856296,-0.9993811542,-0.6961875122,0.9786963318,0.8744904293,0.9965341636,0.8298615443,-0.9986488632,-0.4883351364,-0.3530049245,0.8493002059,-0.515950625,-0.9806891328,0.9998101498,0.1200389059,0.9971962658,0.7598590534,-0.9922741769,-0.9329968646,-0.763087852,0.3281904943,-0.9320249539,-0.269745624,0.9758910611,-0.9668052234,-0.2056654032,-0.911181765,0.9978745042,-0.5406005479,-0.9547251003,0.3770095702,-0.3146413104,0.4170067018,-0.7107828598,-0.9916941632,-0.9934171278,-0.9541303288,-0.9663861922,0.9825851107,0.749965355,-0.1436793231,0.99759621,-0.9543477272,0.6156317539,-0.2294420625,0.995014162,-0.7866027425,-0.9711581555,-0.701364203,-0.8256363635,-0.9811525258,0.8473708258,-0.9527439115,0.582759059,-0.0602332832,-0.9701280953,-0.5321712138,-0.5978022765,0.8801218302,0.6725960318,0.8655435338,0.0267294677,0.9965518394,-0.1145083103,-0.5774836521,-0.8692619024,-0.5548683026,-0.9431518282,-0.8956813124,-0.7816756336,0.8240873798,0.9987013779,-0.0153513967,0.929660487,0.8398005486,-0.999888076,0.2343926599,-0.4531668531,0.677623017,-0.9999910453,0.6797330667,-0.7071000356,0.0036052211,0.985682899,-0.7230767099,-0.9936225978,0.9982122472,0.5474369638,-0.9961956008,0.7844298703,-0.9914146347,0.7073344157,0.8195280761,0.9543177876,-0.9690720775,0.725545926,0.9998956664,-0.26581254,-0.7151385611,-0.9777513556,-0.9873429735,0.8588206326,-0.9983597044,0.9487275731,-0.9987940741,0.6305444918,0.8871295665,0.482715129,-0.7713998428,-0.5244550104,-0.3596322327,-0.9708404683,-0.9119344394,0.2329414379,-0.8993921454,0.7119678128,-0.9877756297,0.9969320062,-0.9988402488,0.8234730489,0.9986075579,0.656902993,0.9974432793,-0.8592929537,-0.9983723454,0.2082255201,-0.9891526488,-0.9514493502,0.9616243145,0.664712468,-0.8689973604,0.9493395465,-0.5367882221,-0.9247659983,0.7085043677,-0.6538094036,-0.3926053856,0.9324496266,0.8623314486,-0.9496960668,-0.1146133849,0.2354631251,0.9498592979,-0.7748864177,-0.9008949826,0.9712273021,-0.6852746358,0.2105254282,-0.0459557821,-0.9920860707,-0.9979668383,-0.7441002254,-0.3516601283,0.6761216606,0.362431718,-0.9673812453,0.1625805149,-0.8180739781,-0.749532371,0.4610449033,0.6199291322,-0.3620755396,0.9559940587,-0.4937981908,-0.8766771206,0.699909287,-0.2821359256,0.5762903858,0.108388123,-0.2529088353,0.9556309992,-0.1528046258,0.7869453213,0.955124985,0.9780853081,-0.0768378552,-0.9562975839,0.9953550557,0.8291083454,-0.4420770245,-0.8421198021,-0.0835612309,0.0668409397,0.3508233926,-0.9962904757,0.9948238713,0.9860750436,0.7778047577,0.4335571015,0.0270040253,-0.6079557016,0.0168120678,0.9865072464,0.3869645166,0.9786521793,0.4335207401,0.545619444,0.3421660297,0.4940383519,-0.9842169957,0.9473974142,0.6028527648,-0.9699866186,0.3806247677,-0.8951631546,-0.2090962936,0.9993395461,1,0,0,0,0,0,0,0,0,0,0,0,0,0,0,0,0,0,0,0,0,0,0,0,0.5,0.25,0,0,0,0,0,0,0,0.75,0,0,0,0,0,0,0,0,0,0,0,0,0,0,0,0,0,0,0,0,0,0.75,0.25,0,0,0,0,0,0,0,0,0,0,0,0,0,0,0,0,0,0,0,0,0,0,0,0,0,0,0,0,0,0,0,0,0,0,0,0,0,0,0.25,0,0,0,0,0,0,0,0,0,0,0,0,0,0,0,0,0,0,0,0,0,0.5,0.5,0,0,0,0,0,0,0,0.5,0,0,0,0,0,0,0,0,0,0,0,0,0,0,0,0,0,0,0,0,0,0.5,0.5,0,0,0,0,0,0.25,0,0.5,0,0,0.25,0.25,0.25,0.25,0.25,0.25,0.25,0,0,0,0,0.25,0.25,0.25,0.25,0.25,0,0.25,0.25,1,0.25,0.25,0.25,0.25,0.25,0.25,0.25,0.25,0.5,0.25,0.25,0.25,0.25,0,0,0,0,0,0,0,0,0,0,0,0,0,0,0,0,0,0.75,0.75,0,0,0,0,0,0,0,0,0,0,0,0,0,0,0,0,0,0,0,0.25,0,0,0,0,0,0,0,0,0,1,0.75,0,0,0,0,0,0,0,0,0,0,0,0,0,0,0,0,0,0,0,0,0,0,0,0,0,0,0,0,0,1,0.25,0,0,0,0,0,0,0,0.25,0,0,0,0,0,0,0,0,0,0,0,0,0,0,0,0,0,0,0,0,0,0.75,0.25,0,0,0,0,0,0,1
outputCount=235
weightIndex=0,63450,147109
weights=##0
##double#147109
   0.7627338955,0.9586387452,0.673783594,1.0966031672,-0.9587335544,0.6309741787,0.7523499549,-0.4089403308,0.4965865161,-0.2377362202,-0.7543694131,-0.0018936433,0.1835544147,-0.6389750752,-0.5343491762,-0.4593846789,-0.2777405801,-0.3946305136,0.4329593029,0.9855003327,-0.4813071818,0.8313935496,0.2251322319,0.5596210645,0.167224459,-0.9440111055,-0.5594525168,-0.2433379691,0.3033352495,0.721796895,0.288182323,0.0357339182,-0.070021431,0.1975146762,0.203711433,0.1872106514,0.677159054,-0.8793257825,-0.8759927616,0.1161709238,-0.7593501154,-0.701364416,0.2594957173,0.9330481483,-0.3250286921,-0.1077761438,-0.0778671311,0.2543846338,-0.1308745402,-0.0929761023,-0.3501969581,0.1154079722,-0.4949231833,0.9880143767,-0.7104982305,-0.4662955912,0.492307727,0.3202246088,-0.1403699559,-0.4971441766,0.1654686403,-0.889359796,0.6778643895,0.8215214368,0.1994987439,-0.5965630529,-0.6431160773,0.0074941784,-0.8075252914,-0.2900271953,-0.5109362432,0.0320266517,0.3697552624,-0.8959452464,-0.7888171622,0.179722885,0.2988946778,1.3478569302,0.0202335512,0.1403177583,0.0015134753,-0.5072843812,-0.0284503997,-0.1993955648,1.3361119043,0.7063819104,-0.8148237868,0.1761559405,0.0561109452,-0.4274762907,0.2751431519,-0.0078408286,0.2814543669,-1.5913947242,-0.1127801766,-0.7051758145,-0.152622348,0.912066207,-0.5375607284,0.8588403225,-0.4950395703,-0.2933137823,0.2502950945,-0.9247579878,0.62856485,-0.3285198563,-0.7923918847,0.5960349298,-0.2986513318,-0.3440681714,0.0283618095,0.7375606083,0.4738137359,-0.5270192205,0.3753992949,0.3748666881,-0.212287135,0.0519421013,0.2855598358,-0.7470727042,0.6136960337,0.4439567912,0.028923733,0.8750526943,-0.4965598199,0.7801447924,-1.072421032,-0.6849456446,0.4108757158,-0.3552458343,0.0127727015,-0.6906367336,0.8891700033,-0.4457589927,-0.0133143301,0.1666273546,0.591214294,0.3094963368,-0.8795168344,-0.2046981276,0.2422422087,0.0876318651,-0.0740429424,0.5464023204,-0.8697225568,0.0503651142,-0.806392625,-0.3742791934,0.4769457329,-0.1699223392,-0.4419811789,-0.5230293342,-0.2708433979,-0.0990726746,-0.8657863317,-0.9791563883,-0.9557850372,0.3841115883,-0.726741958,-0.4634692549,-0.1706623361,-0.0015513464,-0.1914852103,-1.084309826,0.3639069497,0.5952477537,0.0150277962,0.1289158822,-0.2408336504,-0.3711376834,0.557641427,-0.1666255328,-0.0315502318,-0.6627292459,-0.2924634607,0.8902135373,0.0706850375,0.9560457274,-0.2796258067,0.3678577491,-0.6044603394,-0.247616425,0.5490603512,-0.6145295005,-0.3552423918,0.3514787157,0.6450741401,0.1873169607,-0.1715739014,-0.4509258774,0.2333878035,0.6732555883,0.2160499482,0.5876887646,-0.5286366005,-1.1667374346,-0.8103479957,-0.06499839,-0.4334157621,-0.8329233748,0.6730213406,0.766957287,0.1644073388,-0.0913876888,0.0954809452,0.2436596296,0.9456488352,0.8417559458,-0.4305217132,0.3794946226,0.7798529487,-0.9261280647,0.3663066591,0.6411848284,0.7336441906,-0.084675785,0.0531991757,1.4674002732,0.9316454026,-1.1379607398,0.0821051351,0.3956869163,0.144527378,0.0416021975,-0.146893815,-0.1035227697,0.1887058594,-0.6419088339,0.2471381339,-1.0557333835,0.3863637987,0.951128306,-0.7831093193,-1.2137506481,-0.2959769712,-0.0989097452,0.2171115945,-0.9779039385,0.9294871201,0.4679304292,-0.083752845,-0.6361086745,0.3744982195,0.2163463179,-0.6943900617,0.7352064616,-0.5444840179,0.9405964628,-0.471793485,-0.7014597411,-0.5042329897,0.0035630127,0.2658459831,-0.1382856955,-0.2011412213,-0.3149752187,-1.0288812042,0.3099044901,0.2148024577,0.9727735191,-0.5753914954,0.0970238121,-0.6476974105,-0.689399699,0.4550744919,-0.9725051749,-0.8706637722,0.7767518712,1.0016803696,-0.439267883,0.1063043349,0.1253842619,0.1546214587,0.239132257,0.5238515244,0.9317654073,-0.4121957856,-0.6603619445,-0.9071598131,0.0172102888,0.4918634704,0.6643527137,-0.3076344584,-0.9109460442,-0.1040580196,-1.0404062908,-0.5095799018,-0.1122197136,0.0060990885,0.8793425407,0.4609991859,-0.567666478,-0.5827003431,-0.568502959,-0.3773066655,0.6614994429,0.7517046799,-0.142202577,0.3255154989,-0.1542130235,0.4644233961,-0.2851871101,0.6420768922,-0.5226276362,-0.2204604832,0.0781149354,0.5974376192,0.0980495993,0.4863609321,0.8766620953,-0.2151264058,1.0414600651,0.2484360597,0.0127361061,-0.3114945641,-0.2511285785,-0.6264948738,0.4170358669,0.9554193759,-0.084067796,0.4977591606,0.0715937319,0.0179390009,0.8557532984,0.2785939375,-0.1943964733,-0.5271464894,0.0226941088,1.0737893583,0.6253258668,0.8386227928,-0.3021910078,0.4211371382,0.2851626617,0.338841626,-0.3733384031,-0.4945037618,1.0461441684,0.2688698766,0.003604073,0.6912240426,0.5796882378,-0.1302745098,0.4494764124,0.5419627644,0.1312443786,0.7113811407,-0.7893355732,0.1090125908,-0.0393410769,0.1204543184,-0.56208699,-0.7404084594,-0.6522328662,0.2515058006,-0.243975693,-0.0010741835,0.1662196824,0.155500551,0.8220540568,0.9144604595,-0.5347306822,-0.647832942,0.4619152231,0.4841165883,-0.7572552505,0.4029764519,-0.2769749506,-0.6260152321,0.4883083352,0.1326697291,0.079299502,-0.6591272844,-0.6802654964,0.1482941424,-0.596196942,0.6127831943,-0.2180766259,0.4814844269,0.1019370494,0.8488660801,0.6981019765,-0.2594058877,-0.164011059,0.6357787629,-0.0869958863,0.3954138123,0.1766483504,0.0602513007,0.3698788789,0.4461563981,-0.4359313336,-0.4271149911,0.4189535547,1.0252710794,0.3536061156,0.5803641329,0.9340229564,0.1396609349,-0.2274736971,-0.4760263476,-0.894765209,-0.7118225766,0.9161786879,-0.0058640887,-0.6628136283,0.5775864036,0.5777008593,-0.0638659899,0.0030670031,0.6327627367,-0.8303670962,0.2438260495,0.8661111915,0.2128508221,-0.0201371268,-0.4522851009,-0.360002147,-0.9444591654,-0.5826896291,-0.1910477409,0.3452127676,0.4738844633,-0.4420891105,0.7612888347,0.0322654221,-0.0861243,0.2010655717,0.1777911326,0.9249322045,-0.2619798493,-0.4156821019,-0.0914345656,-0.5876576878,-0.1719128821,-0.5668011621,-0.2334593458,-0.7468771483,-0.3404303006,-0.1369824093,0.1577278606,-0.7301449008,0.6437945005,-0.9460771027,0.6775111055,-0.8419054164,0.7358421665,-0.3463535811,-0.614496932,0.313214749,-0.3128749989,-0.7402206372,-0.1981930435,0.6836641355,-0.132425575,-0.072863584,0.0087680486,-0.9749402171,-0.2353539619,-0.6898819301,0.2742539538,-0.6340069624,0.5126623677,-0.071827545,0.2806625592,0.2628688674,0.6842942425,0.6286275264,-0.9514154631,-0.5643275387,-1.0903230288,-0.0286259781,0.5034670351,-0.7265378829,-0.7315777185,-0.4467781568,-0.8421405162,0.6808135775,-0.8573600033,-0.3682225617,0.7995627411,-0.525559632,0.4394296032,-0.432507347,0.3981763622,-0.2846389935,0.1828036872,1.0182706143,-0.1556191521,-0.546318021,0.0228160195,-0.6819381565,0.0077069106,-0.8139226325,-0.6538212223,-0.1811689951,0.8516381352,0.5929022059,0.204320208,-0.6212077572,-0.1949775911,0.7797175956,0.5307542404,-0.1041685819,-0.751548142,0.8937143164,0.4224269133,-0.8181245793,-0.2533095818,0.2142822731,0.0868691972,0.8166148484,-0.2843371811,0.7129899428,-0.2851654546,0.9242022599,0.5607849481,1.1774531826,-0.1539172082,-0.4863123473,0.2782913451,0.377576248,-0.252883974,-0.1729785965,-0.3399462708,0.0177434741,1.1699807471,-0.1015309455,0.068603404,-1.0376746814,-0.9136414719,0.2565522321,-0.0813291106,-0.164703932,-0.1255008097,1.1665208174,-0.296825148,-0.9558755927,0.3367180065,-0.4626958437,0.0942280607,0.0814144747,-0.7822490184,-0.5348662294,-0.6248781289,-0.5147111283,-0.1529416774,0.7170188223,0.2658601083,-0.5360996768,0.7180372523,-1.0975238313,-0.7768236953,0.0987769654,0.8439203001,0.4581067337,-0.5066430556,0.0709402955,0.2185933112,0.4592578764,0.8594778567,0.7376607013,-0.670054155,-0.423535951,-0.8221470215,0.323832952,-0.5379650031,1.281265194,-0.6325794122,-0.7610011895,-0.0179563754,0.0514192964,-0.6601034518,0.0787311941,-0.3930225302,0.4579706129,0.4410980837,-0.3473461516,0.5404957264,0.4725339083,-0.9650828488,-0.1163042767,-0.2084482604,-0.3670040813,-0.2992972744,-0.7552678228,-0.4625016416,-0.0519024688,0.3561822013,-0.2484631902,0.7303056309,-0.7156488004,0.6473627517,0.5284740973,0.80627347,-0.9920193632,-0.1548446461,-0.8537286859,0.1635060531,-0.6239500263,0.6069805822,0.4134574995,0.1161840984,-0.3944418014,0.6163070984,0.3995983227,-0.8842535168,-0.6136200019,-0.2723225501,-0.315943012,0.7729225126,0.7305729471,0.3993228577,-0.5791189732,0.7065400856,-0.3002754401,-0.2989726237,1.0038741649,-0.2932574226,-1.0391848864,-0.1217680012,-0.3356714748,0.3069182028,0.3109541242,-0.0655009849,0.0583225997,0.6965021772,-0.6291080028,-0.9168846701,0.0790365969,-0.9867858272,0.7886903859,-0.1787907161,-0.4893398238,-0.8152241406,-0.1432246457,0.6399463706,-0.6834207382,1.5729935757,-0.0368169682,0.1283471309,-0.2358895492,-0.7694326976,0.1890325695,-0.4747175406,0.6291793462,0.592071015,0.5347707355,-0.5378860095,-0.6283151562,0.5834618902,0.5856831587,-0.1803827513,0.8567592106,-0.1865008963,-0.2932197962,0.9358645273,-0.9337964835,0.4641756825,-0.0021970997,0.7393060226,-0.3805314852,-0.9529318725,-0.6478344008,-0.2977381579,0.1982193877,-0.1899657124,-0.1833852202,0.4126441787,-0.1894166055,-0.0576279261,-0.6421038471,-0.6327391746,0.3537773366,0.2158872011,0.8986737045,-0.3919548351,-0.4242989027,-0.9684110941,0.0239060759,0.5096453613,0.1244711078,0.619934616,0.5798923953,-0.6839431714,-0.5553157883,0.9536335401,0.5168268618,-0.9367139846,0.8980155179,-0.5778765228,0.5751414923,-0.6497722972,-0.2658524509,-0.2805547827,-0.0424153147,0.3516507463,0.2071102638,-0.1320270938,-0.239053708,0.5282156823,-0.7134022058,-0.2111433272,-0.8718514058,0.3117262986,-0.2893861021,-0.1134254318,-0.3565265919,0.3102773669,-0.5903331001,0.7032305095,0.7330704953,-0.8145950716,-0.3240466864,0.0947458758,0.0166778172,0.4245820899,-0.7507759191,0.6762627606,0.0839501279,-0.8843449246,0.7922459226,0.0935029708,-0.3208264297,0.1231517591,-0.0495823061,0.7468301924,-0.7313221964,0.561848879,0.8109808982,-0.7143547775,-0.9069706934,0.141944946,-0.1806739409,0.0074891901,-0.8551409282,0.7459354898,-0.7650510907,0.7072393991,0.0662622075,0.0568495153,-0.0434475014,-0.1742734194,0.3308047707,-0.6446660383,0.1347794737,0.7366949249,-0.3403121248,-0.0483907182,-0.2747793193,-0.167285896,-0.1589560862,-0.1414251738,0.5633369788,0.0544379548,-0.6133972028,0.200293542,-0.8430443054,-0.4676771869,0.6266104898,0.0815263815,0.7395850137,-0.087308348,0.6628375517,0.5490460029,-0.4964792623,0.6390043105,0.9306492014,-0.1367087458,-0.6298392695,0.4331523165,0.1628250986,-0.484851276,0.0787246467,0.616354115,-1.2852749523,-0.6130083548,-0.3079829364,-1.0002947292,-0.3051639516,0.9874004769,0.776528775,-0.5079934205,-1.4602004123,-0.2650797853,0.5063007953,-0.8011050328,-0.7550248673,-0.6223966988,0.0629346668,0.7255741104,-0.7662009212,0.0173567853,-0.4672822399,0.2920857002,-0.1692911964,-0.1980611823,-0.7082865859,-0.7279149293,0.2084033979,-0.4790079325,-1.2181284875,-0.7260451857,-1.1770994985,0.5194368971,0.000406283,0.0918016942,-0.919569903,-0.2742496193,-0.3753155582,-0.8421917626,-0.4162769342,0.678373473,0.3795701189,0.0851651169,-0.9164274035,0.7691504207,-0.255328753,-0.4283491579,0.0873133188,-0.5553158799,-0.0425228683,-0.3384100082,1.2216696014,0.5762110003,-0.244012999,-0.6163746754,-0.1094901382,0.5849236932,-0.0529508331,0.9504139064,-0.2011058537,0.185084006,-0.5577000949,-0.3071080866,-0.6480493725,0.1100219934,-0.3103323041,0.4596707766,0.9304675981,-0.5302946629,0.2349965316,-0.5359095335,-0.2298987673,-0.174555529,-0.7171522466,0.0157311596,0.6303705788,-0.8890922254,0.116665792,0.2876628046,0.1047240324,0.6657409272,0.3483464114,-0.9016445423,-0.0141804148,0.0032029759,-0.1787361086,0.3280989194,-0.0226166412,-0.6325528074,0.8322450812,-0.2871618021,0.1700029093,-0.6537859327,-0.826698449,-0.4780240643,-0.6973169901,0.4221362651,-0.3259686987,0.5728264342,0.8231368421,-0.456968238,-0.497658646,0.8741751801,-0.4749240283,0.1484408374,-0.5648042339,-0.60620818,0.2244560391,-0.0067763041,0.2835746879,0.0884564426,0.8509901861,-0.0837578,0.0599878768,0.7101539053,0.0738329307,0.4188392363,0.1111835268,-0.0858590791,0.6719637201,0.377845746,0.3302235404,1.0409855497,-0.1078733435,-0.9421208494,-0.2498053866,-0.414061425,-0.206650555,0.6626270395,-0.6877978428,0.1568754119,-0.4821736703,-0.358121979,-0.3796049751,0.3746342439,0.2311770194,0.4426337361,-0.7925662453,0.0829982671,0.2570190463,-0.3150861863,0.7450899048,-0.3937983093,-0.8915885375,-0.3250446491,-0.584487659,0.8546163183,0.1191633769,-0.7523413412,-0.8584807802,-0.7391800716,-0.1007910286,-0.0179172148,-0.4634896242,-0.5318257053,0.0811100583,-0.8621065139,0.7645036366,0.295234717,0.3241915162,0.536496774,0.7637444751,-0.5236059901,-0.9403938212,0.9766925097,0.5350376303,-0.9551230605,-0.7690643802,0.1435624218,-0.3622349326,0.528364868,-0.1040965345,0.0489390332,-0.0475003947,-0.3629954957,-0.3484664347,-0.7762445813,-0.5477555623,-0.6854153279,-0.575769312,-0.3626001452,-0.1843894468,0.7815511818,-0.5017845241,-0.0936238392,0.5306437555,0.6155546787,0.4691410349,0.396371607,0.3626999108,0.1750271037,0.615791962,-0.1880481953,-0.7632116372,0.4467270347,0.0778648591,-0.4360270075,0.1633078571,0.8491064935,0.4035913191,-0.266768898,-0.3845100031,-0.3853870082,-0.6059923699,0.2426586631,0.3800169725,0.7167617007,0.0945485365,0.3959773946,-0.0401823658,-0.2418560925,0.532565597,0.996139574,0.4469444617,-0.6437588308,0.5882803328,0.1504973973,-0.5966079314,-0.1865293335,-0.8846938247,-0.481830024,-0.6632815034,-0.6195424691,0.2977128805,-0.4902149432,0.0290158963,0.7528763891,-0.4210251397,0.0228191896,0.1343665628,-0.0387588648,-0.2825097078,0.692563669,0.1780521768,-0.7399031282,0.8237577797,-0.4883499855,-0.1599557184,0.3635398905,-0.5151373781,0.3410852698,0.0157209912,-0.0989428107,-0.7940042773,-0.6775594593,-0.6665962536,-0.1137546944,-0.2586934754,-0.1188074647,0.349120543,-0.8726723507,0.4240553002,0.1654127609,0.6109342242,-0.8283701516,-0.8453594093,-0.357028419,0.3646493333,-0.3462903346,-0.2244653409,-0.9483576863,0.8747484588,-0.7148442689,0.5519652646,0.5701618212,0.308710565,-0.1470604659,0.6075500467,-0.5373147881,0.6425406058,-0.0772987563,-0.0530890947,0.1151177473,-0.4880940369,-0.2081689578,0.3536567567,-0.1917115069,0.082527516,0.6774900195,-0.1096072068,-0.2415889985,-0.2894557227,-0.6547947616,0.1765341152,-0.9615245132,-0.6627351791,-0.5796399535,0.5734007315,0.7113518673,-0.8932669244,0.613947313,-0.0778457857,0.1958688097,-0.8565980281,0.4772442602,0.5445358192,0.1129065735,-0.6158281438,0.8336196531,-0.5672795218,-0.8803393793,0.5016863924,-0.3329865182,-0.132853404,0.1058086474,-0.5627155358,0.4971081351,1.0011469806,-0.7231527307,0.4861861633,0.1963845444,-0.3258792899,-0.5427667328,0.7579681918,0.9078595056,-1.1749417109,0.8476901419,0.0946693858,0.2509835034,-0.1168676981,-0.4663720468,-0.7222638177,0.0845520931,-0.4918096945,-0.963654062,-0.1401525247,0.7204141584,0.512342182,0.3842900839,-0.0191488001,0.1792285195,-0.4517458462,0.072300796,-0.4884716152,0.2349318997,0.7065894644,-0.4832745175,0.8076852838,0.0388647298,-0.6789227166,-0.7795030807,-0.5692071475,-0.3314518943,-0.7160730032,0.4469875693,0.3541977307,0.6998112647,-0.081950206,-0.5180634368,0.2234381422,0.5128260089,0.8222652644,-0.4654273657,-0.3118245823,-1.0475331195,0.8745535878,0.0287890041,0.9817309538,-0.6150908139,-1.7953604749,0.5880930374,0.766832534,-0.0537237844,0.4444285954,0.9658291369,0.7891346336,0.3561655735,1.1151085488,0.2204370734,0.0332771706,0.8202812094,0.963167913,0.1047797232,0.3411784834,-0.5816608441,-0.1147628733,1.0759055101,-0.3838060035,1.1664713633,0.7230836914,-0.665738747,0.4377619469,0.85608026,-0.7915177424,0.2924651977,-0.5601318771,0.8584408802,-0.4837525224,0.7910492749,-0.2809900796,0.2368097459,0.8933424887,0.0274783433,-0.9949146365,-0.3467757565,0.9044227502,0.6941828461,0.1526870691,-0.1215269198,-0.2112173069,0.4562456291,0.4433189249,0.3246580986,0.9702210064,0.5004481839,0.1152637343,-0.163490959,0.3954995819,0.476115787,0.1079945338,-0.994660266,0.8791589364,-0.3349358227,-0.964433112,-0.2193673307,-0.1319536267,-0.3471134693,-0.46182506,0.6015658023,-0.4832604303,0.341528418,-0.7472765661,0.5185146946,0.3073495034,-1.6909158157,-0.7066570993,0.5509940614,0.0591607848,-0.0760813374,0.8523981643,1.2865892674,-1.3199611483,0.471380854,-0.987498104,0.0839478593,-0.5755367232,0.2487309433,-0.3766541368,0.2768038216,-0.8585520664,-0.9576199345,0.3874796958,0.4296913895,0.5959120382,0.8482082276,-0.2765660994,0.3753899648,-0.3573752326,0.6592859236,-0.1167303614,-0.3819369852,-1.0510263783,-0.7675549032,0.6309599986,0.2951843533,0.8840589406,0.8740558482,-0.6912044767,0.5071130935,-0.1746856164,-0.3390141943,0.6390340058,-0.0054527358,0.036414225,-0.4974049078,0.3784949806,0.602051771,-0.5241460329,-0.180641787,0.020198005,-0.8461128365,-0.9603691377,-0.3248995369,-0.6905044173,0.3807871625,0.7307856434,-0.2058827833,-0.5047544442,-0.1509919705,-0.0720893295,-0.045724252,0.5922902814,-0.7345215867,-0.0657612666,0.9555103516,-0.6167968058,0.2493873893,0.1960563724,0.3516323844,0.4272111685,-0.7862679855,-0.9214084837,-0.4145733143,-0.7984664584,-0.8409836072,-0.3716909391,0.0098237462,0.6416639831,0.2124004993,0.6395513054,-0.1336249835,0.837302914,0.0580918554,-0.147123079,0.4019326508,0.8868947433,-1.0215435557,-1.2208304189,-0.6173042611,-1.2209215806,0.5200572678,1.0126041566,0.1318759355,-0.6882702038,-0.3349514711,-0.3791798574,0.7520192061,-0.9211379656,-0.8567657808,-0.5500683901,-0.9923066813,-0.471222386,-0.4447701979,-0.4216382799,-0.693626752,-0.5051011925,-0.5595796233,0.7643185721,0.0409990613,0.395080787,0.4030248211,1.1871394601,-0.8781250096,0.2169088939,0.6547198798,0.9555420956,-0.4365717787,-0.5040061949,0.3838576039,-0.6999382269,0.9726491701,-1.4517874825,-0.7104820253,0.3885339535,0.6824832351,-0.9517629858,0.297878499,0.3780939165,0.0803594805,-2.1492811108,0.6123129705,1.1972551768,-0.424305437,-0.8469231939,-0.7653186341,0.6555223508,-0.40526405,0.5433305807,-0.0387624777,-0.6325601882,-0.4147722512,-0.3186382727,0.5343308212,-0.6699733606,0.4607802783,-3.5767557649,0.6014324857,0.2023347109,-0.2424994051,0.0218518486,-0.4936502553,-0.7091118123,-0.5426723498,0.6123787262,-0.9135577768,0.8983034624,0.4032298907,0.2848037215,-0.2630584601,-0.4372456929,-0.1946910845,-0.2786860789,-0.6800433161,-0.5886545764,-0.9347207467,0.6295339486,0.688268637,-0.886973638,-0.0810335733,-0.3706747284,-0.6715772799,-0.0192383981,-0.6138262024,0.3867707278,-0.5458957565,-0.3800117288,0.7439851082,-1.0551592346,0.7498811079,-0.0920262118,-0.3681254633,0.9837485688,0.5075353502,0.8592891365,-0.2694029814,0.1416128217,-0.2954994418,0.725414105,0.8114403107,-0.504766725,0.4068668789,-0.5403141624,0.619237759,-0.2161350382,-0.8531433053,0.497460098,0.3145986401,-0.8630483687,0.1878838795,0.4960613327,-0.9673735607,-0.5593158113,-0.9387052161,0.2211701288,-0.0551130721,0.2897546593,-0.7637082474,0.4187494233,-0.7008528477,0.787449863,-0.9045903122,1.0769217,0.746118497,0.1502767848,-0.4342559585,0.8497413649,0.0790729298,0.7748581312,0.4992021175,-0.9964140818,-0.3586414969,0.2553549024,-0.1339589454,1.0583533062,0.0663214927,0.6692375214,-0.4502954723,-0.2919695995,-0.1534032603,-0.4674548334,0.1574427605,-0.0196927795,-0.0678319079,-0.2438567225,-0.0619159668,0.6383690695,-0.263164628,0.9581190788,0.5994541852,0.0963307024,-0.2981041074,-0.4565636881,-0.6884711767,0.2308311992,-0.8136135701,-0.8902466288,-1.0511306344,0.0610705213,0.1504744419,-0.1129096816,0.2265140282,-0.8663043935,0.2892469699,0.4290748972,-0.5454863446,-0.9249190052,0.6841045148,0.8970633871,0.3207914972,-0.5605549333,1.0042675098,-0.854709268,-0.9092009954,-0.0020924447,-0.5456833363,-0.1126586101,-0.4946397705,0.7143610043,0.1577406534,0.2785402135,-0.0574871358,0.1342019168,0.0849353254,-0.2529289367,-0.6263539212,-0.107774794,1.1003991587,-0.0783379995,0.2965481652,-0.9105357868,-0.4616306754,-0.0291823669,-0.696028353,-0.1128005866,0.7193750951,-0.7671525677,1.0253582548,-0.6855077373,-0.7582300631,0.3102284172,0.365205456,1.0019980768,0.582011675,-0.9224245492,-0.321695279,-0.3802710323,0.9147525501,0.0198645367,-0.0947359572,0.8861358191,0.8737817766,-0.2534780197,-0.3127173058,0.9173279955,0.9421251142,-0.8571395753,0.2349149629,-0.2877703357,0.3948100098,-0.5145776545,-0.733717013,-0.3338836335,-0.7336819531,-0.9736609801,-0.6632036561,0.8858041807,-0.54513281,0.7084042552,0.1657183117,1.2667924248,-0.7469270156,0.3807597203,0.0296404642,0.6329199774,-0.2999920613,-0.3336692326,-0.3597034194,-0.7662924189,0.5873038338,-0.590926817,-0.8794276794,0.9918058428,-0.5421473867,0.9393561777,-0.1307924688,-0.2369909436,0.572624433,0.874944595,-0.447185974,0.0281363958,-0.6180265365,0.9601525861,0.6587682292,-0.0137340251,0.2101376847,-0.6147952319,-0.1126841258,0.8172134122,0.7928995756,0.7567919035,0.8573591354,-0.1189577076,0.347010567,0.7835113151,-0.7382830283,0.9172173135,0.5647958747,0.6508439543,-0.0835024621,-0.0876774772,0.2510259725,0.7274880737,0.2311019565,0.2010046847,-0.0465091292,0.9140609751,0.5261702415,-0.5720022483,-0.333749849,0.8601293287,-0.8008551813,0.3589697398,0.018967006,-0.2619989654,0.3312723549,-0.0244036992,-0.9422263654,0.346459469,-0.4012639979,-0.27899403,0.8067741041,-0.5594391502,1.1355826293,-0.9457038753,0.7384332206,0.6456887306,-0.7588703664,-0.8965027476,0.4695401892,0.1601955193,-0.038636645,0.8645893643,0.0975830919,0.0505663179,-0.3944210398,-0.839507793,-0.407314699,0.343618255,0.386755059,0.2955050361,0.3247386411,-0.8422761932,0.2693337124,-0.9019966076,-0.527429291,-0.2316825235,-1.0986606382,0.9502240405,-0.9038854854,0.6552139555,-0.8837668883,0.7578845233,0.5301640031,-0.4399644279,0.5969831783,-0.3431699451,-0.3207637996,-0.5839517165,-0.1041236284,0.1319816682,0.1002343274,-0.9080078538,0.3124517389,0.720189748,-0.0952325074,-0.7516781026,0.4215401953,0.4446762854,-0.3724388709,-0.5662580227,-0.3028770749,-0.6599764082,-0.3624443577,0.1969491729,0.0718034672,0.4260688494,-0.155919833,-0.2482208343,-0.3994933521,0.0069149793,-0.3080189427,0.239472827,-0.0728296123,0.2092129863,0.3806063311,0.9009122961,0.4289712231,0.2211874405,-0.6314741175,0.3462806666,0.08619196,-0.5578811833,-1.025305621,0.0367408044,-0.8563813033,0.4945120113,0.9113557918,0.6485275191,-0.1094430473,-0.6346095391,0.1523258773,-0.0306322823,-0.4776037269,-0.5173840605,-0.54388368,0.7772918725,0.0410114927,-0.2236510949,-0.4992547471,0.8821407101,-0.7514027718,1.0104874785,-0.1152836705,0.0395397276,0.2071648694,-0.3896576928,0.1500894259,0.1758924273,-0.6328993877,-0.9415144571,-0.4995402417,-0.5351490582,-0.3679725147,-0.0141767761,0.2472953559,0.1105338808,-0.4576295889,0.6112050826,0.3076949237,-0.1100754561,-0.7275589807,0.4129228232,0.9300622105,-0.3242155627,-0.809606041,0.8392154904,-0.9340164948,0.3530611821,-0.6808253595,0.4758627495,0.6925709346,-0.2060774425,0.7543663126,-0.2261414759,0.51338962,0.5299964592,0.4601902943,0.6861771682,-0.9670312452,-0.2755745518,0.1299748554,0.3439711926,-1.1113277089,0.1787037465,-0.3043584258,-0.2415245052,0.9762105982,-0.639485692,-0.7642465903,-0.4416663765,0.0604407791,-0.6833137294,0.7030326617,0.1829162987,0.4300056947,0.0831036263,-0.8286204259,0.9387336552,0.4173840764,0.1453736275,0.6380964747,0.946690741,-0.3786072668,0.557799585,0.1694972119,-0.6869184515,-0.1939326345,0.4029751569,0.4562100987,-0.9177879146,0.9201121517,-0.195295711,0.8341267795,-0.6013243514,-0.6585073646,-0.5621312127,-0.5581124408,0.6972750576,-0.015369488,0.4601235611,0.7468806503,0.8293722018,1.0602207177,0.8030170716,-0.6730254127,0.0863352957,0.2255997003,0.7709675903,-0.0640249167,1.0246736361,-0.7193837858,-0.7557730863,-0.3033727518,-0.2627455861,-0.6561144809,0.8586583445,0.1191401988,-0.8270755508,-0.1203084601,-0.0251565298,-0.4863581049,-0.1207802263,-0.7731340585,-0.8083810567,-0.1779113768,0.442436646,-0.5087543002,-0.0915452631,0.9458816378,-0.2840405542,0.5753285983,0.1518110478,-0.1918427303,0.0389572934,0.0635383764,0.1841064102,1.1125117217,0.6570978237,0.7394854029,0.2714885245,-0.3413643455,-0.5822630474,-0.4983824517,-0.2657703761,0.2444072318,-0.7519048962,-0.7590434679,-0.1929689568,0.3754836886,-0.6558910188,-0.0344086934,0.0938115847,0.1752164554,0.0709406777,0.5716254819,-1.006622513,0.6618212984,0.2873224549,0.2121527941,-0.0695024793,-0.3929409092,-0.9401836524,0.1623079865,-0.1481805264,-0.300785053,-0.7018570553,0.810130397,-0.7109140432,0.2670250534,0.0276802988,-0.7025357341,0.1783092871,0.3550725484,0.5821535966,-0.7842375884,-0.865716638,0.5915120983,0.5424767503,0.6262234589,-0.6444161722,-0.317099781,-0.2870152556,0.5308975807,-0.5573570708,0.0300499146,-1.1836130655,-0.2527935307,0.5261672846,-0.5823936362,0.2478350627,-0.624988261,0.1897165996,0.3461293489,0.8503727347,-0.3330678495,0.5806279317,-0.0447454693,0.8932338614,0.2367559429,0.2304451035,-0.6529276373,-0.3105264739,0.4092415235,-0.7843938372,-0.0086211541,-0.5308587004,-1.0132132356,0.3729233171,-0.1217999995,-0.0059363556,0.3728981375,-0.1453724071,-0.5027696904,-0.3735807699,-0.7780511726,0.27824772,-0.2986973711,0.0894436408,0.0516787263,0.8951040647,-0.8949555155,0.7017117113,-0.5820478037,-0.0393697279,-1.1376501999,-0.182129727,0.6020459843,0.1167645924,-0.1239075817,0.776820363,-0.0659488052,0.1554040886,-0.269120406,-0.1164521332,-0.7289616493,0.2538528838,0.2127820383,-0.2551208107,0.9754385316,0.3859088646,-0.9326465889,-1.1937839383,-0.3337854982,0.0750764891,-0.0753254237,-0.9207274559,-0.2626305043,-0.093258135,-0.2638952382,-0.7191854619,0.6249606149,-1.13036308,-0.7004576036,0.5208667317,0.1425559487,0.1338525183,-0.3606508446,0.6344085413,-0.9061506772,-0.0138815812,0.4429655309,0.8471429338,-0.0179568881,-0.2289138266,0.3925609949,-0.2278143024,-0.714847499,-0.1648890927,-0.8730664106,-0.691067614,-0.2191549959,-0.0245961204,-0.6974238847,-0.4079053806,-0.1347040205,0.7855726464,-0.168166119,-0.2879757473,0.5978379512,-0.4442161171,0.1302488274,0.0876290261,-0.2781201246,-0.8940273715,-0.8690858875,-0.5414275214,1.2108741819,0.6943614351,0.8564041223,0.3810662631,-0.4693832266,-0.7028303615,-0.209756841,0.3665257402,-0.2096600182,-0.2791446959,-0.9565202412,0.3612505221,-0.1160930427,-0.5658744373,0.3548180054,0.5093773297,-0.8107080655,-0.2455929018,0.1370982006,0.3794473665,0.3679916107,-0.3898561453,-1.8722227302,0.8252970106,0.2701775679,-0.3014467699,-0.4012194141,0.1777204968,0.7272329214,0.2112130414,1.9941168073,-0.3367616553,-0.4665283471,0.1885433245,-0.7205279741,-0.0473134469,0.5066792429,-0.2319791713,-0.879452365,-0.1520108503,-0.0632402195,-0.6073159836,0.365992877,0.3772975025,-0.4809219988,0.8957190838,0.5814246175,-0.2742048542,0.2081270307,0.0474723828,0.6077943949,-0.6327313457,0.4135765836,0.3006845581,-0.0100982296,-3.4927245947,-0.2322330725,-0.033377766,-0.5417619908,0.1914057693,0.1848522548,-0.5429293519,0.2431397424,-0.5216595298,0.8088543868,0.7191953972,0.8373307066,-0.1277445308,-0.4052135969,0.3193659664,-0.8628146095,-0.5774940985,-0.2296851771,0.8960287453,-0.0394272977,0.3036772393,0.1735242855,-0.7632358206,1.0108688624,0.8733582939,1.0435309304,-0.1653168638,-0.8344808412,-0.2513026324,0.4334046592,-0.0881296568,0.4434702568,-0.6907914699,-0.6814478586,-1.0278013813,0.3244916376,-0.0351506877,0.1699081086,-0.4082172509,0.5129938731,-1.1441362511,0.1958110385,-0.6533708648,-0.8479550664,-0.5008987625,-0.1446525902,-0.4142083904,0.4163507439,-0.7284971223,-0.8517487681,-0.2426397657,0.0384842737,-1.8004830243,0.2791653797,0.285630863,0.9759545484,-0.0793746693,0.1665165964,-0.544657628,-0.0820087409,0.314845446,-0.1603134161,0.7158740717,-0.321582316,1.1949206202
   1.0006677519,-0.1824978521,0.0984291819,0.4215727326,-0.596830361,0.617798758,-0.0865584529,0.9460462304,1.0093802635,0.0730998752,0.9542859641,-0.3425733438,-0.4943367025,0.391418214,-0.6464510566,0.6024541453,-0.5451343308,-0.3085433151,0.575363354,0.05724491,-0.2954248878,0.388954667,-0.2110083784,0.7373665436,0.5517947225,-0.9263361813,0.3111099367,0.3204090943,0.3078153363,-0.0316773976,0.0915734758,-0.0544168076,-0.6804500851,-0.3680662693,0.5697434762,0.1936949292,0.8709061764,0.3703507082,-0.7230648884,0.0718861502,0.76566881,1.0387063961,-0.4497875257,0.1913420502,-0.6398366301,0.5946027422,0.2121428293,-0.7294758466,0.3655014362,0.796787665,-0.1339673481,0.5508671459,-1.1085004047,-0.098108369,0.8802884611,0.3847466962,-0.3959666703,-0.455462431,-0.5081462478,-0.75144813,0.5402284472,0.2801826005,-0.00443214,0.8550557459,1.0125969198,1.0602449977,0.5255428998,0.6777231068,-0.8763172983,-0.4890035053,0.4512391329,0.3290903511,-0.1472365665,0.776528539,-0.5348684583,0.3806956779,-0.2108950248,-0.0409878842,0.2205044304,-0.3136429046,0.9124299028,0.0869974963,0.1054624814,0.4392469373,0.0697725459,0.3280041257,-0.1092648772,-0.7195451927,2.096000232,-0.9045241871,-0.6972176229,-0.4599167284,1.0706533669,-0.3487870945,0.9041318782,0.2844067701,-0.9071633063,-0.2933117485,-0.9264241055,0.2557270261,-0.9807820087,0.524800493,-0.9193262758,0.637712095,-0.286283198,0.8394915499,0.5615860714,0.3142202463,-0.9360344454,0.1406228956,-1.1039028109,-0.9588882647,-0.3172160106,-0.5725175554,-0.0730867762,-0.2529530793,-0.3002260406,-0.3226264383,0.1344020561,-0.6103471233,0.169661015,-0.7563317035,-0.7889410493,0.4176778676,0.7501047071,0.0404533912,-0.319946616,0.6609967348,-0.254789115,0.0675812411,0.9355223629,0.4771252252,0.2043821451,0.2579684153,-0.7817611646,0.4622441243,0.2647813986,-0.1271237438,0.4024721996,0.830858032,0.9206930994,0.9471640558,0.1339198249,-0.0542649433,0.082724113,-0.3106005713,0.5469567823,-0.6133144569,-0.3959614495,-0.7277068492,-0.4909941411,-1.3329352072,0.3591276405,-0.2393668651,-0.3692609717,-0.1306926448,-0.771622917,-0.2191178866,1.0057640511,-0.3871366672,0.217404136,-0.5317619517,0.0746198429,0.7979920421,0.9184906539,-0.0509437935,0.6908063859,-0.245732495,0.0850861279,-0.707001856,0.1258815977,0.1326912679,0.9644680975,-0.8462627997,0.6183519733,0.2243595983,0.3980744513,-0.2206972775,0.2050801173,-0.1260821508,0.716247056,-0.1610640409,-0.8761574429,0.487041888,0.9647334797,0.2880044858,-0.0207297854,-0.0265369391,0.2912997981,0.5314841087,0.6263054357,0.9330135854,-0.6592632425,-0.0112365038,-0.1665810472,-0.1626945283,0.3236595438,-1.1866103357,0.4095740729,-0.7623710773,0.9841458731,-0.3756731035,-0.6932576161,-0.8978490641,0.9260368215,0.8402015572,0.228054852,0.1101454865,-0.4302047259,-0.407125393,0.5671842652,-0.9918190688,-0.2490759563,0.1698647397,-0.0893528955,-0.3932522241,0.7622243763,-0.9241402831,-0.5433361765,0.3565273899,0.9425432472,0.162094865,-0.7322662593,0.506705414,-0.173707364,0.5996585785,1.4066731184,-1.4197976096,0.0603999099,0.4450143948,-0.4449441655,0.1431806028,0.6137988958,-0.1030869665,0.2799174083,0.1381438391,-0.466461759,0.5532460522,0.2819098383,0.1271353648,-0.4318183185,-0.1751070592,-0.7849961488,-0.4714024176,0.9814852629,-0.66891263,0.3813544696,-0.7048973708,0.9725210724,-0.1140867208,0.2518440837,-0.5504581887,0.9759778647,-0.878097688,0.936612624,0.4168069396,0.7524122814,-0.9892865562,-0.5828675336,1.3235468126,0.2150321014,0.2114798317,-0.0448405113,-0.4071572021,0.4283178767,0.915925213,-0.0052289115,0.4261805224,0.9265038434,-0.358936991,0.156949845,-0.4168340239,0.9848724339,-0.8218085501,-0.8773471959,0.9000534555,-0.3404452383,0.8772105857,-0.1216496334,0.3548788235,0.4903730258,-0.0488156142,0.6005128401,-0.6022625181,-0.5983270548,-0.735273777,1.019314548,-0.4533771495,0.6766175393,-0.0706133099,-0.7398169762,-0.516297157,-0.3517740033,0.8421225491,0.8577272753,-0.3380070573,0.223035435,0.0126937351,-0.5472642347,0.2497446622,-0.2377625629,-0.5091786544,-0.1347145127,-0.5783637298,0.4055633102,0.9254833795,-0.9030123802,0.9440363596,0.4718793094,0.0500093853,0.2663615941,-0.3435837521,1.6846334961,0.9368606671,-0.2116383692,0.5285618802,0.6680937907,-0.6175130784,-0.7152809137,0.0820260043,-0.8853549594,-0.6245802082,0.789703426,0.5636463689,-0.2015546474,0.9412614691,0.3794277207,-0.0008559214,-0.8378355989,0.3799539394,0.7161599119,-0.02876997,-0.282936484,0.1109815854,0.7785202229,-0.1081160603,-0.7579681321,0.4632225919,-0.0005436798,0.3266051749,-0.5795548495,-0.3869229433,-0.8201927163,-0.4394311952,0.0504893611,-0.0962142491,-0.1888762776,0.2598064159,0.0479875747,0.216172603,-0.6334021198,-0.4494441513,0.2030645215,0.4302935721,0.6906828085,0.0956388538,-0.4807814928,-0.4909525439,-0.3715394124,0.9152023439,0.7964564197,-0.7798764542,-0.1186290759,-0.5691352378,0.6682404354,-0.4147617777,-0.4801948636,-0.981542498,-0.296051485,-0.0647935715,0.6988622949,0.040940802,0.3007890187,0.165003972,-0.155060507,-0.3321801816,0.7451869144,-0.0515081713,0.622038108,0.0823047266,0.6874068888,0.9229216477,-0.0534796082,-0.0734908327,0.7839373344,0.7039091226,-0.4259510628,-0.0225810159,-0.7019543122,0.434962932,-0.3754977972,-0.4241353069,0.3333895947,-0.4225601126,-0.6585619198,0.7000349523,0.2287138494,0.551062636,0.5754336048,-0.0453014718,0.3890462618,0.9846744561,0.6181917423,-0.1747392713,1.1763795399,-0.676067287,-0.3771857679,0.3888443472,-0.6543881343,0.1462595004,-0.5644260945,-0.2501396311,-0.5134790698,-0.9962404729,0.8653955954,1.0457031276,-0.2698459862,-0.251963849,0.2356438923,0.2784928553,-0.1731189066,-0.7393106457,-0.9078179754,1.1052303808,-0.1618258266,0.48124347,-0.1566145778,-0.8497361478,-0.3974463408,-0.2930145464,0.2271760156,-0.395889699,0.0719554446,0.1758882779,-0.2835024518,-0.128993349,-0.1526722525,0.3499753792,0.7838474741,-0.8897434286,-0.1804643936,0.9442469569,0.2855824715,-0.2635222013,0.0768238128,-0.100923879,-0.4063917655,-0.1718632086,-0.8664520905,0.1575349288,0.1907497698,-0.6607025398,-0.1868713081,0.0331782222,-0.5109726984,0.6118011758,-0.0802272158,-0.0589018803,0.5248330536,-1.0166882921,0.4833452469,1.0506924761,-0.5029570203,1.0536036498,-0.6841188361,-0.1511375839,0.2786241724,0.8272943614,0.817100104,0.5383195141,-0.1889046748,-0.3456006195,0.8433577337,-0.1541548953,0.4995956547,0.7637559507,-0.7468507807,0.6964056954,0.1938720852,0.5805257086,-0.279117319,-0.7765658041,-0.0409526137,0.3784826757,0.2797871437,0.7485065812,0.7865133284,-0.6894750599,0.6711409951,0.4595460087,-1.042367979,-0.2093855681,0.5330756301,-0.177616301,0.614390104,0.4114566802,-0.300409071,0.5288718731,-0.96779397,-0.3118331625,-0.871078099,-0.9829885567,0.2385649627,0.4108051807,0.6579747081,0.9927383703,-0.668264646,-0.4401549554,-0.0086499638,-0.8265012819,0.7165655364,0.7206346695,-0.237074149,-0.0813100981,0.2005723989,0.5223078507,0.3651483242,0.4301598231,-0.0174298938,0.6190368139,-0.5967855025,-0.673592515,0.6824775096,0.3692007789,-0.1421632129,0.0277912051,-0.7039601224,0.0804628749,-0.0807789733,-0.1468016094,0.6994460068,0.4604072751,-0.8674496906,0.265903403,0.7055517212,-0.4029996383,0.3200183588,-0.9923153729,-0.2579434395,0.5716015178,0.7398326547,-0.5985853115,0.5467520221,0.5121817952,0.730168123,-0.6905250681,-0.6110466461,1.0204247491,0.045109505,-0.4939849341,0.5451784544,0.6973190806,0.6768986602,-0.6084396217,0.8852151058,0.627753873,-0.5397311924,-0.2490296564,0.6526902508,0.1691271076,0.3056989333,0.069781886,0.8428588563,0.1988078112,0.4763033066,0.5808300603,0.8597386729,0.569696566,-0.5834304335,-1.6018010236,0.3114313514,-0.8870260912,-0.4792982744,0.5514346449,-0.6148867386,0.9372536733,0.186342907,0.499702735,-0.5773889674,-0.2295428515,0.260230531,0.4211481959,0.4082791282,0.443755334,-0.2079111998,-0.6655469864,-0.5637190594,-0.4855727332,0.3301856332,-0.9681397036,-0.5913015535,0.8019884359,-0.5001835204,0.1478125218,-0.5790662979,-0.041190963,-0.3297984115,-0.9141014585,-0.042729986,0.0293926393,-0.0401929958,0.2002627665,0.1304862762,-0.4503483637,0.8558747868,-1.0040567297,-0.3940467601,-0.7584625282,0.9239675144,-0.1890977399,0.5224414164,-0.6122812525,-0.3824188516,-0.32375,-0.2937219475,-0.4960183871,-0.4352506157,0.473628175,0.9633482602,-0.0696850002,-0.6379774873,-0.2537492279,-0.9342708895,0.7058080039,0.3481820643,0.7339210404,0.5848429352,0.4349706032,0.7201420501,0.0705364264,0.595757535,-0.7204724766,0.5962965511,0.0045382909,0.0760924232,0.6525983966,0.8287307974,0.4249178057,-0.1497242941,-0.690286077,-0.412911797,-0.2827802324,-0.3679590549,-0.0089144002,0.4113343139,-0.6340689946,0.9577459657,0.1391592474,0.6195256122,-0.248421117,-0.4434278394,-0.660658975,-0.0331668716,-0.7687685202,0.5652746282,1.272567806,-0.2954367088,-0.6679526954,-0.4736633188,-0.7812696827,0.0366742843,0.3248018413,-0.107956249,-0.0594400502,0.2607255298,-0.680451127,1.0110404722,-0.3946841486,0.7167791268,0.6288856988,-0.6269191077,0.8714461037,-0.0506694173,0.2143041145,-0.5875212191,0.6315143267,-0.8167629521,-0.7487632973,0.7210560806,-0.1277706738,-0.6293245757,0.1288606958,-0.8004970373,-0.1147205579,-0.5877737388,0.5520647729,0.4071736871,0.4363546503,-0.5799802504,0.7331962155,0.5438270886,-0.7508871168,-0.5685786599,0.9006241443,0.813628579,-0.1505461163,-0.8625873841,0.689685202,-0.5878961676,-0.3797258848,0.7818663306,0.8270923324,-0.7394294319,-0.038695729,0.3057563374,0.680589259,0.1656703057,0.4990013983,-0.8180843949,0.811759143,-0.1116924525,0.7820545207,0.3761746514,-0.6904412607,-0.0643886432,0.9449085949,0.0117118606,-0.3447345782,0.4219465884,0.057919586,0.5224868854,-1.2106630509,-0.5491964026,0.3224257848,-0.3739405524,-0.3578007446,0.0868646673,-0.7996710685,0.7799753284,0.2858653596,-0.0967217772,-0.119368817,0.2319659126,0.7442184145,-0.1196368287,0.6003209354,0.9214107521,0.4678601312,0.8488995561,0.6390021787,0.4910021414,-0.4928710516,0.0786744667,0.0566839377,0.8769985346,-0.3885431133,-0.7258338307,0.2683526155,-0.0196826828,-0.7590756284,0.6011509542,0.3080742986,-0.6796221978,-1.1333964499,0.3478720965,-1.2472187169,0.8325347312,-0.0254348486,-1.0924609291,0.8909666007,0.8819581508,-0.0001129655,-0.2175386948,-0.2592122564,0.2751420047,-0.1985526412,-0.2812004822,0.4976084009,-0.3364201327,0.3893403448,0.6508638847,-0.9446181378,0.4717852133,0.7326377184,0.875119827,-0.20028507,0.4467709197,0.5349792702,-1.0005888714,0.5675593729,-0.0950410664,0.6486552688,-0.6611125586,-0.8849181967,-0.0532426859,0.5781169564,0.8737436069,0.3739501964,-0.3489793923,-0.908519829,-0.1635386268,-0.0929719233,-0.6395713314,0.3257782501,-0.8311758671,0.1546796782,0.9843774099,-0.3631890832,-0.9697998201,0.1771478729,0.9041788411,-0.7536132396,-0.0084160473,0.4582308523,0.617857906,0.4619039463,1.0044687478,-0.1184571482,0.7679327359,0.4858193347,-0.3380427625,-0.1768807542,-0.1142837826,0.7299159807,0.4049271192,0.229726641,0.8933648983,-0.8650092149,0.2746144223,-0.8868995205,-0.0550932145,-1.039266955,0.2896719009,-0.4610747808,-0.212669862,-0.2625634155,-0.0356029305,-0.6530423829,-0.1875768106,-0.1538976177,0.4984416077,0.0599351157,0.3175293261,-0.8810375473,0.85191325,-1.0025285594,-0.6171357369,-1.0200069864,0.6869850517,-0.3550375348,1.2792880237,0.5239659689,-0.7148034646,-0.2400002785,-0.708180765,-0.9173340988,0.0751157758,-0.2242767769,-0.8287754743,-0.9143405214,0.2959637362,0.6400562631,-0.2285344686,0.9149991606,0.8302956886,-0.5446429993,-0.7846349381,-0.9946955012,0.2375009195,-0.5952954095,-0.2078498317,0.4353936217,0.0711781311,-0.2184949369,-0.1119967289,-0.9109674731,-0.4298352684,-0.2490684931,-0.8497711068,-0.505886206,1.223894788,-1.1699361823,-0.1465737228,0.8570899208,0.7603247495,-0.7813217705,0.3950198438,-0.3291760936,0.6388369857,0.1801695644,0.0571625688,0.7375800875,0.2313540441,-0.4545231422,0.0266273794,-0.9599701475,-0.7223358991,0.9828362978,-0.5248236416,-0.847520158,0.194369475,0.3407722702,0.0380773663,0.3836536396,-0.8577179318,0.613080831,0.6192879403,0.3956281485,0.9174021554,0.4417612632,0.7985872528,-0.7012617343,0.87419995,0.3344638026,0.415229289,-0.6148139839,0.1231630838,-0.1673182335,0.303962195,-0.3148340861,-0.9058734489,1.1836271794,0.8023898089,-0.4637890311,0.6246784959,0.0822952597,0.9726635098,-0.5661265143,-0.8583875306,-0.1944825326,0.5121079429,0.3745156786,-0.7317019021,0.9013165453,-0.0345238708,-0.440591966,0.0337097272,-0.5846919085,-0.964571847,0.0546896912,-0.152994235,0.4961423604,-0.5496705466,-0.0339549473,0.1698537464,-0.3613315426,-0.2568040476,-0.1387063085,-0.7000418953,0.9589606278,-0.2814392549,0.3222542017,-0.9765456843,-0.8232313678,0.635557052,0.5785379413,0.1015308436,-0.5986923636,-0.3033197192,-0.718927905,-0.8630146989,0.7067638578,-0.5435704124,-0.3955660834,-0.3327645531,0.8816936769,-0.1509738718,0.9757431499,-0.2387174416,-0.6021328301,0.5894313263,-0.8904989511,0.7499498343,0.1735179831,-0.4889744714,0.96871688,-0.9461184571,0.1608635522,-1.0625496016,0.9870461588,0.9420622253,-0.2398303452,0.3662173545,0.3067800462,-0.7880060955,0.4547525807,-0.9894517344,0.6175650285,-0.0712639124,-0.384620806,-0.32457832,0.3870279489,0.4668819528,0.2739292683,-0.9222131204,-0.2520572666,-0.442044303,-0.0804535855,0.3004474825,0.524901985,0.1723334452,-0.3145714175,0.0744890173,0.2988405719,0.1703384519,-0.9209263981,0.2382862582,-0.9215261644,-0.1845686787,-0.1415755023,0.7587657687,0.1212546053,-0.166689682,-0.0496727348,-0.6295213955,-0.3533310555,-0.5243696086,0.3271659724,-0.2219824235,-0.4042500748,0.0407099183,0.7399330635,0.3671655138,0.5928481663,0.2703497163,0.393857328,-0.2335813647,0.4133079112,0.2794346858,-0.0250666642,-0.4790872361,-0.1266866862,0.858543226,0.4116032482,0.8304719736,0.8656124909,-0.7055230856,0.2284689239,0.0394448802,0.5000575913,0.2053189607,-0.0664181488,-0.3837779413,-0.3736611336,0.2976197732,0.2543278228,0.0138883957,0.3023136681,0.1968891719,0.4320983404,-0.2648198494,-0.5125234407,-0.5858170706,0.3005017592,-0.4509117671,0.2613043247,-0.9794288067,0.8614478655,-0.9936153979,0.2577250391,0.0033311633,-0.4810720203,0.2115917067,-0.6793252467,-0.4834760699,0.4304370275,0.5969331654,0.3353304975,0.0696059583,-0.7371076606,0.5328991199,-0.5615133639,0.6186923563,0.1294720868,0.5020036605,0.3419385367,0.2774046983,0.5992847891,-0.5951323633,0.6975879013,-0.0679645871,0.8912747917,0.1685696402,-0.4482519221,0.5234888823,-0.4393219682,-0.5810802502,0.5716288214,-1.4627140698,-0.774829614,0.9855366536,-0.1691010203,-0.3430183843,0.932641742,0.7507169428,0.1088910282,-0.5915522756,-0.9461731708,-0.7094546997,0.3991323804,0.6343426147,0.2991364045,-0.9744679999,0.5774299115,-0.0238577398,-0.6444442537,-0.5787189993,-0.6681831383,-0.1438154287,-0.1763606999,0.7415770457,-0.0012318893,0.0866077232,-0.0831401333,0.6646544373,0.0155006714,0.2246563956,-0.4396098665,-0.5799657956,0.0704648267,0.8204426737,-0.4023020086,0.3458986208,0.828663553,-0.1367177513,-0.0867417315,-0.3740479369,0.7347256398,-0.5391556025,-0.0891300041,-0.440984788,-0.1681958066,0.2374644012,0.9923019017,-0.6368362984,-0.0446746458,-0.2355079647,0.8128049886,-0.018943925,-1.0596843561,0.3839730725,0.7621477648,-0.7520243731,-0.1946823423,0.0693258397,0.6781886929,-0.2756157955,-0.3322855382,-0.5099111923,0.0615128225,0.5030505158,0.3673273932,0.0210502856,-0.2082526455,-0.088255456,-0.7952068467,-0.1402003796,0.3557557371,-0.6104311174,0.541460672,-0.6846469027,-0.4311126928,0.0553604315,0.2691939886,-0.2033955653,-0.0094729822,-0.4712327379,0.3330279654,0.3126611544,0.3582701892,-0.1417686306,0.7136841038,-0.8062223977,0.6984805915,-0.2818076317,-0.4366909863,0.2375444595,0.3432393858,-0.0797600014,-0.541081692,-0.147391266,0.2171709788,0.5758460814,-0.9697386534,-0.4800931314,-0.1556095305,0.3411857916,0.8498080866,-0.2070048382,0.6885770176,0.9865877812,0.1699198485,0.4023141267,0.3120848404,0.1835747654,0.7327008779,0.3736825805,0.0522681651,-0.6032491994,0.1882510953,0.8568350277,-0.9279866212,-0.2515287163,0.3483809201,0.549001614,-0.6376712001,-0.1515748148,0.6642122234,0.062754836,-0.4612215079,-0.6844364556,0.9070597543,-0.1064768651,-0.0221504596,-0.0154130727,-0.9727259587,-0.3714241714,1.1761969654,-0.8760082417,-0.6039407386,-0.5222998697,0.0557007461,0.9191482283,-0.1509315622,-1.0067919154,0.8365757485,1.2774599063,0.4924067198,-0.4342291194,0.2682365437,0.2675137741,-0.9228305215,-0.140198186,0.5504651164,0.1402003856,0.0303852865,-0.7047243557,0.3642650917,-0.3908264588,0.5368525099,-0.0903968187,0.0165313069,-0.1338679695,-0.0001675963,-0.3305067627,-0.200894633,-0.0849825811,0.7560966682,-0.6088408332,0.5726332558,-0.9138197112,0.9255672597,-0.3769037827,0.6709519033,-0.5906711596,0.1163485131,-0.4348880483,-0.5227064563,0.1174235478,0.0058980126,0.7000621059,-0.5514869689,0.4486542804,0.9722227002,0.5669672645,-0.9638867491,-0.9914438936,0.6830653231,-0.550629025,0.5375125769,0.6295253645,-0.6979190042,0.502155923,0.5612227168,-0.824190775,0.0426655112,-0.957996609,0.9180901178,0.7919435077,0.4991411848,0.5777250409,0.9106627887,0.7669110171,-0.112650983,0.2031766351,0.0341242986,-0.4833438188,-0.6961755749,0.5719543083,-0.6436336959,0.0502972464,-0.127667459,0.4954093999,-0.6097025128,0.9120662817,0.3850571344,0.985100097,-0.0538840031,0.4889063698,-0.4296702269,0.3407017352,-0.3544973549,0.6211246302,0.491780978,0.1465819511,0.6951707519,-0.2688366747,-0.6434435331,-0.327509662,-0.9499583635,0.0270196834,0.4104368119,0.9300810882,0.5397938354,0.2859584666,-0.3217381946,0.7214051524,-0.6205258272,-0.9975645493,0.4434741635,0.5364014124,-0.5634636043,0.3231120077,1.0108024042,-0.4777306835,-0.0857997082,-0.7643253419,-0.756426511,-0.9569720609,0.3496760466,-0.1206664911,-0.2755112159,0.4296902726,0.537696149,0.6798868112,0.2242858948,-0.4617173587,0.8109662496,-0.1278087228,-0.8958063722,0.5698143824,0.2700506755,0.4507256135,-0.7643413408,-0.803442456,0.1403995749,-0.8779815684,-0.5532218178,-0.9702007766,0.2272933305,0.7798092117,0.7438886134,-0.0493381691,0.0755874242,0.1750750398,-0.5541774444,0.7503250023,0.7965653077,1.1047493588,-0.5741627541,-0.2217203629,0.1826727016,-0.9341182181,-0.2659488031,-0.2623663573,-0.6878582203,-0.5536677031,0.9658035974,0.9345151847,-0.282934608,-0.4083045622,0.6922210531,-0.6850315211,-0.0601216767,0.7245404819,-0.4128644951,-1.0405169516,0.0221953941,0.4317537291,0.4945326333,-0.2121748083,0.1298683157,-0.5309166417,0.4314179203,-0.9315871202,-0.7466360595,-0.1740599407,-1.5334842889,-0.6040010771,-0.8919172052,-0.3471704602,-0.2991201303,-0.2971077919,0.8427813975,0.3663705041,0.8461995708,0.1750687492,0.8498857754,0.4414086329,-0.5410165868,-0.4162655489,0.3300271685,0.3341795321,-0.9467737524,-0.7658414721,-0.837796009,-0.5170710597,-0.8963470715,0.0509597977,1.1011151457,-0.6888725764,-0.6184694471,0.9097505849,-0.5644424338,-0.5988966441,0.0763677475,0.2716911926,0.1898579657,-0.4791773442,-0.9241530277,0.0842245937,-0.2230686104,0.6528525878,-0.3915696817,0.4982744429,0.2990239022,0.2983151675,0.7705473742,-0.320079997,0.7106966514,0.2935018784,-0.662220139,-0.360788103,-0.5429020887,0.0759107394,-0.7787139396,0.0324233786,-0.0844865527,0.9667985359,0.4231519036,0.0496852167,-0.5856114274,-0.3869089354,-0.1285641852,-0.7080436888,-0.959227245,-0.1770116653,0.0183229771,-0.0458547962,0.9399257488,-0.0851248245,0.0937075436,0.2543469818,0.0604392843,-0.0679701598,0.3418220379,-0.028789465,0.1102407049,0.7743921561,0.0260572885,0.1836866818,0.4907421246,-0.8885452428,0.0536433881,0.9591251567,0.2369959542,-0.6889221698,0.0591220242,0.4792189327,0.980694229,0.4747586802,0.1364113217,-0.8212244,0.5991314014,0.2288422559,-0.5664067647,-0.2797497177,0.2350438979,0.5492250092,0.2783690166,0.5164829382,0.0285227048,-0.0248227134,-1.1675167083,0.6799185947,-0.1358272589,-0.6534296508,-0.9041787431,-0.1852051468,0.9656543093,-0.7663566464,-0.3721418164,0.1351315616,0.7247365752,-0.2842024751,-0.3476098735,-0.2492304111,-1.0304127903,-0.1431302189,-0.1033611209,0.9328438917,1.0713588043,0.1057024773,-0.3506818193,0.0800557763,-0.5610827938,-0.4237908724,-0.9939803087,0.4184843596,-0.9030808269,0.0754827227,-0.7259228156,-0.4031709098,0.8074269613,-0.5101435365,-0.8151353618,-0.5927050541,0.952682595,0.2856179299,0.2600061828,0.1254723846,-0.0950793135,-0.5897427522,-0.3098013181,0.9727146849,-0.701237689,0.5165855804,0.3893122898,-0.0843336647,-0.8705635195,0.6978748798,-0.4733276497,-1.0226239644,0.6613717079,0.2365055457,-0.9872219883,-0.5004758827,0.1325175966,0.4394171398,-0.9318553835,0.4684594909,0.7216555996,0.3190719406,-0.8499647889,0.3984666446,0.8489540263,-0.4470835608,0.0563280797,-0.5668811288,-0.4649823612,0.4539777597,0.7666283911,-0.1738609405,0.1992504826,0.0517800492,0.5288624736,-0.6225603712,0.0034976996,-0.8105647957,-0.3590202675,0.6324969926,0.3808854513,0.4142673258,-0.9600762223,-0.8867713972,0.1378448071,0.9950330444,-0.6749818685,-0.0734490359,0.9339204777,-0.422212851,0.9038781269,0.2683168223,-0.2244563172,-0.6948019376,-0.3212826401,-0.3292713983,0.3147066244,0.8607079897,0.4759419718,-0.7527167043,-0.2536126037,0.442315824,-0.3949306051,0.8402438473,0.1188831254,-0.509159998,0.5166657515,-0.5775571017,-0.1432755974,0.3958092776,0.0395134996,-0.5812657093,-0.5989825452,-0.7517276584,0.7323278962,0.3938240261,0.1550500968,0.891550608,0.4400314956,-0.7448560458,-0.957303913,-0.1780334875,-0.07621453,-0.9332597177,0.109364316,0.2170810778,-0.757033528,0.9104393513,-0.3005235583,-0.0523611652,0.525459842,-0.9502948008,-0.9539879525,0.3162927335,-0.140742705,-0.0659867914,-0.8968946723,-0.1098094539,-0.3152726789,0.071557864,0.3063377712,0.724095881,0.2422419924,-0.6966001053,-0.8614182605,-0.562431913,0.1610979156,-0.4231482289,0.6788430123,-0.3396944223,0.7962375485,0.8704569497,-0.2079414908,-0.0174375645,0.1193667054,-0.0349063757,0.1548828662,-0.0165276521,0.6730542901,0.9008872181,0.7318296893,0.4039891161,-0.5755763503,-0.988667548,-0.397432126,0.4291129948,-0.9282863683,-0.6563124176,-0.7436490893,-0.677896296,-0.4499860388,-0.6781095301,-0.1637623016,-0.9884150688,-0.8250661036,0.5724704515,-0.6186141796,0.1797680422,-0.3368621978,0.7850539669,-0.1551468903,-0.5502850333,0.0465009942,-0.0479626319,-0.6346108665,-0.3950317996,-0.415581461,0.1509061828,-0.9018366782,0.926130697,1.0151017699,-0.6722353123,0.198934601,0.3856938165,0.7238618926,0.9591274461,0.4503836665,-0.4293534995,0.0873208359,-0.6320137855,0.9023947039,0.0311434083,0.9092854259,-0.0250605787,-0.5503440414,0.1785742051,0.9082183061,-0.1092283964,0.5598822935,-0.3357119429,-0.1805081893,-0.0781952712,-0.0479395286,-0.6281184115,1.0575695097,0.9812595892,-0.2965943803,0.9563402386,0.033996695,0.3471570471,-0.0041420037,-0.3180925518,-1.091241683,-0.7567112244,-0.2410465046,0.5779248663,-0.3990042437,-0.4859991487,0.5867234484,-0.0099315668,0.7876439188,0.3637789663,-0.6605272416,-0.2667148685,-0.5935239154,0.260808257,0.3664015913,0.8925276982,-0.2500341823,-0.4467919743,0.4629105186,-0.3653724856,1.8376406144,-0.3018918537,-0.4765558959,0.44004226,0.5184126968,0.0395611057,0.0370382526,-0.701172126,-0.0654705545,-0.6073153863,-0.3690221676,-0.5780145796,-0.7198439471,0.0363884075,0.0559258802,0.8127721314,0.9559497989,-0.2728594274,0.4248377326,-0.4203771614,-0.9677661053,-0.8483526462,-0.1569994074,-1.0103042671,-0.2334726189,0.3530827512,-0.0607741494,0.2064351911,-0.4420015791,-0.4739015298,-0.5161605808,-0.0579817643,-0.2062148497,0.5016735748,-0.4346167526,0.8259483008,-0.5594994509,-0.8127636974,0.1863215516,-0.9719265502,0.5881745918,-0.6550303397,0.6872226764,-0.2167575995,0.2094591176,-0.5130760915,-0.0295270036,0.3722684938,-0.0634933102,0.3934545471,0.2006211063,-1.5818986427,-0.9585957235,-0.004617337,-0.9354252922,-0.9504491078,-0.1827251289,0.2345070056,0.3791850909,-0.3563571548,0.0721988235,0.0812033513,-0.5296002089,-0.2225820349,0.257099667,-0.1761213775,-0.3453869776,0.3337600136,-0.2120458617,-0.9907068921,-0.6094184753,0.5394462731,0.2457650524,-0.7578681222,0.9907178028,-1.043108237,0.6169315223,-0.3284618175,-0.6297572462,-0.0028267242,0.2027923901,0.5128269937,0.6089016686,-0.4902676118,0.3893803469,-0.0909367652,0.558267552,-0.0415486687,0.0139968009,-0.6189027071,-0.3306306023,0.9067422589,-0.3849986189,0.6622409778,-1.1473730288,-0.2198032018,-0.9471724137,0.7041228754,-1.2753595991,0.5863681388,-0.3752162069,0.5886369224,-0.1114345823,0.8787232113,0.0324680827,-0.1001661497,-0.7529613778,-0.5319142906,0.1044240357,0.0414004331,-1.0071370617,-0.0447801273,0.3987387215,0.6868956534,-0.6996130022,0.1767356495,0.5830171505,0.8469130345,-0.4350871298,-0.6927960293,-0.3448545592,-0.1001334985,-0.1288462663,-0.8976714963,0.3834749963,-0.6604516577,-0.1328423934,-0.0224347635,0.0197275743,-0.4924528813,0.5926182557,0.1783858273,0.231699201,-0.6249383848,-0.2243320609,-0.1774998079,0.2399976277,0.615610792,-0.719839977,0.6601392363,-0.2776693515,-0.0453747454,-0.2379395904,0.6684153334,-0.7137519044,1.0114118157,0.3204020114,-0.7785176823,0.1160356039,-0.265941066,-0.0972148648,0.1953600134,-0.268986269,-0.2985928113,0.7629422112,-0.923094027,0.8999281356,0.3724515811,-0.1981109727,0.2866213008,0.0080943979,0.6926967679,1.0407913749,-0.0042915088,-0.253773276,0.7411723252,0.6472538435,0.6829119418,-0.1764568233,-0.7046791414,-1.0394677364,-0.2277703585,0.480967837,0.2993273124,-0.9815175662,-0.9428031593,0.3719827087,-0.0379335154,-0.6378690523,0.3431867305,0.8725748019,-0.3239652859,-0.0466291952,-0.876853559,0.5655387209,-0.4515362749,-0.8113338113,0.9360919609,0.3197969715,-0.8543476637,-0.0108465708,-0.6707896729,-0.1395342529,1.0416472444,0.6085205386,-0.6050268554,-0.4413164877,-0.2302066223,-0.320104337,0.0895105584,0.1423831889,0.7142207379,0.5112005702,0.2458963481,0.0208266369,0.1032056556,-0.6773728043,-0.9284488895,0.917738026,0.7972087827,-0.4381764777,-1.000196316,-0.562509537,0.8291986714,0.4134673517,-0.0472845388,-0.5264775322,-0.8676722263,-0.5801012918,-0.5828302423,-0.8158783853,0.6467640645,0.9950734132,-0.8189288549,-0.1939355803,-0.2574056077,-0.8126814619,-0.9364138112,-0.0152013035,0.9257020226,0.4568831379,-0.4553987347,-0.9913304684,0.9906768654,0.7077085684,0.6123354665,0.1313942476,0.3823140223,-0.7603326974,-0.7824360632,0.3262052343,-0.5404983817,0.0780303223,-0.7343638107,0.3649758082,-0.1040083076,-0.5920921253,1.0021494688,-0.3616667322,-0.5321081913,0.6051835155,0.2739988056,0.7719165682,0.8784469607,-0.3224953056,0.6295359517,0.094763214,0.0609032707,0.1042556073,-0.2225977694,0.9396973548,0.437041551,0.3930506692,-0.4767163122,-0.0942614598,-0.640366942,0.0962200318,-0.0840475322,0.4098185227,-0.427995483,0.8769966419,0.1322109572,-0.0157255111,-0.2726559475,0.1382219743,-0.45377022,-0.9318805714,-0.0091266935,0.6984966224,0.2230018737,0.1779441948,-0.1528534438,0.6403282579,0.141522152,-0.8704137188,-0.5757530815,-0.7700942017,0.2325831074,-0.4191426242,-0.7071188626,0.3949481673,0.2357756471,0.7341116106,0.2222552612,-0.8442177336,0.5249223644,-0.9545715586,-0.2008397129,-0.222651076,-0.3520764034,-0.0654047722,0.3884925655,0.5328929398,-0.2963289667,0.4114475944,-0.240568952,0.5022607734,-0.0571161906,-0.4025036468,-0.6728110458,0.1677080017,-0.5206930178,-0.4106550383,0.8496805409,-0.9419637328,-0.9218364003,0.1213593361,-0.9231059372,-0.0871604623,0.7011344797,-0.444454882,0.4685283062,0.4151834655,0.2993828416,-0.2978802733,-0.030869649,0.3443502234,-0.2711797349,-0.5044491529,0.5809296029,0.2879183759,-0.606328518,0.3734248353,0.9678974169,-0.1143678703
   -0.7383563422,-0.4051417108,0.3261282624,-0.0771276734,1.9523583174,0.6954651841,-0.2066433935,0.6355625541,0.4435217267,0.3900193155,0.3626453561,-0.8261826199,-0.9475404771,-0.7820474434,-0.7685242333,0.1754393917,-0.6034981865,-0.8962896828,-0.3299926472,-0.2860908762,0.7557925264,0.6514183112,-0.4096036038,-0.5356936751,0.8615206131,0.5671540245,0.2935590872,0.899869195,-0.1012162317,-0.5467188408,0.0450391052,-0.8853225809,0.9617264653,0.5756075015,-0.1402828474,-0.8414335963,0.7271741842,0.5738360128,0.1504026868,-0.604748196,-0.4792669143,-0.257366823,-0.2556243311,0.4150393155,0.0223871184,-0.3265677742,0.1339413776,0.3177966964,0.3360102052,0.437689974,0.3368662669,0.3008604381,-0.0960778492,0.338891358,-0.7819206792,0.3226931246,0.5241740399,-0.7889464987,0.5626839029,-0.1167550185,0.6064809885,0.7257570848,-0.0506361729,-0.5697920356,-0.3457269953,0.6414725101,-0.7225313733,-0.7853910032,0.1753534443,0.5726355579,1.0484533479,0.0272653415,0.3685999067,-0.6839242569,0.1186067013,0.7871924108,0.1377408775,0.2083343065,0.681958087,0.8298051158,0.4176206652,0.7511633353,-0.4272660354,0.5420425367,-0.968619414,0.2030482504,0.9213172121,-0.5253312921,-0.5023915379,-1.0676423602,-0.0721037875,-0.6781222385,-0.3854052113,-0.7279416956,0.7161637336,0.7735402455,0.3717835433,-0.5357359691,0.3334584747,-0.0875927301,-0.0028094842,0.1629508242,-0.8685668805,0.5882227773,-0.018358721,-0.4201725783,0.4430617172,0.2238071703,-0.8765091591,0.7631095059,0.6702631105,-0.9771061688,0.9452609872,0.90635622,-0.2729372408,-0.4013135456,-0.6463270273,-0.0013873985,0.0401985855,0.4679806291,-0.3076179318,-0.2753901893,-0.3330322118,-0.6685621764,0.6278563977,0.4754890388,-0.3244510524,-0.7078513435,-0.8065103456,0.9482321968,0.9979653357,0.1548030288,0.3313523985,0.6088455504,0.197519838,-0.6420081667,-0.5868521476,0.2669360744,0.2345030863,-0.1911514452,-0.576508588,1.0249263447,0.0062325113,-0.2733976367,0.4731215496,-0.2672754788,0.3667842577,0.8483701093,-0.4931275417,0.380426403,0.8845763178,0.0913582523,0.8453883818,1.1923305473,0.2248923933,0.5183299431,-0.4199546404,-0.3762744736,0.4142342312,-0.6195101737,0.5940230562,0.3262938188,-0.566133618,-0.7546367103,0.530123605,0.6915232989,0.5881550897,-0.251252017,0.0732395176,0.7741909866,-0.4553573036,0.7772370337,0.087433857,0.6610668514,0.425673212,0.4207506674,-0.0667697625,0.4134264426,-0.926100515,1.0055523862,-0.2486949767,0.0600041658,0.5668436489,0.3574560239,0.9603042728,-0.6565992024,-0.8796558782,-0.2314980968,0.4949265939,-0.6155862723,0.6522189242,0.2459681534,0.870843498,-0.4415764086,0.9070715175,0.0290105004,-0.8520969345,0.9870867656,0.2831399365,1.0294749586,-0.0841696456,-0.9032810015,0.6471306916,-0.1113195473,-0.8321161665,0.3114070835,-0.4567195829,0.6557328504,0.4106768671,0.6738875284,0.4586869835,-0.0388342432,0.9516381881,0.1988583415,-0.0724017656,-0.6566002263,-0.8366557431,0.4050150886,-0.5788460612,-1.1340011871,-0.5033666904,0.314308518,0.2170070601,0.1915997492,0.6636510018,-0.5673062325,-0.0482987348,0.4135993728,-0.4538389339,0.2899789,0.3438932368,-0.8116957652,-0.3422587187,0.7133478434,-0.2729456073,0.3775829736,0.560376289,0.8305844744,-0.4615232315,-0.5306237033,0.4162709168,0.8816721084,0.7348115249,-0.0635015911,0.2175881137,0.6516541059,-0.701326109,0.2313400416,-0.4157174531,-0.0074277558,-0.0181643538,-0.3421798106,-0.1637533015,-0.1192311152,-0.4774391438,-0.1726806064,-0.8150935974,0.272087752,0.5082528614,-0.9506913454,-0.0774193116,0.2502652243,-0.880195931,-0.5246453997,-0.7048972694,0.3059476593,-0.3205727915,0.3335133663,0.3418474591,0.0964436005,-0.1570303931,-0.2071497926,0.1475913926,-0.5228034374,-0.0723508619,-0.4611090597,-0.5321315483,0.0961110161,0.7045804644,-0.3515569646,0.5432833489,0.0428929829,0.1560621783,-0.8507267206,-0.0149942315,0.576125638,-0.4300007068,-0.1796234437,-0.5556168738,0.4227154649,-0.1808966955,0.0903022836,-0.3883833592,0.9875333645,0.0031237889,-0.1304311508,-0.4948435921,0.2482734284,-0.0428314833,0.6181492972,0.9374658932,-0.7949374846,0.9907322763,0.9111584914,0.3377970798,0.7600512842,-0.0068825863,0.7820841264,0.2439436836,-0.4796580418,0.2842726917,-0.7887160719,0.9242461636,-0.0958510036,0.1501779103,-0.7618294769,-0.3835379436,-0.3788247621,0.0535841998,-0.2981025126,-0.1947420894,-0.9020162889,0.4062390936,-0.1256678875,0.3621987113,-0.1275604454,-1.0204460646,-0.1540582305,-0.0975246198,0.6959229976,-0.6324470267,0.8306151469,-0.6675466752,0.1855562409,-0.1630814918,-0.9665038295,-0.6886193296,0.1558304822,-0.414709231,-0.2412248712,0.3999863239,-0.694071417,-0.1456184917,-0.6040772907,-0.2636833793,-0.9136382142,-0.6811932897,-0.3987588787,0.4342459015,-0.5915738278,-0.5016249038,-0.1903485856,-0.1237628064,0.0392008306,0.2868665292,-1.210772889,0.791437799,-0.5146689278,0.0668370799,0.2336962753,-0.0909084072,0.7572677197,-0.119621309,0.8067853239,0.7380700765,-0.1974764632,0.5819132293,-0.8757916274,0.6904857401,-0.9670614523,0.0586679228,-0.4278049131,-0.1942719207,0.6654006146,0.6563070218,0.0140388661,0.2238275585,0.0461241234,-1.0655585498,-0.2666199197,0.4909837868,-1.267584403,-0.3020456128,-0.4956226665,-0.4831742327,-0.8215700601,0.5775423258,-0.8398076055,0.4836436684,-0.4100699198,0.2655583137,-0.2735894851,0.6382936212,-0.8396054759,-0.1780080572,-0.5326354764,-0.1529154165,-0.0543823716,-0.2643831183,-0.9725036001,-0.0480037315,-0.1030304119,-0.4088543176,0.1419218635,0.972376331,-0.9490317569,0.6890134866,0.8046051254,0.5064811202,0.3436548574,-0.9244898307,-0.0388953146,-0.2174219675,0.1474081119,-0.7558360915,0.569023409,-0.3802615707,0.344444599,-0.883626049,0.6229903447,-0.4729828294,0.3099032252,0.2540857835,0.8960486282,-0.1913396008,0.506446018,-0.4764151109,-0.5486688034,0.4533504899,-0.8954930816,0.4451225559,0.540395319,0.7917559843,0.3910682169,-0.7949764337,-0.8454160334,0.0517346118,0.0605871658,0.0391198133,0.8533157559,0.6866178394,0.6228062298,0.711033048,0.5191847685,1.3728216288,-0.9660568441,-0.0939921836,0.8962494488,-0.0728923319,-0.3238536078,-0.3787800358,0.7941325506,-0.2057978806,-0.4281339714,0.1023551907,-0.5973038417,-0.3613979951,0.1692778767,-0.5684901307,-0.3910797796,0.3129683907,-0.3206342579,-0.0670787249,0.0526677814,0.1327853882,0.1590885955,-0.9637910911,-0.3592324303,-0.94790163,0.7616750362,0.4765191103,0.2723247332,0.1712883536,0.0451943218,0.6940337663,-0.2486724925,0.0879619039,-0.0146136277,-0.7336223967,0.8740682707,-0.0059773655,0.3457639033,0.656578935,0.7226467361,-0.0959518487,-0.4763616072,0.3089042535,-0.6497384379,0.1856987787,0.7618830833,0.4067653148,0.174193577,-0.3163140184,0.1014220148,0.503030434,-0.3311794864,0.1453485378,-0.4919702655,0.2617675662,-0.1376411354,-0.0149018731,0.4495764776,-0.9355053825,0.6204483399,0.9934391622,0.0647280366,0.197479282,0.3740988773,-0.2324832134,0.7653954978,-0.5773393025,0.9422670209,0.0486282075,-0.0275211816,-0.4029326954,-0.4749649468,-0.7515450699,-0.3535500907,1.2099555364,0.2727179276,-0.5889273832,0.0505779581,-0.6194559869,-0.6870583444,-0.0300417984,0.8740881529,0.686155282,0.1163953652,0.8990003008,0.2263854258,-0.1493057917,0.1087207444,-0.8789728584,0.8715598161,0.7954672709,0.3796011318,0.5897022488,-0.36886293,-0.7154173506,0.3010360846,-0.9200149063,-0.0628193286,-0.8005017018,-0.779896606,0.5509072665,-0.6154578326,-0.3493035484,0.3803266621,1.3409706732,0.7916654245,0.2705842419,-0.1011950335,-0.2614663628,-0.6023706248,-0.1166667361,-0.602952012,0.4425218787,0.9004920358,-0.5649273645,0.8591850632,0.715561527,0.5676518093,-0.2376546317,-0.9947969879,-0.2054785302,0.8987588651,-0.040277292,-1.8046326015,-0.9629338755,-0.0199189038,0.9628711459,0.6072305349,0.4822499208,-0.223574225,-0.3773646795,0.4854501122,-0.8356386798,-0.8610627788,-0.6951460348,0.4146808517,0.2637797086,0.9181875406,0.5263032755,-0.7750572787,-0.8074215969,0.5756402531,-0.0956842619,-0.8179390109,-0.1798412359,0.2066659055,0.5167628411,-0.7606731244,0.699675054,0.1686564178,-0.8527502148,-0.2465788624,0.2284372332,-0.0487455489,-0.7652984201,0.2357711471,0.7889818159,-0.2465425226,0.6375433012,0.5787436437,-0.4556230343,-0.4465152275,-0.9304620647,0.6185636573,0.8071844205,-0.9528689595,0.2464105338,0.3210157828,0.0800992176,0.143816916,-0.0884847818,-0.5325111225,-0.5495072655,-0.6721732438,0.9601242805,0.5355190082,-0.0912217176,-0.826755386,-0.0455472897,0.1620827885,0.1724653604,-0.6229670749,0.5887793075,-0.1678380548,0.1671752253,0.0867071346,0.1664410762,-0.4163851322,-0.7866332568,0.7885275064,-0.1570458006,0.7901738368,0.4090920358,0.4666161491,-0.4826618649,-0.4516139481,-0.0863350977,0.4791243421,0.6382213193,-0.6182965663,0.4286119565,0.4553222315,0.4513510248,0.8837835522,0.9638985912,-0.3607542419,-0.8693077596,0.9412028059,0.5999358195,-0.2747480898,0.1674678962,0.2418194958,0.4623139068,0.640401734,-0.4840980601,0.5000001824,0.6312816057,0.3505950429,-0.5052853667,1.1360616636,-0.4299409278,0.1227752528,0.0229945,-0.3048881216,-0.9130708313,0.3400124922,0.2513309922,-0.8483770968,0.2356427314,-0.7564832217,0.1001085615,-0.3888641769,-0.5866117424,0.9826692229,0.8871284012,-0.1967972265,0.6353297179,-0.9505292582,0.2762309951,0.0097313773,0.2054134159,-0.4103140199,0.1333000814,-0.373790726,-0.3760957828,0.0383261459,-0.6700063973,-0.1896751349,0.6186409657,0.2136763428,0.3307684241,-0.8187535279,-0.0941706441,0.1065361891,0.9328173518,-0.0516612275,-0.3368395669,0.7265536989,0.0653150919,-0.2007035901,0.1421025918,0.7752975938,0.0696537044,0.3146583817,-0.2608425852,-0.4324827862,-0.865048467,-0.8081633921,0.6208681179,-0.061694201,-0.8037478724,-0.2345089143,-0.0233576988,0.9917833002,0.0833535062,-0.2265686626,-0.0220915939,0.2713490832,-0.4545817246,-0.8017245548,0.4283573543,0.2975589068,0.8326738952,0.9690305353,-0.6879851254,-0.9980861652,0.6432754259,-0.7390503344,0.0769498589,-0.4327652265,0.2969249829,-0.0292120277,-0.6370780811,-0.2539033848,-0.8410292115,-0.5165157533,-0.3526844879,0.9390169445,-0.9542467843,0.4464387411,-0.5972392155,0.8680696831,-0.1415880181,-0.5861623125,0.9343496534,0.51918393,0.6472216824,-0.3053235644,0.1239375422,1.7426862417,0.3649115093,-0.0857032094,-0.0307324432,-0.0326755386,-0.6881239909,0.9581630686,-0.8208961549,0.5781653833,-0.1878275306,0.5570455135,-0.5661843414,0.2907503356,0.021248896,0.3185566701,-0.8590664927,-0.3399893513,0.6797611435,-0.6991099001,-0.381671578,-0.8359130869,-0.3663135691,-0.0625866093,0.47569766,0.0881009167,-0.1649582783,0.2471982569,0.9765450095,-0.8196676244,0.9713765459,-0.4593238158,0.1165964471,0.7170710252,-0.0487305045,0.4474039734,0.080053181,-0.933375727,-0.2550544831,-0.8162901304,0.6749881408,-0.4699687402,-0.5051758634,-0.4914074745,0.2891133662,-0.8099317366,-0.5068223037,-0.0367683728,-0.0487731975,0.2460992333,0.6938351299,0.4401478458,-0.1920738672,-0.7960813206,-0.1874099613,-0.2999062315,-0.7337727955,0.6157092177,0.2297641876,-0.3680792599,-0.3139627751,0.7557310119,0.358026731,-0.31712805,-0.4876119718,0.3532367109,0.1682034966,0.4253584498,0.679560571,0.4979155399,0.2623707138,-0.7803893719,-0.9178051037,-0.5385846732,-0.9668567114,0.4368736562,0.4126903959,-0.2325650816,0.0658592109,-0.2809750296,0.0724917243,0.2190804868,-0.2351669093,0.4792504772,0.1716440407,0.5965513294,0.1184624567,-0.4733348905,0.5530391738,-0.7556468028,-0.7761630639,0.4853370671,-1.2324183362,0.2804435799,1.0306858729,-0.9320953085,0.5826654966,-0.98571686,0.8004379267,-0.7398579589,0.8350902343,0.8126194431,0.3444186557,0.9112032515,0.599837964,0.8189056069,0.2358654582,0.7452493147,-1.6111028515,-0.8808504324,-0.453446011,0.291088418,-0.1473116875,0.4265443173,-0.5409859615,0.3422143715,-0.9181928352,0.2868180079,-0.0149828376,0.1198543284,0.4516811059,0.0470674688,0.2436666916,0.0310023675,-0.1102388608,0.3113674152,-0.5317228282,-0.4396614572,-0.1383240197,-0.9428978121,-0.117366388,0.8940093351,0.3814156378,0.7251420645,-0.0507826141,-0.2883256868,0.0988354628,0.3733943604,-0.497623961,0.3441537007,0.4064564493,-0.1227222941,0.0905931726,-0.8336389797,-0.5776847011,-0.016702576,0.7809814779,-0.3247028327,0.9785468422,0.1608248759,-0.2280987275,-0.4435600463,0.5087424012,0.0146823064,-0.7665317314,0.1079284789,-0.2751493687,-0.6333268377,0.4399712163,0.3198352349,-0.782857189,1.033468963,0.4245509703,1.5240722303,-0.2934850262,-0.184122956,0.3595986425,0.4012780333,0.870080367,-0.9776989112,-0.5083808026,0.6395061609,-1.1649127107,0.2362336812,0.9208669602,-0.2543250348,-1.003553111,0.7513651723,-0.6511179512,0.248935262,-0.4822515905,-0.1064228051,0.831495495,-0.5334366739,0.6481923762,0.9066212392,-0.5701894515,-0.0346244288,-0.7165679957,0.3543578979,-0.0401394452,0.2819779692,-0.4126890577,-0.094502596,0.1017845172,-0.7144641621,0.9801498316,0.7365813411,-0.896338314,0.632792627,-0.4868090151,0.5693436341,-0.4171169951,0.9866209313,-0.4208748787,-0.8566492672,-0.8267142137,0.3449871563,0.9854588162,0.7042731772,-0.306022358,0.9241496925,-0.3270517734,0.0315143625,0.5337172264,0.7343586885,-0.2436692286,-0.9133625249,-0.4469363214,0.4768782436,-0.1901410728,0.3385214346,-0.5969511831,-0.0597551201,-0.5572529534,-0.6339529386,-0.0192919243,0.8786147288,-0.3891722514,-0.2898535487,0.3973883322,-0.05908208,-0.0672886314,-0.152473127,-0.3146490412,1.0545807315,0.8682384333,1.0379554327,0.4340696448,-0.5481540101,0.3120336617,0.738713192,-0.2763897043,1.2139019408,-0.4231145498,0.4655148278,-0.1939237742,-0.0358636568,-0.5173746693,-0.1448932183,-1.0630767914,-0.6470787824,0.5291631463,-0.4150340025,0.1291592649,-0.0226360865,-0.4442743782,0.3655486899,0.3668606453,-0.8285776426,0.803088365,0.1647247142,-0.943192334,-0.853406022,-0.8786194197,-0.8195912416,1.0168125799,0.889499242,0.5890979246,-0.6529413898,-0.0805408311,0.1387473944,0.5913133495,0.9105045534,-0.1713838803,0.5342192349,0.5221779032,-0.2181428296,0.4330796047,-0.8889668889,-0.4912876565,0.0062742285,0.5244038923,0.1656450288,-0.8240691823,0.1443589095,-0.2375155452,-0.0783553276,0.0642718532,0.9018320139,0.4723341533,0.1741592964,0.5958201183,0.0549327251,0.1476906207,-0.9214837595,-0.040513034,-0.4256710741,0.0339760778,-0.8594686095,0.3539293148,-0.9879766045,-0.8659111399,-0.3119297327,-0.7491962779,-0.1202962152,-0.1679585999,-0.2422376819,-0.409067285,-0.0627941413,1.1543032797,0.4477015626,0.026855164,0.6783952904,0.8951978149,0.5489195922,-1.3361464705,0.6498763767,-0.2878526148,0.5879180914,0.8162144491,0.1026602166,0.9100408842,1.5364848719,-0.2264110302,0.725582388,0.0455636618,-0.3870085435,-0.4603028963,0.3994782772,-0.652016117,-0.040258638,0.191102329,-0.1178465551,0.5621632271,-0.6800169265,0.2796427734,-0.1682805823,0.3687343016,-0.8040022134,-0.0792572482,0.45514379,0.0123696418,0.4352099076,-1.4359465313,-0.4354646561,0.9617787415,-0.9720353833,-0.0381880075,0.1947620304,0.6576440603,-0.5127743097,0.9135648745,0.033236665,0.621944322,0.0840868612,-0.5903654983,-0.5206255449,-0.0338241258,-0.080528919,-0.414006833,0.5579657682,-0.5484500431,0.0394729171,-0.6945109675,-0.4271505104,0.6611945032,-0.9310619882,-0.9305189874,0.1452441034,-0.3325840604,-0.186578868,0.902247254,0.0776646958,-0.8009305537,-0.6388815708,0.5909041006,-0.4386514119,0.8595345854,0.080096656,-0.1418601185,-0.4531535836,-0.8276910207,-0.5329176788,0.8918325446,-0.2299176232,-0.5902729624,-0.3917138422,0.2263651755,-0.3221033782,0.552069394,-0.4059764718,0.982632083,-0.2809073136,0.9312006313,0.5952071285,-0.4124075891,-0.7892141892,0.792323677,-0.3434698809,-0.5544313597,-0.9657556052,0.2038829027,-0.1590925644,0.0896221517,0.0904792867,0.4252493366,-0.6629194736,-0.0172646287,0.1642158619,-0.3178880817,-0.2001577432,0.7587703612,0.9562016886,-0.5808870708,0.3196360712,-0.4139287666,-0.9457576193,0.8511650813,0.8764000216,-0.3928880064,0.0993310146,0.1805671288,-0.4767604309,0.5425405743,0.1843988883,0.207288278,-0.8044372283,-0.8597779741,0.6371846506,-0.023982416,0.6305403099,0.6935724521,-0.1879444131,-0.4497179158,-0.790232738,0.3176008577,0.8875415056,0.352479626,-0.4244066343,-0.781811973,-0.8863298878,-0.6057286795,0.574052601,-0.0877000669,0.4466955842,-0.1447732023,-0.0073238108,0.8271575108,0.4419226588,-0.128303451,-0.4177202313,0.3793600381,0.38056932,-0.8256791743,-0.9787185313,-0.3406477106,0.3168273411,0.1053960549,-0.3367697644,-0.6989985316,0.9311578556,0.3188096335,-0.9072177172,-0.7106076008,0.0759369946,-0.4352886075,-0.8616571603,-0.642939284,0.240398616,-0.7854612339,0.160122523,-0.797555268,0.356795429,0.2813606738,0.3748845177,-0.7658287996,0.5467436393,-0.8774819226,-0.0742540519,-0.636072237,0.0567726199,-0.3521464968,-0.682148266,-0.3249270659,-0.5034480816,-0.0296330183,0.433252966,-0.4106289009,-0.586937873,-0.536449917,0.7696357856,-0.2819435418,-0.9196428687,0.7895038614,0.7314384612,-0.045820344,0.8613021911,0.3957468061,1.4157018627,0.2281379662,0.4204860643,0.8463032347,-0.3683648351,-0.1006627839,0.0903681286,0.7297075562,-0.1973383521,-0.6371610697,-0.2558114504,-0.1014807254,0.6163597189,-0.7494092344,-0.8197525047,-0.1527168578,0.1316960625,-0.3682153288,0.4325974684,0.5432473655,0.2363948912,0.5065502945,0.023092407,-0.1743975565,-0.6472319363,-0.279956341,0.79275982,-0.4426284497,0.0741615159,-0.1281512801,-0.4236146415,-0.2669542199,0.7799001026,-0.3802839204,-0.2402889874,1.3597365593,0.1205717636,0.2954847254,-0.6879515977,0.5828626319,0.4922281804,0.0337176336,-0.323038218,-0.5012703119,0.7412987098,-0.7712458617,0.8861033716,0.9278354327,0.5914755721,0.8236473619,0.6681436757,1.052193776,0.8627513722,-0.6096197867,-0.3727496155,0.5757181874,-0.3962869776,0.4950799234,-1.1314428357,-0.0278325288,1.1223018879,-0.8088105238,-0.5447316859,-0.1209738039,0.8662262443,-0.9066993494,-0.5598300176,-0.461710871,-0.7583011727,0.6251574939,2.1081290799,0.4757791827,-0.0284674818,0.9568496688,0.1610490708,-0.496784873,-0.5803823253,0.4034485277,-1.4043942366,0.4604908301,0.3904266074,-0.439630732,0.2750674985,-0.4400938974,-0.3295005669,-1.0123552454,0.3236121031,-0.1394855952,0.2255160466,-0.6185709001,0.007191611,-0.3294521456,0.3335653329,-0.7130753237,0.5284501773,-0.7225207419,0.9662100644,1.0758032209,0.8921711916,-0.5054196464,-0.2584839404,0.20324894,-0.134675863,0.9353374756,-0.0185604598,-0.706067278,-0.1728755707,0.252436822,0.9805693271,0.8848249941,0.0102162451,0.1431851773,0.6327309573,-0.975478759,-0.1739855053,-0.8890240258,-0.785995096,-0.0783428244,0.2011296631,-0.0938143787,-0.0035133234,-0.2140291132,-0.601491846,-0.0840344567,-0.4381302649,-0.9391646816,0.8263824488,-0.9025123029,0.9206392979,-0.4516329556,0.6799774367,-0.4139067589,-0.032384515,0.5975155422,0.4604654853,0.1913923092,-0.8273312946,0.2800527286,0.309065795,0.48544153,0.4006505734,-0.9272223028,0.5324891773,-0.1992865122,0.6076061034,-0.2941535341,0.3106324849,0.0747846619,0.0051364286,-0.57288756,0.7805934171,0.1098253166,-0.1049784247,1.2574139304,-0.0461888613,-0.5476762021,-0.4488872136,-0.7250622004,-0.4519562049,0.1035638787,0.1452967268,0.2687695885,-0.0783179828,0.5787321819,-0.0294163614,0.4205052198,0.0307811867,-0.9949153861,-0.104218699,0.6528538312,-0.0612160129,0.3059177661,-0.4886300951,0.6281005174,0.7834552866,-0.5501143755,0.4450854175,-0.8168859607,-0.5054753987,-0.4760691877,-0.6671760456,0.2545262357,-0.3764905278,-0.7198718994,0.357965918,-0.749825211,1.1218270953,0.7097447013,-0.1798684211,-0.733314418,0.481094859,-0.7193731895,-0.1099068926,0.448954082,0.2731939195,0.4894480038,-0.5099740017,-0.2956305956,0.9321821319,-0.0753374915,-0.4639467515,0.1491527639,0.6479924124,-1.1150350779,0.3271730977,-1.0198822794,0.029226636,-0.5165590703,0.0277249348,0.2514180407,0.1572596819,-0.6056875003,-0.9418913017,-0.7723030241,-0.4415605454,-0.8082867943,0.1131923972,-0.7915884541,-0.3985523811,-0.2463745295,-0.3929435887,-0.6312572206,0.5148230096,0.0806471788,0.3918475874,0.7398054844,0.0388446951,0.4846700418,-0.6499699157,0.0116409992,-0.8047078425,-0.8805144584,-0.6405740623,0.6224313722,0.4356576651,0.8671154715,-0.7988399574,-0.8572642092,0.3345572051,0.7977386903,0.1120517593,0.1321090737,0.51855752,-0.6121370585,0.1888681277,0.316728262,0.0743056284,-0.6861287436,0.6788274634,0.2383356753,0.98778702,0.08478858,-0.2260895487,-0.1380147303,0.022249898,1.0036724391,-0.4295763279,0.9576313096,-0.7728093983,-0.56961552,0.5218954076,-1.0580897124,0.1412056083,-0.0005856013,-0.0622777623,-0.6615152222,0.2177003024,-0.8820564324,0.0332734091,0.8969215278,-0.000923777,0.2304835052,0.6178848393,-0.4159273885,-0.3507342619,1.1736549405,0.7351573352,-0.3993644475,0.5558877372,-1.1656252726,0.3797454792,0.3265668175,-0.2164279934,-0.9501531676,-0.8498424698,-0.2654076417,0.022449053,-0.1046644038,0.8315497252,-0.4163760976,0.6133626755,-0.5611668848,0.7766961625,-0.0422895896,0.1218239887,0.4451583352,0.6078055004,0.662782738,-0.5800909682,-0.0727135099,0.2375793616,-0.4033369869,0.0221130928,-0.5354708543,-0.0293522917,0.1436374669,0.8040824265,0.5278404801,0.7352537712,-0.0992123158,0.1775962461,-0.9215014545,0.5906298166,0.0431185863,-0.3173812052,0.2424162847,-0.6958212012,-0.3796373047,0.6184575496,-0.8793205385,0.5235157702,0.0798870549,0.97697263,0.4558648321,0.7678906047,-0.3035159009,-0.5104347392,-0.8021350418,0.6473247268,0.7071496903,0.7479487373,-0.3360602886,1.0434536706,0.8084912671,0.5830559928,-0.045570228,0.2501611477,0.4085913243,-0.9889405875,0.2455875973,0.436124724,0.1772138134,-0.2020424418,-0.3021926993,-1.0206298038,0.6423161332,0.9868434336,-0.2907001318,-0.8941349882,-0.5515747486,-0.2071436335,0.3577495003,-1.0443553773,-0.0869620832,0.48503864,0.0268494567,-0.5004001178,0.5587853347,-0.6525194677,0.0534662016,-0.5480240898,-0.1812084736,-1.1118278516,0.4920291229,-0.1075462205,-0.2185276539,0.8162352336,0.4643644163,-0.5744897461,-0.6340518227,0.2642878463,0.5028219442,-0.6085522595,0.088059006,0.2215337947,0.3289398041,-0.4345706952,0.4687267415,-0.0232505854,-0.0399042068,0.7599884773,0.0445578299,-0.1211365407,0.7179210335,-0.3410518731,0.1951249425,0.4279156205,0.5028893687,1.3141108704,-0.6431189458,0.2277743733,-0.1240677063,-0.3840801961,0.8015761572,0.0588689879,0.1256604045,-0.2048101233,-0.4432509581,-0.3399913581,0.6547753102,1.1184880402,-0.9175032639,-0.0040352547,0.464488896,0.4175107,1.0577806278,-0.7549828988,0.2088429374,-0.6233462577,-0.3860872087,0.1551880567,-0.8742481643,0.4977575504,0.7491181289,-0.237391627,0.3699874341,-0.3512044983,0.2429762151,-0.296283484,-0.9603100437,-0.0760081439,-0.8435651106,0.2886822064,0.8040103826,0.3302826009,0.092628166,-0.1024926206,-0.6840125108,-0.0549755837,-0.6736848208,0.2345336925,-0.6195818766,0.2602722507,0.6694816125,0.974219788,-0.7191634472,0.5033824309,-0.1400846409,0.4129601818,-0.2114702105,0.6764427531,-0.856220715,-0.8798584452,-0.4950957852,0.9399886675,0.1875460538,-0.160933621,-0.0195098519,0.0450111406,0.808892515,0.6600201695,-0.4239032984,0.1670408387,0.8236170615,0.1268201514,-0.0195848913,0.5775269987,-0.8576975876,-0.6691246194,-0.1514643843,0.5809508574,-0.1764393864,-0.0335567848,-0.0493772694,-0.5832131957,0.5733552786,-0.462730342,0.4114539125,0.8016511359,0.408727042,0.1027972129,-0.0433390395,-0.0299600958,-0.1450051688,-0.2638379097,-0.1930200897,0.167007281,0.9741856726,0.6572099063,-0.462649393,0.2365132318,0.8844009536,-1.0109618858,-0.360461068,-0.8714887692,-0.1042155575,-0.7691213772,-0.4556816954,-0.0480984875,-1.0608397889,0.2994819112,-0.4990330395,-0.7860096177,-0.0967480643,-0.2335444843,-0.1984226523,-1.0288114862,-0.8875855096,0.8996218812,-0.369407346,0.1434551885,0.1660375353,0.4145535471,-0.9060285071,-0.2852855293,0.6975147711,-0.8885914364,-0.0232134332,0.7073156988,0.3028345734,-0.8514736092,-0.0850629864,-0.2486953063,-0.21722185,0.7342251775,0.9119947036,0.6684094948,0.1408988555,0.5958064425,0.0859473543,0.8540583845,0.8947570164,0.6987980861,0.6076726596,0.1233024208,1.5571627722,-1.3289578691,-1.2672314964,-0.6725475924,0.095618035,0.8234447849,-0.6114020588,0.0143559175,-0.3821909214,0.0120204205,0.3304762448,0.0978774479,-0.0231958781,-1.2922563769,-0.9367896215,-0.2298114117,0.3325509221,0.2509578977,-0.6116550677,0.9991725811,1.1324860106,0.4688364903,0.0751970515,1.1170880665,0.1389833562,0.0512408674,-0.8828928356,0.7345765109,0.1297290591,0.956333993,-0.4222973507,-0.2933797472,0.8895577064,-0.4195455032,-0.6950514556,-0.9252811076,0.5672129743,0.6877624818,0.8181451918,-0.2690417024,0.2387031922,1.3623010492,-0.0711374271,-0.5788391605,0.8671136667,-0.2854409639,-0.803195406,-0.5386285347,-0.1575505923,0.0524935945,-1.1231270218,-0.2549487276,-0.735744234,-1.3267939621,0.417814262,0.1480385069,0.1615274617,0.0937688557,0.0621839184,0.418032762,-0.6407562351,0.5892896727,0.6442739875,-0.8743283471,0.9326149736,0.8325504285,0.9836517936,-0.4094235987,0.3018093841,0.0043971461,0.9301540051,0.5451665868,0.8848012786,0.0193984129,-0.3042105626,0.9639402846,0.4530128987,0.9141573042,-0.0864707568,0.7244873899,-0.5189436356,-0.4026509108,-0.458952999,0.4465785513,-0.2002765598,0.1018375135,-0.153335037,-0.182134218,-0.9249493864,0.5329376018,-0.216657155,-0.5860771515,-0.9431654646,0.5987496212,0.1145182421,0.2830607837,-0.0530102813,0.0544364888,-0.3349073954,0.6362872897,0.0539882704,1.7831034147,-0.7412285684,0.5900868679,0.8652833493,-0.5169596433,0.5914565862,0.8141497792,-0.2197020015,-0.3873336984,-0.8760895667,-0.8456420278,0.8943366425,0.8177259802,-0.2707663653,-0.8784636596,-0.360019568,0.6504218745,0.5784564614,-0.14590992,-0.521320948,0.8646966768,-0.6310021898,0.0706669202,0.0736560298,0.5144058266,0.1451010218,-0.4034632245,-0.3382678987,1.3200664851,-0.4216523783,-0.7319749158,-0.5311071138,0.3386046714,1.1521751003,-0.476865971,-0.0590933333,0.5861215057,0.4445757804,-0.139689355,0.9932775044,0.6352576233,0.0158514955,0.2607473874,0.576923858,-0.1663632224,0.6901517253,-0.3436276305,-0.4278817016,-0.528003926,-0.1145403374,0.1959028459,0.0584700225,-0.0320466396,-0.4212117467,0.3877393376,-0.8759794694,0.8657938763,-1.0034129462,0.5276052018,0.2784952995,0.3723477989,-0.3680505192,-0.4078964473,-0.3431420937,-0.3823466106,-0.7374389377,0.4618829756,-0.9578434176,0.0995203919,-0.3675116335,-0.8015207619,-0.5678956452,0.4138958967,0.7832597869,-0.8280545726,-0.4351802694,0.7396867757,0.3751902985,-0.3016270693,-0.673687853,0.8969756447,0.7829191562,0.3880917026,-0.1449831702,-0.4748822429,0.151083137,-0.2228888893,0.4433223123,-0.3888245293,-0.3153082284,-0.5869266595,0.1465258252,-0.4400305033,0.5300583823,0.7775468393,0.1784751991,0.436152427,-0.6373397662,0.5444611297,-0.1813992526,-0.7269236616,0.2585655095,0.5478682001,-0.3912419909,0.1347967798,-0.4021076326,-0.3820067147,-0.5678972486,0.8198099903,-0.4885328518,-0.8991576288,0.358598507,-0.3252350032,0.7153073866,-0.4328104177,0.0601128438,0.7688077511,0.6091130111,0.7539042603,-0.1545817735,0.572461815,-0.5060689126,0.9697182618,-0.2640210798,-0.1953593596,-0.4669308033,-0.9246161883,0.1958275897,0.0521130441,0.3026314114,0.3266838577,0.7422528007,0.7146177065,0.3216846773,-1.0071077704,-0.1347439396,0.0782854284,-0.1211433621,0.0424606604,0.3472572952,0.5397340236,0.2154541728,0.3386278915,0.9755167557,0.5309561617,-0.0387162729,-1.1634942058,0.2274633259,0.0186774379,0.946970725,-0.9676202366,-0.0394873372,-0.2993310831,0.5314294813,0.6353479631,0.9484409465,-0.3458754063,-0.9552781951,0.3407323387,0.2852678473,0.3504108915,-0.9954038216,-1.0837966283,0.4024923726,-1.1737854133,-0.4262849371,0.388989375,0.7236515077,0.3258948641,0.8902142812,-0.7472798726
