encog,BasicNetwork,java,3.4.0,1,1589999166495
[BASIC]
[BASIC:PARAMS]
[BASIC:NETWORK]
beginTraining=0
connectionLimit=0
contextTargetOffset=0,0,0
contextTargetSize=0,0,0
endTraining=2
hasContext=f
inputCount=200
layerCounts=235,217,201
layerFeedCounts=235,216,200
layerContextCount=0,0,0
layerIndex=0,235,452
output=0,0,0,0,0,0,0,0.0000043675,0,0,0.0000015099,0,0.165030069,0,0,0.0000000002,0,0.0128626997,0,0,0.0000000642,0.0000000001,0.0000000016,0,0.003773501,0,0,0,0.0005427683,0,0.0000389722,0,0,0,0,0,0,0,0,0,0,0,0.0000000001,0,0.0000000068,0,0.0000000001,0,0,0.0000000155,0,0,0.0114376957,0.0000319316,0,0,0.0008773606,0.0000000817,0.0000028796,0,0,0,0,0,0,0,0,0,0,0,0.0000000014,0,0.0000000007,0.0000063344,0,0,0,0,0,0,0,0,0,0,0,0,0,0,0.0000365307,0,0.0000018259,0,0,0.0002598374,0,0.0000047268,0.0000000117,0,0.0000202134,0.5706479885,0.0072789933,0,0.0000000094,0,0,0,0.0000000383,0,0,0.0013242604,0,0,0,0,0,0.0001672239,0,0,0,0,0,0,0.0000000168,0,0,0,0,0,0,0,0,0.0000000007,0.0000000001,0.0000000275,0,0,0,0,0.0244407231,0,0,0,0,0,0,0,0.0000000001,0,0,0,0,0,0,0.000000007,0,0,0,0,0,0,0,0,0,0,0,0,0,0,0,0.1963519886,0.000004042,0,0,0,0,0,0,0.0000002529,0,0,0,0.0000003372,0,0,0,0,0.0000000585,0,0,0,0,0,0,0,0.0000000073,0.0000000831,0,0,0.0001500105,0,0,0,0,0,0,0,0,0,0.0002415456,0.000076082,0,0.000015066,0,0,0,0,0,0.0000000001,0,0,0.0000000103,0,0,0,0,0,0.0000000373,0,0.0000000002,0,0,0.0043677807,0.0000000007,0,0,0.7325132418,-0.9350567023,0.988528394,-0.9875875946,0.988666669,-0.9988643628,-0.7661184186,-0.920247345,-0.9896850985,-0.8450265632,-0.1931664821,0.9644936421,-0.9976167146,-0.7712322753,-0.8248749712,0.9999998221,-0.9998163781,-1,0.9942247224,-0.8789141287,0.8077037624,-0.858611677,-0.8708624932,-0.7630857302,-0.6385417701,0.9999999949,-0.7375179688,0.810992947,-0.9988308489,0.9928177733,0.7352807368,-0.5902888427,-0.5588638936,0.9774675076,0.7103724406,0.7996105777,0.1329529357,-0.998934933,-0.9037171126,-0.9188320161,0.9999999952,0.9635000577,-0.5966529612,-0.9999524544,-0.6463290944,0.9701292273,0.9689066477,-1,-0.9999999721,0.9140181102,-0.9999431753,-0.8220294508,0.9587139673,0.999863767,-0.886155282,-0.9915696345,0.7623980113,-0.9880796984,0.3084157595,0.9996977503,-0.9997487097,-0.7516022447,0.9685068378,-0.9994348266,0.9999490213,0.9946433881,0.9938303334,-0.7736457938,0.8377479232,-0.9997008059,0.3868488737,-0.9988872028,0.9999987123,-0.5317864165,0.614017121,0.9997124354,-0.9929910188,0.9689377996,0.9986341633,0.997610822,0.3966402734,-0.9755351385,-0.9900990407,-0.7799928023,-0.9973211826,-0.9980481443,0.8420972724,0.9999948859,0.9227979062,-0.7019214811,0.9358953696,0.8918401546,-0.9975253987,0.9951481278,-1,-0.9682889136,-0.8762608332,0.7962305435,0.9895624176,-0.7273206886,-0.7812104768,1,0.4895400688,0.8137587991,-0.705879962,0.9275991838,-0.9995359735,0.7902786594,0.9998736267,-0.185476202,-0.8959503406,-0.6304345006,0.5928345942,0.9949670343,0.5609331743,1,0.2846976308,-0.757368701,0.5816216437,0.4226761396,-0.8290941153,0.9981278512,0.6282982066,0.9997790024,0.9999998477,-0.7771404612,-0.2527980947,0.8054037909,1,0.4641634234,-0.9999999732,0.1092329786,0.9954216225,-0.1285580755,0.9832945072,-0.9711960024,0.9999999999,0.6591540469,-0.9622648023,-0.9988887471,-0.5779191223,-0.8315219453,0.2210669837,0.9985747211,0.9998467579,-0.2107245228,0.0974746219,0.9999405515,0.72186941,0.9662282616,-0.1791513056,0.9327261621,0.9983031441,-0.999191718,0.9276889863,0.8868625422,0.4576539279,-0.5247240021,-0.3580531128,0.1713389371,0.9999878343,-0.999958665,0.5388876963,-0.9763162825,0.9712565093,-0.9851189599,-0.5428133793,1,0.9846930527,0.7894812903,-0.9106830568,0.9999999793,0.9999528993,-0.9999999999,0.9723951624,-0.9866690416,0.6638866772,-0.9998421326,0.6776808509,0.2942379503,-0.9871838364,0.8684520056,0.9999765321,-0.218959521,-0.9220278573,0.9740483199,-0.8440292506,-0.421782366,-0.9976513168,0.9993295098,-0.6546543832,0.6566901211,-0.5271109778,0.9999994252,-0.9999986039,-0.9999893258,0.5880205954,0.9256598369,-0.9990088237,-0.9725471772,-0.9787347319,0.8000164036,-0.9999438596,-0.9343906498,-0.8550739878,0.9861035069,0.9469804901,0.9999605862,0.9954427319,0.8899311585,0.9957165115,0.9464386755,0.9550106609,-0.8365421266,-0.9801568555,-0.555091241,1,0,0,0,0,0.5,0,0.5,0.5,0,0,0.5,0,0,0,0,0,0.5,0.5,0.5,0.5,1,1,0.5,0.5,0.5,0.5,0.5,0.5,0.5,0.5,0.5,0.5,0.5,0.5,0,0.5,0,0.5,0.5,0,0,0,0,0,0,0,0,0,0,0,0,0.5,0.5,0.5,0,0,0,0,0,0,0,0,0,0,0,0,0,0,0.5,0,0,0,0,0.5,0.5,0,0,0,0,0,0,0,0.5,0,0,0,0,0,0,0.5,0,0,0,0.5,0,0.5,0.5,0.5,0,0.5,1,0.5,0.5,0,0,0,0,0,0,0,0,0,0,0.5,0,0,0,0,0,0,0.5,0,1,0,0.5,0,0,0.5,0.5,0,0.5,0.5,0,0,0,0,0.5,0,0,0,0,0.5,0,0,0.5,0.5,0,0,0,0.5,0.5,0,0,0,0,0.5,0,0,0.5,0,0.5,0.5,0.5,0.5,0.5,0,0,0.5,0,0,0.5,0,0,0,0,0,0,0,0,0,0,0,0,0.5,0.5,0,0,0,0,0.5,0.5,0,0,0.5,0,0,0.5,0,0.5,0.5,1
outputCount=235
weightIndex=0,50995,94411
weights=##0
##double#94411
   0.8639990861,-2.1134424201,0.9652270382,-1.4195536511,0.9306883561,-0.5746904426,0.5356907475,-0.6341809523,0.232728771,-1.8123621879,1.2484337719,-0.9937050313,-0.4383354114,0.1391364744,-0.7436678327,0.5540229586,0.7773826355,0.0847163005,-0.3057713439,-2.6569919353,0.8786046257,0.746114708,0.3651901131,-0.6761974234,-0.3362057816,-0.4890374551,-0.0939684029,-0.9988340075,0.3014114153,0.9737361993,0.8695078317,-2.0813789515,1.1909983182,-0.1614953068,-0.0902809423,-0.2694784063,0.0201596288,0.7375427654,-0.8587372481,1.0107318592,0.7523108943,-1.0590114787,0.2450390629,-0.1026333398,1.205318398,0.3185890618,-0.682679829,1.5306738754,0.7584675637,1.14752878,-0.0654424828,0.5619433907,-1.2844227994,0.1059974811,-2.4701545762,-0.5483244552,-0.4366328633,-0.4810316049,0.1233345929,-0.8749890151,-0.6616870389,1.2817450098,0.3469437911,0.8181992057,-0.3636096334,0.4661297713,0.2955768156,0.8787617923,-0.625300657,-0.6203451536,-0.087780451,2.3780841931,-0.4963363029,-0.6561179381,-0.3649952009,0.5896074909,-0.4645053576,-0.161340766,0.7075836827,-2.8537606952,-0.6030371676,2.3972343973,-0.1286766614,-0.7146208671,-0.7069737635,0.468090067,-0.9835968082,-0.407233458,-0.933593285,0.3622441855,2.3978426239,-1.0568177967,-0.1340272524,-1.5108563009,-0.0168402546,0.4226434093,0.6232275081,0.054242424,0.8590333343,0.673796282,-2.2230889973,-4.803988606,-0.2246720066,-0.1870883844,-0.6152587952,-0.5528517112,0.1497627366,-0.7789492994,-0.0552968342,1.8604154049,2.2635851869,-0.8584649726,-0.5808892998,-1.3075585811,0.7274503532,-0.9835726064,0.0633385106,0.3993777911,0.7413849818,-1.4951636698,-1.0829662812,-3.458434371,0.2898334551,0.7166534469,-0.2726505602,0.3500729017,-0.7469365869,-2.6373367695,0.8760467175,-0.0361343101,2.8409641809,-1.3891029455,-0.078918846,-0.4249190316,1.2227138207,-0.9107606177,2.1691380387,2.8139173792,-0.4892672403,0.9079618619,-0.7839004892,0.2659823867,-0.9696903636,0.7224824647,-0.902144215,-0.5072770083,-1.8494393304,-0.5978348506,-0.8816119982,-0.7840146114,-0.4927317288,0.6460406672,-1.19028363,0.2113452337,-0.7261258097,-0.7551766452,-0.5812673237,0.3802040651,-1.1314037718,0.5450613179,0.4802207248,-0.1813718562,-0.4574302966,0.7899720828,0.4356684937,-0.4733313781,0.7563299112,0.1627070777,-0.9799717602,0.9813795615,0.7307946838,-0.3401651835,1.2175941946,0.1716240071,2.8806260538,-2.9977747224,0.5129294668,1.3587403452,-0.6039310535,-0.4987885291,0.3356411871,-0.1057354881,-0.0356256892,1.933193027,-0.8730282179,0.7856635152,-0.5535343412,-0.6007380765,0.8552832772,-0.4284733172,1.3404119915,0.5313157979,-0.3943363763,0.7291543233,0.7083488225,-0.5289207894,0.2943442469,-0.0618509782,0.4329255531,1.399999665,0.8035058901,-0.8876742773,0.9509562531,-0.5467427873,-0.0957707846,3.4717202151,-1.7639229576,0.8727968281,-0.0957353317,-0.5980686213,-0.4205407265,-0.0262883591,-0.7230159733,1.6594309257,-0.4642027189,0.0347380613,0.60825438,-0.1836736312,0.5955410876,-1.5064294035,-0.0166331827,-0.8579879794,1.496889566,-0.6485036117,-0.5259710825,0.0716836396,-0.6900511644,0.8114573044,0.327085956,-0.823236246,0.0185867601,-0.2410375975,-0.1568396046,0.7224921596,-0.4466409266,-0.9225988188,0.990439734,0.8070808416,-0.7436859474,0.1217015646,-0.2098977881,0.8263640974,-1.5506705101,-0.7577718901,0.3625779639,2.5544742565,-0.6488733194,-0.4247473952,0.5532652434,-0.1146299114,0.5015906351,-0.3151339435,-0.8403857058,-0.6424666637,0.0089225773,0.3493557078,-1.1410072155,-0.9700369088,1.0349096582,0.9164980712,-0.3028759998,0.560638143,-0.2092811782,-0.3088234843,2.9349620114,1.3045466839,0.7099475582,-0.1255958145,0.3580881693,-0.6499168044,-0.0029767616,2.4692273066,-1.178967365,0.0385647818,-0.1957501217,-0.1598447516,-2.0473488435,0.4651458623,-0.7700681702,0.319221667,0.5603070211,-0.5822803837,0.8049776132,-0.4296771877,-2.2749663399,0.2937177268,0.5498286715,0.9470845029,-0.0605475194,-1.3662276827,-0.5536138943,-0.5468260262,0.0724669411,-0.954996831,0.6578707829,-0.7634175769,-0.5722763687,0.0297264226,0.7387225974,0.5327698602,-0.3135420261,0.1197702958,-1.4010561047,-0.2964135551,-0.8841948225,-1.5632555473,0.6928305083,1.1862957659,1.1622768049,-1.0021456344,0.0830396019,0.1682635158,1.0463125445,-0.280202315,0.4393055173,0.5630109941,0.2020603077,0.8486292201,-0.844157201,0.2501766734,0.5352982969,1.5130511808,-3.564269411,0.3870004053,0.1244175609,-0.4607101651,-3.7095891021,3.6004693407,0.3359338004,-0.1832637369,-0.7098020012,-0.3119887703,-0.7092461768,1.083057591,0.009799103,0.562639354,-0.2640993456,-0.5274006302,-1.2963201245,3.0845675372,-2.7948057427,-0.8931441337,0.0721064151,-0.0051293082,-0.8373730313,0.638865992,0.567906926,1.8535774694,-2.634249109,-0.989477995,0.6805388507,-0.4978288146,-0.0663959145,-0.6042389367,-0.4489014169,1.1547118024,-0.4394984408,-0.2161516633,-1.6672704663,-0.9287886529,-0.1318637506,-0.5348825565,-0.4029842221,0.1449078807,0.7930412856,-0.4388021812,0.7566576131,-1.6178107566,0.5591285981,-0.6242343194,0.3722211052,0.6379546279,-0.0143520437,-0.1127040477,-1.6435254817,1.2511253694,-0.9399063385,0.3391358715,0.989174804,-0.3289705639,-0.4424452991,0.5904643637,-0.4092809568,-0.8190814585,0.2448605125,0.6953601687,-1.105827223,0.5904369077,0.6174752244,0.2132325248,-0.1004680951,0.4356577978,0.5130813425,0.05084041,0.4392727424,0.1032443462,-0.2386368817,0.8793249568,-1.8980605665,-0.7165322218,1.4593186703,0.646073766,-0.6418893695,-0.0063329908,-0.1706869045,0.8860423865,-0.6507275009,0.9476335972,-0.6685602944,1.1573052443,0.036415689,1.6388515495,0.5098819948,0.4826395958,-1.7562424362,-0.2678724027,0.9626835291,-0.1641456101,-0.1099803779,1.276008121,-0.9974670818,0.3776697992,-2.2071264576,1.0212620237,-0.8397720959,0.4333560583,-0.6280962826,-0.1905707378,0.1830208604,0.6874804104,0.0510375166,-0.8293718488,-0.5802820504,1.0210927423,0.7860960948,0.3080410818,1.0042269975,-2.302418886,-0.9315727133,2.1747954408,-0.2304295699,-0.2280004677,0.093169231,-1.7541818839,0.1660051524,0.7525976744,-0.6354144078,-0.488742652,-0.319789495,1.0726391087,-0.961027927,0.669211203,0.173308713,-0.3758524172,0.8390046242,0.6026916221,0.1237588941,2.4066312097,0.0067444535,-0.019705685,-0.7602343199,-1.6573478808,2.1972884269,-0.2523551175,1.6227137922,0.6684856305,0.5781806336,-1.5120575847,-0.5006784018,-0.8716503339,0.5151115339,0.2142444478,0.3537079733,-1.0568938339,0.9560706009,1.0106582934,-0.7040819096,-1.0708097215,-0.5919850851,-0.6799201883,-0.4714470108,0.1130789282,-0.5554325808,0.111872905,-0.4967162225,0.9983183433,0.5335530778,0.5165551088,-2.6907247088,-0.8450261567,0.1379980132,1.3875261561,1.2148366789,-0.8399067039,-0.5646809691,0.4401723687,0.4741294582,-0.6113909724,0.8051018054,0.8510188312,-0.2481900794,2.4421736333,0.9153261801,0.4838710734,0.1645583545,-0.0179014385,-0.4619187278,-1.0852836194,0.4556323128,-0.0163342534,1.0435394655,0.7924067948,-3.2046296237,-0.1141121148,0.9125532175,-0.8326118339,-0.7331733422,0.8636712643,-0.2970015463,0.5265374948,-0.8384192583,-0.2366087191,-1.7313658294,0.8085936875,0.8465428485,0.580948324,-0.869130827,0.5381315365,-0.0434882432,0.6410716214,0.9295266995,-0.1638874894,1.1755394515,-0.102670283,0.3446574296,-2.9016495831,0.3953664113,0.8897629524,0.6490971208,0.2890401896,0.8345264813,0.3320024563,-0.7811293002,0.4028478089,-0.4777002254,3.1475026498,0.2484553735,0.6754128145,0.4688350323,-0.1497845743,0.7299669128,1.0094976106,-0.6045432066,0.8023013176,-0.5360919849,1.1799019356,2.1549026678,0.6021786794,-0.1835031338,0.7266541469,-0.3758120231,-0.741045008,-0.9067638549,-0.9201072839,-3.0494957537,0.3103505677,-0.5858730917,-0.0099994325,0.2268663041,0.5200136846,-0.5924134227,-0.5696612175,0.3053385224,-0.0432806259,-0.0008843702,1.098124845,-0.9145577539,-1.1624686248,-0.0311946721,0.5830467322,0.2295955444,-1.4689247458,-0.4497930345,-2.6322285693,-0.2011172206,-0.7023427357,-1.3329411978,0.890036229,-0.9631155666,1.0142807664,-0.6246676133,-0.2632509322,-0.8658385355,0.7752549032,-0.1813642836,-0.7369284699,-2.2632143587,0.6131882854,-0.0398741228,-1.3443211607,-0.1806408879,-0.2912462643,-0.7079213005,-1.4488447761,0.6210161066,0.633204827,-0.8363666309,0.6785294412,0.1964819069,1.0364511205,0.8718184875,0.1084606274,-1.887237407,-0.6906317374,0.0151586451,-0.6213913042,-2.2382456631,0.1926244817,0.7144444386,-0.4542255095,-0.0788050142,0.6662895299,1.0399939433,0.0765070268,-1.6889422323,1.7507560174,-0.6174657379,0.6465379451,2.4079587152,1.6505949642,0.8993160519,0.7198062029,-0.2794447395,0.3830971151,-0.8888130558,-1.6695291419,-0.2190312976,0.3154811323,-1.9207331911,0.3408498037,-0.594710006,0.4056356064,0.1689634253,0.1682306206,0.6094005298,0.3828061676,0.3033932097,0.6282819624,-0.8221147418,1.2031189383,1.2887093323,0.1058922833,1.8667072162,0.2742185237,-0.2055691389,-1.7784638126,0.6886960102,-0.9549013555,-0.5373422004,0.1182778995,1.4205129815,-0.2686608962,0.1819163157,2.2177024835,0.1519739671,-0.3228539308,0.2669059866,0.6399649261,-0.5258454425,-1.2150984694,0.7921676461,0.4277515871,-0.9667782048,-0.1230859888,1.2925954398,0.0701932625,-1.1842059596,0.0689405598,-0.1240918226,-1.1187574446,0.482531639,-0.189673548,-2.0178272611,0.0335217985,-0.3874084856,-0.2863970621,0.1524369749,-0.974702467,-1.9175443505,-0.8059485359,-0.1041874699,0.1576951781,1.2856697666,-0.5462288097,-0.7799118155,0.4029546671,0.4390270653,0.2562165298,0.7651980409,0.1774407241,0.7955847525,0.1798811746,-2.0566672345,-0.5284198767,-0.5457474645,0.5833387151,-0.0228913462,-0.0914913268,0.828324438,0.31773505,-1.8979026075,0.0715914725,-0.0694407483,-0.3299860228,1.4669857658,-1.1093616666,-0.6032878047,0.1045718537,0.3582392398,-0.8021473524,-0.3726900932,0.7861509885,-0.4015435719,-1.280977423,1.342207879,-1.0658579396,0.8515050129,0.799692648,-0.7267935241,0.4323793462,-0.9580668503,-0.3001294408,0.0021044131,-0.4576463716,-0.4397972786,-0.0317692236,-2.9721719103,-0.8427111402,0.2236756546,-0.178943541,2.078430679,0.8918582555,0.388187485,0.2788167586,-0.6703141483,-0.2380194878,0.7211260043,0.5460451079,-0.9273843231,-0.0941916559,-0.1298963378,-1.4878187195,-0.4491889755,-0.1180326973,0.4259983713,-0.0488049272,-0.3566351202,1.1958489171,0.8693457626,-1.1402652202,-0.0944981446,0.6264866195,-0.4178016639,0.5195995403,0.5205727517,0.9103671913,0.9165267801,1.1293297281,-0.3084964704,-0.1216568475,0.7417739171,0.5193935879,-0.9957035068,-0.9137383524,-0.4865295738,0.4418551583,-0.4540492092,-0.3174499354,-1.1474915674,-1.0195979405,0.7393120802,-0.4961155569,0.3587314271,-1.5144503389,0.857040725,-0.5352566195,-0.5415661496,-0.5076368644,0.4150980751,0.2135766591,1.0643539102,0.5718226574,-2.7616742333,-0.4035077861,0.6582240733,-0.4273476008,-0.1973955586,-0.3797026214,-0.1810049536,-0.9998810706,-0.8535389958,-0.648055448,0.1033186732,-0.1385554821,0.8726321111,-1.1925121192,-0.8475322307,0.9025718069,-2.0138165084,0.1990357527,-0.310512562,-0.999895868,0.9730795345,-0.293674214,-0.2491042211,0.7088128825,0.906657669,0.3630894991,0.7018665574,0.9981899033,-0.4414775964,-0.4045727462,-1.1277239393,0.5919501823,0.9007803936,-0.1111335814,-0.081612192,-0.0107207155,-0.6883985816,1.4468363714,1.3353273795,0.508835424,0.7880639207,-1.6547117757,-1.2366705506,0.7725343874,0.0061893266,-0.1782768505,-0.4651782232,1.8842253682,0.5300229428,-0.950011901,0.162037407,-0.2634571835,-1.3585827674,1.3283521861,-0.3753117093,0.2910507764,-0.6644456971,0.2756819823,0.4288475874,-0.8356429533,-0.1487025376,0.3413241769,0.7822217124,-0.644190007,-0.3908379044,0.7268915341,1.037158932,0.0303574799,0.3170832149,-0.3861355965,-0.8524794836,0.1685612111,-0.6267719764,-0.5422300842,-0.3375744278,1.1916014856,-0.4383246963,-0.8277802527,0.1133176749,-0.8748282406,0.4624435863,-0.746699045,-0.3987612274,-0.5812324225,-0.6350158814,0.3433401549,0.7919458141,0.1737625726,0.2815093715,-0.8074574183,0.1142173284,0.9952964739,0.2321166491,-0.2662878915,-0.0714583635,-1.5033652599,-0.5564684203,0.6710895587,0.3061663459,0.3800105293,1.6517525352,-3.0538944616,-0.6611559458,0.3147068835,0.049713596,2.4653852136,0.101976233,-0.7785664297,1.9792330628,-3.17822914,-0.0534343442,0.4079951447,0.0674555908,-0.6269125435,-0.7152472797,-0.0864900308,0.5162322949,0.8869929376,-1.0023364716,-0.228311712,-0.1473715491,0.5610843059,-0.8159315624,-0.7047476477,0.0355080224,0.8647766076,1.8034028879,0.6721136479,-0.1448488402,0.0829809954,0.3315089439,-0.9698172411,-0.8891018384,0.3280166052,0.8516906257,0.8927601194,0.7854444981,-0.163730981,-1.9659799534,0.5104247163,-0.9097096687,-0.5266045657,-1.7123463221,0.2021240587,-0.7839101845,-0.6372667483,-0.3558641804,0.0950346689,-0.5017121297,0.3790840877,0.8855560983,-1.0282940542,0.873928809,0.5683087947,0.4220886572,-0.8593776637,-0.0690200371,0.5559821178,0.9133614845,-0.1528736353,-0.0320668636,-1.9447183136,0.4540253298,0.0669206201,-0.4893668336,4.3574737757,-0.3918230489,2.0275750403,-0.4625797421,-1.2822782037,0.7532247332,-3.9773438888,1.4662988834,-0.3395144002,-0.9685390545,-0.0087726773,-0.6050480388,-1.0499971878,0.9933695585,-0.0007796479,0.0360406453,-0.2439507314,1.2246561147,-0.0279008481,0.0856783606,-0.2848340177,0.5464043456,-1.3473586237,0.6710800741,-0.2743466304,-0.9344179106,0.7574140116,-0.3237960538,0.270960848,0.7434256387,-0.5971961219,0.3234602909,-0.7241205325,0.4130866942,-2.2110528563,0.2590134689,-0.0077443353,-0.2007908799,0.6858302517,-0.5304067737,-0.0351238673,-0.1442183354,-0.6204445832,0.3472064868,0.3302993658,0.2589137346,-0.2984587708,0.1071210762,0.5252292339,0.0167974738,-0.8867523888,1.1075908789,-0.5177570949,0.5539797447,-1.5035573025,-0.4131340889,-0.0391055056,0.0939779204,0.2582212266,-2.3797966504,-0.6713346864,0.3146339903,-0.7287058737,-0.2093111458,0.2406678075,-0.0782462902,0.97699221,-0.2170121539,0.305696069,-0.0721351046,-0.0516330474,-0.1119820722,-1.2635791973,-0.6601246646,-0.5344392745,-0.7248814841,-5.7824352668,0.2419579351,0.5177446636,-0.116164204,-0.5398754684,1.3506334697,0.6320550855,0.1550209124,0.2138387408,-0.3007443782,-2.002633318,-0.2839585238,-0.5034443868,-0.6378614035,0.5015969382,0.1913909541,-0.1529021688,-0.7647718698,-0.036231795,0.2212870655,-0.6587972892,0.1737192005,0.2068510446,0.0569220816,-2.0566737135,-1.8988122872,0.7905206542,0.7698631576,0.2750678433,0.910993629,-0.8762319134,-0.6088794073,-4.1585268011,0.4275343649,0.5771112265,3.2671768468,2.2018905152,4.9977186268,-0.2687604622,0.8448730815,0.1018630593,-0.4752397071,0.2641380036,0.5444302697,0.1979790973,0.3387716836,0.668940957,0.4754461227,2.7667829012,-0.864601897,-0.2600940778,0.93112993,1.2353444766,-0.4754347667,-1.8920782206,-0.9787834583,-0.9408043911,0.7252852794,-0.6142937608,0.0182221678,-0.0550823695,0.1700965295,0.456351725,-1.759539755,0.5350442647,0.7897307508,-0.0750738716,0.3963788187,-0.7572948067,0.1134648518,0.8971870246,0.2359940026,0.9481407527,0.8756038796,0.0702423908,0.2150101353,1.689121068,2.3831578451,-0.7033326575,-0.2213387835,2.6886532874,-0.3881957097,-0.967723056,0.7440170325,0.912260574,0.8717805552,-0.551204633,0.5034874451,-0.5347746013,0.8349052681,-0.8197249887,0.3131973204,0.28544089,-0.8485690893,0.808021953,-0.2622583874,-0.6923417598,-0.486920072,-0.1220307381,-0.5319317404,-0.2154121314,0.5872552591,-0.4423221011,-0.2167217151,0.7247863617,0.5645873377,0.5530184152,0.4395856829,-0.4450005851,0.6720495469,1.4569013562,-0.0014613561,1.613350525,0.51910383,-0.8027829314,-0.7196625666,-0.5735858798,-0.0083196505,0.3174920573,0.5738926477,0.0841323119,0.0521034211,0.1538167145,0.7246111116,0.4327299481,-0.5877176419,1.916754047,-0.6215941599,-0.1610815353,-0.2581041793,-0.0919193637,-2.1839437834,0.0798329849,-1.1355279669,0.9668264662,-0.9223444124,0.8954913297,0.7961623874,0.270686255,0.5702734851,-2.5098628871,-0.0893594895,0.0759073909,0.0988168372,0.037867615,0.6048314674,0.6943481325,-0.4031329728,0.6206450398,0.1069504413,-0.5631545866,0.1437361731,-0.3406987121,-1.9808689343,-0.23442152,0.6352198528,-0.6622811517,-0.2246899895,0.8293807392,0.5631797826,-0.5346555212,-2.0014632732,0.1187280369,0.8036004803,-1.1678048988,-0.3225712253,0.3392432189,0.4516192048,0.5229808387,-0.0770211929,-0.3503658608,0.5562810928,-0.9986627672,0.0874887154,0.1487721325,0.38418597,0.1017807665,-0.4560132493,-0.0141842963,0.0610564866,-0.9983155614,-0.4098368365,0.9864283403,-0.6322100325,0.061276341,0.2354602631,-0.767943666,-0.5071633687,0.5888882894,-0.0249942678,0.3574521147,0.8418026493,-0.7442630183,0.9386723419,0.5375319519,0.1547295629,-0.407219184,0.4122473105,0.3419961195,-0.0026863278,0.0097602265,-0.4079268984,0.4530622595,-0.421387137,-0.0826581196,-0.1046439138,1.8735807425,0.7275027747,0.9360521819,-0.6306580498,0.6577501278,-0.852237142,-0.1550980338,-0.1094486831,0.0435593024,2.6250449667,0.3272751903,0.6149034208,-0.1060484779,-0.941307973,0.267382454,-0.417136749,-2.582377966,0.4254684941,-1.2657226584,-0.4430225747,0.3667239902,0.2732004769,-0.1163246771,-0.9000548164,0.6081112045,-0.0856747917,-1.0181441963,-0.7487348781,0.1338282054,0.7996206588,0.3193876331,0.7035123185,1.6219188705,-1.3697481082,-0.0210378322,-0.7020566717,-0.3493551451,-0.2894544193,-0.0188080709,0.4009675777,0.7604156083,-0.7216505478,-1.8478721363,-0.9563528919,0.7441565426,-0.3604155845,0.7124606352,0.6548361291,1.403986028,0.1702669883,-0.6937962608,0.4615908219,0.4417389595,0.746269876,-0.7917476574,-0.0499522508,0.4954609118,1.2967398985,0.4443190063,-0.378077957,-0.1120677869,-0.3800468561,-0.3050687951,0.4846381128,0.608614,-0.007974951,-1.6245322805,0.8926785379,0.3021503231,-0.8317997567,-0.5188174428,0.5647189893,0.4761162055,-0.5058421634,-0.3489348622,-0.3621744528,-0.1357293045,0.4616100208,0.5322937639,-0.1444757668,-0.2652006541,-1.3569893588,0.800148138,-0.4981897449,-0.3067002783,-0.7933263433,0.6438381338,-0.3529275288,-1.0252719517,0.6712628739,1.3064237913,0.6241307926,-0.3985758089,-0.4389655175,0.6669650286,-0.2027701671,-1.1253238991,-0.9572418675,-0.446099164,-0.142693404,-0.5648811801,-0.6174183125,0.7977242085,-0.3078557325,-0.2602294177,0.5364129304,-0.5288422826,-2.3389186245,0.1455941935,0.1612042813,0.6228412028,-0.8286912058,0.9497093419,1.07652105,0.4082496376,-0.3844804838,-0.1324696609,0.780163506,0.1661861896,-0.9936410712,-0.0566155803,0.4163098122,0.4262954921,2.106839019,0.4320217953,0.2464259087,1.0619862835,0.9293724994,-0.3377322747,0.277614652,-0.6380765872,0.4945481465,0.5273868974,-1.7593527267,-0.5676293177,-0.418688176,-0.6676178771,0.7207379298,-0.3612384867,-0.7987844863,-0.5552289626,0.1454612965,-0.9526328822,0.4300971361,-0.2464800742,0.5996282356,1.1959329249,0.4821772101,0.7740892451,-0.8138206951,-0.6012616444,0.7199095776,3.370752773,1.0980667071,0.7380967492,0.1465087787,0.6671524366,0.9991451416,0.8833283164,-1.0411509328,-0.0054076072,-0.3829948968,-0.1430134108,-0.1204977214,-1.3503008758,-0.2009614577,0.6626092831,-0.0846911311,1.4733846829,0.1332744239,0.406037718,-0.1749020645,1.3826938678,0.0702362926,-1.0375070576,-0.85086945,-1.0449127398,1.617098487,0.0803290533,0.1312861766,-0.7039181196,-0.4744429005,0.2615319161,2.0376847952,-0.9606559509,0.723002052,-2.714767678,0.0232121496,-0.530537867,-0.9291317378,0.8722896677,1.4869022669,0.1405128191,1.8822223513,0.6456367271,-0.9371366758,0.2049767078,-1.2313691905,0.6208260453,0.0538269858,-2.4267897801,-1.1464735756,1.4325553998,-0.8639444115,0.5683565702,0.939835665,0.275123401,-1.5213405393,0.9152837364,0.7392841452,0.6835530254,-0.529687927,-0.9713126554,0.228703502,1.7085021765,-0.5508918084,-0.1065094538,1.1185398519,-0.4718453328,0.2575015635,-0.7446478193,-0.3498685665,-0.8852531189,-0.9850777116,-0.6353516718,-2.6930599477,1.0189900511,-0.257167067,-1.5399314716,-0.6484110595,0.5124581145,0.0680066859,0.3438961627,1.7119471966,-1.6046560057,-0.3969301092,-0.47383723,0.4515585516,-0.5362501027,0.5344676784,0.692645046,0.3544891137,0.0307198621,-0.5185458021,0.5955832456,-0.3066657306,-0.3124235822,0.4317541252,-0.290210152,-0.6693774222,-0.9895624461,-0.5917947735,0.6931570392,-0.0184693823,-0.6066758072,-0.9195751449,-0.5128064674,-0.150371091,-0.2536251642,0.1568362252,0.2433040767,0.5285956837,-0.5306323892,2.7883275876,-1.022223819,-0.296245314,0.4020109349,-0.453768288,-0.4640287554,-0.9912547072,0.3272081612,0.3042692465,-0.1223472403,0.8662860207,-0.8517885198,-0.5724533917,0.8082124501,-0.869042641,-0.7879533182,0.5124186645,0.2279168177,0.3704534908,-1.1745170218,-0.3081912039,0.3079479074,0.1444140894,-0.6542207945,0.7789235202,-0.2529531507,-0.0144143389,0.229673981,0.0150392812,-1.0223581225,0.4583221708,-0.8872310099,-0.6701134384,1.6585292169,-0.3679219625,0.2900161543,-0.868637558,1.0419379516,-0.9414811854,0.9312230566,-0.2411962065,-0.9255749552,0.7794486964,0.7922684265,1.0945665695,-0.653005781,-1.0051665349,0.3655100533,-0.2689200963,-0.3407510531,0.6346405589,0.1129781487,-0.9298497221,-0.6513155523,0.565241699,-0.0453734967,-0.4026207727,-0.1864007919,1.8355823852,0.5630540506,-0.162514027,0.126427948,-0.6294197574,2.9246054655,-0.7481332976,-0.5897361387,0.7004250694,0.1453624001,-0.5231889403,2.82438262,2.0223383687,-0.8677683788,-0.5789407707,-0.6005169464,1.3602873992,0.0127894812,-0.8795249285,-0.5328575222,0.4138581951,0.1971301817,-0.5140743486,0.7691686447,-0.7266384686,-0.2447409398,-0.1849241416,0.8774232602,0.5893105188,-0.609241671,-0.0707324026,-1.0457116929,0.0790877606,0.5431288272,-0.1294026482,0.9448527788,0.4734482233,0.1186760529,-1.0100123069,0.8097768806,0.6714305605,-0.2564043215,0.9857259673,-0.424771784,0.5716092992,-0.9407584872,0.0183960641,-0.0259720217,1.4248043602,-0.1888800475,1.276376458,-0.1113857599,-1.0166864884,0.6463731954,-0.6967350411,-0.6629182773,-0.6656648225,0.6873664205,-0.8920289454,-0.1117108921,-0.8996972558,0.8042175455,-0.7017825393,0.8084673578,-0.5871162995,0.455969609,0.0421536123,0.1048236044,1.4387634375,3.0764892729,-0.6349496454,0.0307475686,-0.4457650649,0.2392979802,-0.7092751451,0.4267395335,-0.0508391339,-0.4346480398,0.1241540408,0.4104148356,-0.8980443507,-0.2502097082,-0.0644882109,-0.2003233012,0.3611676991,-0.7406830232,0.712009126,0.7327148654,-0.8179183995,0.2406080604,0.0606192264,0.9406872006,0.8519480095,-0.9305470193,0.9892410761,0.3283159582,0.5318384464,0.9994616912,0.7455092718,-0.3906698147,0.6061692217,0.2203982662,-0.0744122676,-0.154569346,0.2789794753,-0.479066238,0.2654209279,-0.2111661489,-0.5365612817,0.6440018561,-0.8133123115,-0.5050300565,-2.9936660517,-0.1698091315,-0.3921700351,0.5847787139,0.0924859835,1.380042614,0.5162355733,-0.5488112057,0.1751238595,0.4811064092,0.3536119826,-0.7358019961,0.5135310381,0.606780206,0.8051878877,-0.6043848565,0.7417411641,-4.4493979555,-0.5393835795,-0.0810518956,2.8128894179,0.8473079543,-2.0277959314,-0.7615625568,0.4825361897,0.1639159314,0.4860578383,0.3937728617,-0.2368044,-0.8705045551,0.3713231699,0.6194471351,-0.0480921019,0.6981431553,0.3670949869,-0.7643967701,-0.2269780549,-0.481106706,0.156138021,0.3915362039,0.4524560503,-0.2595385479,-0.174364998,0.0145418413,1.1992289729,0.3751090518,-0.1372516004,0.8138985752,1.8445145565,0.819438167,-0.5154746433,-1.3610961124,2.4662740439,0.702306941,1.1000571328,0.6247762374,-0.8863400972,0.7151328887,-0.4903504826,0.1384354934,0.8666497049,-0.8988789155,0.5257225851,0.9578431753,0.2533378851,-0.2177255953,-0.1913433632,-0.2050830297,-1.0855843476,1.4196887618,-0.7185235638,0.5092361228,0.0373861231,1.3107731773,-0.8713608285,-0.0711101203,0.4397599438,-0.8296179475,-0.7972816204,0.4128440466,-0.7710249213,0.810610515,-0.9410263196,0.6878580948,-0.7065143456,-0.2226798789,-0.2033210132,-0.9930177659,-0.3801557294,-0.7655126034,-0.1993007899,0.522642871,0.6537832161,0.5686949571,0.6023823919,-0.578672064,0.9217527451,-0.0643592851,-0.8367103992,-0.1950830374,0.8984011194,-0.1018195198,-0.2176430676,-0.8108360166,-0.1839661065,0.4481699675,1.553411406,-2.0930294576,0.0862216476,-0.1179036503,-0.4457470344,0.7639929569,-1.2748711121,-0.5935723776,-0.0064103856,-0.9654181259,-0.7172627846,-1.3914290776,-1.4875513537,-2.0934412118,-0.2742538229,-0.6960898651,0.2896398773,-0.2115628175,0.2256320914,-0.6742126158,-0.9601132336,0.3265486656,-0.8006559835,0.7205262133,-0.849341346,-0.922045721,-0.4682295141,0.1326615791,0.8742349476,-0.444303716,-1.3311051321,6.0187211634,-0.3080544382,-0.1694997041,0.3183366525,-0.2939969801,0.2377666637,-0.2039940848,-1.2973328114,0.241525931,-0.3275168721,-0.3905873813,-0.586995836,-0.0763936032,-0.6250996987,-2.3435059095,1.8284876795,-2.6152892303,-0.0611876567,1.3415003448,-1.0147180202,-0.2992360406,0.0187254807,-0.755470468,1.3146471379,-0.0343755575,1.8025786087,0.0342432251,0.4707072055,-0.8010441563,1.7659119069,-0.3346125318,-0.23493839,1.7848659961,-0.3480952235,1.6289758441,-1.1538240061,-0.710529806,-1.011732243,-1.6739717064,-0.9516377911,-1.9188030543,1.2695137055,-0.6186271625,0.9348954639,-0.3914819979,-0.2174576675,-0.2645498333,-1.8215816475,1.8943116002,0.4541765434,0.7763493291,-0.4040459098,-0.0638780453,0.4042538227,-0.0185476311,0.2564978194,-0.6915051939,1.6627769575,-0.1646949401,0.9437210534,-0.2734821054,-1.2679010977,-0.2525079259,-0.7006823507,0.6145572716,0.6263359363,0.7665281744,0.2065108988,1.2643445342,-1.3334882607,-0.9470778789,-0.5949192539,-0.3105110301,0.7970709184,-0.0194076144,1.2577571883,0.3148044538,-0.0948120497,1.6365124302,0.2367335515,-0.1074965974,-0.5050718762,0.631108695,-0.2830953176,0.2175989859,0.4938718617,0.1486026652,-0.9511690157,-0.8636015966,0.6152252723,0.3580072189,-1.0181693749,0.4017930052,0.5490935078,-0.1240436591,0.7491229451,-0.707969613,-0.8738078675,-0.8648816791,-1.2822856537,0.2269607372,-1.1474967979,1.6289195749,0.3679393622,1.0705500493,0.4079264486,0.5543907603,-0.830385785,0.2688385995,0.5288628995,0.4033002298,-0.067981749,-0.3638713389,-0.5690281651,0.6008290412,-0.1411846029,0.1091940514,-0.0459350571,-0.5692146395,-1.8980346376,0.0793745342,-0.0881542396,-0.2681454434,0.7391780088,1.1143433621,0.7234571746,-0.2794740436,0.6349266287,-0.0549332616,1.4437050967,-0.7884571466,-0.6089648697,0.32945582,-1.5106165699,-0.7306179362,-0.4319735897,0.3528655106,-0.7390759341,1.0934751304,0.6843914962,0.3318173688,0.4051939967,3.4369940128,-0.347587602,0.0665829228,0.2270377898,-0.9430271868,-2.0595000742,1.2622005754,1.2408824137,0.8860103026,-0.0959925182,0.3584106085,-0.080683424,0.9971522769,-0.4894287805,1.285088799,-0.5856550577,-0.2405561011,-0.373729764,0.8063842994,-0.8351412719,-0.2397510926,-2.6368938042,-0.6348320036,-0.2167871962,-0.9283711434,0.1003121558,-0.3631127702,-0.611613299,-0.4909892837,0.515266445,1.2821530501,-0.3109408642,0.9307856813,-0.5005391701,1.2342705689,0.0340319619,-1.4776121796,-0.8506030959,-0.4636404235,-0.7141521683,-0.5199967429,-0.3439528645,-0.3347314792,-0.3115329925,0.891630481,-0.5444778896,-0.7138961022,-0.8148936948,0.3593679548,-0.6472477713,0.9193950141,-0.4842049556,0.3208892137,1.2667740145,-0.350763498,0.7093316501,-0.465062002,-1.0010208242,0.4202584845,0.0682870762,0.5364889644,0.3708767564,0.0691426585,0.3672408149,1.8434366497,0.6189138935,1.4102993719,-0.931639899,-1.4052484606,-0.1220106094,-0.9923706869,1.4395726656,1.3902724374,-0.6403915108,-1.535344475,-0.6770774109,0.6787493558,-0.2312883746,0.3292698962,-0.6007929003,0.3667643905,-0.8553745603,0.0200351995,0.3526881073,-0.2827354355,-0.5472582287,0.649868347,1.06024951,-1.3439190469,-2.766751272,-0.4242922348,-0.4134269639,-0.0246616386,-0.670850979,0.7978174676,0.230228175,-0.2685077495
   0.34445384,-0.3605186161,-0.5484282026,0.6570112228,-0.0606351357,0.1531317433,0.4452181675,-0.0055879242,1.1213835017,0.7637014995,0.7048893125,0.0076633207,0.393652706,0.3024866964,-1.0437333926,-0.7142923594,-3.0708311276,-0.7635938365,-0.6117712602,1.681942429,-0.8237435179,1.1183769337,-0.5930677077,-0.3056551724,-0.4150568569,-0.2413722542,-4.3678449977,-0.2408865879,-3.8960967703,0.9443276937,-0.4363781995,-0.0444528274,0.5940978048,-0.4597631528,0.5162988567,0.3842510378,0.8183424481,0.9238144563,-0.8579479527,1.6225014966,1.6087598062,-0.7900427233,-2.5608723307,-4.2799956805,-0.2404633325,0.4317822571,0.3144903953,0.0715504865,-0.6435617894,0.3044724515,-0.2147980679,-0.3160593856,0.6967832747,-0.319508149,0.841462597,-0.6906434296,0.8245314491,0.0062883137,-0.1862923421,0.969535463,0.0266107117,-0.1427632744,-0.538522897,0.4713785045,-0.8721639006,-0.918332058,-0.0048116074,-0.2311408969,-0.519960387,-0.7506867529,-0.2739322316,0.083405319,-0.4458855777,0.2320625035,0.8246039109,-2.6772394098,-0.4256200572,-1.546198816,0.3937733328,-0.1854613472,0.5250262087,0.6083484748,0.1303449812,0.6499431658,0.8907349286,0.1663759213,-1.4481139471,0.914896474,-0.5893293347,0.1524435348,-0.9719651876,-0.8674564965,0.8353015859,0.4627146105,-0.4374780261,-0.968283791,0.3631084518,-2.2580300886,-0.2668905737,0.2549426524,-3.1695326771,-0.2724489719,-0.6705627929,0.812075696,-0.7277011185,1.8601253716,-0.440097903,-1.0925882182,-0.7080874261,-1.0270006635,-0.0091353795,-0.3959967117,1.3381155492,-0.6266594718,-0.1089063986,0.0550330496,0.5670185671,0.5569892394,0.8354784261,0.7839077562,-0.5293068969,0.5690325808,-0.5238812343,0.9222593263,0.7312905002,0.2896319289,-0.4050827535,-0.3796906013,-0.2701026789,0.6959358626,-0.1995698248,-0.3061051705,0.8923543223,-0.6738971113,-0.2750456289,-0.4253652614,-1.6940978043,-0.1743167243,0.7267743986,1.8621049107,-0.4667905934,0.3027391003,-0.2766043491,-0.5175447938,-0.8029873582,1.2884230855,-0.3313508617,0.0746466261,0.0953203231,-0.9135279231,-0.9005950159,0.2442223346,0.1876861701,-0.8156571833,1.6636122548,0.2258838793,0.9251220357,0.3473143371,0.4180152488,-0.6733984284,0.2084553598,-0.9804435778,0.2572360455,-0.0286934349,0.0818510158,-0.5105460411,-0.0189335998,0.6649913908,-0.3236142288,0.6851173803,0.7412513493,0.8826601319,-0.2129427156,-0.5077348795,0.9370724348,-0.215731343,-0.286332199,0.7998353997,0.6788853437,0.4537761924,-0.0903168172,0.3615301077,1.9038233753,0.3631420091,0.0403263501,-0.8156943673,-0.2603804244,0.6046497007,-0.3365570087,1.0783695171,0.6403278322,0.8332576791,-0.5316595763,0.5489182386,-1.3867781111,0.9273403618,-0.4126428882,-0.9580216827,-0.0476134351,0.2174798659,0.1464385305,0.3620019361,0.6041872811,0.3370790825,-0.202124885,-0.3242542273,1.0903147576,1.0610428264,-0.0671593974,-0.9363825836,-0.2592701834,0.4136194008,0.4416147627,0.6432281904,-0.0098848636,0.5144731403,-0.4634886888,-0.7124472506,0.2430060234,-0.2259840457,-0.2769115324,-0.3488047627,-0.2298442818,-0.5890198921,-0.024030663,-0.4567671574,-0.3750106242,-1.0838842959,-0.1139947055,0.1455050514,0.4942626862,-0.3131104703,0.4067529486,0.2919128653,0.4524674566,0.9931754267,0.4360375999,0.8347177884,-0.9891282082,-1.0684181652,0.8846271185,-0.4326543604,-0.0028024045,0.1610858275,-0.2858466058,-1.4352263192,0.4637834642,0.2190076274,0.4027391956,0.6682649039,0.055868074,0.8428162946,0.0958110929,0.1425404258,-0.2178190937,0.3412543423,1.3566454739,-0.4435773035,-0.804809583,0.3597321818,-0.265961676,0.3117557263,0.0461572847,0.4772146642,-0.950307848,0.2256779731,-1.6158587721,-0.8937804373,-0.4364785248,0.6010429219,0.7338070355,0.0130976617,0.5961123466,0.1207166059,0.19761774,-0.8425745188,0.8755681301,0.8880702765,0.8427104233,-1.4953835903,-0.3144725926,0.3106417458,0.1497532298,-0.6589371009,0.8999901518,0.367038313,-0.4509423524,-0.6949598169,0.9774792401,0.4597554729,-0.215997241,0.5369611376,-0.0801853188,0.4697030927,0.3909414823,0.0936134147,0.8173786067,-0.9603724598,0.8817430503,2.8598289228,-0.9405090035,0.3427371925,0.8195472358,0.7048935753,-0.7605787535,-2.2442001431,-0.3596520626,-0.6748464525,1.0362109236,-2.5624834824,-0.7226952447,-0.3881194009,-0.1645348853,0.2989584875,-0.7967870523,0.5279859913,-0.1023398375,0.7484254466,-0.5807682237,0.8904596076,-0.7382300493,-0.0760134878,0.0149323754,2.6895426264,0.9095225855,-0.8274782856,-0.0150804727,0.9857777832,-0.5088214932,0.1517006487,0.2643875662,-0.3033416996,-0.4425136304,-0.3518094507,1.1268165082,0.0169487967,0.2521177832,0.4460943036,0.3767744759,0.9093949939,-0.0972355631,-0.2187917309,-0.1786604669,-0.668549688,0.5003136599,0.1371350836,-0.4649724759,0.4111095541,-0.6675002317,0.8220721737,-0.645536595,0.8770789954,-0.8688217426,0.4878159375,0.2159191988,0.6208953176,-0.9249521792,-0.559737341,0.87907357,0.068866171,0.7145229199,-0.5267679825,0.6746375065,-0.0417339205,1.3911293746,0.8950393106,0.0630891833,0.0424421666,0.1286182602,0.8254092697,3.0567012058,0.7834503548,-1.1766291458,-0.2017261792,-0.8314439674,0.1973220308,-0.930155326,0.9068526292,-0.9799771468,0.8255064737,0.8606764443,0.8716085109,0.2064714728,0.269864824,0.1382194652,-0.0710732142,0.5216402029,0.3831804546,0.8567500195,1.1962166961,0.6163086132,-1.3964152389,0.6465591427,0.4575812607,1.0450242952,0.1498010818,-0.2442215501,0.2125819655,-0.4570758323,2.0630138804,0.1810380285,-0.2750895478,0.5072037491,1.5912368756,-0.6386261097,0.1481794842,-1.7501057604,-0.5620125021,0.0547427255,0.2189887272,-0.7956301055,0.5303399564,-0.7479331823,0.592825017,-0.7968647699,-0.3066614748,0.6481909591,0.2128306061,0.7605522552,0.0069411674,-0.0200405444,-0.7161864971,-0.7273899298,-0.8023705799,1.0559487937,0.4376912789,-1.0162414335,-0.1988935717,1.3881551556,0.3087798074,0.4698526242,0.0867440567,-0.3506067489,0.8854639272,-0.0235043551,-1.2598500049,-0.4845269888,0.0295536731,-0.0231123819,-0.0334472574,0.3266675504,1.1324632826,0.5061903173,0.2075162794,-1.1384556621,0.9528773557,0.0436208909,0.5702712174,2.1013245301,-0.4093986788,-0.7316272036,-1.7265879041,-0.7966707673,0.096238495,-0.4728979935,-0.0321588097,0.7527018666,0.7608791481,0.2498230253,-0.317290314,-1.7222670918,-0.9013381912,-2.1658607728,0.2196107915,0.3526898865,-0.6276515423,0.3693125456,-0.0209636617,-0.8407500311,0.3156209297,-3.473035265,0.9941397338,0.9396835025,-0.401031713,0.6241039891,0.6665538368,0.9876281741,-1.1716641433,1.269102628,0.3697096018,-0.0940769396,3.0464026028,-0.6422170717,0.0427660278,0.8842738769,0.9307472306,-0.3783999666,-0.16011864,0.5901574976,1.3782515537,1.5649323372,-0.4248810098,-0.7921832753,-0.5085260358,0.1315621608,-0.9640994259,-0.3274323411,-0.7482463131,-0.8437399674,-0.9403543444,-0.7119400408,-0.5616020027,0.3280662299,-0.2550779808,-0.8564075659,-0.6849138598,-0.3039724499,-0.0955462562,1.101592759,-0.3669941693,-0.5581926445,-0.4594137818,-0.2466451881,0.22199884,1.5483933268,0.4443815567,2.9871440433,-0.102959059,-0.4948602142,-0.4542278274,0.7979899681,0.616353084,-1.3962742531,-0.4654688807,0.7033341298,0.3462798582,-0.7095411736,-0.9124883355,0.4309349521,0.2982179804,-1.3358466955,-1.5280314817,0.4960145569,-1.0343782084,0.5628094339,-0.3215414895,-1.4042276821,-0.6444391435,0.6549437076,2.5228004963,-0.3423451482,0.8206602432,-0.5369807679,-0.7396407075,0.5289897949,-1.3430507275,-0.2263649002,-0.0000507849,-0.9715571475,0.4101737078,-0.7428402714,0.741955613,0.8583757498,0.2101870775,-0.3049896842,-0.3369178433,0.803793817,0.83662826,0.678479559,0.3797696914,0.2616254074,0.7385698953,0.6280829609,0.0464742278,-0.2445041826,-0.6587322601,-0.2954144638,-0.5321162738,0.6086630339,-0.7655277809,0.9894382169,0.1851886402,0.1325103025,-0.3050243945,-0.3401536967,0.2105539346,0.8210639006,-1.0962047074,-1.1806224636,0.72575931,-0.7381964769,0.1933523416,-0.1940187702,-0.7681890146,-1.1796560804,0.6760341821,0.6723813884,-0.8174485013,1.2299539236,0.1312555752,0.5593238577,0.084085211,-0.3908567827,0.6315490101,-0.5614493478,0.4904228252,0.5262005432,-1.6030859133,-1.0322533752,-0.5996738344,-0.1156399273,1.0185279731,0.6434685859,0.3296262407,0.3239499431,0.8698356327,0.6940017647,-1.6831771418,-0.6567346081,-0.3770730009,0.1510312951,-0.5464196913,-0.0602658855,0.9459856268,-0.6824626819,0.4403143511,-0.8656680049,0.1212593135,0.3986408042,0.2151286353,0.5613157957,0.3817179626,0.4259362826,-0.69661605,0.5706023926,-0.0215142498,0.2565470276,-0.8584519564,0.5943206729,-0.4821702935,-0.2480672715,0.1199490677,-0.7296352406,0.6252838664,-0.9413513204,-2.267102562,0.39217696,-0.9756194259,-0.5470730148,0.3731007068,0.4242120949,-0.3953354227,-0.1176770721,0.4953364143,-0.1851813605,-0.3308751681,0.3056674,-0.3925335538,-0.9596264153,0.6740861722,1.5636247023,-0.8999869919,0.5425194904,0.2617563867,-0.647747417,-0.575486418,0.4607065929,0.3907080224,-1.5583095349,1.4448770894,0.9696243405,0.3834944036,0.396461033,0.5109216425,0.2964118433,0.5201552156,3.9247870948,-0.597788547,-1.7549740253,0.3666802991,0.8165196303,0.329812213,0.0642821509,-0.9079056165,0.2209687489,0.7905387585,-0.3948973695,0.7248323737,0.4157486736,1.8270385474,-1.09789795,-0.0292537301,-2.1660479653,0.650657573,0.717365452,1.2231691151,-0.5948457398,-0.0343274387,0.5379785003,0.4164383629,0.3695892031,-0.2655771458,0.0755352141,0.3084378931,-0.4454399872,2.4523634159,0.4171677905,0.5000370722,0.6455223424,0.7187796573,0.2820746737,-0.383441204,0.3397776832,0.9754715779,-0.8534103822,0.8773041267,0.6686390771,0.3329281043,0.4939236604,-0.3511457582,0.9152405188,0.1073022832,0.8718896236,-1.0260162963,0.911626635,0.2775771987,-0.4026388022,-0.6882549616,-0.5012871019,0.5067415804,-0.0295283307,-0.0900820347,-0.2304802465,0.0384051058,0.6013026623,0.8711067537,-0.6809457453,0.1240291744,-0.730013124,0.4499234853,-0.8137637242,-1.2144825886,-0.4246822123,-0.7701890337,0.2669381197,0.2663330014,-0.2186115427,0.5254047588,0.900684728,0.0884785675,0.3116307097,-1.1743100226,-0.2688939616,-1.5128559941,0.7140603941,0.3166350493,-0.2575023907,-0.4885786267,0.0991171459,-0.0691652132,-0.3417152015,-0.840141213,-0.2217458708,-1.7412530655,-1.1660542121,-0.3720278798,1.4708230463,0.0369819209,0.864304784,0.0486433171,-0.2541796407,-0.7616429695,-0.1483009631,1.1173722093,0.4008404249,0.3301209737,-0.565485212,-0.2802957357,-0.5410162317,0.8600087033,0.6341999648,0.0038569022,1.5226068761,-0.3550727666,0.6383904897,-0.106894307,0.7264501451,-0.4373534006,-0.3387342053,0.5326323491,-0.0658199972,0.3232815094,-0.3899267598,-1.0053877878,-0.378121022,0.9855263848,-0.9318302706,0.8319006199,-0.81388342,-1.3378934416,-1.0228030364,0.4799006225,-0.7498077619,-0.877682319,-0.0779845759,-0.6850715997,3.584511499,-1.9751117925,-1.8654830826,-0.8374059026,0.692564208,0.0499867199,-0.3613324062,0.0990130342,0.4677813103,0.2851867033,0.8632243999,0.0652997582,-0.2652642178,-0.4062726118,-0.3376447757,0.5330404573,-2.9812458272,-0.5487554788,-0.704579591,0.3123910253,0.2541543668,0.4800286239,0.7191146469,0.4318886564,0.3502099639,-0.6846032734,4.2783152865,-0.2164452972,-0.5092303035,0.6615116293,-1.2053934593,0.7471823902,-0.749906103,0.4423564626,0.0796070759,-1.3383227941,0.3901573563,-0.1733527921,-0.5326545071,-0.4566686651,2.3030981217,1.5025575095,-1.7106791099,0.2706015696,0.496758343,-0.118399451,-0.0800417767,0.0335304023,-0.3602993163,-0.4853964477,-0.5729696981,-0.447517066,-0.1306010348,0.8890839116,-0.4042619598,0.4072393622,0.4652171892,1.4889001246,-0.5950643518,0.7796314282,-0.2811771988,0.7066737663,-0.3747315966,-1.0451805709,-1.3342354064,-1.9140084853,-1.4543529394,-0.5479091938,-0.1605543162,-0.0428278071,-1.0060220815,1.2015620021,-0.4372635631,0.3676983982,-0.9787189141,0.5438716809,1.603046448,-0.1047953887,-1.2988193286,2.2177366621,0.5013883488,0.1876714024,4.2651124034,-0.3496730683,0.945411627,-2.6255385617,2.020284663,-0.3218940043,0.6412506088,-0.3899926882,-1.3601599449,-0.0276889394,0.7082668655,0.661432492,-2.1371860319,-0.3427118298,0.0609026631,0.5424902579,-0.3603968365,-0.2852302366,-0.8693784841,0.9129546007,0.0511000296,0.1918864769,0.0062229721,-2.8141757352,-0.1051937862,0.2360777311,-0.8229522854,-1.1363696461,0.4724910224,-0.8260733967,0.5382143627,0.5624291779,2.3031234413,0.3079340689,0.7623776787,0.0224264323,0.8719290599,1.0244608497,-0.5666311555,-0.5574876122,0.1850552701,-0.6110332529,0.0450972493,-0.490811619,0.263173769,-0.191607046,0.818140014,-0.3245871957,-0.5849191818,0.5435923067,-0.5782485518,-0.381662733,0.9560569973,-1.1535235585,-0.9967821719,-1.8956270488,0.210586223,0.019462779,0.1438062397,0.9051572406,-0.5345099312,0.0045828716,-0.8469988174,-0.0305264233,0.2747940561,-2.4694595445,0.1487651632,-0.0714444428,0.9315937462,2.005248493,-2.0977547725,-0.0253955821,-2.853944516,-0.8495523718,-3.326668373,-1.0799207966,-2.3517113025,-0.9199208784,0.1255698238,0.6735277475,-0.8601767194,0.5004392155,-0.1224105106,-0.1297314745,-1.0001002718,-0.7041377339,1.3538928515,-0.6947652807,0.572136266,-0.6770260094,-0.6757623599,-0.355877809,-0.5080507893,-0.4008143175,0.7617470827,0.6231427375,-0.4724840766,0.030252639,3.4370786131,0.2361743057,1.9890616762,0.1067704693,-0.7817573368,0.3576240618,-0.2109581831,-0.6826525794,-1.1445136286,0.6454591515,-0.4266526727,0.6116100328,-0.7038684573,0.8951340112,-0.1533041822,0.5214127087,0.2282354075,-0.6858170657,-0.3115349984,-0.5164395492,-0.3593263486,0.1465470819,0.0870206014,-1.6856853535,1.275114091,-0.7927319744,-0.1768547952,1.0011006911,-0.6899379663,0.5181440979,0.9627041299,-0.1838626564,-0.4311821849,-0.8002569816,0.9498514658,-0.6437871192,-0.9302777092,1.7003240152,-0.5610620949,0.4050099378,0.7427323818,0.2717981406,-0.2602860529,2.3801957017,-0.2491829973,-0.0460435851,0.5620238457,-0.9133154853,0.8885975783,-0.0919645346,-0.0456351698,0.0793844707,-0.2453187755,1.0118488369,0.0543459941,-1.426158941,-0.2908473918,-0.2489095646,-0.9305079717,0.4222243044,-0.5619906296,-0.7841531622,-0.2683840889,-0.965118721,0.8650271421,1.7568377463,0.5860081534,-0.4685662043,-0.3310681619,0.1974058602,-0.8770561555,-0.0166235637,0.112031899,-0.7921913734,-0.1404235735,0.0031223863,0.3655455385,-0.3676014373,0.3319534583,0.8894753335,-3.2773531218,0.7616643522,0.3336810191,0.4497552469,-0.8978055298,0.7019381064,-0.7176071696,0.938854443,0.1911174977,-0.8548263,-0.0853268263,-0.5848171863,-0.1172395609,0.3271144001,0.6831842559,-0.0664632844,0.6720587906,0.0990503847,0.2476039279,0.3553096264,-0.9507287936,1.0460260361,-0.3069726563,-0.0459459598,2.1285537995,0.1852956876,0.0295013845,-1.3584992283,1.4555470818,0.2375858627,2.3507345205,-0.2814934398,-0.8302777191,0.0501499345,-0.099556746,-2.6295274813,-0.1599105136,-0.1640678939,-0.6682417507,-0.9180925778,0.8447639396,0.968844227,-1.781538512,-0.6152954466,1.0083525786,-0.644271124,-2.8719418757,-0.9333832394,0.1493405719,0.2367102876,0.4958929872,-0.4782627852,0.5823233105,0.6622889053,-0.6979749029,-1.7399179425,-0.9901034923,-1.9542638355,1.0140488835,-1.1186987596,-0.6533414754,0.6661390545,0.1134846824,0.1387145823,-0.8682063701,-2.0551260829,0.7050919579,0.6869345351,-2.5697628213,0.4399580346,0.7396880587,0.2073011425,1.2088069777,-0.4775419041,0.2862809764,0.8368520579,-0.0734727395,0.2553843418,-0.3433773619,-0.3392828568,0.3567623457,-1.3967160505,-1.5444268598,0.2318192483,0.5989450906,0.1489612629,-1.0316652599,-0.4245751512,1.2732941447,0.5854282444,-0.5729628907,-0.8668722601,0.003290095,0.5742066931,-0.8014065115,0.0835826983,1.8112745279,0.2425157577,0.1567690101,0.6501885325,-0.1001197297,0.4977437397,-0.4054795147,-1.8136434959,-0.5505375392,-0.6157365945,-1.2240138047,-0.9635855604,-3.0011321769,-0.4508502405,-0.1236012881,-0.0521821835,1.1744747944,0.0330958411,-2.997291578,-0.8905051457,-0.707953328,-0.2137552985,0.421903149,0.7884323801,1.7381072926,0.0972312716,0.1902752895,-0.0648048443,1.7045064231,-1.4115359678,1.4015280653,-0.537579994,-0.6822631297,-0.5354514758,-0.9785651482,0.0778825478,1.7517526913,1.1079549012,-0.2938811599,0.7309887063,1.2796755681,-0.8388922984,-0.6725509401,2.4392047902,-0.3898540809,-0.5544749696,0.3828203099,0.7390338432,-0.8499018821,1.1112261684,0.1596135093,0.1459515968,0.4527717737,2.6168889915,1.0141770863,0.6819339116,-0.8434495342,-0.2008256773,-0.2408751194,-0.8150584249,-0.7059411196,-0.2772088491,0.7166726727,-0.6913621029,-0.9996079619,-1.0936931503,0.0324098978,0.6605055329,2.2890463674,0.5825646633,0.9577819827,0.1256475175,-0.0064113048,0.5440524972,-0.4659994324,0.9816665753,0.6943021826,-0.1789719539,0.387778261,-0.9160386392,-2.0104489195,-0.0323681235,-0.2423633031,-0.3332172566,0.8410087744,-0.446978699,-0.8973447975,-0.157513865,-0.7143729492,0.8436578615,-1.0681167074,0.1074070095,1.0136445631,-0.4616621318,0.7439465359,-0.9023637757,-0.31232119,-0.0194073926,-0.5361657716,1.6247997007,-0.546977096,0.0536363544,0.49371661,-0.2515707727,0.3752026432,-0.6777896835,0.0250913178,0.2604232516,0.7882179241,-0.6280556932,-0.4964842361,1.4884638296,0.569896627,1.0570762613,-0.5709938913,0.1758322657,-0.3183552764,0.4487971451,-0.3194531957,-0.9326287655,0.3195586725,0.9076796166,0.9159450285,-0.6629807299,0.9884349043,0.7786061675,0.5844652169,-0.8901896742,0.389416697,-0.2030834531,0.2884114259,0.4480519237,-0.4104083743,-1.1968785904,-3.044572842,0.8556873019,-0.4977111751,-0.216161302,-0.3901779754,0.7122380536,0.3115676926,-0.2814259542,0.319133353,-0.520109757,-0.3751887193,-0.9075419609,0.9463380643,0.4167534812,-0.9433362818,0.5966895654,-2.7618272509,0.2049464939,-0.8545007507,0.6615160607,-0.4048543656,0.3940520972,-1.6996332586,2.4011488147,0.3943071184,-0.3807608865,-1.4005594668,-1.0544154773,0.0056795263,-0.8842934134,0.7267870996,-0.134903815,-2.4107492775,0.3665865736,-0.6981940909,-0.1492540273,-0.6995157272,-1.3667454493,-0.6788058942,-0.2426569477,-0.4964488836,-1.0842597874,0.5096164127,0.285626643,-1.1091283682,-0.5247263041,0.4575719357,0.6294860077,0.1673843387,-2.71367179,0.9846296474,0.6889833261,0.6878710296,0.5909265236,-0.448616393,-2.2535022928,0.2971280878,0.2873768108,2.2781025131,-0.0607228997,0.2442123284,-0.8113177843,-0.8101660457,-0.4630179518,0.8780919868,-0.1063344093,-0.0580274428,-0.0133538174,0.7449175938,-0.1317244396,0.4019309499,0.6135292687,1.0050124146,-1.2544724237,0.9748684303,-0.7675917506,-0.3715952406,0.6036892323,0.7982071912,-2.0093365528,0.4034894109,-0.132089019,0.6063958888,-0.1237915366,-0.8858294282,0.0115373649,-0.2085794835,0.3537094768,0.844189105,-0.8630685602,0.129640943,0.8755668416,0.7468614698,-0.114816991,0.1753413444,1.3389370136,0.1811873589,-0.5196690898,0.9667927166,0.7561581916,0.5130246702,-0.7076346176,0.9026325238,-0.2836399327,-0.908765447,-0.9841791754,1.1899254284,0.1595097067,-0.6459833911,0.1388007654,0.5084820082,0.7509797553,-1.0673156096,0.1292827246,0.2144090872,-0.4017258229,-0.7977314154,0.596802098,0.2945562802,-0.8859666253,-0.4352941259,-0.6279658792,-0.8026508371,0.7840937333,0.9430372982,0.0603264851,2.5171826889,-1.4608908986,-0.7388774152,0.8637602129,0.567742661,0.3851583479,0.3807996835,0.3242381854,0.0780330074,-0.0367230089,-0.5136908071,-0.5629369455,-0.8378515913,0.356019865,-0.3240316598,-0.7010172458,0.4546353348,-1.8437256203,-2.0192984765,-0.4365651654,-0.3303045427,-0.8795337097,0.1475563441,-0.4456377784,0.9228369726,0.4537655842,-0.1282778441,0.380545633,-0.3339118774,0.0955906076,0.5332648997,-0.5004582377,0.9526510228,-0.5252428565,-0.8067923748,-0.2377586657,-0.9399124483,0.1463801194,0.7219422481,-0.3233134294,-0.0941777343,0.9044562092,-0.6222758968,0.4647835008,-0.9642832916,0.3174642685,-0.7004488228,0.9323597193,1.1694159966,-0.4102995057,-0.6357510059,-1.2170780121,-0.4391129317,-0.9952233998,-0.0167039376,-1.4801044055,-0.164551038,-0.419323148,-0.8829345526,-0.2212397517,0.3717723781,-0.9681671387,-0.630562153,-0.034686057,-0.9136379348,0.1198334005,-0.7230922994,0.1758544884,1.308510329,-0.7402874978,0.8106412568,-0.9855541985,-0.6107275807,-0.871076832,0.9449311681,2.2181111673,-0.7014794904,0.754782065,-0.9253998185,0.9704395488,-0.9416643671,0.1086548197,0.0381289002,0.6587296012,-0.9889197698,-0.8643451273,0.567483307,-0.1759014318,-0.03288063,0.9646135306,0.1398148555,-0.9895649897,0.2393671052,0.075950979,-0.7505763292,-2.5155583947,-0.2765573244,0.7111899232,-0.6199823269,-0.2317408684,-0.4140643761,-0.3893444849,-0.17853976,-0.7275141252,-0.5538210931,0.6253261356,2.6463364988,-0.1442129213,0.1237945826,0.4858745394,1.8560983122,0.7161582852,-0.9429944418,-1.2327936276,0.2958360507,0.6581996443,-0.6764334382,-0.6175135698,0.8063096646,0.132326354,-1.7828014468,-0.9166777268,0.1956302132,-0.5348292338,0.3832068266,-0.2790473861,-0.8250693114,-0.8746300799,0.7412286756,0.899680346,-0.4802403271,-0.3874263547,-0.7015811609,-0.3254309299,1.9619154956,-0.7898655049,-0.516880537,-0.9671079395,-0.4096804006,-0.3797051546,-2.7334198421,0.8493418545,0.5890333707,-0.5342721494,0.0056257954,-0.7735514793,-0.4182068539,0.3238755734,-2.0181783466,1.9859657456,1.0473966927,0.905758066,0.6037818521,-1.0527419677,-0.6842500397,-0.7679589962,-1.1254555281,1.0145809323,0.5595193409,0.9597465705,0.476189583,0.000002105,0.4661319937,0.6321737542,-0.0250713227,-0.97109781,0.088444738,-0.0504332715,-0.0415439581,1.1094877939,-0.734274784,-0.5829760605,1.0910265665,-0.6696105004,0.1852867253,-0.0508893804,-0.8784905746,-0.1818213439,-0.4069807954,-0.6408091492,-0.7047688932,0.1324318871,0.7601852123,-0.8011589933,0.820500469,-0.4068300104,0.2467532691,-0.524601365,0.464346852,-0.1969406854,-0.2559869022,0.7787687576,0.517255408,-0.2776430048,0.0788128599,-1.0116621386,0.2533374063,0.3158369822,-0.5510049162,0.3540582374,0.8777067683,-0.7772709607,0.6869778399,0.3605334859,0.3641159821,0.8811327304,1.8440752505,-0.8301945793,-0.6609445074,0.545928152,0.3849108634,1.3097781378,-0.1532724373,-0.5571154583,0.697797097,0.8240932976,1.3204432849,2.0980631864,0.2953817888,-0.7516642672,-0.2753304401,-0.119800452,0.2208877428,0.0725909485,0.3785330241,0.1122771907,-0.2627797489,-0.9294761621,-0.314698153,-0.4225137848,-1.414237733,0.1942184875,-0.2823631706,-0.2909747315,-1.7653215454,-0.4453374051,0.5474481863,-0.416604658,0.7489483691,0.5049935346,0.8081379452,-0.0531965259,0.8124453883,0.9999475493,0.9880531445,-1.0300697351,0.0274500244,0.8160213834,0.4568056599,0.6113107345,0.6542369449,-0.1833678071,-1.0593442436,-0.8606699946,-0.3092403119,-0.0331867314,0.4079751283,-1.1941616146,0.6247867423,-0.2066582301,-0.1546705092,-1.3777083304,0.1518916794,-0.483791676,-0.0503106876,-1.1705003778,0.289536306,-1.1340782054,-0.721372038,0.1673269718,0.4497656354,-2.168748962,1.2191777449,0.4619632802,1.0199533732,0.1641000552,-0.749393283,0.3181827272,0.3333523672,0.6644341842,-0.2573455679,0.1423968116,-0.4623848973,-0.206625808,-1.1910071787,-0.7493563265,0.4751159886,-0.4439782878,0.3881648721,-0.9079876333,-0.126714871,-0.7441018206,0.0916974308,0.2981747363,0.0079080987,-1.949356957,-0.2413883491,0.7130614736,0.0374317913,-0.5463734639,-0.6444076246,0.7575595365,-0.6532727501,-0.8472924206,-0.1018735526,-0.133978341,-0.810223716,1.0255172437,0.239663704,-0.0118043561,-0.0994143945,-0.2461055707,1.4979641739,-0.4521040329,-0.1174108968,0.101286955,-0.3861362938,0.0694267278,-0.414500279,-0.1213335108,2.4899766567,-0.8892975233,-0.5956125682,-0.0299766186,-0.4667515591,0.4063877375,-0.6457549181,0.3336495962,1.5233138318,0.4346995463,-1.8693071909,-1.7844527776,0.6160836695,-0.792008779,0.6144928555,-0.8052709136,1.1550795068,0.4752172991,-1.9805651773,1.1080951046,1.1669884401,1.1424993262,0.8339792928,1.1723526613,-0.2047742735,-0.3548300165,-0.6756249976,0.4190658112,-0.930644477,-1.9251238822,-0.9025734017,0.2972625241,1.1146019929,0.0711080681,0.9701365729,0.9117671025,0.3917137165,-0.9654854363,0.0390450936,-0.356978354,0.0365577418,-0.7445809862,0.5704590863,0.002974483,0.7769309793,0.8372870527,1.1773978044,0.4679508517,-0.7470528195,0.4380005646,0.2012066046,0.2368269684,-0.0330836178,0.0215017796,-0.3625584902,0.769702936,1.594381959,-0.3175467069,-0.2780081125,0.7215750909,-0.1781001562,-0.6428463368,0.4970207912,0.8640328036,-0.6729963625,-0.8948116834,0.4201372426,-1.0474451868,0.0902385845,0.4236914082,-0.1802735071,-0.5585211661,-1.2477630283,0.2860125224,-0.7463388235,-1.033837096,0.6013439312,-0.4681193122,0.201632445,-0.7746915395,-0.1408290856,-0.295628588,0.3557200094,0.2411715898,-1.6969936062,0.6919480813,0.2391265459,-0.0736972863,-1.3796331031,0.4742504537,-0.6667682132,-0.0519864265,1.2670861487,-0.0679585409,-1.1783712763,0.9366485871,-0.6601031047,0.3073080391,-0.3778025455,-0.1217864046,-0.6437586094,-0.8338914732,-0.6889577314,0.2020210695,0.8757476258,0.1729356322,0.7810503418,0.3712554101,-0.1483002818,0.3293376,-0.2197253608,-0.0457477513,1.2387236812,0.2700647821,-0.2012364631,0.1439635035,0.372954869,-0.0061919739,-0.6508142962,0.813990013,-0.7640118924,0.2345611018,-0.680885839,-0.0945380007,-1.2050114519,-0.1300160602,-0.6651364541,-0.7047333213,-0.0976927815,-1.0111329429,-0.5839115,0.9256145962,0.215035681,-0.1951318789,0.2198511428,0.9912409431,1.1924662921,-0.2300731508,0.9323955145,-0.0698445868,0.9826095286,-0.6790451644,-0.3726348718,-0.3515991241,-1.2906011726,-0.5992481616,-0.9362607409,-0.8305015217,-0.0610310483,1.1179243084,-0.5517477021,-3.2511050097,-0.1124062751,-0.9205820431,-1.4873500283,0.0163562194,-0.9829826567,0.006993685,0.8562090818,-0.1125478739,0.6409340426,0.0063200764,0.1667873754,0.6985657228,0.4511438053,-2.8919050171,-0.847350139,0.5997077596,0.3784112754,0.7801368805,-1.1472365341,0.1930034491,-0.6817780637,-0.0196172396,1.2187338513,-0.6719824599,-0.3729085747,-1.2674737657,-3.4859593037,0.5890658957,0.0718862572,-0.681906373,0.1317750384,0.7726612137,-0.3374266107,-1.3859774847,0.431321205,-0.5387726556,-0.6290287807,-0.3243860022,0.4345507519,0.1822989963,-0.3335267236,-0.5756357231,-0.6639938467,-0.2445558805,0.4130059066,0.2527118633,-0.9431662158,-0.3460510173,0.1719327218,0.1859241033,-0.4396134823,-0.8293954935,0.0589114656,1.9434201397,0.4225125457,0.9127673225,0.4155037286,-2.9745659947,-0.7117657538,1.2526636923,-0.2944499843,0.3260379128,-0.2432050894,0.5755115253,-0.2257525381,-0.283494225,0.4511267096,1.7410572306,0.4506823911,0.2994453472,-0.0490870492,0.4391932882,0.0466573443,0.2114135476,4.963455755,-1.1921507343,-1.2772050252,1.3200782068,-0.5373598871,0.362640023,-0.2910882979,0.1584931485,-1.4392148969,-0.4487897697,-0.9370040916,-0.3026727676,-1.5350592789,-1.2038914754,1.2862098441,0.2516057134,0.7969583042,-0.9959486978,-4.757662364,-0.61628902,-0.183127101,-1.3410298321,1.7011399504,0.8249605052,-1.4812083611,-1.056403274,0.1125116533,0.275932368,-0.8367265983,0.7766460675,-0.9946299022,0.6450433604,-3.0016621868,0.0158415422,1.2761024747,0.0176505412,0.1284151647,1.0596569981,-0.1030315865,-0.6236725707,-0.0856988585,-0.5363418348,-0.4186004849,0.5349903107,0.7542353829,0.4865486183,-0.7962221804,-0.6189718025,-0.4337394982,0.491838664,0.0014971883,0.8326078668,-0.8822615109,0.2624291034,-0.1295747308,0.0014779264,0.3399114346,0.5036295678,0.0173971501,-0.1845945157,0.170874118,-0.9520740348,-0.3701857517,0.2525332636,3.8498019355,-0.0998751813,0.2354688409,-0.7511546551,0.1836070595,-0.6500487795,-0.3435834263,-3.1911876619,0.1311650573,0.4931942867,1.3831652407,0.9937322815,-0.4261123482,0.8143813348,2.735408013,-0.855520687,-1.3510220078,0.1849942269,-0.3059156386,-2.4843592424,0.2517419837,1.002995546,-0.3814160071,1.0224257446,-1.6492628999,-0.3441913415
   0.574588498,-0.2160407367,-2.4081092668,-0.9107693019,0.5595461399,-0.3143084433,-0.9343306214,0.3707288098,-0.024592099,0.2120502236,0.3969742799,-1.0036247479,0.5124823454,0.1328380572,-0.7202187818,0.4335008071,-1.0422465822,0.0936438442,-0.0685185979,0.4921300394,-0.1887294215,0.6064862268,-0.7058099259,-0.066046104,1.3177950052,0.4600448632,0.7201086049,0.0938210793,0.3535865041,0.5802415403,0.7192156544,-0.1873427374,-1.01165133,0.8935501948,-0.6815454823,-0.1284401763,-0.1685045123,0.0143354909,0.073905405,1.3527544463,-0.1536385833,0.7979030298,0.3065784779,0.0009421445,0.80255584,-2.5863743509,-0.1354626911,-0.9302509865,-0.968104882,0.2696438636,-0.6725967132,1.1257821272,-0.7003468729,-0.2938507287,-0.996331794,-2.8586008741,-0.2090061886,-0.6148686644,0.0598030543,-0.3832885474,-0.83764133,-0.228490325,0.328649507,-2.1395421326,-0.6071977503,0.1280140801,-0.283088009,-0.2095545052,-1.1278265833,0.1678969501,0.2309190343,-0.7742437874,-0.901816979,-0.8466897678,-0.5437846709,0.0278584443,0.2402635566,-0.8907734923,-0.8586013947,-1.0528986504,-0.015390127,1.0163252563,-0.9163269781,0.4997627377,-0.3877700132,-0.6888877904,-0.506917589,0.0566737874,0.0425075398,-1.3850205914,-0.0806454984,0.2790541519,-1.3292205227,-0.7499019946,-0.3709391335,-0.7320896805,0.6934896273,-0.1155356576,-0.1080878192,-1.2957864305,0.1389826502,-0.0970851692,0.9397636884,-0.7838639346,-0.4706574939,0.1381373536,0.4007931848,-0.7527708543,0.7404648057,-0.6034284684,-1.3908044324,2.6232110472,0.3267091618,-0.9629025679,-0.8259328713,-0.809558362,0.7437422322,0.0840943028,0.4617154651,-0.9755324236,0.2240239254,0.575769857,-0.6682049279,0.0179323095,0.8977371621,0.3966628787,-0.4439937255,-0.1506344094,0.6489225987,0.8809744758,1.0413511514,1.5983798403,-0.7323326692,1.3643152069,0.4962970603,-1.9194056501,-0.1722904906,-2.0821614706,-1.6058457809,1.3915874266,-0.5517209156,0.8800321866,-0.9738292724,-0.0536122771,0.284059727,0.107302685,0.652841857,0.1269978286,-2.4890075178,0.6486345998,-0.6111506386,0.3268346772,0.4684024936,0.0063787414,0.6263352096,-0.8638982586,0.5458073822,1.9731481219,0.9236269902,-1.695375281,-0.38807601,-0.2781287439,-0.168116653,1.8420296567,2.314027085,-1.3379509956,0.7512117094,0.2912287812,0.3263305469,-0.4199689267,-2.0162980925,-0.5923851281,0.6534850109,0.0327747,-0.4194080796,0.1873957393,0.7297188199,0.2744120883,2.1042094932,0.397472258,1.1944364918,-1.782692406,-0.9491084734,0.6137159426,-1.6395026097,0.3571656228,-0.2389100211,-1.0576826001,0.3856907874,0.6872813484,-0.524681456,0.2830640963,-0.2126790897,-0.6424868618,-0.8067340062,0.4471515986,0.369511223,0.8765248552,-0.7966125318,-0.8803652267,0.7802377321,0.6472329335,-0.3236246363,0.7343523674,0.0459802653,-0.4370224821,0.2480289392,0.0389435583,-0.050243691,-1.1202688909,-1.1558283763,0.0622597447,0.5909389252,-0.1320541732,0.4674843446,-0.4086585174,0.5171141614,0.7410394334,-2.3324807092,0.2876012254,-0.4128614068,1.0071671533,0.7938484943,0.5772379575,-1.0097203784,-0.0688344372,-0.4519127814,-0.6891593008,-0.0467743857,0.378187646,0.3058822254,0.7174255741,-0.1633895963,0.0173274984,0.9518120877,0.1162975926,0.1918056179,-0.7895197232,0.8415179551,0.2663151565,-0.8166670395,1.5552361581,-0.2331379571,0.5313046179,-1.1270862376,-0.3208132237,1.5637769318,-0.5893043152,-0.3390411228,0.2171892611,-0.9648550869,0.8408481549,-0.3555712284,0.529684614,0.783362769,0.5247059844,0.1772192541,0.3040737853,2.3115906038,-0.0750054515,-0.3960814365,0.8294652682,-0.5139126507,0.2075977577,0.7365610216,-0.2101380775,-0.4914079262,0.2196578554,0.324932402,-0.1477415003,-0.6208240817,0.7036519154,-0.2100372003,0.0008283286,0.0481225876,-0.955088298,0.6295153862,-0.1860377063,-0.244844145,-0.7930010771,0.4218767239,0.5254837789,0.4525156483,-0.8731456743,-0.2087581315,-0.0077968355,-1.4772341213,-0.6867973859,-0.5488215264,-0.395293521,0.3073698658,0.8021793931,-0.7267000861,0.5334185743,-0.4839048859,-1.1070038116,-1.2243179379,0.4349387618,2.0594603546,-0.0649355497,0.0562307317,-0.4541549305,0.342122126,-0.8321204333,0.1871780023,-0.7362616453,-0.1186308814,-0.6184064072,0.8977327711,1.0795537441,-0.1278511133,0.3735786825,-0.3594883743,-0.2680668562,0.9058723405,1.6166274209,0.5814565156,-0.0574617472,0.5434829114,-0.887279936,0.1954037873,-0.7543955056,0.8319086084,-0.7426311956,-0.1685129348,0.3357730885,-0.9050653614,0.7321968915,0.0753839448,-0.6438009221,1.2702553765,-0.5067495495,0.2961884531,-0.9680160691,-0.0286784364,-0.9223277004,0.3387526679,-0.3990715908,1.0115417188,-0.4851992758,-0.0051831633,-0.0736700107,0.1816614509,-1.0286853774,-0.5500378488,-0.0379309168,0.377096797,-2.7758451541,1.8048543406,-0.8470733184,-0.3981257415,0.7058637762,0.8652944128,0.1966347649,0.305823802,-0.7905087429,0.8976978281,0.0291991098,-0.5610440559,-0.1485995526,-0.3868395724,-0.4548991638,-0.0192485621,-0.2374544446,-1.0339667513,-0.8065245297,0.1436138812,1.09628558,-0.3635524189,0.5380099121,-1.4574759836,0.2372923684,0.0135202229,0.4443425945,0.4887766984,-1.3882988298,-0.0136601652,0.664113118,0.1534470934,-0.9307919715,0.1185599779,-1.2624046047,-1.0538509604,0.2275015596,0.1174928507,3.0820892588,0.3475734029,0.4928506514,0.858962231,0.2867715379,-0.1757416367,0.8674862351,0.5385602612,0.7316328045,-0.3355276639,0.5767139294,1.0241570728,-0.1178849724,-0.2472113859,-0.4837151326,-0.6750333149,0.0563149444,0.8130869589,0.4729704343,0.4645900298,-0.5474124989,-0.1094388314,-0.6183343151,-0.6486874037,-0.2503614755,-0.3716445781,-1.0627023048,0.567955881,-0.6787449274,0.3544453992,0.842353299,-0.3225402563,0.7857726219,-0.5680573529,-1.9230822894,0.8476861921,-1.038500533,-0.8592040048,0.042090389,-0.7535456188,-0.1841198332,-0.6450994362,0.9108250934,-0.4095770663,-0.0288503306,3.255083531,-0.1463210919,0.0608548041,-0.7747896366,-0.6044294233,-0.7541481877,-0.6600705561,0.3171427742,0.1718916594,0.0970544524,2.1866660767,-0.1615247005,-0.1698492016,-0.2907661908,0.910699403,0.0804438693,0.1008422033,1.3655287083,-0.5640315146,0.6069726248,1.0076386408,0.6932356133,-0.6670963759,-0.0232303891,0.1799263763,-0.0716473594,0.8761893845,-0.4212047596,1.3187455935,-0.5959625461,0.0534296495,-0.0685238328,-0.671263862,-0.0819433796,-0.1225326342,-0.1973373791,1.0138693547,-1.8369970686,1.5545214607,0.7120919122,-0.0533985454,0.4518882898,0.5324271659,0.1029904169,-0.2128501072,0.7612936028,-0.2033609914,0.0229485333,-0.0124276561,0.8192641311,-0.5068423897,-0.2436684567,-0.1865552611,-0.1949248205,-1.2221907684,0.1498534796,-0.4641221811,-0.0577020326,-0.4504473817,0.2990523049,0.8794742139,-0.1118353376,-1.2776418832,1.3386969259,-0.0762239471,-0.7774924915,-0.8607723822,0.2737962611,-0.5568274749,-0.4134667074,0.292485864,-0.4149169094,-0.6584437919,-1.2261566423,0.1891311127,-1.1875914108,0.6956483635,-0.3722500332,0.332436718,-0.9255731408,0.7749587456,-0.4297946556,0.2867503193,-0.0044287775,0.6764559245,2.932424254,-0.3570442642,-0.0256970925,-0.7595636962,-0.7255102375,0.6610410089,-0.7263111551,-1.9889535558,-0.0943918364,0.0392644342,-0.8036461053,0.2213242349,-0.599573287,-0.5406217281,-0.0086027191,-1.7609649592,-0.3383927987,0.7672284363,1.3063696786,0.1087728575,-0.1002549145,-0.3331342889,0.2815252241,-0.1216347562,0.2409106179,-0.3888730271,0.0390186525,0.3924683848,-0.7926832535,1.186831527,-0.4724184466,-0.1972830402,-0.2033130949,0.6491583559,-0.3914963628,0.3358438725,-0.298747945,0.2010895311,-0.339246074,0.3312197379,0.942487919,-1.0057459622,1.1939230729,-0.2771912097,0.669522738,0.6805417944,-0.1062187757,-0.4062522746,1.5712090169,-2.7675328051,-0.6676915001,-1.0292652023,-0.1672966241,1.0733287673,-0.4595566353,0.338402876,1.3974810505,1.0480039885,1.5142260202,0.4445603672,1.2303924026,0.0920741315,0.0671250933,-0.1051702297,1.0292536161,0.8456484511,1.2354147869,-0.5517779079,-0.8291357171,0.4764985829,0.277991282,0.3142925439,0.8963017377,0.5425886962,-0.7287785352,-0.1410772299,1.443771995,-0.2968145739,-0.93986319,1.8216941621,0.6109166765,0.4058468841,0.414241784,-0.6603773024,-0.5044692441,-0.0536556442,-0.7879370132,5.1689228707,-0.5991576256,0.8253055345,0.4622800662,-0.6046627236,-0.4233141612,0.0672633724,0.2368471467,0.05870123,0.7592951874,-1.3434108048,0.4939754029,-0.750953782,-0.4909572283,-0.106742557,0.6738635251,-0.8558615113,0.5642156732,0.4120022035,-0.9714426992,-0.7497372769,0.5417013568,0.6002033941,-0.6950148691,-2.6105857755,0.7037865823,-1.3838348906,-0.5752413158,0.0130823031,-0.5519657182,0.1845183305,0.0136145846,-0.2878228682,-0.559821789,-0.0432126544,-0.0151046541,0.2948767349,-0.167533604,-0.5106881214,-0.5403419306,0.0427381171,0.1037790879,0.3843028471,0.3344554609,-1.3630935008,2.0782149744,-0.518612171,-0.6278964462,-0.1083705663,-0.2846319492,-0.9949276008,-0.9408674024,0.4823707254,-0.4284032912,0.0815174992,0.8684979543,0.5837283837,-0.6366468381,-1.1800201162,0.4516990545,0.7426306063,-0.6892441046,0.9698374123,0.1824479113,1.1666446439,0.2991316215,1.0133256604,-0.2910354126,-0.1549153764,-0.2110620226,-1.1323043447,-0.6580599494,-0.1710152438,1.3435291011,-0.3466742061,-0.1601097734,0.2134129931,-0.6328511749,0.3323754386,-0.0165806464,-0.2368943869,-0.2819871705,-0.0149217537,0.5770777498,-0.3261831323,0.4195040805,0.8595788189,-0.6896019019,0.8725880556,-1.9215833986,-0.4186499103,-0.1142328516,0.8125712055,0.8145237676,-0.223294274,0.4937447177,-1.4840089688,0.1250477921,-0.165923615,-0.1443818391,-1.085320627,-1.1488596619,0.600485014,0.2370216989,0.5975336669,0.3926105907,1.2134559264,-0.077595721,2.8438517226,-0.4599882962,0.2950821053,-0.2800726976,0.8559676682,0.6691429268,-0.3624050321,0.1381673145,-0.2326744619,-1.4531049241,0.6982304286,0.2073588595,0.5175298587,0.9170577332,0.2733106864,0.7685830172,-0.0510607042,-0.7288245303,0.4068473737,-0.3739890486,0.6089988155,0.205053662,0.2521829423,0.2279504096,1.5515472036,0.139099823,-1.0873102497,-0.5825445226,-0.4719244674,-0.0676521876,1.4284442747,-0.4181812372,-0.6775522076,0.7424160207,0.3875608451,-0.4692678411,0.5360776624,-3.2839475082,0.1220037993,-0.3827438624,-2.2675041544,-0.7247600657,-1.0957259515,0.3907394368,-0.7052497938,0.1283260527,-0.2778671865,0.4034805981,1.2204010927,-0.6827093735,0.8119146693,0.0298365753,0.8233258433,1.3936697081,-0.7669280442,-0.4380110855,-0.4174287113,0.1334967541,1.121476128,0.7818511932,-0.5798607933,3.3143519987,0.8929661316,0.5495535524,1.1727909819,-0.7439280155,0.1744700597,0.3288640002,-0.1226671066,-0.424379519,1.0743961248,0.5139648681,1.0838413248,0.368000807,0.0604546573,1.1148190624,0.8458407864,-1.1695838267,-1.5458002093,0.3987512846,0.507268313,-0.8631529674,0.1937578693,-0.5665974736,-0.9284209862,-0.2841088737,0.9220513828,1.2290193721,0.7548185035,-0.9664843205,-0.6584651867,0.4052120307,-0.2605091722,-0.5735198546,-0.2340489678,-0.2604009532,0.824692913,-3.1575688063,2.424539486,-0.6828827043,0.1083351276,-0.0474108526,-1.5746993875,-0.1030543218,-0.9369668178,1.1314058589,0.0768910557,1.200355759,-0.4420819576,-0.4198888452,0.5679651306,0.7339339307,0.2723062912,-0.9281628199,0.8504461707,0.0251303137,-0.8815214252,-0.4710857076,-0.0060300591,-0.4526731853,0.0153861412,0.0603605746,-0.0895364702,0.3439873965,0.817504902,0.5239856087,0.2802036284,0.8418873599,0.4088751692,1.1710388491,0.2273681701,-0.1577301828,-3.1579995577,0.2085658013,0.8147390176,0.6387324743,-2.0038355736,-0.3367554849,0.559089438,-0.8629803882,0.891359379,-0.0326824539,-0.8677544453,-0.5802089048,0.6070057526,0.8199818738,-0.5666577553,0.1467891101,-0.3085741282,0.438867972,0.705294734,-1.183782628,0.4217927657,-0.2015954134,-0.784357246,-1.3865987786,-0.7096155758,1.0644725741,1.6272789377,0.8277949853,-1.0884475721,0.4542267045,0.3809561157,-0.9746980841,0.8270927818,-0.2960036225,-1.0766308227,-4.1231059998,0.0561789602,0.5421221036,-0.3566951092,-0.0124303132,0.6021326047,0.9233645912,0.9405441908,-0.4292366108,-0.4014565894,0.4739750117,-0.2857405888,2.9144755775,-1.7341518916,0.7021903466,0.4887364729,-0.6184890951,0.0858646923,-0.4576353056,-0.1767832627,-1.4831465088,0.7066920163,0.5784243908,0.0910474704,-0.8834855983,0.4577265177,-0.7030056472,-0.1083633647,0.0216347304,0.7043151204,0.3715234866,0.1808051223,0.4175046391,-0.6906905463,0.4094419326,0.6650575876,-0.9329603812,-0.1793783911,0.7401790358,0.8702629761,0.6803140388,-0.2962252887,0.1184632452,-0.7362470194,0.685780076,-0.6808804624,0.1944238475,-0.6317360932,-0.6434150866,-0.6160843256,0.5990337575,-0.2261406236,0.0138240683,-0.1836879917,-0.0855867334,0.4625531849,0.7723437401,-1.4234604385,0.8342941741,0.2815943072,0.6795914775,-0.3491304087,0.2618446778,-0.9729846019,0.5389377922,-0.1148892342,-0.6252665991,-0.892334375,0.4313031837,0.0477061517,-0.5085846888,-0.4256407983,-0.976594599,-0.7746125829,-0.1264463078,0.8296548983,-0.0442939067,0.0517942472,-0.8158418651,1.6502810403,-0.3346163314,0.800179273,-0.4256824843,1.2769568202,-0.7024710946,0.3560497056,0.8986592538,0.8869914843,-0.8032946655,-0.8142505397,0.8712062649,-0.7974341154,-0.4218360225,-1.377744248,-0.273982357,0.1464982678,0.9303313882,-0.6940973449,-0.6360865839,-0.6851463149,0.4636855205,-0.1711524598,-0.7562635319,0.7243001097,1.8359631422,-0.2733872254,0.0507386666,-0.9459502503,0.3113520172,0.0866223735,-0.0541453154,-0.1156987762,2.8810258419,1.0281373163,0.9684200601,-0.4087875825,-0.293078112,-1.342938096,-0.6049199568,-3.1653025099,0.9615506394,-0.1776564343,-0.7388689976,1.6103321651,-0.0861995155,0.6432830824,-0.175292399,0.2345672098,0.800642801,0.9797282466,0.5176090223,0.6035681187,-0.9483575695,0.7789224423,0.4978807764,0.5193861751,-0.6125427835,0.0006932755,-0.2288652233,-0.7277260994,-0.391541025,-0.1463704204,0.6182859933,-0.677822219,-0.8856429587,-0.7544372721,0.3196268138,0.7404916688,1.9381787499,-0.1647004857,1.8538204579,1.2196603985,0.2731449946,-0.3521465685,-1.4734281918,-3.2775331527,0.4617040257,-0.1700950751,-0.450103247,-1.2246411346,0.5866740756,-0.7017488993,0.2619192563,0.4981212855,-0.994882309,-0.4368731079,-0.4565893654,0.305546046,-1.3317377122,0.6181533586,-0.3112339048,0.4109298405,1.1923784803,0.3167558543,0.7759494438,-1.0025673233,0.6065773152,-0.6784578785,-2.4998515183,-0.5641385168,-0.0270842089,0.9781403522,-0.842191113,-0.4751775787,-1.436418962,-0.8150680179,-0.7111202071,-0.1910593497,-0.4753855071,0.5529025513,0.3284405491,0.1106421619,-0.1093510044,-0.2406047925,-0.3755944661,0.5133862399,0.2740923567,-0.4253593684,-1.603350762,-0.9265407948,-1.013345853,0.6893775122,0.1230383248,-1.6891297482,0.4765282552,-0.457814093,0.6407101899,0.6281018506,0.2886301017,0.8329346719,-1.9694565814,0.7641468262,-0.0384020858,1.0814958813,-0.2832844724,-0.9732133908,0.6919109572,-0.3548141829,-0.3037093116,-0.5019962349,0.6214752303,-0.0937104311,0.7657520028,-0.2914250323,-0.9495779071,0.0887053477,0.4000356169,0.4639616389,-0.9173145582,0.5503332276,-0.4406737977,0.6214260489,0.6015453752,0.1342788206,0.8034056827,-0.293250657,-0.4850031689,0.10569517,0.1551303994,-0.5111169152,1.0415212629,-1.30542096,-0.1954628605,-0.7387726575,1.1618779107,-0.2449905882,-0.9109671853,0.2677261718,1.4293377654,-0.4791600137,0.7752087452,0.5378194208,-0.0939921101,0.2697432763,1.9070399872,0.2985046649,-2.853038454,-0.0354815306,-1.8848195965,0.6834685371,-0.4340435946,-0.3691462543,-0.4085424026,0.8210193266,-1.0414552336,0.039812288,-1.3180112766,2.3740361748,0.674393049,0.4902013836,-0.4849353342,0.750317346,0.1049013177,0.362701866,-1.9952044772,-0.049121293,1.4543205118,-0.7849409677,0.4832707243,0.621076525,2.0425241647,1.0869716234,0.4239299061,0.7668982327,0.5095809099,0.4422909092,-0.3288509477,0.2007444899,-1.3420574151,-0.3785531848,-0.3928416054,0.7513982113,-0.1035650665,0.7535596908,0.2135225027,-0.3048166105,0.9596094544,-0.2274070393,0.3530831394,-0.208874401,1.9789103374,0.8860775029,-0.6731370387,-0.7879764758,-0.3142592716,0.1601634588,-0.0110379268,-0.2684868406,-0.1766820663,-0.7986649808,-0.8677422582,-0.7102691422,0.7399270723,-0.6628801435,0.873667504,-0.2983136151,-0.5399765178,-0.5630546666,-0.7546012707,-0.1194080264,-1.3226037651,0.0285839963,-0.4212432469,-0.4490075686,-0.4317170891,1.2156707395,1.1468420645,0.2981298894,0.9297130747,-0.5925268877,-0.2525218241,1.6427470645,0.4908298319,0.6456599066,-0.0687450417,0.5254976173,0.7885939369,1.309803319,0.5702340137,0.1553124361,-0.1772933899,1.2894184506,1.2454618555,0.2474016055,-0.0840905849,-0.2426189461,0.229904692,-1.0437937826,0.7586589063,0.188005281,-0.909827242,0.8545115023,0.3021739271,0.5900056934,1.4180961468,0.3271295775,-1.0153485359,0.2833234563,0.168098172,0.7273014631,0.9512059376,-0.0270805895,-1.298686464,-0.0387180403,2.5780382472,0.7479796854,-1.3003125394,0.5987323581,0.2336663805,-0.2864469971,1.5790618445,-1.1178962153,0.2720222567,-1.9876597161,-0.8992342093,-0.2584173576,-0.8120231598,0.2305318248,-1.0031414985,2.0544835828,0.1120468959,0.4599260541,0.2066099609,0.0174543575,-0.6513428119,1.3149962447,-0.8248234623,-0.7331146116,0.3625201578,-0.8248672787,0.0457059962,-0.0909201846,-2.52472786,-0.8001654201,0.1793787657,-1.1125458336,1.075370336,0.0488798424,0.0672990587,0.4765745062,0.5634928232,-0.0091873854,-0.2876710414,-0.6496371453,-1.1674659292,-1.2827981287,-0.7051593978,1.2297991981,1.2091654467,0.7935736059,-0.6689085488,-0.575080192,-0.1133410741,0.8955229814,0.6182428806,-1.2605375993,-0.7632935774,0.103627035,-0.3886109322,-0.9354988095,-0.5327139269,-0.2526240865,-0.3239799782,-0.5183326443,-0.259225722,0.6878999579,0.9433975991,-0.9118305039,-0.9424514138,-0.3009104978,-0.0658179728,0.6549929929,0.5084734833,-0.4571400977,-0.1466479582,-0.1696068793,0.0830524836,0.5998787071,0.1107326291,0.5208189851,0.3994000822,0.9107541815,2.0316115894,-0.3090501251,0.0736940528,0.763074683,-1.8484276918,-0.5913266455,0.372844795,0.0690628509,-1.1909662639,-0.5344643874,-0.220591783,0.3312807222,0.3261150843,0.7570229652,-2.055906403,0.3148549547,-0.5469935652,-0.8644946961,-0.0962262809,0.2773518974,0.4159820094,-0.8306340032,1.1175120666,-0.7508054108,0.5086049352,0.8858670978,0.4630076809,-0.332607389,0.1724547174,-0.7264800741,1.4864506603,-0.1011349496,-0.5302427711,0.7680646784,-0.85743756,0.4663298538,0.3444866001,0.2074312367,-2.4648043316,0.6143578713,-0.0970980867,-0.1846685244,0.2753869944,0.9009153237,-0.3721606089,-0.858396943,0.0755766019,1.5551493096,0.1570878073,0.4757091118,0.3203370574,-0.4138256569,-0.4206076609,2.8476537178,-0.5417328036,-0.0855212555,0.1676181639,0.6521600871,-0.9694032702,-0.2807053544,0.0478867259,-0.1017446813,-0.7845995104,0.5741716833,-2.0771828466,-0.6740809897,0.1759112044,-0.8363394499,0.1241621068,-0.7106597634,1.4268754999,-0.4582508715,0.0457525694,0.4339274592,-3.1468383018,0.4980201948,0.7881699258,-0.6622763169,-0.1104032406,-0.8581072085,0.9207599471,-0.9660610505,-1.3844251113,-0.8969676894,-0.7621409412,0.5290550387,-0.1257171055,-0.1214356175,0.5700567158,0.3611404655,-0.0693034516,-0.6541498885,0.5963128855,-1.2531672627,-0.1957212955,-1.0906133169,-0.094798979,0.5117724559,-1.330878359,0.9612503173,-0.0016813141,0.7574324114,0.0103736105,-1.0626397134,-0.8882995177,0.664927459,0.2431915118,0.7922463746,1.4517199422,-0.8477960118,0.968955876,-1.1373377646,0.6381665054,-0.0390619909,0.0806598364,0.2257305383,0.1879035557,0.0247816448,-0.8437125429,2.2122799222,1.452110596,0.2396794357,1.6176057476,-0.5930601991,1.3150261885,-1.1746456836,0.573284888,-0.0904326369,0.0576500367,0.9089686494,0.2240944825,-1.3522780767,0.7756713405,-0.2845407353,-1.8869942885,-0.0182577591,0.9333885271,0.08370712,-0.1513362761,1.7801023627,0.5403893831,-0.0403418786,-2.3574269768,-0.52120238,2.0388838069,0.6077782846,-1.8366939668,-0.7908737308,0.9118518436,-0.4998152173,0.0178465907,0.8826438327,0.9410583312,0.494916354,0.2558996986,0.7576364779,-0.2783190459,-0.9102750161,-1.758853123,0.6877364884,1.247661305,0.7166871507,-0.6095498785,1.1097947199,0.6920169006,0.387374468,0.0152817264,-0.9827509396,-0.8322147137,-0.5953395626,0.3477112997,-0.7895472915,0.3256611887,0.25392658,-1.9508119069,-3.1744332533,0.3208555836,0.2561677544,0.0614926791,-0.593502811,0.2710736989,-1.0029790407,-0.1572202118,-0.9052552291,-1.2882655804,0.5451663711,-1.5699954184,0.1094765503,0.730135893,-0.4181009232,-0.3122459987,1.2354995354,0.8189436244,-0.2896632986,-0.4290567816,-0.1159055299,0.4694182617,0.4415635193,0.2709384498,0.4261376904,1.3773495313,0.0297943726,0.5131984184,0.316199105,0.9965512292,-0.0627499673,-0.862020277,2.2198252895,-0.2494334591,0.9668153426,0.8973272518,0.4990763177,1.0688994197,0.7109561087,-0.1369024842,-0.2936717618,0.3542682273,0.7705762146,-1.1580039876,-0.1934117031,-0.2738220039,-0.5068324017,0.4700650181,0.972801726,-0.223585891,-1.0575420075,0.509716291,-2.2011425559,1.0037705986,-0.9928196866,0.8100531421,0.9195659257,0.7501848231,1.006630069,0.0174980485,0.4978468188,0.5657178462,0.9924594284,-0.3295047619,0.3748562181,0.3446364973,-0.4206296137,-0.6831820179,-0.8126867028,0.0866065591,0.8757274445,-0.1818122435,0.4491398565,1.1991450169,-0.2836322288,-0.6630897201,-1.2899700488,-0.8306339666,0.2627146653,0.6208093928,-0.1840577074,0.1989079454,-0.4470993714,-2.2193167822,-0.481935876,0.7754913334,-0.7367281967,0.4754362406,-0.6379463539,-0.6871812152,1.2906172216,0.4452961931,-0.3999517412,-0.5150185164,-0.5353548811,-0.0127339437,-0.1459389646,-1.0674645845,-1.8186192393,1.6740290021,-0.3925137164,0.6092831315,-0.341555347,-0.6814073775,-0.6815946132,0.681937369,0.8508506525,-1.2322327115,0.7323993283,0.426966078,0.5009518821,-0.4585828548,0.1700930493,0.250034754,1.1869781893,-0.229718207,0.0293464661,0.073663331,-0.2455142821,2.0282519311,0.5676817986,-0.5439775276,1.2247636616,-0.5419024532,-1.6081206394,0.7390739932,-0.1198657448,-0.1490619654,-0.4023714479,0.6135110376,-0.4985486584,0.6939146439,0.6800276503,-2.9183299039,0.3710231722,0.9909055862,0.6595588671,0.3339618113,-1.2093302252,0.6851314787,-0.8460591074,0.8979175899,0.3977840321,0.4545383353,0.5516785873,0.3235325494,0.2815645707,0.0265930077,-0.5304650422,0.7905085565,1.3389975866,-0.2169162551,0.4830626283,-0.2298954495,0.9464030473,-0.4252445058,0.5013912664,0.9819197142,0.6889810927,0.1337760861,-0.9384255199,-0.5035177841,0.1474600275,-2.2085911709,-1.5817965144,-0.7237209407,0.547433407,0.361908762,0.6619867543,-0.5008738173,0.612636936,-0.3504564359,0.8357812588,-1.2786326795,2.1162565688,0.4180736049,-1.9518335429,-0.558033984,0.8273756693,0.9518675938,-0.0137603848,-1.1690052356,0.820756332,-0.7772042988,-1.618158394,0.7745454641,-3.2752644455,0.811105787,-0.7206956023,-0.5933368712,0.3712213775,0.1655132931,-0.7661778678,0.6026579622,0.1774857895,-3.6596230975,-0.0651380462,-0.8645190433,0.1624952407,0.4672292555,0.1076174976,-0.189681871,-0.5760606264,0.7038747775,-0.7726799973,-0.0703472973,0.8457968784,-1.0225403029,0.2847797092,1.0611171443,0.0368119096,0.2294810588,0.9468690571,0.6827880361,0.091658388,0.8908174101,-0.5859223038,-0.1374458436,1.0462599536,0.7788036433,-0.79897733,-0.1046352697,0.0704990283,-2.4754944828,-0.496250138,-0.2976554282,-0.1896323192,2.0620638567,2.1596425273,-0.057500636,0.0832076242,0.8045463641,0.0884359212,-0.6691064674,-1.1061730626,0.5309966853,-0.4878693958,-0.2320759145,0.4690525748,0.1389749106,0.4852045579,0.4548079787,-0.2434598574,-0.930238987,-1.966420162,-0.828513893,1.3189800263,1.5814341681,0.5671180322,-0.1524620391,0.7079417454,-0.1483856326,0.298861737,-1.9224876024,0.32574794,-0.0475563359,-0.4658901048,-0.5086490418,-0.2942309862,0.6288689563,-0.6622263493,-0.809916844,0.8735397612,-0.9079011307,-0.6536927878,0.8262532361,-0.0981070585,0.2345857125,0.828355462,0.1719182323,1.1053876276,0.4326535737,0.6547186968,-1.7038531687,-0.7234863325,0.0195134274,-0.6233784454,0.7961192747,1.0303856738,0.597048883,0.6286517426,0.165759447,1.5080356523,0.0230437042,-0.7519132441,3.8190401795,-0.2211002963,1.025070406,1.315343953,2.3175693072,-0.7175168564,-0.9321623752,0.0208536112,-0.1669618913,-2.0878151495,0.3071921273,0.0567362204,-1.1883864288,0.0645908944,-0.4401600387,-0.7735493064,0.4385784953,-0.6745419435,-0.9365470716,-0.85437654,-0.8318458441,0.6758474947,-0.2622218957,-2.9875485447,0.6608851112,-0.1409075549,0.6610879652,-0.5740857986,1.9617397403,-0.458439232,-0.3510763087,-0.0372589269,0.4639340603,0.0442677482,0.2653200458,-0.4149902645,1.4834222884,0.1812606811,-0.4120892343,-0.3405196163,1.3748527432,-0.2601883413,0.3864891694,-0.4358952919,1.4453229455,0.8356259287,0.8549993028,3.2080985213,0.2725058356,0.5887235724,-1.5133887783,0.2259651366,-0.057781914,0.1595811056,0.3411806798,0.6852622762,-0.9543401595,-3.9551828005,0.8137580051,0.1189269901,-0.1410988457,0.2653866342,0.3908522979,0.3719195353,0.2567579771,0.0034011911,-0.1830022785,0.3540312266,1.4700632886,0.8210065298,0.3088361694,0.6848759188,0.0054857568,2.0743192703,0.4112643777,0.0419064413,2.6536223859,0.7168723927,-0.1932557019,0.3842713122,-0.0200393719,0.1453974967,0.9414826615,-0.784948701,3.1295574658,-0.8848389495,-1.4270994463,-0.0042104737,-0.0273205083,0.3779796147,-0.1665357925,0.2288684764,-0.37730044,-0.7108042301,1.2363620331,-2.0436347475,-1.3423198028,-0.4458398721,0.7506615784,-0.3100073128,0.388917055,0.0974176312,-0.8872223573,0.6681236422,0.1766625346,-0.0313684954,1.1954538972,-0.0650348374,0.4718011646,0.6329743976,-0.1683213202,0.4299396862,0.8167801689,0.6927591248,2.6746577082,-2.2943723088,-0.4360182448,-1.0129860985,0.1826373238,0.5306834819,0.6729759604,0.1262568248,-1.1925598401,1.0584115852,-0.1913272332,0.4731467845,0.4510926412,0.3322252061,-0.2073278187,-0.399212406,-0.6167100811,0.2320093249,-0.6920897529,0.5991336188,-0.4494923006,-0.5592352699,2.0708639136,0.458657251,-0.1085907223,-0.325891418,-0.9287477997,0.7607699202,-1.3857750348,-0.3979652808,-0.903863064,0.3949346664,0.3972685157,-0.1570570391,1.3647277072,-0.7149738758,0.7465654587,0.3149755599,-0.95407492,0.2437255433,-1.4703417195,0.1853245578,-1.0513682108,-0.7135140308,1.0248097491,1.3513642908,0.8846153649,-1.3644740033,0.8386487667,-0.2079060661,-0.7939252377,0.8333696411,-0.60087618,-0.9510991101,0.4892153259,-0.0558775188,-0.1265130873,0.2190983011,1.2616551395,-0.0133715551,-0.0344902703,-1.0362936513,-1.4784204374,0.5891347114,0.3213833446,0.1323345115,-0.2950455366,0.6496916435,-0.886542204,0.4550041662,1.5947499262,-0.9765280784,2.6995094499,0.899880401,-0.2444565513,-0.4664640217,0.6854989545,2.1472488538,0.7958807586,-0.951027775,0.6137821449,-0.7035511598,0.0604088783,0.6499931179,-0.2224612656,-0.4079527171,0.1991693477,0.19261685,-1.3975246774,0.218319922,0.0189697733,1.8398013931,0.0251230584,-0.5142297353,-0.8825399822,0.7565269253,0.192522634,-0.426476338,-0.7554578692,-0.1108008567,-2.3362693467,0.4774992307,-0.5894710984,-0.1826539604,0.4941167496,-0.9159445365,-0.1803012917,-1.0168335569,1.335610349,-0.8985779477,2.5428388185,-0.0559044096,0.7626760893,-0.1603112008,0.2742863798,0.1707773477,1.1414131246,-0.2992217247,-0.0885693833,0.2539879649,-0.5986294109,0.8722599202,-0.9173449166,0.5281965643,-0.2164644999,0.1581956903,2.4376173498,0.1501072787,-1.5909408007,-1.1277120049,0.0530776463,-0.9288420055,1.2000018311,0.9278500609,0.8495115787,0.8453989255,2.3295381202,-1.1818453104,-0.6154341023,-0.7026361012,0.6684731764,0.1391177896,-0.6333938061,-1.3837575837,0.3885345491,0.1495330509,-0.6501725526,0.306038912,-3.532227498,1.8556209119,0.6934407817,0.3201527624,1.1198015986,-0.7898670435,0.7254429426
