encog,BasicNetwork,java,3.4.0,1,1590078940091
[BASIC]
[BASIC:PARAMS]
[BASIC:NETWORK]
beginTraining=0
connectionLimit=0
contextTargetOffset=0,0,0
contextTargetSize=0,0,0
endTraining=2
hasContext=f
inputCount=310
layerCounts=235,270,311
layerFeedCounts=235,269,310
layerContextCount=0,0,0
layerIndex=0,235,505
output=0.0000000032,0,0.0000000227,0.0000002004,0,0.0000000191,0.0000000084,0.0000000149,0.0000000001,0.0000007976,0.0000000049,0.0000000175,0.0353969457,0.0000012918,0.0000000013,0.0000004189,0.0000000003,0.0000018999,0.0000048722,0.0000000225,0.052358254,0.0046747334,0.0000000001,0.0000000003,0.0001866009,0.0000000018,0.0000001991,0,0.0002196188,0,0.0007759771,0.0000000003,0.0000026452,0,0.0000000025,0,0,0,0.0001268991,0,0.0000137338,0.0000001357,0,0.0000948623,0.0000000887,0.0000000001,0.0000019173,0.0000000002,0,0.0000000005,0.000000023,0.0000022564,0.0000403669,0.0000000269,0,0.0000000377,0.0023725087,0.00000002,0.000000074,0.000000003,0.0000003635,0.0000001126,0.0000000002,0.0000000309,0,0.000000033,0.000000019,0.0001783431,0.0000000417,0.0000003635,0.0000000001,0.0001744359,0.0000000074,0.0000000002,0.0000000498,0,0.0000000139,0.0000000021,0.0000000007,0.0000036419,0.0000000024,0.0000000005,0.0000000607,0.000000005,0,0.0000000019,0.004243026,0,0.0000000256,0.0000000003,0.0000357114,0.0000002368,0.0000000142,0.0000631435,0.0000001067,0.0000147524,0.0000022094,0.0000003055,0.0000745201,0.0743196787,0.42959042,0.00019431,0.0000000136,0.0000000265,0.0000000036,0.0000000015,0.0000000004,0.0000024744,0.0000000902,0.0876206854,0.0000000063,0,0.0000000045,0.0000000014,0.0000000484,0.0000055082,0,0.0000153038,0.000013254,0,0,0.0000020886,0.0257181775,0.0002746158,0.0000000007,0.0000036317,0.0000000089,0.0000001128,0.0000000002,0.0000029977,0,0.0000000001,0.0000000828,0,0.000000014,0.0000036976,0.0000000079,0,0.0033491963,0.016366272,0.0000000598,0,0.0000000049,0.000008126,0.0000000098,0.0000001142,0.0000000002,0,0.0000541688,0.0000000892,0,0.0000008004,0,0.0000092053,0,0.0000000024,0.0000094775,0.0000000008,0.0000001727,0.0000002519,0.0000000005,0.0000021265,0.0000000227,0,0.0000000002,0.0000000843,0.000000029,0.0000000009,0.0000780269,0.0975115464,0.0267092298,0.0000000001,0.0000000024,0.0000000019,0.0000106972,0.0000000042,0.0000000006,0.0000094481,0.00017258,0.0000036376,0.0238522715,0.0000000046,0,0.0000000017,0.0000000019,0.0000000013,0,0.0000000025,0.0000010549,0.0000000014,0.0000000016,0.000000002,0.0000002232,0.0000000001,0.0000000002,0.0000142797,0,0,0.0000001164,0.0000009008,0,0.0000000009,0.0000000002,0,0.0000000001,0,0.0000000017,0,0.0000000396,0.0015376574,0,0.1089623978,0,0.0000000105,0,0.0000001591,0.0000000115,0.0000000012,0.0000023718,0.0000000152,0.0000000485,0.0000000003,0.0000000009,0.0000000005,0.0000000027,0.0024956946,0.0000001092,0.0000000001,0.0000006589,0.0000001692,0,0.0000000114,0.0000000022,0.0000000003,0.0000000003,0.9235918041,0.0197754267,-0.1954025402,0.9997989411,0.2124956143,0.7407164999,0.9997116642,0.6590041317,-0.520804003,-0.4595880228,-0.5607563334,0.7883481522,0.8385707059,-0.9125164002,-0.3666302106,-0.9994434057,-0.99851796,-0.0559849886,0.9725316554,0.8842872655,0.6335476035,0.5381063407,0.4459177796,0.9876717012,-0.464370041,0.8416090681,0.5965384406,-0.859941333,0.0633806397,-0.4263433583,-0.5000024218,-0.9923497438,-0.3860644746,0.986894993,-0.9864060408,0.8781017999,-0.376519887,-0.6279874806,-0.9943601364,-0.9897925698,0.8345760244,0.8856252288,-0.9769145679,0.0355207772,-0.999748357,0.7754071979,-0.8740247703,-0.7668563864,0.8161330269,-0.9660875988,0.4963581173,-0.8148945761,0.844178027,0.7835778919,0.4590414794,-0.8445473816,0.9874960439,-0.7989909869,0.1871715161,-0.8006679445,0.2761433395,0.4368953022,-0.9993773624,-0.8970239249,0.3873841747,-0.9402568655,-0.9829475571,0.880858318,0.9904285566,0.755600746,-0.0740951385,-0.8335986597,0.856229867,0.3509924983,0.7956161509,0.8872789572,-0.9307143622,0.7896581932,0.6982844399,0.6226806238,-0.5919291113,0.9557099917,0.8549998031,0.9921315856,-0.9808313714,0.7781194992,0.4869448,0.5208152497,-0.6712413485,0.4381030399,-0.8862375984,0.3712470586,0.3194383431,0.9511289689,0.999223918,-0.6917731956,0.3858851127,0.7817200488,-0.9379753169,0.017625045,-0.3877083374,0.986942078,0.5631027407,-0.3816055152,0.6070069584,-0.4481776148,0.6171460524,0.6932703558,-0.2411148182,0.9352725807,-0.0012223363,-0.9602626125,0.9568486834,0.9896192442,0.3648715901,-0.9980544053,-0.9998687109,0.9986615524,0.8595296455,-0.7087960368,-0.8348469997,0.1803076925,-0.9808939879,-0.0365618613,-0.9494014996,-0.964611095,-0.76019544,-0.9970889663,0.531149864,0.034242475,0.8136534705,-0.2012469962,0.9506309392,0.9766210996,-0.9787406495,-0.9848698978,0.9872681164,0.8737518707,0.836874325,-0.7155211923,-0.7576240961,0.3151238473,-0.5246768587,-0.8964046358,0.2101560431,0.2895653426,0.9957707841,-0.9944694949,0.9886735291,-0.9465572353,0.9678474399,-0.9796976249,0.9874674751,-0.9678723416,0.8471273469,0.8626682831,0.3588632174,0.4087861494,0.9384650861,0.3995550386,-0.9998412424,-0.9820540554,0.7530254875,0.9971949462,0.9998448585,0.5772955681,0.6834424785,0.2882516436,0.955640036,-0.1820890874,-0.9951479317,-0.8200275305,0.2001136148,0.1105268907,-0.8712723069,-0.3205030437,0.3889662389,-0.8437610709,0.4109760961,-0.9949944767,-0.9505531515,0.3210182053,0.9712063008,0.9978641304,-0.7855254207,0.0642601897,0.2262044192,0.9666610802,0.9526381268,-0.8510305094,0.9966593979,-0.6718357338,0.8752621292,0.9517700347,-0.939416933,0.9431094801,0.8734377164,0.9864140397,0.8444952684,-0.7862643378,-0.9844860892,-0.9342997835,0.9554725672,0.9949430153,0.7743146633,-0.9986905815,0.6129282628,0.7442170254,0.0918382757,0.2653338128,0.9883272458,0.9594165903,0.8624496558,0.9287915879,-0.1560535709,0.9133149307,-0.0598901385,0.578000737,-0.6810860389,0.4854428748,-0.3979973033,0.9720314341,0.9462400576,-0.9997795978,0.6024153985,-0.9282476594,0.2279434676,-0.6241291982,0.6954372833,-0.706434608,0.8523646854,-0.9487630633,0.6797012704,0.9966983085,0.8451606813,-0.857484481,-0.9934978525,-0.1392365216,0.7699750865,-0.9905086381,-0.9922960509,-0.1348329781,-0.3685352131,0.9962288602,-0.5782581467,-0.469770374,0.9796337384,-0.296964612,-0.8896705453,-0.9979966515,-0.4903485775,0.5600523659,-0.9999244609,0.0200784728,-0.9264601862,-0.8267080624,0.9959707425,-0.4659458999,0.914639288,-0.2478324512,-0.8015456785,0.9993707256,-0.9889555697,-0.9870442482,0.629177935,0.3790508279,0.0474358134,-0.7151179873,-0.7914203608,1,0,0,0,0,0,0,0,0,0,0,0,0,0,0,0,0,0,0,0,0,0,0,0,0.5,0.25,0,0,0,0,0,0,0,0.75,0,0,0,0,0,0,0,0,0,0,0,0,0,0,0,0,0,0,0,0,0,0.75,0.25,0,0,0,0,0,0,0,0,0,0,0,0,0,0,0,0,0,0,0,0,0,0,0,0,0,0,0,0,0,0,0,0,0,0,0,0,0,0,0.25,0,0,0,0,0,0,0,0,0,0,0,0,0,0,0,0,0,0,0,0,0,0.5,0.5,0,0,0,0,0,0,0,0.5,0,0,0,0,0,0,0,0,0,0,0,0,0,0,0,0,0,0,0,0,0,0.5,0.5,0,0,0,0,0,0.25,0,0.5,0,0,0.25,0.25,0.25,0.25,0.25,0.25,0.25,0,0,0,0,0.25,0.25,0.25,0.25,0.25,0,0.25,0.25,1,0.25,0.25,0.25,0.25,0.25,0.25,0.25,0.25,0.5,0.25,0.25,0.25,0.25,0,0,0,0,0,0,0,0,0,0,0,0,0,0,0,0,0,0.75,0.75,0,0,0,0,0,0,0,0,0,0,0,0,0,0,0,0,0,0,0,0.25,0,0,0,0,0,0,0,0,0,1,0.75,0,0,0,0,0,0,0,0,0,0,0,0,0,0,0,0,0,0,0,0,0,0,0,0,0,0,0,0,0,1,0.25,0,0,0,0,0,0,0,0.25,0,0,0,0,0,0,0,0,0,0,0,0,0,0,0,0,0,0,0,0,0,0.75,0.25,0,0,0,0,0,0,1
outputCount=235
weightIndex=0,63450,147109
weights=##0
##double#147109
   -0.90411817,-0.5087341481,0.777747623,-0.3094483821,-0.3923071141,-0.6601454696,0.3899187514,0.6818444066,0.7127466429,0.2556087632,1.1763073913,0.371751557,-0.3969665726,-0.4879026704,-0.3597403226,-0.4368470462,0.1506089337,0.6087490568,0.5699801901,-0.2125365081,-0.1754669958,0.0329322673,-0.701642083,-0.0047250884,0.4477779156,-0.1281870422,0.2598784858,-0.401758472,0.2709240763,0.1977765646,0.8206404445,-0.0644824793,-0.2949824564,-0.0353247251,0.4614643383,0.0761292694,0.3318278555,-0.6508902068,0.1940438137,0.1632930751,0.7567445635,-0.3751124242,-0.5794994808,0.2587891406,-0.0401958564,-0.0254866411,-0.4236012182,0.3074660986,0.1710771434,-0.5371716339,0.4718916429,-0.2605740265,0.9732952264,0.8705248088,0.4082703588,0.2734854489,-0.8710983879,-0.8208510767,-0.8525380234,-0.6169420507,0.3664910933,-0.6669421424,-0.6144126282,0.4368598175,0.0867822593,-0.1563552282,0.5603018015,-1.3695483243,0.0331959312,0.8515730754,-0.5372138955,0.652760541,0.3085750087,0.3316802646,-0.5681727327,0.9347376815,0.542198814,-0.8692239953,0.2239261333,-1.0245624175,0.4597724832,-0.3161918422,0.6033233095,-0.8201259624,0.6063375741,-0.0990409933,-0.3474191969,-0.5509181806,0.7986585972,0.5153246769,-0.629456878,-1.5255060889,0.089538298,0.289222904,0.2217434723,-0.9629155436,-0.9733318161,0.8681125165,0.1593798587,0.6286336794,-0.5284723255,-0.0937787147,-0.6997368678,0.7503796835,-0.1432397545,0.3376651282,0.5247375975,0.9799640525,-0.721777984,-0.2013323228,0.221091788,1.5619759094,-0.2953689302,-0.3101236183,-0.8771816722,0.7549654455,-0.6258835026,-0.3509226133,0.5920164998,-0.002009405,-0.225792311,-1.1305153249,-0.8518193063,-0.3309527308,-0.0134519253,0.1261687778,-0.5815356635,-0.6831789743,0.2101585638,-0.4929397957,0.1127867568,-0.2734925784,-0.0631608747,0.2944145944,-0.6904112849,0.5058509829,0.2812425175,0.3455921316,-0.0555286208,0.3108769841,-0.6484593275,-0.7132415979,0.3722028134,-0.1465503302,-0.3264320504,0.6768569697,-0.9604537113,1.5886579632,-0.5142275588,0.4856563337,-0.5023701932,0.0412702787,-0.7632893729,-0.6647243522,0.3415786259,-0.0312936059,0.4589364277,0.6866823689,0.9935126013,1.1372225107,-0.2925623834,0.1802529838,0.7879162775,0.6951446206,0.5076367842,0.8481688454,1.0004874493,0.3774303554,0.1048281847,0.4938415867,0.9202124926,-1.075004228,0.2540803124,-0.8590237158,-0.6085926952,0.0907259384,-0.1021786205,-0.8767075938,-0.1182554007,-0.7779118657,-0.254907503,0.3065815054,-2.2066383481,0.4837736193,-0.4513669985,0.0110817467,0.5491262757,0.2831638614,0.2597499578,0.5113887738,-0.6728665798,0.44177089,-1.2922341798,0.4644860883,0.1856087384,-0.9163942873,-0.0820022864,-0.495796181,-0.0242049494,-0.5403608715,0.2757166316,-0.8611913953,-0.4140255445,-0.7771155471,0.3076789168,0.9735595733,-0.3964809744,-1.0494702516,-0.5651357829,0.5743901294,-0.0311732741,-0.8492665109,-0.2729679103,0.5108995138,1.1434403932,0.0018916193,-0.7104842749,0.5892409484,-0.3364322058,-0.7587366241,-0.0688937033,0.8136068966,0.7094986598,-0.9265284971,0.3964231735,-0.3810386377,1.6881544762,-0.6005830829,-0.1900894981,-0.153801129,-0.4311454097,0.592859849,0.0781053497,-0.6651912503,0.7496426675,0.1338132401,0.7107959399,0.7224597989,-0.095605832,0.5527813181,-0.965008308,-0.2574176644,-0.6132696623,-0.820442176,0.3207192492,0.0593078001,-0.3181560387,0.9534809468,0.9759046414,-1.0003460679,-0.833072504,0.8442512033,-0.4306683312,-0.2934348438,-0.860254896,0.727515324,0.9127487763,-0.062699276,-0.4005718656,0.868930649,0.1007982268,-0.932701245,-0.1473468881,-0.0044725018,-0.6937256263,-0.9199974815,0.6044384473,-0.6480903109,0.6507190993,0.6884254639,-0.7437341193,-0.8875199937,0.4767869141,0.8734322024,0.1908891934,-0.2530742011,-1.0867626455,0.3523311326,0.2135414794,-0.6739276063,0.002659361,-0.5876543368,-0.7181450889,-0.1387959243,0.4581218534,-0.0693714003,-0.3661781701,0.9562801658,-0.9580847619,-0.2542843651,-0.0552734125,-0.4001673735,-0.7270061573,-0.5351528847,0.2836408336,-0.1357436726,-0.3534114458,0.3347408678,0.0914286142,0.8862845291,-0.1099443055,-0.4332167366,0.4167541502,0.615042464,0.5737816489,-0.1606855638,-0.8420246537,-0.8700563468,0.3568798175,0.2127175684,-0.9481616125,0.063309119,-0.8252107351,-0.2465020605,-0.0859342849,0.6811204766,0.2378801586,-0.8706391477,-0.5785151631,0.5856629152,-1.0143083867,0.5711199574,-0.6885069239,-0.8229736958,0.5794483545,0.3801576132,-0.3024706928,0.2466959372,0.0689690678,-0.9132559723,0.1298112805,-1.0149420564,0.5219977433,0.0523918195,0.2225756243,-0.0118232115,-0.2126205376,0.2648316748,-0.0485060488,0.539060405,0.2423208081,0.0246902875,-0.5021259735,-0.8179905956,0.4326145526,-0.7650619292,0.4492596603,1.0229915639,0.8837927109,-0.7439636105,0.919639966,0.5386264218,0.4322666499,-0.9359184948,0.0156376297,-0.6394190295,0.1089976359,-0.3099549017,-0.9954008004,0.6547056949,0.5947456782,-0.6625512937,0.0242122596,0.4030955759,-0.5958591349,-0.7091589489,0.5235425871,-0.3129872782,0.3439213814,1.0559611508,-0.9127100768,0.4733600588,-0.41085057,-0.884054681,-1.1141236792,0.2912545194,0.1239066658,-0.8860639554,-0.2893942141,0.0100013143,-0.0795218763,-0.2393438584,0.2299775386,0.0092438914,-0.502750496,0.4707886415,-0.2845013419,-1.3779721539,-0.3152379658,-0.3005866951,-0.3077230859,0.6455367934,-0.4312038349,-0.4771371836,0.0943712237,-0.0439796631,0.0692000059,-0.4116349111,-0.156359837,-0.1408785515,0.4951293262,0.3408842814,0.5209503433,0.9273854101,1.1287704118,-0.1378038834,-0.6271583844,-0.9885354073,-0.8787561406,0.019730606,0.9607574488,-0.0321510442,-0.3617302825,0.1800970954,0.15592306,0.2344226433,0.1491572047,0.2930951445,-0.6439186673,-0.3395725741,-0.0846420992,0.2558638361,-0.4318129537,-0.3207700918,-0.498905403,-0.6434549766,0.4160237414,0.2838421752,0.1339892277,-0.3870038007,0.6514460657,-0.0312366493,0.2627436847,-0.8390550989,0.5796027348,1.2685800738,-0.1466939836,-0.0739170655,0.0130169152,-0.3981062273,-0.7384649419,0.2135621407,-0.9046933579,-0.2571405903,0.5261817593,0.3991237326,-0.5352573093,-0.3904656309,0.8219002557,0.0278066959,0.3306073029,-0.5813108525,0.251158621,0.7561083823,-0.6945045415,0.1495208755,0.1842584508,0.8635995981,0.881279641,-0.4145526868,-0.2054941505,-0.201868619,-0.8996670803,-0.2838522546,0.0326634442,0.0021969787,-0.357407263,-0.8940800294,0.1971661323,-0.1382852475,0.4922004368,0.9039425018,-0.1938071696,0.7989070269,-0.8653935888,0.5971823647,-0.3473120477,-1.521208261,-0.7816649884,-0.3357379567,0.449356173,0.4789422785,0.0935051095,-0.7821438267,-0.0188134056,0.2272595008,-0.4826008562,-0.1177062971,0.1676429895,-0.8642293709,-0.1836963843,0.3788669844,-0.1270976894,-0.7108601565,-0.1207770528,0.063149849,0.7035310786,-0.665869639,-0.130770252,0.7851854749,-0.0561994268,0.7048228701,-0.0588017787,0.0451894583,0.9026338947,0.8539454564,0.839035495,-0.486792357,0.3760672493,-0.705889834,0.2437732889,-0.234574032,0.0174422726,0.8569340703,-0.7624036637,0.8391355098,-0.3102479765,-0.2438940214,0.1826364855,-0.6805729476,0.8382062594,0.3385216855,-0.3485577047,0.2717336475,-0.070377132,-0.4941202092,0.6107622577,-0.1958010809,-0.3398096099,-0.5004367744,-0.2677784127,0.838443866,-0.4734550292,0.4448876707,0.7264360894,0.1290041491,-0.0965809824,-0.4122572683,0.6435999037,0.2145825302,0.1680219787,-0.734410972,-0.3350546427,0.6910007659,-0.711032363,0.6397025611,-0.5961161842,0.0251499149,1.1975223593,0.6178413763,-0.5813929575,0.4498927714,-0.1033313711,0.5369767287,0.867040479,0.5407875413,0.3177476968,0.7394270003,-0.9512520697,0.4007237995,-0.297003594,0.1736701151,-0.576497865,0.6670955172,-0.0086076636,-0.3162694068,0.5636036154,-0.359814601,0.7939345873,0.1445371144,0.8370357311,0.6244390178,0.5396814,-0.7104788337,-0.7565216734,0.1379730723,-0.9170137724,-1.2788129642,-0.6074644033,0.6360123411,-0.3567322713,0.2024143609,0.3223800377,0.9344716996,0.7226032613,0.5198044334,-0.0109415456,0.6782974514,-0.1304499055,-0.1184137383,0.473264378,-0.3189619396,-0.1760334762,-0.3015177108,0.9209346014,-0.0064554572,-0.3398478557,1.0694656047,-0.2140474359,1.1362552316,0.3756753879,0.4150938364,-1.381597107,0.0291737595,0.387094891,-0.364550946,0.99184974,0.239583884,-0.1264064898,-0.2213992258,0.1617823788,0.3382290467,-0.1790761862,-0.8014320058,0.594782416,0.5748730837,0.2198897947,-0.7502289934,0.5805689595,0.8713028581,-0.6199748755,0.5047615944,0.2716509808,-0.3014007609,-0.8195984709,0.5415623202,-0.3765039996,-0.4925243703,1.348880938,-0.3344800074,1.2113044375,0.4397253858,-0.0669542071,0.572148094,0.1655427781,-0.0915363501,-0.4676798045,-0.4591782086,-0.2240461445,1.0113654756,0.3177425537,-0.1830453746,-0.7762117855,-0.1407784281,0.0442502238,0.0233347794,0.1260705339,0.8221910096,0.7446369172,-0.9600740065,-0.2911470523,-0.5395875973,-0.2998746664,0.3308005553,-0.2753727631,-0.4479099989,1.2148393278,0.3487002003,-0.2564804049,-0.22780366,-0.2657405208,0.2041737908,0.0693215341,-0.4713067986,0.3435090522,0.7731567393,0.8700524784,-0.7469590862,0.0031034322,1.426917379,1.3727658804,0.8727484666,0.4094701148,-0.5923047562,-0.134916481,0.6858239739,-0.8205582986,-1.1561619314,0.9203385713,0.0125854844,-0.4087328819,0.2690926523,0.8678122975,0.3779969232,1.1746748506,0.470353953,-0.496127048,-0.4188353028,0.3512995647,-0.9287263895,-0.4686311416,-0.7049149039,-0.1424968641,0.9979317547,0.797722185,-0.3569462624,0.1092292466,0.8614437203,-0.236174962,-0.7513109419,-0.2276801057,0.4056891902,0.7930438064,-0.0201917249,0.9961105287,-0.4709661039,0.2441068363,0.2463910518,0.6876432819,0.5321727717,0.2519052229,-0.3119772701,-0.9979479022,0.2581510069,-0.4172230881,-0.5546536977,0.0425773398,0.2721451351,-1.0038104503,0.1491566794,0.6886596171,0.9335167045,-0.0732378349,0.1951961864,-0.4208025103,-0.8626571213,-0.54661848,-0.0987284023,0.3712993745,0.3125140264,-0.1047329654,-0.7492785113,0.6430610255,-0.1733891553,0.5472795005,0.6661154572,0.4644642743,-0.424841638,0.5740756326,-0.8794186759,0.5275643472,0.1271548611,0.5922516006,-0.5714163938,0.564783777,0.3867089769,-0.692744474,-0.0000784324,0.0069433899,0.0789347355,0.5800773835,-0.6164423715,-0.7715148299,-0.3725219221,0.3220756981,0.5774126598,0.8922553472,-0.7497145769,-0.6173732261,-0.2390335602,-0.8073563397,0.7376821876,0.1232980989,0.4167269834,0.6108213265,-0.8184068891,0.7784741478,0.5662314503,-0.1779390155,-0.3348378028,-0.1951088745,-0.6937195606,-0.9654799339,-0.1642602379,0.1960340933,0.7733669276,-0.4536344513,0.1325196497,-0.4008426046,-0.2738739839,-0.5807675819,0.2443941184,0.4271620172,-0.7037342857,0.1711170145,-0.6483456231,1.0149172845,0.7832065611,-0.5598239034,0.3012388184,0.4469237258,-0.0797980925,-0.9232697465,-0.1993593539,1.0351618857,-0.6128019895,0.0841837438,-0.6834971974,0.1561469263,0.3112665724,0.2624680217,0.0514210288,0.4503819987,-0.1404143549,-0.1958547517,0.2622603085,0.7862512859,-0.0532323472,0.362615262,0.5402384351,-0.6040112541,0.5333316059,0.2050622102,-0.3361508678,-0.2663021147,-0.069545998,-0.6057961458,-0.4082893856,0.5990763237,0.3813614967,-0.3982122382,0.7436439036,-0.1748178524,-0.0555183919,-1.0393482757,0.0834260767,-0.2414986803,-0.1478439426,-1.0897639718,0.1784976305,0.0148452863,-0.80391896,0.1173450747,-0.4312105443,-0.6103241707,-0.3983981949,0.2656970684,0.2251168048,-0.3000280352,-0.2221195284,-0.3477980931,-0.6690580772,0.2315321329,-0.6350432693,0.9126410501,-0.2262874785,0.2034786519,0.3658661773,-0.1950457917,0.4806901586,0.6235281595,0.5148290511,-0.3595986337,-0.2706559994,0.1997458705,0.728077067,0.9318597816,0.8408008068,-0.4341142092,-0.7237898876,0.4340246044,0.7935481522,0.9621458411,0.4167428848,-0.2559343953,-0.7356751743,0.3974545254,-0.6650178474,0.9701559919,-0.0398059594,0.570369595,0.4527640955,-0.8311054069,-0.432631758,0.7912977626,-0.0798271843,0.996732314,-0.3290345358,0.7519939691,-0.5731166173,0.5589936287,0.3455125484,-0.2975559766,0.8806707715,0.1301593767,0.5562006818,-0.6986792065,-0.4607959577,-0.7337203877,0.9488174096,-0.6252325348,0.5128201176,-0.2172447308,0.6913701619,-0.8137472144,-0.1824084471,-0.787077721,0.0905822253,0.0958516732,-1.2440705909,-0.7162120314,0.1009221515,-0.0416193112,-0.9077652005,-0.4627301555,0.3605237492,-0.0866869466,0.0449671915,-0.0883928838,-0.4252147801,0.9118823178,-0.0676212399,0.0528301595,-1.0905908406,0.0367963052,-0.0695645437,-0.3854068127,-0.3128963316,-0.3979877953,0.6623085698,0.5631303945,-0.1901698591,0.6284349343,0.1749617961,-0.774021659,0.0977650163,1.0138149788,-0.352933412,0.3451699231,0.7238032473,-0.3396199532,0.0732984249,-1.3007333764,0.9090355126,0.6463500971,0.4144820289,-0.078124541,0.2311543607,-0.1313263442,-0.9732563983,0.3426783152,-0.367924267,-0.6168683477,0.3482214439,0.6567252578,0.7946725519,0.2749655483,0.5113493161,-0.1432106386,0.3011351028,1.3064601908,-0.2168529598,-0.2482835735,-0.0054325333,0.3636393301,0.3176667753,0.2200973578,0.3766311462,-0.9534653485,0.1575883273,0.622874343,0.3990108411,-0.4121524077,-0.0502760963,-0.2690599346,0.794897479,0.3383450445,0.3723241562,0.7074743996,0.1137035535,-0.7084342836,-0.9783140916,-0.2809867299,0.6023322187,-0.6777261388,-0.859035512,0.1931771419,0.903990261,0.217251658,0.6257646979,-0.5273968847,-0.750858638,-0.2250347214,0.2303147079,0.9931349756,0.3096731277,-0.3794547353,-0.9331792656,-0.4155505015,-0.4284025492,-0.3437338804,-0.6378813812,0.0473522009,0.1125693817,0.7636664381,-0.8412788492,-0.5690392404,-0.3253979107,-0.8328370182,-0.3971273325,-1.3850323269,-0.1947570738,-0.4875485556,0.8652044979,-0.7242635497,-0.0061883382,-0.9244048751,0.9317279105,0.2039588661,0.6329783929,0.5629987997,0.2484195655,-0.2591560536,0.4043000689,0.5609359182,0.4886589818,0.2617077364,0.6726003863,-0.9019493182,-0.0545870286,0.8675753782,0.9995608589,-0.3662743177,-0.2201331112,-0.089625834,0.230643158,-0.2126456489,-0.6828113694,0.7060111378,0.4697404813,0.7033299486,-0.7141561058,0.3800496384,-0.7614734309,0.5608031842,0.3566982896,0.9372283299,0.6836785235,0.0902509537,0.8458314228,0.2384967035,0.5904426093,0.5038875663,0.8081969754,0.6344551989,-0.8448247243,0.5915363818,0.3189578927,-0.2085301022,-0.8712000372,0.6937598557,-0.382542131,-0.6287626985,-0.2081101714,0.4640261936,0.3147225371,0.0222764966,0.5221496293,0.382995581,-0.7515673691,0.8942923436,0.4249751542,-0.1038118424,0.1513594008,-0.6877034536,0.7669373044,-0.4243227553,0.1134724192,-0.2029130064,-0.6344508262,0.2000832863,0.2156721124,-0.4363864239,-0.8645874091,-0.4789017871,0.4035454075,0.8306810963,0.0607231091,-0.0250073894,0.69272739,-1.1824317068,0.6221389795,-0.6451188106,-0.1073806984,0.6300443947,-0.479960616,0.6762434895,-0.2723398015,-0.7598535914,0.8554209865,0.0483585428,-0.9487505149,-1.2635469883,0.5030193322,0.7620626857,-0.8323620943,0.9318044288,-0.3519931185,0.1827556302,-0.6473506338,0.3345073107,0.1448829322,0.2426428883,0.9864619999,0.8350482948,-1.6079594382,0.9388321957,-0.0478816146,-0.3522706814,0.0265143719,0.5017222115,0.7435056118,0.5786595757,-0.0936029853,-0.4701302972,0.7553018954,0.4045604506,-0.6283858336,-0.7507043038,-1.4334023498,0.3369232506,-0.0945983778,0.7636753745,0.6241435231,-0.8606680925,0.4025119148,-0.0221707404,-0.8560670107,0.8430382706,-0.2522400868,-0.032049495,0.8532634312,-0.7912047957,0.299997226,0.4858419718,0.8672039397,-0.8187033683,1.5511347359,0.2933015368,-0.9037706757,0.8711847548,-0.3965348193,0.1537390221,-0.4803923595,1.0192100182,0.2659221926,0.0423208241,0.2021209357,0.3785887257,0.0608722296,0.7327429574,0.5935006209,-0.1123756937,-0.3359391452,0.6995718434,-1.449463552,0.3745978984,-0.2219649296,-0.7741081387,0.1465657235,0.6016759545,-1.3790770033,-1.0150284892,-0.4425728469,-0.4453556326,0.1110155184,0.6954783678,0.554199537,0.2506562174,0.2570521273,0.0393204082,0.9678196411,0.5225477845,-0.3941897562,-0.8374874075,-0.7082278551,-0.8708033722,0.1508211385,0.5072399032,-2.7603537343,-0.3889602303,0.9097587879,-0.4659151445,-0.3233118402,-0.8898145997,0.3491386584,0.5824819904,0.8663200328,-1.0271320013,-0.3306670698,1.0714545006,-0.4371061061,-0.473866899,-1.6817685441,0.0721161356,-0.0939498816,-0.0142502018,0.1165191074,0.7069765838,-0.8872332403,1.0633539706,0.2964804949,-0.8446570262,0.5410043163,0.0228961177,0.0028145935,0.1204772625,-0.5991223816,-0.915173732,-0.2336824759,-0.875086942,0.5960664353,-0.898174213,0.3083215764,-1.4678665665,0.0329985718,0.7164684786,-0.1277445895,-0.2046037023,0.9472239018,0.9971893922,0.2317943896,0.1496774288,-0.7321555438,-1.1142924467,-0.0410273656,0.1882712568,-0.6268661911,-0.0011038871,0.5070457957,0.9361166874,-0.2370207778,0.8804816436,0.3672276665,-0.1526806823,0.2761421856,-0.0467454916,0.1039378416,-0.0771634585,0.3325571384,1.289698959,-0.23579438,-0.8409333469,-0.4437066884,0.0843798539,0.7640377021,0.6389794283,-0.6910598009,-0.0288943444,0.1976739217,0.0051007722,0.9701907003,0.2972306611,-0.0611991797,0.3406980775,0.1372757224,-0.8193436798,0.7745962267,-0.1602320048,-0.4913728919,0.9846016207,-0.4919984313,-0.3957252535,-0.2119326372,-0.5990539736,0.125287285,-0.9694878113,0.5140534791,0.1170402884,-0.2977306616,-1.197122356,0.5878624309,0.6173585374,-0.5511750182,0.3780978986,-0.1979864963,0.5720816249,0.7830729546,-0.0689152899,-0.5366663926,-1.0246244157,0.4650732271,0.0207703801,0.5033975527,-0.1677092381,-0.190134343,-0.5628936415,-0.5152018065,-0.3741687413,1.0256344119,0.3791176317,-0.5703339287,0.5702258389,-0.9280807011,-0.5183079592,-0.5773845479,-0.1594154864,-0.1744533065,1.9214727558,-0.1531884553,0.4747034332,0.5316445333,0.9626398582,0.6793927806,0.1806882703,0.5648160267,0.3845262685,0.3823532672,-0.0980793719,-0.298919681,0.6333536452,0.3850146657,-0.954769249,-0.17732256,-0.6837156845,-0.7777519152,0.7529875523,-0.1197751856,0.806544351,-0.2292013127,0.6725274081,0.3145984482,-0.2598525636,0.3911522917,-0.7638563821,-0.36670503,-0.0731137681,0.3370018037,-0.2129410088,0.3037526692,-0.3150847927,-0.3260696126,0.6838226309,0.4095602388,0.1155390269,0.4956289816,-0.6637832959,-0.489209774,0.8608302011,-0.430010039,-0.1777091488,0.4441541344,0.7607707445,-0.130914864,-0.3418121015,-0.3922462873,0.3393544044,0.8822510167,-0.5598990475,0.4076019975,0.7896289413,-0.2059832886,-0.1770287934,-0.1159625226,-0.442960515,-0.8762837922,-0.0492881073,0.0224478077,0.762756077,0.3458061198,0.2082602967,-0.7935252852,-0.9370178851,0.0850921343,-0.7068964569,0.8595268972,-0.1095855626,0.1016353205,-0.7201705948,-0.463461493,-0.3590084256,-0.6570714195,-0.1723607411,0.3669196811,0.0172831305,-0.0964209344,-0.7769744106,0.8898097692,-0.1849295351,0.3774635211,0.893733701,-0.7518047877,-0.9914571276,-0.6713756599,-0.9142217721,0.5667081767,-0.035465322,0.501659912,0.1979436157,0.6788628842,0.7009434178,-0.4692727685,-0.1149202746,-0.6963099288,-0.7616084588,0.3228696307,0.3523049515,0.4628572923,-0.6841833455,0.5938400796,-0.9657674617,0.7789425958,-0.5971307553,-0.6145335444,-0.0372297996,0.1178978896,0.3364976204,-0.7232252538,0.7564340221,-0.246774027,-0.6250987717,0.7098509724,-0.4958469481,-0.4406315588,-0.2180119662,-0.3060597997,-0.6409525127,0.4012740076,-0.7248275435,0.9135776924,0.3349043721,-0.0330486426,-0.9508395361,-0.5098569994,-0.796836356,-0.4229954221,0.4595902617,-0.4541348474,0.4688075566,0.5223781692,0.5602997154,-0.4321909062,-0.0298926218,0.6465434547,0.6917442316,-0.0438552913,-0.735916639,-0.8731168853,-0.0223498107,-0.6466352095,-0.8907877836,0.0673843032,0.6256893486,0.209129191,0.1581010541,-0.9561437158,0.4987252796,0.6678763322,-0.3854802067,-1.6351792697,-0.4042488476,0.8151182042,-0.2948908221,0.04017723,0.1059088747,-0.8733265285,0.7236422696,0.3273803935,0.5028585448,0.8392936634,-0.7768743818,-0.5687391154,-0.8873913726,0.9064860013,1.0285457842,-0.9010084239,-0.4074155166,-0.7395620641,-0.3588224037,-0.4381841579,0.5701406427,0.1483407244,-0.9821167245,0.0714616869,-0.187526532,0.1256305495,0.2759462139,0.4760283226,-0.5983654787,-0.2792941295,-0.7431181741,0.4724375566,0.4698058328,-0.6397736602,-0.8015141719,0.4243907979,-0.550934493,0.6485948017,-0.1890144612,-0.3170921441,0.1875039432,-0.3685067201,-0.1161409995,-0.8523540629,-0.0519595391,-0.797275939,0.332863091,0.1771913743,0.9238758986,-0.1731228664,-0.4066509143,-0.3902583243,-0.8890196306,0.1975703339,-0.7945624283,-0.7489485189,-0.5928958992,-0.6721566624,-0.8054944918,-0.6322088962,0.77312696,-0.3641250097,0.6299875734,0.8451665559,0.1202638118,0.6376502272,-0.6868165087,-0.0853587305,-0.0654357145,-0.7263432367,-0.5215174664,0.6749146034,-0.5615865087,-0.361180891,-0.8506503932,-0.3831152288,-0.1232995085,0.6769303813,-0.8406044179,-0.5708238817,0.4165185597,-0.5957821176,-0.1229863349,-0.6079777582,0.5351230326,0.1813979842,0.2581893503,-0.8518118503,0.7838381042,0.3757713587,0.87983825,0.9977597241,-1.0239502813,0.1237155657,-0.8797696703,-0.2252160395,0.5360025238,0.6806170175,-0.4981703271,-0.8264041763,0.9128590879,0.1740951813,0.4599741931,0.5991608163,0.3391858499,-0.071019993,0.2565703613,-0.6465244799,-0.0770180103,-0.5586894528,1.0251154994,0.9149077983,-1.2408649889,-0.3131071993,-0.6799559272,0.5633589069,-0.8321831932,0.1322031258,-0.9300628563,0.2909113122,-0.6356563605,-0.4207549208,-0.4568904565,-0.5420958489,0.4720315971,0.7856783389,-0.8580457719,0.629753841,-0.9947698137,-0.4110590869,0.6605504792,0.3473462574,-0.2448100804,0.6692481154,-0.4437318428,0.7406767946,-0.6944165119,-1.3683931016,-0.2061337178,-0.5417415209,-0.9924269181,0.4499805187,0.8161760951,0.0690745959,0.1195718764,0.2646870569,-0.4374722822,-0.4782450318,0.112406888,-0.2275749029,-0.9370493488,0.3799630004,-0.7034097299,-0.5789205794,-0.037575741,-1.0198711866,0.2570872945,-0.9063293365,-0.1010087762,0.2281897743,0.1369510133,0.7965331403,1.0085170562,-0.2808883254,-0.2071299259,0.8410220951,0.4880781759,0.8284189168,0.6875092447,0.2998515798,0.605469072,0.6469711225,-0.1167233646,0.4970714809,0.9568499085,0.1832484687,-0.063194246,-0.86714189,0.3495155916,0.7193666005,0.4640644002,0.5517831938,-0.0767118845,0.9113035195,0.0965785029,0.377455248,-0.2199020058,-0.4535895328,-0.2801239668,-0.1791377527,-0.0178840528,-0.347578186,0.1043424276,-0.3074153327,0.863950066,-0.6015679937,0.1189269972,0.3325408702,0.78338144,0.2344440903,-0.2469591716,-0.7378685822,-0.6574213489,0.0052920848,-0.1288949375,-0.2644812002,-0.0052533402,0.8967111028,0.3242970539,-0.8274325381,-0.385075929,0.1414867632,-0.7835960636,0.722911199,0.1911843556,0.3660295833,0.4052478152,0.6088411193,0.4374902717,-0.7714958822,-0.388818059,0.5068259583,-0.4697672064,-0.3794454585,-0.2108811571,-0.8409332348,-0.5029103098,-1.1446838874,0.0029756634,-0.3592954963,0.3602953223,0.2562861446,-0.2278354988,0.3917412915,0.2962391098,-0.3907398671,-0.3880488523,0.8443182793,0.2077272175,0.2924110606,-0.0342126055,0.321804519,0.0272240998,-0.5432321572,0.1001356099,-0.7072056971,0.3260112472,0.6056724818,0.7012866475,0.7107956158,0.4688377667,-0.632786661,-0.0447896216,-0.8089857423,-0.509588169,-0.4104102638,0.3936329309,-1.5825104289,-0.749633071,-0.9132577531,-0.3594383762,-0.018848261,0.7133882238,-0.9421673456,0.9884366349,-0.6491636915,0.5893446426,0.3730129812,-0.3604974468,-0.3758234746,-0.9063384389,0.5796730713,0.4643092319,-0.8702693693,0.3893189233,0.2992554639,-0.6372648384,-0.5898350766,-0.1753789593,0.9480934586,-0.76300749,-0.8264401394,-0.1180014751,-0.3890816176,0.4112068919,0.3965070504,-0.2725250606,0.28646755,-0.3380262827,-0.0539579202,-0.6688057626,-0.814559527,-0.3831172466,0.669308449,-0.4796774144,-0.6886596026,-0.7632104186,-0.7665053071,0.2004448336,0.225197246,-0.8466542639,-0.0335856175,0.4681085939,-0.5350355603,0.7233352463,0.4260314493,-0.6763351216,0.1137643072,-0.0910796203,-0.4907471568,0.7157957222,0.8932252844,-0.2081321317,0.7913400611,-0.938461233,0.2714167065,0.5731420817,-0.3328046896,-0.2827343324,0.323039937,0.2298835561,0.7474605979,0.320837493,-0.2218548051,0.9998591085,-0.4722481888,0.4632906897,1.0017822697,1.0407113547,0.5182514285,-0.9994379783,-0.3874605687,-0.0436681904,0.6697110875,-0.0586981995,0.7748634341,-0.0491763485,-0.010693563,-0.4054949399,-0.2207290741,-0.2227724936,-0.9382059284,0.5643654888,-0.6868899428,1.0369727304,-0.7663211577,-0.6741044319,0.5442266291,-0.214585193,-0.106938903,-0.7813027807,-0.1358352581,-0.2078283245,-1.1978477084,0.2590337543,0.1334331179,0.1653907967,-0.8217507283,-0.0305782341,-0.0842581562,-0.2961915495,0.6092766393,-0.1593958049,-0.8636970859,-0.1154723892,0.0485927965,-0.3067371572,0.3002892704,0.0651881005,0.7900434754,0.5211746595,0.5951045869,-0.1271908273,0.97549094,0.6009084918,0.286326487,-0.6651649756,0.3080540174,0.8492909206,-1.0074757619,0.5286968161,-0.1963554332,-1.1221493843,0.7483179037,0.1584265406,-0.3054001,-0.7491586899,0.4266985161,0.3091851614,-0.5791423349,-0.1898942365,0.7648169463,0.4101778933,0.8903150571,-0.1754837067,-0.0616375364,0.6852163758,-0.5635817188,-0.1600187091,0.474588802,-0.0917797951,-0.693193633,-0.5180848183,-0.6543829064,0.6935471694,-0.5053144234,-0.0584907076,0.8910020495,-0.5875814866,0.6940277524,0.3833448729,0.6479439157,-0.5908656742,-0.6427290584,0.321813732,0.2557957356,0.4315697021,-0.7153840977,1.0837684124,0.482022285,-0.5697652126,0.2066143496,0.2037015827,0.2743867189,0.2741087443,0.280389192,0.0515423242,0.6485916006,-0.7901222583,0.1725799377,-0.0694672949,-0.4534850659,0.8989400724,0.1915760859,0.4932415257,0.250402936,0.3313278079,-0.1155003689,0.288081132,0.2183208123,-0.4130927218,-0.8055835215,0.3788388078,-0.8102798192,-0.6396977891,0.7827574623,-0.9002365902,-0.7655958188,-0.3070389639,-0.0662788414,0.2217400366,-0.3864449484,-0.3850155375,0.3747363177,0.0385594196,0.3220808451,-0.1842818351,0.1079258228,0.5282480419,-0.508928539,-0.6030713157,-0.7066660749,0.0090859282,-0.1041518194,-0.3795238397,-2.0892414518,0.2357867002,-1.644120894,0.1882280889,-0.3802474188,0.9451229454,-0.5209103948,-0.5537464884,0.6785851183,0.3783764166,0.3876027733,-1.3362210394,0.9212060004,0.1747036086,-0.2444566741,-0.2517096648,-0.1075821077,-0.3699902114,-1.174765776,0.4456958266,0.363491869,-0.6715820445,0.0994359469,-0.6748629745,0.1807295963,-0.9334627355,-0.6486220104,-1.0574301318,0.9378896688,0.1815286648,-0.0338173748,0.6477143981,-0.61336338,-0.7602389946,-0.6713851783,-0.1012702141,0.3252151852,-0.4184626736,-0.020428334,-1.5500956398,-0.4718428064,-0.1812892048,0.2247065763,0.7009538853,-0.2270351895,0.7022625074,-1.4239437881,0.0556561979,-0.6192097338,-0.5356572091,0.2329833739,0.3694630639,-0.6342538259,0.6910800248,-0.2322512799,0.2168266311,-0.8192105315,0.1286963839,-0.3710949064,0.6709557116,0.0074616984,-0.7449217187,0.3412002466,0.4311328527,-0.8860837556,-0.8537204201,-0.8413110873,-0.2261562314,0.2953122382,0.4524096404,0.5631540908,0.108418862,-2.7033901123,-0.4882889601,0.1200565083,0.901547338,-0.8542842087,-0.8970385859,0.4914608565,-0.21457864,0.7432277973,-0.6111691052,0.2012761933,-0.7202254522,0.833391835,0.7469375429,-1.0015293238,-0.4632992972,0.0093543803,-0.3032957224,-0.4088137223,-0.0387477208,-0.0045950583,-0.4960337419,0.3534813619,-0.0949147984,-0.5598653372,0.3384882073,0.1951517865,-0.4072526546,-0.1046166268,-1.1240178618,0.2015872571,0.3848722503,0.5705272406,-0.6921869294,-0.0869163559,0.4578583406,-0.9563827112,-0.6291088184,-0.9607186163,0.4531115943,-0.2205744172,0.9797822687,-0.2185721896,-0.7019288501,-0.3285525322,0.9390224171,0.6381860191,-0.9568964121,-0.0405202487,-0.264128573,-0.5967068219,0.4461957164,0.3075003872,-0.8888964905,-0.5701423933,-0.8401779093,-0.3365948115,0.5520154871,-0.0502149733,0.1810206408,0.9480585437
   0.558129898,0.2810796406,0.6497316385,0.8497520127,0.7004052613,1.6378268548,-0.1521709844,0.9578004401,0.9410646957,-0.053973599,-0.0791860667,0.320312599,0.9643967009,0.4163753914,0.3241708649,0.3075425137,-0.0571122871,-0.7827737209,-1.0689406958,-0.6426958055,1.3146098581,-0.272660832,0.4019191636,-0.0724526313,-0.8810801662,0.4967865048,0.0179346359,0.8778551942,0.8596721811,-0.7140827438,-0.3730167081,-0.2452796708,0.7247367429,-0.9654400227,-0.3713039965,0.4098072789,-0.208394222,-0.2782747178,-0.125013019,-0.5182597719,-0.3430051955,-1.0329031147,0.7934031399,-0.3917931854,-0.8436826093,-0.2294104815,-0.0104519666,-0.6866691354,0.5252069693,-0.1741718157,-0.6317837382,-0.3582111483,0.7941208445,-0.3767105795,0.2232258984,-0.0348874956,0.9055748258,-0.4816902468,0.6904652359,-0.2984968456,0.4720866541,-0.4370405606,0.3990658776,0.6075743864,0.8194116803,0.5069587173,-1.1181184755,0.4249475911,-0.0734710585,-0.0622144142,0.3270990228,-0.5222695064,-0.6795760395,-0.8219101296,0.7636700863,0.2398315967,0.865897582,-0.3440421483,-0.5148549111,-0.8439420952,0.8688360445,-0.4058641772,0.0898024894,-0.2221277376,0.5311684928,0.2773140731,-0.8007181683,0.2578122809,-0.8858990337,-0.1110185389,0.626282743,0.5565820131,-0.6320700051,-0.5168567999,0.1795413306,-0.3239377758,-1.0511534241,-0.0427757783,-0.6984101302,-0.9071657755,-0.5001050685,-0.7876338724,0.4540075755,0.0327790284,-0.402070944,-0.3157097418,-0.1513881847,0.0252416365,0.0005989128,-0.2766063753,1.1541813404,-0.602123538,-0.6841984501,0.5830201376,0.1935762269,-0.8065661393,-0.8104477132,0.68437627,1.5266454636,-0.433614535,0.3272976548,-0.5817369523,0.4829131083,-0.9875146723,0.8232916156,0.1153261297,0.5403771621,0.7195198918,0.1599426259,-0.2304858725,-0.0537244999,-0.9217759505,0.2519297373,-0.299700689,-0.4992790283,0.4371400738,0.1154524972,-0.2091377677,-0.376231372,-0.6924638223,-0.3331107737,0.1672374624,-0.1379674937,0.4536085725,0.1617372536,-0.6431385872,0.4304976987,0.4921392544,0.275742422,0.2944709865,-0.0500314547,-0.3174421383,-1.3656838157,-0.6677368266,-0.133321337,-0.6082990977,-0.5894401666,-0.5603757535,0.4836674236,0.0755605301,-0.3650338624,-0.4835029878,0.8135208343,-0.6050377856,-0.5621389507,0.3867469755,0.3244057697,-0.7131096505,-0.7503442488,0.2292112263,0.3620835047,0.9505719803,-0.8823841436,0.6318774379,0.120407569,-0.205480543,0.3675883357,-0.1338522259,-0.3623041913,0.3730297566,-0.2997013393,0.5182425878,-0.2447196352,-0.0342754206,-0.9818935293,0.8841307474,-0.4302849066,0.9729883777,-0.1337169304,-0.2978228488,0.1179940609,0.4497768945,0.1908022532,0.538070259,-0.1331540305,0.4435881239,0.3919751514,-0.1421644626,-0.6426308278,0.8725782235,0.5901908823,0.4594529247,-0.1608050292,0.0421720515,0.551544471,0.545720476,-0.7923734133,-0.1506302775,0.1067436923,0.0806279949,-0.3135418594,0.7437204484,-0.4281690108,-0.2609498471,-0.5167192153,1.5011495745,-0.0670114801,0.6906312407,-0.0140651726,-0.3646919238,0.4567741135,0.4174359033,0.4124822258,0.289319852,0.2070864481,-0.1231192865,1.0112094486,-0.4897142353,-0.3408613405,-0.4505049382,0.1651123275,0.9614903255,-0.1874600685,-0.4668523045,0.121491825,-0.46409076,-0.7834508771,0.0498984536,0.9532646675,-0.6439220529,0.2675860155,-0.1598022566,-0.9634654105,-0.2272636362,0.3902821108,0.5457960591,-0.1119376467,-1.0712185075,0.6570947274,0.6870678444,0.003459395,-0.3338657912,0.052975765,-0.7720765264,-0.730784319,0.6180348597,-0.1620916534,-0.0843656713,-0.8175666478,0.6331595741,0.0657638601,0.0325002608,-0.2815117779,0.5151731175,-0.3152289666,0.9808117354,-0.9465646292,-0.5244141787,-0.5789673476,-0.8533235465,-0.1502840776,-0.087125709,0.6584391753,-0.3785604029,-0.7059806537,-0.3960880623,0.1182916629,0.832787234,0.2105925598,0.9642202976,0.8396045024,-0.7711610285,0.9905378985,-0.7150672342,-0.0491884455,0.1716524055,-0.4012970139,0.3645342093,0.5327868807,-0.7356522498,-0.9106108323,0.2912692235,0.6693062933,-0.1410457216,-0.340901171,-0.3544089973,0.2386438848,0.1120072784,-0.7506741451,-0.1983937717,0.1801434355,0.3716210387,0.0337275021,0.3255146439,-0.211602969,-0.1414393155,0.7043177054,0.221821779,0.8444196067,-0.0725549117,0.4535559703,0.7613748725,-0.4373084089,-0.7807510525,-1.2192508262,0.9950625418,-0.2281191739,0.5666705586,-0.7504642822,0.4335125148,0.0444557243,-0.619155007,-0.1701639827,0.415603157,0.3493638621,0.4988495028,-0.2231042274,-0.3779049832,0.6828323235,0.5627880355,0.7867280158,1.5114166484,0.4767839238,-0.7374699564,0.1747245624,-0.8681696125,-0.4508922292,-0.5231948294,-0.00661887,0.9108217728,-0.9727505426,0.2626348498,0.3374718459,0.0876648819,0.1375188336,0.4298562435,-0.0155444056,0.3348583262,-0.7912317883,-0.122571579,-0.5923498715,-0.5917005049,0.1515871538,0.7711520037,0.1804130734,0.2000505127,0.4015904842,-0.2835453435,-0.1522887086,0.2902820002,-1.0261702982,-0.1847530477,-0.4243377943,0.8225730242,0.4080684196,0.7206426316,0.2793503101,-0.2521007412,-0.9654995064,-0.0394208371,-0.1036425446,-0.1710499976,-0.5266397598,0.2331637668,1.0007206564,-0.3722492464,-0.2377416577,-0.1807832438,0.5995905064,-0.7688892918,-0.100596343,0.732022468,-0.8868067586,-0.5230925537,0.4952474628,-0.3879714296,0.9329529981,-0.7456729285,0.7564277282,0.3378002989,0.1840020351,0.2061075037,-0.0572653232,0.145307239,-0.6186714017,-0.548857308,-0.9917665293,-0.1905312003,-0.3059454055,0.1859010811,0.4280002196,-1.0672687535,0.0019389895,0.1833354478,-0.8301600482,-0.2548651649,-0.7809903611,0.9911052279,-0.7288029965,0.405596609,-0.5314663227,0.4878139275,0.8288197289,0.1346496034,-0.866032068,-0.7469279259,-0.9265962376,0.6047101026,0.4422130388,0.5629599703,-0.5680006437,-0.175923893,-0.0848595723,0.9746583587,-0.6259070083,-0.4742578663,0.1029306019,0.353066309,-0.3863990536,0.3207827828,0.2813831697,-0.3191797074,0.445384778,0.6676957424,0.5182433485,-0.4922382281,0.1784593452,-0.1692721236,-0.9138097616,0.1158229345,-0.1366271027,0.9373863473,-0.0064023644,-0.1361252941,0.3005921104,0.7762495624,-0.530130644,-0.534793421,0.8830899172,-0.561307539,-0.1251568376,-0.2134021367,-0.1827754978,0.7785032144,-0.5851422956,0.5378441995,-0.0924971883,0.3882417961,0.9830664929,-0.4118914644,0.5599790848,0.6196811846,0.1378031248,0.3561362043,0.561564202,-0.8574099677,-0.3390274727,0.7474254208,-0.8781323786,0.0041435015,-0.4941863615,0.0215457344,0.6079877125,0.9874200759,0.8110239827,-0.7791914475,-0.4394636292,-0.2677710989,0.5888102319,-0.1515548218,-0.4688909514,0.2302120032,-0.6906037178,0.477731997,0.8139035801,-0.0604929138,0.5564216947,-0.0220923066,-0.5628308853,-0.2240057195,-0.312744982,0.9638194075,-0.0196715807,-0.8355041483,0.838647866,-0.7748052901,0.3330504954,-0.9358409813,-0.1802261259,0.2326386568,-0.7286204962,-0.0243309895,-0.5568977518,0.0991902544,-0.3914233876,0.2414147509,-0.7598705091,0.0020400213,-0.3018955508,0.5637998412,0.4586007591,-0.4561424939,-0.4799131643,0.0866695794,0.7037854271,-0.1370939179,0.6149327238,0.2729913087,0.3104313202,1.2001607346,0.6548896314,-1.4233783815,0.3028437317,0.1545469478,0.0844182413,-0.1110716495,0.9239675833,-0.1200725837,0.6177441921,0.3300746875,0.0399828682,0.2435412868,-0.5112110845,0.726614027,0.8813672022,-0.5466547581,-0.6288316461,-0.4206469487,0.670757849,0.357407133,-0.8644372465,0.6207132664,0.370331062,-0.5778604852,0.6918997837,0.9017999506,0.5840559746,-0.8711489913,0.7873720201,-0.5938900757,-0.3629938369,-0.2470023861,0.9534944618,-0.6176714945,-0.1980673339,0.3384433737,1.2198298581,0.5020424914,-0.4809696041,0.0884935126,-0.9231388769,-0.0028758406,0.6334107731,-0.2346381748,0.0961670001,0.5706265619,-0.0921752527,-0.3351628753,-0.419769624,-0.6402861039,-0.2320580233,-0.5102885363,-0.0953294155,-0.1005864868,-0.2207067843,0.1524158273,0.0341208877,-0.426637874,0.2655425687,0.6018856071,0.2715152914,-0.0595569109,-1.0021520544,0.5874407046,0.848872407,0.5968456858,-0.7657430314,-0.7422810082,-0.4346099661,-0.1823853669,0.3534478773,-0.4681832298,0.1062985824,0.8107190576,-0.6468429111,0.3152841846,-0.0440579655,-0.4374289905,0.4522867711,0.9259006264,-0.2686546716,-0.1703743398,0.416162237,0.6675908887,0.6261409093,0.8153959939,1.4647284702,1.8387316442,0.1584630429,0.4335549895,0.3767186453,-0.1106050184,-0.9627981665,0.1070776207,-0.8114896038,0.459518888,0.5524807166,0.500708723,-0.0383326934,-0.9855383563,0.2031178438,0.6171903843,-0.1062168174,0.2094588323,-0.2616512097,0.3753463281,0.3607313384,-1.0249246489,-0.8215825895,-0.2531445779,-0.369934329,0.6011133428,-0.6206475859,0.0094999712,-0.069816916,-0.5883936986,0.2603365128,-0.2732663646,-0.4464067473,0.3549014311,-0.6324266131,-0.4759493655,0.4639460699,0.7300596259,0.8371102162,-0.5494556776,-0.7613188075,0.66265957,-0.7667681181,0.7916849672,-0.8517997381,0.3770456218,0.4982838556,0.2993871613,-0.7400200357,-0.7914114769,0.6639247292,-0.1987146678,-0.0638345575,-0.251312426,-0.3277409406,-0.3530192257,-0.5227826606,0.1189721697,0.7469773694,-0.8711941638,-1.1566594968,-0.3001673635,-0.7841570395,0.3675280327,0.6243637228,-0.1939893198,0.4094940556,0.7589719584,0.8559967087,-0.2933440768,-0.1666815262,-0.3344529567,-1.0469472927,-0.088522044,0.3032937363,-0.9356754657,-0.4334735073,-0.6794131015,0.427009485,0.0053849206,0.3001126389,-0.3659963026,-0.7645786228,-0.4586253743,-0.4301346904,-0.1145633027,-0.7905831734,0.8717964829,-0.0730993429,-0.9131180955,-0.0114584789,-0.7887987353,0.6262228217,0.8515278992,0.5055468093,0.4738373482,-0.2272901928,0.5767280719,0.2135424941,0.3017586686,0.3616824535,0.5251774768,-0.8491794489,-0.9938805993,0.3261868616,-0.7020796031,0.4286037989,-0.9469699765,-0.354807865,0.2742791118,-1.0413059419,0.2403793916,-0.228581685,-0.6122961759,-0.4434585689,-0.9087008165,-0.1305100096,-0.6534234463,-0.1668937817,-0.2073643536,-0.356067398,-0.0219933405,-0.5230173722,-0.0190512475,1.0008678218,0.616135682,-0.6933425083,-0.7980275469,-0.8730768144,0.2449576929,0.1576386097,-0.9001237773,-0.0746165506,-0.3162489446,0.5000097282,0.1325233263,-0.0671426273,-0.7436108427,0.7719665422,-0.7018815696,-0.9935664094,-0.0283602031,-0.1071934128,-0.8888235662,0.4954704531,0.1992254306,0.4257183994,-0.4369735248,-0.1442403964,-0.5469362202,0.1636273846,0.8381137701,0.3421006347,0.2921674657,-0.3122726436,-0.1430624971,-0.1607794144,-0.7115828557,0.2622405512,0.447410536,-0.2279376418,0.4102361194,0.0564351115,-0.3869626609,0.1224009931,-1.0616490065,0.6161429453,-0.047986229,-0.5580682418,1.2289638126,0.6567370718,-0.7070926835,0.8940250244,-0.0283140239,0.142817106,0.1800722006,0.5311567788,-0.0470375836,0.2573935749,-0.643633038,0.932125075,0.6132969122,0.0029639862,-0.9210990956,-0.7243115085,0.1747515026,0.3855218365,-0.8288082931,-0.320003096,-0.0478395731,-0.7641007157,0.7235000289,0.3322135937,0.1144861549,0.0657362206,-1.3134744123,-0.725232732,-0.566808937,-0.605586342,0.7108479145,-0.7653169561,0.2117770956,-0.1383141842,0.3309063905,0.7947443793,-0.7779105119,-0.6395892355,-0.6815825859,0.3341324687,-0.7985397445,-0.7949082809,0.6416772847,1.0686171268,-0.9350983647,-1.029451564,0.0144304419,-0.8802194429,0.1315974665,0.6904383933,-0.5111011335,-0.1566907337,0.7486022025,-0.1220282313,-0.3353342934,-0.6764331777,0.0430892532,0.2760165228,0.287241706,-0.7504525863,0.8362227379,-0.3171778949,-0.7851235084,0.0116561353,0.6040050144,0.0565930242,0.4480025674,0.6872440449,1.1661186058,0.8967286789,0.8509373878,0.2008391032,-0.4729791757,-0.7610231267,-0.5975424114,0.3525693316,-0.6947148742,-0.5903791137,0.3881894553,-0.4653555009,-0.0358297943,0.856589725,0.3623951154,0.1475194818,0.8295130262,-0.1763049839,-0.3601857,-0.565483182,0.3694171199,-0.4350610731,0.3691594909,-0.6813879047,-0.2837127175,-0.5305765906,0.7114672904,-0.7669116466,-0.1432388393,0.7112590689,0.4244989588,-0.5064823832,-1.1322548729,-0.6100602491,0.7764283732,-0.7942131004,-0.6385127681,-0.3489967842,0.3315821504,-0.327459581,-0.1796809155,-0.8071733773,0.0969072192,0.9185713766,-0.0542367733,1.2298523079,-0.6123231641,0.1593001715,-0.757097082,-1.1525632956,0.2489204066,-0.0719241015,-0.53921821,-0.3237920738,-0.7695340945,-0.0054070635,-1.2019424686,0.7138250633,0.3882495755,1.0444298803,0.406492939,-0.0570503304,-0.5250330864,-0.0631578758,-0.3428738504,-0.2435826011,0.2490409026,0.2308193959,0.3867090768,0.7517402219,-0.0834908095,-0.1445746829,0.2661036289,-0.1591177223,1.638101647,-0.0139112631,-0.6370696536,0.5115142076,0.9485343967,0.1219440858,-0.2657155154,-0.5829730728,-0.1315989176,-0.8153142422,-0.4338414513,0.6515923531,-0.3320823064,0.9502184574,0.5090671904,0.8488843917,0.0747507453,0.1904264548,-0.2098437119,0.4943052682,0.7481222492,-0.4198153487,-0.3375417488,0.6592181871,0.2612566597,0.2789045963,0.2561391423,0.3913262488,0.2605795847,0.396152205,-0.0183323399,0.9167853478,-0.7743001146,-0.1874231952,0.413627401,0.1642487566,-0.3778522625,-0.1976095127,-0.9517149534,0.8676799353,-0.9604188894,-1.0387733816,-0.2913636873,-0.6123683199,0.4289873337,-0.2979739577,-0.6179826261,-0.6147757737,0.0551150703,-0.7853350087,-0.1455678788,-0.0300161987,-0.5199819081,0.5894385389,0.7516521325,-0.7354775708,-0.1383847527,0.9549348739,-0.4141745104,0.8387836897,0.3122027274,-0.6020577362,0.4119452364,-0.3932254337,0.9037438937,-0.8662181265,-0.1985016697,0.4816074795,0.2881117975,0.1256357036,0.1937094549,0.5677841237,0.1676984624,0.8363833973,0.2221405448,0.4948348177,0.7557495695,-0.6854199165,-0.3682975099,0.7134902848,0.7514799052,-0.2207250839,0.6079384341,-0.7665393288,0.0021793956,0.609323159,-0.0329942376,-0.8408544887,0.5857977844,0.7392415425,-0.526810627,1.0815818694,-0.160842555,-0.0580843963,-0.3566899878,0.8361102057,0.5637606587,0.1410049864,-0.3369289725,0.7119199596,0.5951257653,-0.5023166175,0.6575091373,0.8891419953,0.8691980302,0.069640241,0.2019909481,-0.2257981069,0.2424402955,-0.4544614093,-0.4555652394,0.3130011454,-0.158291483,0.8528689257,0.1546367333,-0.2139326799,-0.0059813908,0.7707553744,-0.6310705279,0.5052876446,0.1908580842,0.1479091995,-0.4524457199,0.6091588778,-0.0250625247,-1.0289982237,0.2794225579,0.4655848576,-0.0491956871,0.9015812811,0.2222635696,-0.2383247194,0.4924537298,-0.0611097345,0.7092277901,-0.1310512984,0.7273614646,0.280317987,0.0166025014,0.7838409046,-0.5012355648,-0.5120239264,0.0844779604,-0.3540431644,0.7719688683,-0.3242405967,-0.2277940346,-0.7839370955,-0.4122435404,0.6170337872,0.5087537475,0.9699592565,0.8949339159,-0.4942337543,-0.9490626934,0.3290853451,-0.6429777346,0.9538768788,-0.9374524997,-0.3782509308,0.1341517154,0.2819728699,0.7025710501,0.9844077051,-0.0932791426,0.1646007132,0.3781714711,-0.1868087955,-0.3267377287,-0.1823903169,-0.8059106574,-0.8296415069,0.4232301612,-0.5825974287,0.4086875524,-0.6329299286,-0.8817085772,0.5992514451,-0.5175372543,0.7908370731,-0.5942636959,0.4997101462,0.8514906279,-0.6418698893,0.2240840355,-0.5396633238,-0.618549801,0.9975471024,-1.011931986,-1.0075443312,0.3955694769,-0.7814792217,-0.5351532529,-0.7390653237,0.3917929007,1.1530696479,0.3429713,0.4375666022,-0.3797230302,-0.5692699165,0.2900034527,0.7719334644,-0.7128363353,0.0857841016,-0.7894972438,0.423202835,-0.7492371671,0.2606775586,-0.3773052069,0.9426306284,-0.4829000959,-0.9888733242,-0.1338349566,-0.8610125868,-0.6805847885,-0.7922261428,-0.3510242853,-0.9048463305,0.4211797453,-0.8207104591,0.7039549401,0.0700576255,0.2807535832,-0.5794602212,-0.8170403139,-0.4243254247,0.0895034559,-0.2739012303,0.2658526536,-0.1955569611,0.2339492243,-0.6876402172,-0.3939473514,0.5898396909,-0.7880482709,-0.0265466889,-0.2187007302,-0.7869525649,-0.5030732392,0.0729934854,-0.252918334,0.0263752709,0.8217139722,0.0348758285,-0.3455799408,-0.7655123651,-0.8872124262,-0.0250135404,0.2518872235,0.7936742977,-0.4725363869,-0.1002051903,-0.6631405161,-0.551581812,-0.6725926952,0.4554681399,0.866239632,0.9381023645,0.0348676062,-0.1679333646,-0.4453465672,-0.2305248775,-0.0915563694,-0.3125181212,-0.6001434285,0.422739856,0.562768631,-0.5287559344,-0.4044360212,-0.5176988803,-0.808728723,-0.8889973886,0.645250118,0.4202962795,0.1956514215,0.4821831386,0.3758887829,-0.5594791202,0.425700017,0.643250075,0.8811376595,0.8303891093,0.422141339,0.6921119355,1.4436843698,-0.7935105756,0.8775814916,0.3343933117,-0.8297845649,0.6096259157,-0.0557827381,-0.9330229117,0.0314818322,-0.4488163858,0.3341334241,0.2406441971,-0.2728000624,-0.9826260941,-0.3788468669,0.4534557916,0.5992326257,-0.8645661641,-0.9463295935,0.4752804629,0.700890927,-0.8586781459,0.6405927764,0.1513527877,-0.3764827446,0.967081057,-0.2394816679,-1.4286543126,-0.6025281173,0.2293479997,-0.4645143948,0.075873067,0.1129171622,0.5962987147,0.8262828079,0.0252918553,0.3310455609,-0.3069257056,0.0394740287,0.3613168454,0.7503351197,-0.7364880763,0.6511338584,0.8048617493,0.4026350477,0.5825060449,0.363288831,-0.8200287768,-0.5587588998,0.6455549951,0.3565019914,-0.8429715163,-0.5136608404,0.659044753,0.1603816477,-0.2837985829,-0.47330245,-0.6024023854,1.081946247,0.8839988252,-0.5023899142,-0.2289415949,-0.5440130333,0.4454686829,0.0905963006,-0.5285663525,-0.4767716723,-0.2840048217,0.0192465946,-0.6010262051,-0.3001790692,0.9219093025,0.9626711593,-0.6861084088,-0.9171722878,0.0626768035,-0.3524497667,-0.1063366361,-0.4107163565,-0.0690509411,-0.2541681076,-0.0589488729,0.34130457,0.0624616243,0.7882275151,0.526581183,0.430219973,0.5695872567,-0.5439388765,0.3102348705,0.64010169,-0.6260759283,0.7462360912,-0.4061382087,0.0712133476,0.3887404883,-0.907348969,0.5505631954,0.2137143425,-0.8781442859,-0.0048805231,-0.7685059886,0.4783344534,-0.4171118032,-0.7101593284,0.0973950517,0.4496670037,0.2459404674,0.8701340331,0.2519820579,0.3111692648,-0.3641351655,-0.9360365177,0.1645681303,0.5489076106,-0.9873099693,-0.9468408178,-0.1068657782,-0.6358785244,0.8714883964,0.7205708959,-0.028297996,-0.5842295471,-0.9193684445,0.6426111201,0.0057976442,-0.3439575432,0.1374089628,-0.0335589902,0.3723405043,-0.7473747093,-0.21941739,-0.515191874,-0.5074646058,-0.1328741621,-0.1497541715,0.6023544441,0.705506446,0.145603393,-0.6446516953,0.7116745562,-0.6532180991,-0.3233981031,0.5084440567,-0.9755325317,0.5477800662,0.2550217682,-0.9381200396,-0.3309737139,0.8752335259,-0.9579215728,0.4255892037,0.74682733,0.5442795414,0.7126075169,-0.5897356457,0.5956915701,0.4892078686,0.0208770347,0.4352545135,-0.069107603,0.4170447271,-0.645503846,-0.9808218104,0.5966400155,0.797978427,0.5794840841,-1.3519992727,-0.2098241706,0.4830588638,-0.2195975,0.660850827,-0.0224307156,-0.182704549,0.4684789916,-0.0672726175,-0.8069795325,-0.2691910401,0.6364023689,-0.0045255581,0.604210744,0.9425164799,0.8182527882,0.4964742762,0.3500386018,-0.8925333033,0.9725339828,0.1346906068,-0.5713927109,0.9829244254,0.1933109655,0.8710699822,0.1212631999,0.0608785218,-0.2795152453,0.7979817379,0.5721261515,-0.5522910877,0.7997637503,-1.1287273942,0.4231581034,0.1395683506,-0.5790682131,-0.821588392,0.3458011206,-0.7233409297,-0.3984374327,0.2477548921,0.4533628097,0.0806736743,0.1726521361,-0.6947221179,0.3195321052,-0.7526358314,0.2239843614,0.2597781572,-0.3268624663,0.3291475169,-0.4338831066,-0.3276173992,-0.1259075149,0.8123936883,0.8009149012,-0.1840211634,0.7222961606,0.3286474275,0.0443648447,-0.6302375814,-0.4851321046,-0.122133882,-0.4694325452,-0.6810836031,0.1466130089,-0.2023324573,-0.7602222437,0.6426228034,-0.9218890309,0.2739087039,-0.0687329211,-0.0467804114,0.4836802209,-0.4111782212,1.0053303688,-0.1791083224,0.67776245,0.3840606407,0.1974799725,-0.6633597432,0.2659159987,0.07824425,-0.43022764,0.1641187295,0.8784723437,-0.4259939895,-0.3573755439,0.5265885134,0.274059511,-0.1374911268,0.1492697932,-0.5740805596,0.2159508054,0.3360770095,-0.1209250688,0.5589386352,0.8306799757,-0.0569086184,0.0391830102,1.1182989365,0.5270770922,-0.1354597027,-0.0986597879,-0.2523310736,0.6920576606,0.2244438249,0.7469088193,0.2845080643,-0.9429672943,-0.8813860582,-0.6930395664,0.0578504478,0.3129036205,1.166887854,-0.2016252452,0.9287451044,-0.3081008806,0.324548383,-0.2139534191,-0.0258120075,0.0071557341,0.3128495063,0.9569806048,0.4823410185,-0.5701662283,-0.5108021628,0.7483409974,0.2316943135,0.9530907966,-0.0733403172,0.0568134631,-0.3757624597,-0.7938122104,0.2684918335,0.6123190685,0.3922864297,0.6589285671,-0.1284853347,-0.0562303554,-0.0178838498,-0.8094890767,-0.3428537467,-0.173611977,-0.0521223867,-0.5625808633,0.1302959216,-0.7405250143,0.4841779419,-0.8764196255,-0.3735800304,-0.4251760778,0.7045045795,0.2537522496,-0.1068624053,-0.2147339032,0.4446338935,-0.1626587943,-0.1431163848,0.5040786289,0.5813048009,-0.2840953064,0.2841520692,-0.3148753587,0.5780894909,0.3753240544,-0.6136926432,0.0696454082,0.8114417873,0.6422010854,0.0140708264,-0.9725323535,0.29244242,-0.118097881,-0.2123494427,0.2102077371,-0.4364651802,-0.6218596836,0.8613464689,-0.618664976,-0.1994675353,0.6914491396,-0.9130833241,0.2330377021,-0.4091760421,0.6279066153,-0.2124996902,1.0970548929,0.0574377459,0.2217776169,-0.2926658527,-0.1345824261,0.3914307339,0.390063254,0.5881179085,0.6332580552,-0.6113308737,0.0224281235,0.3732863367,-0.9442041869,-0.5457116858,-1.0761439033,-0.6284451991,-0.4515142219,-0.5784365322,-0.4429839809,-0.342073846,0.8246638565,0.4504689407,-0.1037155704,0.4361953967,0.4399417249,0.8497503986,0.3318380195,-0.6694675738,0.3196448531,0.4100540412,-0.6645973315,-0.0120467987,-0.1444425041,-0.7329504583,0.7366368809,0.6438883718,0.3748385947,0.1650848459,-0.5541847313,-0.4811872903,0.1589895912,-0.4361104296,-0.4263828177,1.0775810672,-0.0294006989,-0.1347980711,0.4962386139,-0.1944381514,0.089999276,0.0256094889,-0.1148264929,0.2742127096,-0.5903099969,-1.1427528073,-1.0603449076,0.091869368,0.6202578738,-0.4964208725,0.6699669587,-0.3849427464,0.3576139457,-0.4157607159,-0.2253838802,-0.2751920923,0.3737143633,0.0586194951,-0.3661338657,-0.9702258277,-0.6161251295,0.3054975497,-0.2864035697,-1.0207707148,-0.423430073,-0.3455608057,0.943124076,-0.6936810389,0.4261590616,0.6992407524,-0.104603502,-0.4924107245,0.2214565139,0.6799719371,-0.8386960948,-0.4816062503,-0.471152657,0.3667276516,0.5507964872,0.7247406473,0.2036230072,-1.760528091,0.1584044121,0.5327633234,-0.4998545303,0.2061821815,-0.6761830503,0.9217833772,-0.7646059106,-0.0390033898,0.7729986939,-0.9507770001,-0.4533687779,-0.0443068135,1.1971209735,0.5523694123,-0.7401305665,-0.8971137731,-0.1717286976,-0.1989448512,0.8845599743,-0.4863820395,0.4543578709,0.186082076,-0.9024664412,-0.5916647474,0.2734760439,-0.9329372579,0.3390680005,0.7599072526,-0.6128913093,-0.5943740186,0.8445440481,-0.4189501906,0.7398625842,0.7284649093,-0.155322674,-0.0234043894,1.1851617919,-0.5570030156,-0.4570997918,1.2908797069,-0.6031889385,0.1633925733,-0.6598098824,0.4678455902,-0.2511292418,-0.0282111736,0.5442024431,1.3613953312,0.74522586,0.1022789707,0.5101201308,0.337276947,0.9051605954,0.1963764725,0.7037951296,-0.5728847748,0.3960467695,-0.0515177389,0.75907664,-0.7721583926,-0.6018682658,-0.2937412169,-0.2121445442,-0.5074866482,-0.4917894243,-0.1296069602,-0.0072623908,0.1312105465,-0.4780076894,0.8487430188,-0.5372033059,-0.9406224393,-0.3902521857,-0.6356312704,0.630421529,0.6787225911,-0.069471691,0.8477590881,-0.6088409933,0.579005207,-0.7385919633,-0.6630868122,-0.9793623476,-0.8504981104,-0.1488439843,0.9791759064,0.7692210923,-0.9586596207,-0.0315873189,0.3160308963,-0.1996684083,0.4147964923,-0.2962647941,0.3325243868,-0.0845668305,0.7915870766,-0.4616459839,-0.115531956,-0.8011052204,0.0373673354,0.873166211,0.5411209125,-0.011126751,-0.4520320287,0.5393247946,0.9514220784,-0.3298793399,0.6473752735,-0.6950713163,0.6129206164,-0.2357694262,-0.4386856527,-0.8331521774,-0.893972876,-0.7421776017,0.6569267483,-0.6143673944,-0.7034712174,-0.6218310357,0.7439308618,0.5619126616,-0.6089689775,0.4518224113,-0.3947820871,0.8930473201,-0.4653613742,-0.7027055791,0.5581868759,-0.2938358587,0.1708842104,-0.472835014,-0.4006838765,0.6862213405,0.0851704047,-0.772205622,0.9007053748,-0.2578897126,0.3037668498,-0.5255919855,-0.9705181205,-0.5586297029,-0.4556298781,-0.1451269335,-0.6539013417,0.6780826924,-0.9158149738,-0.9075089582,-1.071204575,0.2309369736,0.7705151611,0.4447546251,-0.3672494792,0.4118502348,-0.876231238,-0.4787621167,-0.7275175761,-0.0217433382,-0.1555462493,0.9719420906,-0.0219959036,-0.1881377628,-0.2722946924,0.6117072079,-0.5450431188,0.5956491554,-0.2848280814,0.3124094184,-0.5744476703,0.2479456096,-0.4415197866,0.0612139128,-0.52280075,0.4443421027,-0.8355916776,0.0787955208,1.0960384169,-0.7592192954,-0.1001603659,-0.2489289826,0.0045597806,0.9398070578,-0.1332420041,0.4360573342,0.9213420012,-0.8617019041,0.3575171649,0.8945418192,0.134372819,-0.8965230138,-0.8155528963,-0.4547729985,0.6977055679,0.7096754306,0.5365918782,0.6444187527,0.1383478316,0.9714288067,-0.6142430006,-0.5844477429,-0.5532175257,0.2147784131,0.1024482735,0.6176696388,-0.7443907978,0.4982396193,0.4500965764,0.435238936,0.3073424039,-0.3964511924,0.9134897445,-0.0356348988,-0.2525460661,-0.0893037641,-0.5463071242,0.8793443245,0.1413744927,-0.595768951,-0.21713832,-0.5549748881,-0.3637759368,-0.6031997828,-0.8915309229,0.9141960843,-0.1728727038,-0.9643153593,0.9644626877,-0.3107187424,-0.3266490016,0.4454615644,-0.9947285574,0.2375015021,0.4310784565,-0.731183034,0.765630681,0.5536257265,0.2113661423,0.5566354716,-0.2646854202,0.1724229233,0.2168824819,0.2025301852,-0.006570737,0.2593167676,0.3736058298,0.0002349717,-0.4136032204,0.1244676679,-1.5220868779,0.3931204161,-0.0694363393,0.6199462705,0.8665111787,0.7222178201,-0.7281667463,-0.300610841,-1.3027560482,0.6812511057,-0.2975412675,1.1466491867,0.6415973718,-0.7788827635,0.1687555428,-0.4362596696,-0.0686104746,0.055505593,0.1050984864,0.1218023261,-0.4304554472,0.8169409054,-0.2165597143,0.6525952092,0.1505036285,0.1300663281,-0.5006160841,0.5114748621,0.2507158584,0.2562374714,-0.1351301912,-0.5768912874,-0.480743743,-0.9049226949,0.6274581021,0.6061753722,-0.423099612,-0.548430352,-1.1700806694,0.7303643518,-0.4104926003,0.111079472,0.1521310418,-0.8222606692,0.5442942139,-0.6282891898,-0.7753697063,0.1610261674,0.4274571712,-0.8482381744,0.1686066381,0.6048322165,-0.4593790069,-0.0461914043,-1.1888832319,-0.1783988791,0.9768955597,-0.529816484,0.3025156768,0.1998363386,0.1088826164,0.5402937891,-0.7616372855,0.2397771235,-0.232491552,0.8168480153,0.0670229455,-0.4138524093,0.7708914265,-0.0481403242,0.3687861229,-1.2431279381,0.288559232,0.7593359213,-0.2983700915,0.4930946802,-0.2787113427,0.4959773982,0.2669660245,0.5929942289,-0.1891703602,0.2753428433,-0.0581935901,-0.348890839,-0.8582001723,-0.7818742623,-0.7879085912,-1.5743493444,-0.3377100683,-0.852641275,0.6913719652,-1.0982749255,0.0822725745,0.5298913698,-0.6659708733,0.2298720335,-0.0955456074,-0.6647338293,-0.3801994388,0.8489003129,0.5677494928,-0.6043175825,0.2680747109,-0.1784238172,-0.8021756224,0.372674616,0.2054193339,-0.1982350952,0.9274850799,-0.1420774139,0.3544723458,-0.7160997321,0.3222305795,-0.7466930608,-0.4888720787,0.7615165626,0.0390091091,0.0149288204,0.7663685461,-0.8356290136,0.6430698679,-0.073029952,0.021428556,-0.8006059644,0.275760716,0.3094101317,0.5794269128,-0.9039083033,0.7171132205,-0.5323346109,0.1114468079,-0.7097403035,-0.1979056127,0.3519592565,0.7011501542,-0.9011574513,0.4690999712,-0.5822671945,-0.6113676276,-0.3496025887,0.9619709189,-0.807776575,-0.517700118,0.0902176521,-0.4387786814,0.7206852825,0.8353077258,-0.8513038215,-0.3971563106,-0.740981847,0.5997781018,0.9571337163,-0.0912917765,-0.4994819503,-0.1723035588,-0.2001723293
   -0.9099884945,0.3150986054,0.4521171867,-0.283904715,0.1193231727,0.7303784966,-0.0647399349,-0.2639455487,-0.6897868528,-0.520792881,0.85550828,0.2389969798,-0.3644089087,0.5748782038,0.3318705856,-0.4693640001,0.3609069585,-0.4446435973,-0.5242079876,-0.2561067526,0.5390803541,-0.3948398497,0.6749904943,-0.5967907768,0.922802067,0.6621602038,0.0213838202,-0.7528240624,0.6942590767,-0.9673155813,0.6661995969,-0.9008627268,-0.988487015,0.1279640501,0.8465321049,-0.6662247148,-0.6807221317,0.562869817,-0.5311358286,0.8112379184,0.1891158004,-0.0190096061,0.2876129482,0.2147433215,0.4595502083,-0.1898980855,-0.3138211696,-0.9953265711,-0.5803990559,-0.6337003373,-0.522181614,-0.5523032241,-0.1461119018,0.4345033418,-0.1348096158,0.0025349004,-0.5719338024,-0.0841403294,0.0358099553,0.0782762454,-0.7031056826,-0.2149564641,-0.244229433,0.4487015415,0.1041020935,-1.2133035782,0.1218203869,-0.0653644016,0.5018297823,0.5704367894,0.5458546661,0.2453593235,0.2127356589,0.0916071925,-0.5374598906,0.7017108094,-0.0767769156,0.5431299762,0.1843187464,-0.6543458991,-0.178046783,0.651272976,-0.1079701357,-0.3140691701,-0.1558253692,0.827285234,0.6638900284,0.9570279162,-0.0674492675,-0.2400720901,0.7290079685,0.2528026416,-0.5165106584,0.7813836479,-0.4145745383,-0.5865926035,-0.0938167394,0.7342737222,-0.1916625641,-0.2094863253,-0.6179668522,-0.0390229554,-0.9350585901,-0.4618485619,0.8568851967,-0.6071902236,-0.9611451638,-0.9713261249,0.7617530875,0.3967274976,-0.1290297068,-0.6110612222,0.4212902899,0.743810571,-0.4075560552,0.8613586448,0.3292732363,-0.8499289325,-0.4588831964,-0.0374361879,-0.0482472262,0.2872858766,-0.1488249259,0.9229982148,0.6709231721,0.7179408853,0.7406539895,0.4134172269,0.7348137139,0.3536597845,1.2008066886,-0.5010064178,-0.0155360563,0.6500535575,-0.1838612089,0.4503991086,0.2468389964,-0.6497550249,-0.0763675476,0.4587294849,0.0827768223,-0.3520553939,-0.0695068597,-0.8240988945,0.6886968523,0.1247179919,-0.4582510672,-0.5269387629,0.0459520472,-0.1900886772,0.7672633027,0.4387157513,0.1043957576,-0.1385095473,-0.8292089577,0.2216853517,-0.6309727131,-0.2158771747,0.5128484374,0.684123445,0.5111393706,0.0679155495,0.89695664,0.0122349507,0.2752156718,0.0218036088,0.3057576051,-0.1102084875,0.1372236474,0.0220567113,-0.9440573849,-0.5292141823,-0.3369266851,0.5396785128,-0.4747081225,0.1839725572,0.9028206452,-0.0533380716,0.332463151,-0.5317714458,-0.8867905719,-1.3203116048,0.6135266592,0.2315961082,-0.7515761371,0.3547794044,0.2171002248,-0.9518670826,-0.1996580551,-0.1381761413,0.2766771187,0.082334738,-0.0915031537,-0.4913498089,0.721347355,0.0275157095,0.5229795645,-0.0799506897,-0.7813703673,0.5006596894,0.7169955016,0.4404760599,-0.6796133642,-0.2856562793,-0.421549374,0.0490903036,-0.3129295438,-0.5741390196,-0.691553888,0.0432703886,-0.3032773804,0.9563928801,0.9275882643,-0.2387660729,0.8444238493,0.6197474446,0.0674540719,0.5767859848,-0.7559819796,-0.0562594761,0.974712151,-0.656621113,-0.2695471729,-0.3207496567,-0.5426306655,-0.9320100115,0.3993271113,0.3724624776,0.1290416102,0.1618169771,1.0098941827,-0.3555356845,0.553313311,-0.8403511778,-0.1382664379,0.0405929121,-0.598138485,0.3860416858,-0.9192677563,-0.1160630806,0.6946083581,-0.7913005775,-0.2164998214,-0.8208254948,-1.275428862,-0.0488773262,0.1752128461,-0.7671704244,0.7829944874,0.4783227813,-0.2785524878,0.613223044,-0.5306328373,-0.6888711031,-0.2515891243,0.4935959134,0.765928184,0.9223854723,-0.4590442539,0.4937012065,0.5797124766,-0.7476589341,0.2848414819,-0.6487419788,-0.3528092656,0.6864350303,-0.44581309,-0.3292990689,0.6860710562,-0.4337938592,-0.1160166828,0.8314051687,-0.338310873,0.6674755017,0.0768965904,-0.3486002167,-0.9775826276,-0.493140561,-0.4151278297,0.0931621045,-0.3051164394,-0.0496316883,-0.1935134158,0.119440794,0.1048025334,0.7802976286,-0.3965120472,0.7380561756,0.3813654006,-0.4843291952,1.2481593315,0.8277644421,-0.9607312572,-0.5035275927,-0.2283129742,0.1671238043,-0.655208674,-0.5139070629,0.0955350361,-0.1619691224,0.5306600298,-0.2908044027,-0.0098807192,0.0875311508,-0.7248625281,0.8135414806,0.0158143815,-0.4404615374,-0.4872405368,0.4165398785,0.4542149382,-0.9406224959,0.2125157129,-0.5460702808,-0.3444700134,0.3914952251,-0.427089165,-0.6498462362,-0.5522521353,-0.0359975428,-0.884271823,-0.782653237,0.7455242696,1.0406633977,-0.2003139238,0.6552603173,-0.4622630319,-0.2427511136,-0.0010738366,-0.7972684297,-1.0111780396,-0.8440553704,0.7530074846,0.1909304409,0.041563042,-0.4546078795,0.5751451151,0.7173632959,-0.3125469152,-0.8263350553,1.3595357335,0.7594097453,0.3470859892,-0.6271081633,-0.9657664288,0.4542264454,-0.7324676533,-0.2505805897,-0.1938577004,-1.2235882299,1.0012063858,0.4757741249,0.2337566596,0.9696832193,-0.8042829416,0.0250664,0.6585841165,0.8254573142,0.0591113112,-0.6984309567,0.8980354749,0.3728098391,0.5357580771,-0.2562706712,-0.3037730645,0.8026266225,-0.2536290477,-0.6705854147,-0.7168123307,-0.720105791,0.6344148711,-0.5232022494,-0.9659506864,0.2660806969,0.445176083,0.6033861408,-0.3604575722,0.7172162198,1.0919988203,-0.5915637041,-0.6209606665,0.9830373033,0.6408812115,-0.1170859352,-0.7786062575,-0.2019630779,-0.4914869994,0.4141981877,0.2187450924,-0.1053098009,0.3335742063,-0.2225539795,-0.6412561419,-0.4844166352,-0.4384985597,-0.0418180533,-0.4812793276,-0.1100562091,0.2224438324,0.0121431583,0.112867037,-0.2539768635,0.3489661936,0.3149355049,0.3035349989,0.7138131631,-0.8744562044,-1.0837898643,0.7593474125,-0.1405129067,-0.1908497069,-0.8209099855,0.0997110067,0.6695220724,-0.0250168019,-0.7037515944,-0.9258415894,-0.8805660265,-0.0164417457,0.1885718617,0.683268884,0.2698762685,-0.0744562033,-0.7844882491,0.5951846788,-0.4383473087,-0.8500081,0.2577051035,0.2866288498,-0.1613609266,-0.3720431469,0.164336137,0.539399436,-0.4707555472,-0.0779830282,0.4262022266,0.3810141458,0.7573124029,0.9742699651,-0.8322672591,-0.2532817391,0.4275970467,0.7448831069,-0.1742087818,-0.9062388063,0.1833844395,-0.3980239619,-0.251459388,0.8262271158,0.1507296248,0.0358443756,-0.364680801,-0.5856419106,0.4614508718,0.3186354357,0.5030440456,-0.8309016921,0.5763202436,-0.2338617945,0.149045655,-0.6150571674,-0.3942506895,0.8690134757,0.0210606621,0.0664938099,-0.5733855884,0.6925147237,-0.5224906081,-0.8786358976,0.6835802006,0.7796831801,0.888692289,-0.6384594606,0.3141484376,0.4277059783,0.056974451,0.0136376476,-0.7242978386,0.5742495508,0.9125697976,0.8813642341,-0.1094009944,0.0451950094,-0.84964743,-0.0468025851,-0.7975367565,0.2487742991,-0.2834227654,-1.2494039858,-0.4306908585,0.8485765177,0.4513774331,-0.1954926824,-0.0943135705,-1.052679391,0.6828619266,-0.4280170131,-0.1995159536,-0.6871115023,0.3586132911,-0.109507022,-0.3654522097,-0.2533050531,-1.0261841952,0.6818908726,0.0731897831,0.8257564667,-0.5406314024,-0.4198945101,-0.3989275263,0.5829470873,-0.5126846225,0.8222319848,0.958746442,0.4475870819,0.4014643595,-0.0323422473,-0.0794161094,0.5158269898,-0.2805898025,0.705757044,-1.1453294343,-0.1387830017,-0.9999801591,0.8966022491,-0.0657237474,-0.8096301059,0.412051813,-0.8199544712,-0.3722689923,0.5607372666,0.2203336326,0.6330627816,-0.9393699826,-0.0700682301,-0.7591671981,0.3774630587,-0.9931006376,-0.9212529021,-0.68737589,-0.9707687828,-0.1701001973,0.3146365541,0.0432949186,0.4562192813,-0.3683117965,0.4026956631,-0.779665374,1.2944578767,0.5473551455,-0.9567143951,-0.9783727615,0.2920908094,0.4290300622,-0.1343909659,0.5614281359,-0.4256841693,0.2664752635,0.3788648613,0.77859274,-0.6617661603,-0.4625071459,-0.6212873289,-0.4034025391,0.4595176112,0.0797283248,-0.4559821169,0.5063023422,-1.0260753504,-0.4757380751,-0.0098645567,-0.3966136725,0.1397715073,0.9270846595,0.2420139444,-0.4668289345,0.2335266045,0.3495613207,-0.4227214169,0.5499711397,-0.6003058094,-0.900850425,0.7863989883,-0.8868883125,-0.4801224722,-0.6235474582,0.4996350551,0.8460320969,0.2178448959,-0.8205748222,0.3250807093,0.4866585239,0.0208067712,0.066174547,0.7063981698,-0.7681058835,-0.3518873355,-0.0418376528,-0.8908307294,-0.6112107858,0.307875713,0.5142901576,0.4291955722,0.4638348637,-0.9193643536,-0.6369339586,-0.6325910395,1.0058256269,0.6415827661,0.6389842325,0.6556128844,-0.4512968677,0.2533434604,-0.005583452,-0.2170781328,0.460893627,-0.598147328,-0.0831480404,-0.1879436875,0.2130329161,0.6778798199,0.5477511834,-0.9141061315,0.5222964129,0.1469180189,-0.4622853881,-0.5279180652,-0.1620419028,-0.7877040319,-0.35754769,-0.2421527778,-0.4538690058,-0.9401989119,-0.9942977428,0.9318463834,0.9612715511,0.137020388,-0.1130304623,0.1385998767,-0.30380439,-0.7388425896,-0.0696754852,0.9097177683,-0.6940513699,-0.6662773103,0.0505306495,0.833514211,0.2832347415,-0.8598588823,0.2554239251,0.3117954626,-0.1804949281,-1.1436950079,0.3565397207,0.8150298258,0.7553695465,0.4154166181,-0.2691432597,0.9818356974,0.7775654496,0.8438958867,-0.4455603818,0.5998442147,0.4074691679,-0.971606105,-0.3714336038,0.0639213269,-0.5844474139,-0.7548231697,-0.261578509,-0.4592569705,0.3253630071,-0.6645492629,0.2948749899,-0.4651344108,-0.0168958972,0.5648999936,0.3115255528,0.879137038,0.1935264678,0.9818509898,-0.0535940934,0.2609099339,-0.7349881826,0.7154864286,0.359230438,-0.1269424063,-0.7513674857,-0.8879396941,-1.034750893,-0.5531090066,-0.6007970953,0.414563288,0.6874047943,-0.2557517109,-0.374453476,-0.9168771561,0.4152445558,0.9825824035,0.8061259838,-0.3067291588,-0.1729543237,-0.5878002978,-0.7970908998,0.2637232414,0.7198545999,-0.7174633189,-0.432413262,0.3603080642,-0.1744851484,0.2614527938,0.223249812,0.8619320656,-0.5856948149,-0.9276917212,1.0178549371,0.7591944863,0.7211186518,-0.2804409043,-0.5844525842,-0.5659015057,-0.2323317457,0.9944938025,0.2180217521,-0.7275570029,-0.408599969,1.0368405587,0.0302727917,0.0058179917,0.3458776648,0.9831903148,0.6114361363,0.8404215617,-0.9499238696,-0.7637213372,0.5731357039,-0.2432217452,-0.1520607034,0.2372138485,0.322503348,-0.1976381277,0.5970344178,-0.0869775402,0.1784107027,0.2139469037,0.7431009635,-0.622296534,-0.7707795203,-0.0779849948,0.9715838397,0.6833613448,-0.0109836999,-0.5737072245,-1.1376441969,0.8265797126,-0.923383432,0.3954071209,-0.3831520016,0.4618332026,-0.7228006736,1.4385224661,-0.9618036853,-0.6172129588,-0.628567336,0.3017291991,-0.5643628177,-0.3916242287,-0.3639546002,-0.8152466488,0.3949052998,-0.2590884637,0.7553735273,-0.113458699,-0.6852852685,-0.6032262549,-0.2646742104,0.1693324031,-0.4254534155,-0.6639933512,0.6750888489,-0.2677514345,-0.7808717285,0.4117453031,0.4608026271,-0.0988526664,-0.3572560313,0.7974114764,0.3700638897,0.5009351946,-0.9472340424,-0.3220554084,0.5729376465,-0.3965799764,-0.2881014904,0.7635218908,0.2015093575,-0.2891136357,0.1357689242,-0.9619855587,0.3284849421,-0.4559798123,0.5609545912,0.7741858096,-0.94347112,0.4439105579,0.8708776737,-0.8390842357,-1.4699065113,0.4485384815,0.5867872652,-0.1667934824,0.3829604858,-0.3487023713,0.7412129983,-0.2353228497,0.5145375306,0.2208304024,0.3093341028,0.7698213072,0.1873819287,0.9073182658,1.4577173751,0.8007674446,-1.3031436385,-0.0805462801,-0.5156861358,0.8325606227,-0.4732075542,-0.2676500528,-0.4559209141,0.6067961215,0.441199312,-0.5476489911,0.345356279,-0.2137925675,-0.3654480273,-0.089665844,0.2629858162,0.1622562376,0.2254430155,-0.4564403107,-0.131414846,-0.7149693634,-0.2983898315,0.7814498399,-0.5648763916,0.7694549534,-0.6904405429,0.1681520332,0.6278258321,0.3094344474,-0.8422884691,-0.6861650022,0.8074368513,-0.9555529629,-0.4565765323,0.0919713626,0.9638752259,-0.650113916,0.0760815066,0.4796688555,-0.0256223635,-0.6948866438,0.4278341789,0.5108333953,-0.1798702201,-0.2414745307,0.1510577554,0.4269324795,-0.7193487621,0.8500683115,-0.1381069322,0.226001981,0.6107231045,-0.8940264329,1.0603820306,0.621838841,0.9341445238,-0.6143170903,0.7679069841,1.2975773353,0.466173512,-0.4880355092,-0.7594873236,-0.0924812448,0.2827670778,0.7516354426,-0.1541657171,0.8692492572,-0.038224149,0.9279544495,-0.4172955603,-0.7042168549,0.5831176071,-0.569218268,-0.4670591688,-0.1957062669,0.7521458439,0.0952737377,-1.3983793475,0.2726180372,-0.3255970171,-0.262261016,0.7091645342,-0.7074417654,0.0054496386,0.6558405323,-0.225700617,0.6388294196,0.0079081744,0.9758404887,0.4355350274,0.9010384538,1.9457086764,0.7031491095,-1.0072956864,0.0230435267,0.349809643,0.9703300325,0.0091518443,-0.4966779732,0.2896743534,0.5351840202,0.6191786798,-0.4152745838,0.6891020552,0.0941194549,0.7595529737,-0.406204648,0.5309143617,0.2065284855,0.6058885014,-0.8745799817,0.6935291916,-0.7084641333,-0.726626456,0.1471400678,0.7227477404,0.7778711056,0.7065739656,0.9932908813,0.3298168076,0.6522135151,0.8183373259,0.1029850397,0.3794073683,0.8438318182,-0.4636291843,-0.534421263,0.9257089251,0.4036189486,0.2052988258,0.7263207318,0.5249753121,-0.7006047205,-0.7920474155,-0.1764770896,-0.1077340923,0.5303843926,0.726873564,-0.4047970878,0.1737495615,0.165176609,0.3683896043,0.0135436971,0.6807440957,-0.9365848616,-0.2425171588,-0.9520244348,-0.6835651533,0.5204436958,1.1035195084,0.9783468234,0.4048137715,0.5205919187,-0.9692785669,-0.4731140271,0.2485529106,-0.5198880899,0.3932064451,0.9149508107,-0.1507624939,0.9111651328,0.4850015595,-0.547424601,-0.2889668815,0.4841787783,-0.6069073794,0.4304661472,0.8342039629,-0.0427504713,-1.3951543378,-0.2523693125,0.758876846,-0.2825875338,0.5320179736,-0.1319934071,-0.3145237398,-0.5581392135,0.8258902872,-0.5264816012,0.8713515988,-0.6775264962,0.143871292,0.166205023,0.8944056168,-0.247777494,-0.9380183154,-0.8766483218,0.3836339502,0.5535358626,0.3659953577,0.6897347693,0.4130559626,0.7415912093,-0.2132247173,-0.906635476,-0.0569569615,-1.378974991,-0.0983866199,0.1701803175,-0.3859853488,-0.3226564782,0.4840828134,-1.4415188939,-0.3778494556,-0.4171322192,-1.0025326551,-0.2476069924,-0.7387285946,-0.5716833903,-1.1021536416,0.5086955717,-0.8954387637,-0.0723506782,-0.580343359,-0.2803564984,-0.1765545815,-0.2396030657,0.0985932092,0.0767540065,-0.1590026821,-0.8463532199,-0.3698317811,0.0468929691,0.073944,0.5511111096,0.0375997743,-0.9875811843,-0.8139795682,-0.1287891819,0.8964805912,-0.3218337259,0.2673195506,-0.3562063675,-0.5160835192,0.4433383684,-0.8388044491,-0.595380383,-0.8248823683,0.2650503752,0.2788069925,0.2038623041,0.2192101734,0.6421993462,0.0849412412,-0.272248689,0.3821584462,0.6752813837,-0.59017125,0.6755708475,0.9200994575,0.360190967,0.2056179941,-0.6546654279,-0.9754302146,0.3469535297,-0.1477589631,-0.0386624199,-0.7026392531,-0.282208693,-0.88563617,-0.3658162345,-0.0919146008,0.7243923384,-0.7926047792,-0.4808023097,-0.0235186165,-0.8123599146,-0.2021108218,0.6418102938,0.351317754,-0.2248280558,0.5672078404,0.6366993795,0.3719136723,0.7104739334,0.6201825357,0.5955143855,-0.2477162648,-0.5922826456,-0.7106669181,0.5523279093,0.7798735914,-0.1882299689,-0.4122052317,0.0063959532,0.780659203,0.7897984724,0.8213935057,-0.9480664865,-0.5236658137,0.2089613661,-0.0659534398,0.9102276317,-0.0575254046,0.3056796067,0.5837218998,0.4257996133,-0.1149226617,0.3235118597,-1.5428294593,-0.8377843254,0.1530078297,0.70626721,-0.6606916393,0.3272571855,0.3931263096,0.8493935537,-1.2281193608,-0.3990208258,-0.3847329714,0.6435709955,0.4394820624,-0.2079801171,-0.8489171525,0.0837205323,-0.2186861553,0.6045747835,-0.6899214453,-0.6037187814,0.1697288089,0.5233711704,-0.8347140892,-0.5322584246,0.3059890339,0.1326017903,-0.4408356269,-0.1072971958,-0.2329561976,-0.920692184,-0.10776123,-0.4794964574,-0.2817630553,-0.0204179711,0.4723641872,-0.6777320318,0.5072308709,-0.8822632195,0.2386818705,-0.2479194759,1.120512149,-0.4366862184,0.5877924075,-0.1165660169,-0.4364497072,-0.9579166365,-0.9624058648,-0.4603540034,-0.7637801714,-0.7506594761,0.3281411992,0.2835253125,0.2240169189,-0.5078442366,-0.5871764036,-0.1835819751,0.1147745903,-0.1892670306,0.6088622609,0.6193134154,-0.9016561119,0.0925439412,0.2955673346,0.1391252378,0.3355609874,0.9212716514,-0.6350757627,-0.6700291167,-0.103164896,0.4664860749,0.973641711,0.8827794541,0.8211025451,-0.866014317,0.373523159,0.8118355061,-0.1345154122,-0.1431989545,0.3984358879,-0.4731840704,0.0129268353,0.1284648278,-0.8175737156,0.4788925837,0.6658085667,0.3462230563,0.9165543707,-0.2745427449,-0.9248515462,0.4467515989,-0.9116964288,-0.1475620052,-0.2080239826,-1.0978190888,-0.8874028369,-0.3371363862,0.7422033784,-0.3659674141,-0.5076082599,-0.8158077984,0.5984373596,-0.123737542,0.0506276974,0.4314233895,0.9417776663,0.3962561012,0.1377383237,0.2194562656,-0.1653630128,-0.9682703235,-0.0786898333,-0.2266506586,-0.1842806411,-0.402424766,0.71839829,-0.6893476721,0.0768518288,0.7054648362,-0.1405309215,-0.4507572853,0.693836225,-0.8617484065,0.8751237623,-0.8978848818,0.5958215349,0.0826938354,-0.1667242375,0.3556536114,0.5721677074,0.4479404926,-0.67596182,-0.6000593087,-0.7478742266,0.7060077375,0.6808699058,-0.6944066422,0.5460727193,0.726239188,0.22584947,-0.2056313142,-0.2077308742,0.6346037419,0.359579133,-0.9361488351,0.6289920403,0.0965762591,-0.6251379504,-0.0832438666,-0.9287948468,0.5979709805,0.5990994558,0.1623731232,0.235797628,0.9721470449,0.7589184128,-0.0681758811,0.5584522354,0.4334352003,-0.1731625062,0.5698232688,0.1665754201,-0.8611410527,-0.7722712095,-0.2372621922,-0.7857823496,0.7792683789,0.0163415855,0.3830496468,0.9348827865,0.7699182783,-0.983106269,-0.3197585832,0.9221125074,-0.0173505932,-0.4825844125,0.7995351967,0.7429000921,-0.6979367838,-0.6975460757,0.9660101924,0.1318073064,-0.4659682231,0.3172104487,0.1636651634,1.2628189618,-0.7778866817,-0.6570662471,0.2457087098,0.5714886979,-0.1666480044,-0.4609343556,-0.7807247722,-0.7077633938,0.0075737568,0.3953205144,-0.2071467503,-0.3256994783,0.3614389697,0.1742566556,0.5156574419,-0.0901119472,0.3791504749,-0.7057076596,-0.7241616733,0.6713403402,0.460631651,0.8804681455,0.9906606644,-0.3083491526,0.2883636729,-0.1420073406,-0.7275750905,0.8402282092,-0.1468555015,0.0309694532,0.8973428554,0.5311405868,-0.2744907864,-0.340543275,-0.6918812084,-0.3875673135,-0.3118645222,-0.0992260183,-0.3001987952,0.1786520743,-0.6326330484,0.1648599808,-0.9290164022,0.2682656117,-0.4233190451,0.1896584514,-0.0540355556,0.5767772849,-0.3777249024,0.674098979,-0.0873371209,-0.7551555635,-0.3443338431,1.2865850448,-0.2743962604,-0.619315626,1.0535386984,0.0849336741,0.7037853136,-0.9405320023,0.2623677091,0.4052429747,0.6907701442,0.7922170108,-0.3614801553,-0.0161463714,0.2297791473,-0.8489899145,-0.742420128,-1.045175608,0.4215884151,-0.780467654,0.6312984625,-0.1267824407,-0.8102718605,-0.8329566002,-0.6450992679,-0.2792055395,-0.1625057126,-0.6700212893,-0.1571935518,0.7584723565,-0.8577034247,-0.6119759214,-0.6624613028,-0.6378592473,-1.4894200423,0.9544077412,0.1241123651,0.3447033438,0.1263301814,0.297697872,0.1486949192,-0.7809872455,0.781485627,-0.4814045487,0.2916268201,0.426353352,-0.6001435848,-0.0086688572,-0.2149867556,0.2856414888,0.744871081,0.2867707235,-0.5418783251,-0.5967851479,-0.2982113143,-0.4065884102,0.4287462189,0.4102819609,1.1380150419,-0.2286492937,-0.4479192417,0.8200971146,0.6688698701,0.599849359,-0.6021848095,-0.259444879,0.2875950913,0.159209559,0.6803773277,-0.5548393378,-0.7618276225,-0.6425252692,-0.7206938009,0.4497953403,0.1470590333,-0.9075045591,-0.0716052168,-0.3447008354,-0.3670528475,0.6800133847,-1.0181428261,-0.8852171534,0.6051449898,-0.0489621746,-0.0899454423,0.0330579104,0.5172137165,-0.0251639901,0.6960007243,-0.5654016356,-0.1332905521,-0.852865507,0.573853086,-0.5724193999,0.5893508844,-0.5248199086,1.2251094956,-0.0426636202,0.1394188238,-0.7655012219,-1.1051214229,-0.5168763262,0.0517273537,0.0984245788,-0.204350438,0.1318889371,0.2090385404,0.1845255529,0.0450381247,0.1594406738,-0.5726308328,-0.3740096403,0.9575655189,0.6090366971,-0.549557958,-0.6765457346,0.0695325275,-0.2284037567,0.7662584337,0.081984157,0.4901229769,0.5881770241,0.3456057155,-0.9294799797,0.8068794278,0.0903358707,-0.1148825503,-0.1387997369,0.5437867281,-0.4162936057,-0.8184393085,-0.6319177378,0.2583223277,-0.7981700315,-0.7282019179,-0.0222534764,0.1517283011,0.7940156774,0.8356015451,-0.7083190545,-1.0977767215,0.2699274611,0.3684174937,-0.3577539082,-0.6804882122,-0.9890851418,-0.5345325604,1.6326914593,0.2205743598,1.0054673355,0.1907377668,0.8098352529,-0.1790607377,-0.3228184253,-0.2951915153,-0.8268953572,0.6992323937,0.6989366751,-0.4511730118,1.0573861859,-0.1557166405,0.5477669386,-0.8758050707,0.5937912678,-0.3547987316,0.951253876,-0.0707213913,-0.3125611439,1.0192043561,-1.1322874947,0.1545361551,0.4357809702,0.8677785049,-0.8404205284,0.0578383192,-0.3412858961,0.1526314683,0.5576041022,0.9160238777,0.8552304435,-0.6525965385,-0.3117314754,0.1883505263,0.0877934673,0.040467795,-0.8999011943,0.4473821866,-0.5816248864,0.0744752211,-0.7568941343,-0.1339842074,-0.0801942009,0.0898884182,-0.4267586199,-0.0770883996,0.1912065879,-0.7513379499,0.2546201971,-0.2514775489,-0.2680682255,0.4599367493,-0.2574618931,-0.466028622,-0.6344098236,0.6704152383,0.402626833,-0.5383744643,0.1053953454,0.2739562579,-0.7774200233,0.1574846695,0.040271512,-0.6222917883,-0.5886753148,0.1616687723,0.3835017916,-0.3092244038,-0.2013003174,0.3830538728,0.4349754167,-0.0293127741,-0.712003211,-0.5608276316,-0.3465360048,0.8431594169,-0.2550531631,-0.5268028706,0.8740321745,-0.6155783584,-0.8711395186,-0.4775289148,-0.9625608377,0.1880617351,0.6118760763,0.7182226787,0.350035496,-0.6140360472,0.3057453634,1.0431956187,0.9752211886,0.4717333304,-0.3922427037,-0.0054724405,-0.4966776777,-0.2471800861,-0.2478231602,-0.3545419304,0.203578637,0.523062404,0.8850842113,-0.2077972439,0.7968256092,-0.5067059385,-0.2545118044,-0.4666001675,-0.2083030248,0.4199471105,0.3492410143,-0.4359043433,-0.0390582797,0.1742081902,0.4542676749,-0.0951023003,-0.8616565138,-0.3028920933,0.8528218664,-0.8573017442,-0.3157762685,0.570873671,0.6456786246,-0.1027388192,0.8654097429,0.0836212596,-0.2029061453,1.0015050104,0.4737740578,0.6939750844,-0.3988846546,-0.0327395439,-0.01218622,-0.3145661643,1.174762568,-0.5327740681,0.7105294405,0.9752191064,0.8894560408,0.5416633669,-0.7780731048,-0.9029670661,-0.7898533392,0.3615834199,-0.962042388,0.7088248451,-0.4275159061,-0.8551311042,-0.4656806225,0.1783030629,0.0710067412,-0.9375147378,0.9493807495,-0.0082659235,0.279810944,0.514203061,-0.8815840324,0.0992705095,0.7910021935,-0.2209380887,-0.5569428321,-0.0796519342,-0.4252934079,-0.156938743,0.9086241432,0.5778448317,0.7650645656,-0.261919754,-0.8470912884,0.2375400554,-0.9524471058,0.1747651279,0.7462858184,0.6827227019,0.485082679,-0.0844123391,0.1858640753,0.0443899484,-0.6116766049,0.5217687138,0.6512560797,0.225015017,0.716501477,0.3095665751,-0.3050692688,-0.1113936375,0.0864077569,1.0004226647,-0.6405527773,0.4784797651,0.6623638365,-0.2344318296,0.229045791,-0.0515633868,0.8754878222,0.2678930032,0.5575447615,0.6913043115,0.6259267135,0.5306666244,-0.4504693476,-0.6684274823,-0.2734345122,0.5061419415,-0.3107311088,-0.8709126141,-0.0637494779,0.2496384658,0.2635720414,-0.4739699798,0.7843941231,0.4864252281,-0.8416162483,0.0759437318,-0.648119271,0.0528248537,-0.0469610512,0.9959421665,-0.3522391147,0.666429994,0.6931440926,-0.0027692805,-0.3958235454,-0.5166945095,-0.4439626521,-0.7916568387,-0.7182029786,0.0954458768,-0.9180367904,0.3368523051,-0.0530647941,0.1448124282,-0.548107273,0.6457452186,0.7898827718,-0.3342499359,-0.0046880746,-0.4362999393,0.6073239499,-0.6697645435,-0.9722397472,0.0656391553,0.7939834234,-0.7716428417,-0.3772124283,0.506938768,-0.6412347159,-0.0651509383,0.8183398994,0.7298013582,-0.4426639904,-0.4757710737,0.827745971,0.6551165275,-1.0746433692,0.94933385,-0.4895366686,0.7892568908,0.8475035573,0.8750377194,-0.8978418466,-0.0877361775,-0.1445885027,-0.3937507425,0.0319535067,-0.3049403036,-0.7052313316,-0.5153481414,0.1214898749,-0.8119845107,0.3963138817,-0.967100477,-0.431521922,0.3304753407,0.2981987942,-0.2034267254,-0.866350095,-0.193515696,0.1575607973,0.4560615546,0.5493255414,0.0089161858,0.6425735839,0.1356469528,-0.251346035,-0.9770349545,0.8578075334,-0.7309228907,0.9670534902,0.7838671018,-0.5008937573,-0.686113203,-0.8073270509,0.3158213348,-0.4349687918,1.1074613062,-0.8732333803,0.3007413062,-0.4911302215,1.0129579298,-0.6996156347,-0.2490174134,-0.8592583545,0.0513015132,-0.3907465024,-0.8009113364,-0.9740684352,0.4519915791,-1.0123979085,0.3030443639,0.7046744796,0.8736098848,0.2167028999,-0.0463902506,0.8966244726,-0.5350875827,-0.3849745517,-1.4716910697,0.1033502121,-0.4159437867,0.711759109,-0.3697763489,-0.6822056516,-0.2534984201,0.2841728325,-0.1732724367,-0.456108384,0.8228623429,-0.8697960364,0.5064363115,-0.3051081564,-0.8327474166,-0.4015255052,0.5376730888,0.3662803531,-0.4512479855,0.8740062873,0.6897640417,-0.3740265705,0.982459859,-0.8893650151,-0.5216160181,-0.7355826154,0.4813956938,0.1630664632,-0.681895119,0.2034448333,0.8061670658,0.4971228785,0.2420226709,-0.9468760328,0.6392480507,-0.6772632584,0.8102850921,-0.2806336781,-0.4436232896,-0.288301681,-0.7623193891,0.6198001015,0.1860790212,-0.4465741437,-1.1558523274,1.0116284517,-0.7727361265,-0.5972828744,-0.8168183733,-0.306490559,0.4013485616,-0.0561660568,-0.1837720537,-0.5542678454,-0.4802733436,-0.4891328884,-0.2364996046,-0.3518503383,-0.230573799,-0.415578362,0.5186407185,-0.4959813377,-0.4995260803,-0.0810459813,-0.2464674938,-0.3882842801,0.8108203141,-0.6278955737,1.0597333186,0.9069848181,-0.4171493539,0.5647422384,-0.9705308739,0.0669952623,0.1029538308,0.2088252744,0.0193674675,0.1489649293,0.4053006412,0.2540530395,-0.7737601551,0.7333239148,0.595116148,-0.4700430731,0.0765935837,0.8460264638,0.0402369096,-0.6956422335,0.7934202291,0.6664214756,-0.704207084,0.3173830139,0.0012206048,-0.2863229162,0.1879632,0.5796183974,-0.0091575295,-0.0452275044,-0.0554527029,0.3772724777,1.0454205353,0.9368582551,0.7400198548,-0.8751948139,0.3325627476,-0.7014343122,0.4215498809,-1.0292485193,-0.6469518572,-0.3334478089,0.836829552,0.6092141581,-0.6894656064,-0.4702696272,-0.7076715101,0.353624808,-0.5611870538,0.0057454347,0.6157936676,-1.1760409744,0.3619411104,-0.3211755351,0.001441637,0.7608453863,1.028026847,0.6458975363,-0.0184326099,-0.8474145204,-0.4274760344,0.5899798006,-0.0061496777,0.733288056,0.1233514821,0.6211305903,-0.8572856814,-0.2322515651,0.3676007396,0.0959508957,-0.2843539192,-0.6346917474,0.4198795994,-0.5693644051,-0.8219291388,-0.788229305,-0.3705405941,0.1320313418,-0.4258935602,0.1979588291,-0.8981825509,0.0547308791,0.9187148495,-0.9725662129,-0.1367922825,0.0687344681,-0.0104644493,1.0339686958,0.6354065079,0.7988448685,-0.1521531267,-0.1562579283,-0.6336967604,-0.439646007,-0.2787015178,-0.4938516103,-0.2244481164,-0.9062107934,0.8987494382,-0.1046938895,-0.9839886103,-0.8460706845,-0.5462005991,-0.0143400195,-0.1392556284,-0.3218337452,-0.44616306,0.5100683952,0.5481222893,-0.4940158459,0.5662484078,-0.3250954232,0.852898615,0.0637731095,0.1316328854,-0.3156443721,0.0158849464,0.3613938714,-0.0395783608,-0.6522965284,0.8237080892,0.5721517201,-0.7168728044,-0.0624525785,-0.7556160599,-0.0152484064,-0.1900005809,-0.1233790798,0.653769053,-0.4758870973,0.721884285,0.240484432,0.8419072587,0.3234211712,-0.5421465666,0.9866957414,0.0096708062,0.7616552487,0.280946416,-0.1621134538,0.3188102378,-0.0443915138,-0.4786665662,-0.5977312621,-0.5052564426,0.9119311921,0.5430100519,-0.8756587435,-0.6215193006,0.1163297533,0.085029343,-0.0579245976,0.5892778378,-0.530372011,0.4922135033,-0.7938119345,-0.2498248613,-0.3602626558
