encog,BasicNetwork,java,3.4.0,1,1589997679736
[BASIC]
[BASIC:PARAMS]
[BASIC:NETWORK]
beginTraining=0
connectionLimit=0
contextTargetOffset=0,0,0
contextTargetSize=0,0,0
endTraining=2
hasContext=f
inputCount=285
layerCounts=235,259,286
layerFeedCounts=235,258,285
layerContextCount=0,0,0
layerIndex=0,235,494
output=0,0,0.0000000001,0,0,0,0,0,0.0000000324,0,0,0,0.0000219795,0,0,0,0,0,0.0000000006,0,0.0000056901,0.0000005648,0.0000000132,0,0,0,0,0.0000000004,0.3211679357,0,0.0676454366,0,0,0,0,0,0,0,0.0079439325,0.0000000147,0.0000059589,0,0,0,0,0,0,0,0,0,0,0.0000000001,0.000000002,0,0,0.0000009658,0.0102294504,0,0,0,0,0,0,0,0,0,0,0,0.0000000001,0,0,0,0,0,0,0,0,0,0,0,0,0,0,0,0,0,0,0,0.0000000001,0,0.0681374913,0,0,0.0008414282,0,0.0000000006,0,0.0000000263,0.0000000081,0.0000000488,0.0000023782,0,0.0000184278,0.000000001,0,0.0000001668,0,0,0,0.0089890397,0,0,0,0.0000000002,0,0,0,0,0,0,0,0,0.000000008,0,0,0,0.0000000001,0,0,0.0000000001,0,0,0,0,0,0,0,0,0.0002875441,0.0001032885,0,0,0,0,0.0000000022,0,0,0,0,0,0,0.0000002376,0,0.0000014842,0,0,0,0,0,0,0,0,0,0,0.0000005999,0,0,0.0000000001,0,0.2106053771,0.0002467438,0,0,0,0,0.0000000077,0,0.0000000028,0,0,0,0,0,0,0,0,0,0,0,0,0,0,0,0,0,0,0,0,0.0000000166,0,0,0,0,0,0,0,0,0,0.0000014082,0.0000000007,0,0.303723803,0.0000000001,0,0,0,0,0,0.0000006471,0,0,0,0,0,0,0.0000007117,0,0,0,0,0,0.0000170993,0.000000022,0,0,-0.9946680333,-0.9836528887,-0.9946439808,-0.7094112321,0.9997113045,-0.9994607143,-0.9268649269,-0.9723173537,-0.946069218,0.5800826988,0.9669457187,-0.0803598361,-0.2552630906,-0.999715561,-0.999810147,-0.956548437,0.9940787476,0.9930921026,-0.9999985145,0.9246889583,0.9995172684,0.689373611,-0.9834740295,0.8991239071,0.5253074026,0.9617027898,0.9605316629,-0.9999885023,0.4214996458,0.9993087136,0.9073669835,0.875135659,-0.9855809972,0.8818344542,0.9977786976,0.9323588852,-0.6830856722,0.978968375,0.9952575464,-0.9994499383,0.9855288247,-0.9812829304,0.0632591554,-0.3613357078,0.9876152149,0.4302907978,0.7768721565,-0.8096693837,0.918244167,-0.9750430443,-0.4151865159,0.9847429534,-0.9986561611,0.3032476893,-0.3741251671,0.9986461167,-0.9747482545,-0.6526900988,-0.2423107071,-0.9898434445,-0.8903588924,-0.9894199199,-0.9840488579,-0.9539679507,-0.9046390446,0.8545304962,0.9804867265,0.7142478155,-0.9934867255,0.5105656613,-0.614330931,-0.5895409455,-0.8863727929,0.5797519073,0.9263503707,-0.9748671388,-0.9993538009,-0.7175516476,-0.0866527574,-0.7496856867,0.9228457346,0.8957311303,0.9184815042,0.9073342812,0.997817068,0.8709989766,-0.9990530681,0.2231972041,0.3495276737,0.2787468633,0.8603136677,-0.757401232,-0.201944914,-0.9996892806,0.0038566563,-0.9999947809,-0.5208562671,0.1704688023,0.891342806,-0.6714905192,0.9720455347,-0.6316207995,0.0313655324,-0.3804287802,-0.9905461887,0.9802448144,0.2903598281,-0.9945411501,-0.8734611723,0.9274330796,-0.989149435,-0.999642085,0.1349277834,0.8405949561,-0.9999455583,-0.9984603395,0.0970240794,0.243003417,-0.9981696581,-0.9208532616,-0.8833807835,0.9631905175,-0.6278188743,-0.9978816386,-0.8678454726,-0.9967515995,0.4384409456,-0.9655644457,0.9422098484,0.2064210403,0.9999774135,0.0163609059,0.4696375773,0.9860657925,-0.9700364941,0.9813711502,-0.4237289494,-0.9986516943,-0.9958024851,0.5036367706,0.8395495406,-0.9987262336,-0.7171586902,0.3855195697,0.9924661675,-0.039210303,0.7140725133,0.9998649013,-0.8510551337,0.734435567,-0.6471920978,0.9289004005,-0.2145293554,-0.2669338135,0.9931410421,0.9464036278,-0.7502501959,0.999560806,-0.9964918333,-0.9913544513,-0.9310234654,0.9335379691,0.9990284476,0.304612604,0.5905167683,-0.7430058887,0.9069436528,-0.9623142856,0.2875890961,-0.9953359821,-0.9896243426,0.0346112873,0.9995913603,-0.9703377309,-0.9999994494,-0.9289657146,-0.9997232493,-0.9992944901,-0.9999792511,0.8581505334,-0.4674954531,-0.9972641879,-0.9830578159,-0.5502963536,-0.9997523363,-0.2219167004,-0.9508140182,-0.6447158874,0.9193756647,-0.5537679313,0.999790245,0.9782669113,-0.9477904669,0.9970935693,-0.9184963334,-0.330440818,-0.40543492,0.922238359,0.7833151103,-0.95467671,-0.9997875559,-0.9167660795,-0.9867180242,-0.9145988646,0.9999574106,0.3702742221,0.7698009837,0.9897342923,0.646184678,-0.183620596,0.9859141132,-0.9910629036,-0.7894396354,-0.9900658392,-0.7477551304,0.9963112618,0.0925412246,-0.9541820815,0.9961689731,0.9390526726,0.994585541,0.0546418698,0.7896972141,0.9835547819,0.9944573983,-0.9999967652,0.986727649,-0.9966546828,-0.6259956176,-0.9999947185,0.9808899947,0.4369824347,-0.9999985586,-0.9678423572,-0.9988361012,0.9951369513,0.6317023155,0.8629961801,0.9644637022,-0.716935307,-0.4736549248,0.9973776448,-0.9723250141,0.5437632912,-0.5767895961,-0.6077035591,-0.9900766074,-0.6053266539,-0.2809266018,-0.990177847,0.9999961188,0.5467912408,-0.5781638227,0.9991929062,0.9999999607,-0.1704952102,0.7522205056,0.9997221924,1,0.5,0,0,0,0,0,0,0,0,0,0.5,0,0,0,0.5,0,0,0,0.5,0,0.5,0.5,0.5,0,0,0,0.5,0.5,0.5,0,0.5,0,0,0,0,0,0.5,0,0,0,0,0,0,0,0.5,0.5,0,0.5,0,0,0,0,0.5,0.5,0,0,0,0,0.5,0,0,0,0,0,0,0,0,0.5,0.5,0,0,0,0,0,0,0.5,0,0,0,0,0,0,0,0.5,0,0.5,0,0.5,0,0.5,0,0,0.5,0.5,0,0,0,0,0.5,0,0,0,0,0,0,0,0,0,0,0.5,0,0,0,0,0.5,1,0,0,0,0,0.5,0.5,0,0,0,0,0,0,0,0,0,0,0,0,0,0.5,0,0,0,0,0,0,0,0,0,0.5,0.5,0,0,0,0,0.5,0.5,0,0,0,0,0,0.5,0,0.5,0,0.5,0,0,0,0,0,0,0,0,0,0,0,0.5,0,0.5,0,0.5,0,0,0,0.5,0,0,0,0,0,0,0.5,0,0,0,0,0,0,0,0,0,0,0,0,0,0,0.5,0,0.5,0.5,1,1,0.5,0.5,0.5,1,0.5,0.5,0.5,0.5,0.5,0.5,0.5,0.5,0.5,0,0,0,0,0,0,0,0,0,0,0,0,0,0,0,0,0,0,0,0,0,0.5,0.5,0,0,0,0,0,0,0,0,0,0,0.5,0,0,0,0,0,0,0,0,0,0,0,0,0,0,0,0,0,0,0,0,0,0,0,0,1,0.5,0.5,0.5,1
outputCount=235
weightIndex=0,60865,134653
weights=##0
##double#134653
   0.7699568973,-0.0537312917,0.0240365911,0.823990852,0.943767197,0.6557589896,0.4320174161,-0.7231013919,-0.3904049487,-0.4400140912,-0.6788989244,0.8591965516,-0.6983884055,-0.5570051655,-0.0837380802,-0.9751946222,-0.6355153554,-0.0206032087,0.9834031904,0.5984578708,0.3356673962,-0.2456906535,0.9229130844,1.020053779,-0.2055864744,0.1577218199,-0.6205325928,-1.0564407949,-0.7034302597,-0.0632622335,-0.662636294,1.4260244649,0.0132777368,-0.3599549882,-0.2731940729,-1.0097600695,-0.3112299676,0.0082586648,-0.4610640235,0.0044228341,0.5264248548,0.2136931802,0.7270919018,-0.7085692638,-0.7883025538,-0.9161618102,0.298332221,-0.1936593037,-0.5046652185,-0.6142583046,-0.8545903449,-0.803673031,0.1787007442,0.2049785109,-0.7644157041,0.8758108831,1.3315733677,-0.1648719178,-1.4880457024,-0.4623005275,0.614505404,-1.0024282959,-0.1713623986,0.8914632013,-0.9695914647,0.9763619755,1.4293075954,-0.15902969,0.6104544758,0.0663869855,-0.8154037453,0.5256974579,-0.2184170999,-0.6003396948,0.5357571535,0.2625395692,-0.7769994187,-0.600433083,-0.5218711933,0.5529751943,-0.6362065637,0.1522959062,-0.2996914004,0.2173564294,1.6031546289,-0.3661477184,-0.4014124213,0.4486174644,0.7109997386,-0.6894808087,0.2282289502,-0.8683410586,0.2167947627,-0.583064767,0.7464811219,-0.3197513056,-0.7533256869,0.9428719922,-0.5207864351,-0.1441692209,0.0420055088,-0.0475073918,0.0874324726,0.0740915945,0.8431662819,-0.8247021327,0.5993352216,0.968436851,0.1610414776,-0.5956727503,0.3268372675,-0.3606420599,0.2200858695,0.6690658713,-0.1583023138,0.9555052756,0.5283045062,0.2633264184,-0.2451945064,-0.8399315905,0.2468812506,0.604467819,-0.4031290812,-0.1305576594,-0.369876183,0.8413811054,-0.125739214,-0.0118666898,-0.7808149189,0.0255165228,0.2343428864,0.1811617571,0.6950913524,-0.0764684181,0.7797757212,-0.2406621924,-0.0605385899,0.7094730721,0.9629009486,-0.1471736572,0.3018366964,0.4774954381,0.9669195715,0.8687101962,-0.5493010554,0.9370337532,0.3328539418,1.7760591479,-3.1665490134,-0.1714996095,-0.7823589738,-0.2447548407,-0.1234309211,-0.1571296256,0.8870717887,0.5648240934,-0.8178949442,-0.3285232912,0.9254312675,-0.0050500293,0.4302799805,3.2198270668,-1.2404020001,0.3732149566,-0.6652026214,-1.2332275453,2.02550476,1.5726141527,-0.6360732636,0.8197260121,0.1343240512,-0.4047228695,-0.790548322,-0.7337435167,-0.3240174294,-0.6766122318,-0.0312966944,0.070991934,0.1919646725,0.449133082,-0.9120110621,0.3432280549,2.6275991634,0.3870938901,-1.0238800633,3.2662443038,0.6116605491,0.1257694703,0.4017504904,-0.016451908,0.6950669904,-0.3932620068,0.1801424711,-0.2357680719,0.5552750403,1.9563572899,-0.4649475089,0.2375980299,1.0563361551,0.899171674,-0.3304560672,0.6250437159,-0.3838955171,-0.2200535257,-0.4838387589,0.0864661601,0.8375886303,-0.9351234798,0.9822023996,-0.518438343,0.7772517714,0.3973241969,-0.618830007,0.8819091066,-0.7981581282,1.214550639,-0.1660175162,-0.7917005965,0.0115879925,-0.7476330111,-0.4342729822,0.0824439653,0.1772329019,-2.4511555524,0.5600124343,0.3743894253,0.4741083647,-0.9731747544,-0.9811413584,-0.1517651163,0.7547379028,-0.2077912545,-0.1973670367,-0.9823376028,-0.4874302782,0.3995849596,-0.6259969431,0.9924481286,0.1457764794,0.9529466108,0.7656737975,0.7380120587,0.0515342794,0.0963484978,0.2864221497,-0.9383291349,0.487239699,-0.2247462035,-0.2594244457,-0.2821761369,0.159689994,-0.3894743263,-0.420774454,-0.337186378,-0.9661070613,0.6036933929,0.3561634636,-0.01133822,-0.1422781316,1.2698369006,-1.2325274028,0.6418910548,0.4895927342,-1.3776035955,-0.3305664736,-0.205105033,-0.2294057766,0.2622251352,0.8147789897,0.3115907918,-0.8874222523,0.7136267226,-0.7899410944,-0.2689670487,0.3846710115,-0.4321735791,-0.7751064651,-0.1262564145,0.3553195727,-0.6913091242,-0.7561836366,-0.7963576406,-0.1650188031,-0.866673671,-0.7789411364,-0.5831300261,0.1227252745,-0.5493796271,-0.1145472118,-0.7971562608,0.712506878,-0.9208769409,-0.2065896639,-0.7439358783,-0.6178252946,0.1166589442,0.3020785974,0.1331728651,0.1372230641,0.9488866673,-0.7878326077,-0.6714040237,0.5339461747,0.452244811,-0.3395646943,0.7778954678,0.9372950845,-0.5979249488,0.8089854125,0.1482783856,0.3772097421,-0.1476443725,1.5911580884,-0.3046501663,-0.3987933316,0.7998766305,-0.8843826194,0.9094894047,-0.3921074064,0.0694843298,-0.8718877615,-1.1595288027,0.1519616981,-0.9255591175,0.3122323605,-0.0448950568,-0.6339940884,0.6966987088,-0.6455577813,-0.9314835756,0.360262409,-0.7205566084,-1.0228216837,-0.0172722704,-0.1439906109,0.2078473435,-0.6320112223,0.6809549585,0.4381600016,-0.8031048233,0.0390229621,-0.5909548721,-0.1516912671,0.4901081514,-0.0742367644,0.3672957378,-0.389289955,-0.498314046,-1.4081316551,0.2323518753,0.1396296397,0.7722923027,-0.0416843192,0.7473567293,0.0860194509,0.4600629646,0.3106534718,0.6946945628,-0.449047553,0.3568820842,0.1220044376,0.2379122296,-0.9812466788,0.7723570098,0.9754791564,0.8914922687,0.6071123236,-0.8804962969,-0.2226600605,0.8593656325,0.2728166139,0.8296014258,1.1940319457,-0.4725629972,0.6515818046,0.2431570367,0.9549213749,-0.8224418855,-0.5236328166,0.0963381666,-2.318082655,-0.2679449437,-0.0897673479,-0.8195146333,-0.009139827,0.4518322251,0.2912439211,0.8539797622,0.7500947491,0.5035158232,-0.3570273422,-0.2255800268,0.0808189598,-0.4634426204,0.7328369493,0.2409954437,0.1660317795,0.3749324107,-0.4976233688,0.8385886533,0.1405024878,-0.2140169227,-0.0397506617,1.9496151114,0.9809894174,-2.2265247576,0.0220716496,-0.1816533861,-0.7805197633,0.5693215004,-0.6021102739,0.7498571496,0.5610399686,-0.2405509024,-0.6220803005,-1.6328726709,0.8208564366,0.6539733749,-0.1973965817,-0.047042379,-0.6324648157,0.4317103566,1.1373557855,-0.5424633839,0.1115186421,0.0092820876,-0.4105417331,0.7581038975,-0.2282276179,0.4270889958,-0.9608420431,-0.3876868334,0.9979610438,0.2566117245,0.2050547533,-0.4683614234,0.9470070651,-0.5978756935,-0.1598827442,-0.709365121,0.7815310238,-0.153051928,0.055304649,-0.1059318399,0.2843981147,0.9910004349,0.4673795943,-0.2697738739,-0.3318018583,0.6344572097,-0.5052519046,-0.9006131858,-0.94540227,-0.632087847,2.1375345552,-1.2997636081,-0.6979781811,-0.3479965204,-0.7327037976,-0.8829063095,-0.7827769772,0.3624263997,0.4228310617,0.6172911835,0.0371431266,-0.0732655303,0.2146720386,0.4419573088,0.4304800066,-0.215315696,0.4711677784,-0.4465171642,0.8614518598,0.7635845075,-0.7607484978,0.7288556249,-0.8563916723,-0.2274345642,-0.6853983531,-0.1816299702,0.8321715498,0.1261490463,0.3865254891,0.1026568509,-0.0050158838,-0.1694358499,0.4008320455,0.1503695149,0.4305001392,-0.255414941,1.0675358358,1.4167614041,-0.2613078936,-0.7208055435,0.6933442887,0.8608499305,-0.5603220462,-0.9072333192,0.0622359535,-0.5345709509,0.3874511209,-0.6492006355,0.8659183023,-0.019874851,0.5618036186,0.0316687159,0.8655880529,-0.4211816612,0.5156741053,0.7654246898,0.8752922557,0.707812666,-0.1249481417,-0.109493782,-1.8959424897,0.2924084145,-0.4391650902,-0.457086391,0.5887053456,0.0605341214,0.2743015631,0.7114314103,-0.5302772471,-0.0690952312,0.8648705321,0.9831306822,0.4994790286,2.2255995078,-0.5975954778,-0.2275348904,0.9152048417,0.5331411079,-0.6174539987,0.8121193581,-0.0317691028,1.0953932194,-0.8416064773,0.1334683004,0.9367912873,0.0647664823,-0.1083603399,0.9744625471,0.3307717706,-0.8082167576,0.8682136621,0.6738215783,0.4621300472,0.3684288332,-0.5788657686,-0.2137891426,0.1039099512,-1.5041660795,-0.7984021138,-0.7528941406,0.1739923944,-0.9569517197,-0.5873570658,-0.1167153563,0.983278205,-0.3422609083,0.4811333998,0.6203726627,-0.5337726297,-0.9098601666,-0.7336656345,-0.8946014537,0.3150257549,-0.67479419,0.6911282389,0.6016192849,-0.2751170808,-0.3481116281,0.0384418854,-0.9970050387,-0.7922702697,0.7218138978,0.6204953761,0.0830511753,0.4415400358,-0.4734166697,-0.4579658559,-0.3050657524,0.504820907,0.6465089813,0.2974118086,-0.5530495861,-0.1017259327,0.6497823865,0.0551032162,0.1920993932,0.9717681383,-0.2782477782,-0.3069833608,-0.8092961586,0.3012773009,-0.8651350994,0.898469218,0.6711877467,-0.4141828451,0.6110837968,0.3353162545,0.8101866451,0.8569218164,0.6925385679,0.4790460674,-0.3746311368,-0.0590363756,-0.2875818183,2.4468677386,-0.5775789485,-0.373690901,0.1275583849,0.380245677,0.8302300017,-0.9783682114,-0.6317235689,-0.6185852992,0.5157490078,-0.1037218108,-0.9372354247,-0.3668329649,-0.7510705166,-0.3716092646,-0.495256161,0.1390589087,0.3370179963,0.3069029127,1.0333597328,0.7063820395,-0.721506948,0.6874447747,0.8647821201,-0.4581380793,-0.0915113874,-0.7386928909,0.2467338949,-0.1299961366,2.3705359271,-0.8646165101,0.5192836155,-0.2885430302,0.4192615491,-0.4203436693,-0.3112717322,0.3050906019,0.0926191718,0.8879020587,-0.7671094349,-0.2457959749,0.4438929966,0.1006009186,-4.3673745348,0.2293814824,-0.3547303322,0.4064259776,-0.8799512334,-0.8854596096,-0.6199377686,-0.4056394196,0.5034348661,0.358537388,-0.281331748,1.1981887659,0.3055628644,0.7818315745,-0.5217435761,-0.8281929915,-0.3147842191,0.4326069528,-0.9025179554,0.0208712827,-0.7992946726,-0.5178963053,-0.6482863198,-0.7699887531,0.2809022841,-0.6666602814,-0.1884538827,0.3618253462,0.9206509338,0.1153394044,0.7216845653,-0.492421381,-0.6335641071,0.8393396262,0.9605026659,0.9834711741,-2.6667558433,0.1956597353,-0.7452805664,1.1021644268,0.6090071163,-0.7009539978,0.337328583,-0.128109555,-0.1550599633,-0.0088903069,-0.1577905707,-1.2268704175,-0.4071570532,0.1502995602,-0.336419403,-0.9448312352,0.7106650928,0.5619957228,-0.6182943406,0.2454132084,-0.0949964823,-0.2824851416,-0.652664974,-0.3543155792,-0.0585745244,-0.1772280785,-1.177500063,0.792821559,0.5971059602,0.9744206496,-0.5101583744,0.8044793901,-0.8872082948,0.6010906376,0.9003475803,-0.0907003827,-1.9856372967,0.4822512562,-0.6042744116,0.509561735,0.7597051348,0.2368122601,0.3160345281,0.3994474173,0.1316091568,-0.9603890858,-0.7999202073,-0.6971667697,1.3495495005,0.0900548726,0.1790332114,-0.1694070294,-0.5226107358,0.2590258087,-0.5466706081,1.5518177144,-0.2992138087,-0.0756182807,0.7984416842,-0.1474309368,-0.7917563811,-0.0471008345,0.9933096964,-0.0283292071,-1.3326989838,0.4750701876,0.3811511155,0.0531471905,0.4205686315,0.9059089077,-0.7379211723,0.7471436065,0.6767367279,0.4302639857,0.1370538495,-0.1386157324,-3.9535663665,0.1673713591,0.3372627535,-0.1648583608,-0.7512887616,-0.6347328654,-0.6834529832,-0.9181838655,-0.2164343831,-0.6104077958,-0.4616643763,0.955793923,0.0493959618,-0.0340651175,0.9773367191,-0.0867687098,-0.171903449,1.1039811942,-0.6775779365,0.9893457067,-0.5196807124,0.0235176154,0.5343493348,-2.1924283744,-0.5347113371,-0.1310945441,-0.8725435735,0.6902742456,-0.9181033385,0.771934256,1.1981796776,-0.0022137656,0.7692065821,1.5209023341,-0.8242297994,0.2943426207,-1.0767956406,-0.5673658773,-0.7705674825,-0.7160011798,0.1147087215,0.0122221442,0.565163726,0.6779142927,-0.1564070671,0.5986358377,-0.5049456861,0.4235859384,-0.0858070145,0.4849936041,0.8721095787,-0.6768335604,-0.1508014649,1.5594419598,0.4514870193,-1.0587940263,-0.077977296,0.5906706026,-0.2086746195,0.09278778,0.8910437647,0.2676010307,0.6044338031,0.6548948473,0.0950855415,-0.3048896269,-0.3309431562,0.3453025734,0.5222629252,-0.6691646763,0.7898996816,-1.2292795541,-0.4022225693,-1.2904473843,0.1826249915,-0.8267718613,0.8724734088,-0.3887716449,0.1354322578,-0.9587404681,-0.5048931413,0.2268933538,1.1195077406,0.0470315071,-0.7282171861,-0.223077374,0.0176318378,0.5868359411,0.5938199434,-0.231978416,-0.9615711161,0.78472656,-0.2076373227,-0.2667129626,0.1979338171,-0.8301377354,-0.5929594366,-0.2308736704,-0.0456736282,0.785143108,-0.991317483,-0.0275267772,1.0019490307,-0.6331745642,-0.2704074326,0.8019011963,-0.4518000992,-0.4571667948,0.2674657006,0.0405635409,-0.9315602361,0.9255270444,0.928102396,-0.2805043426,0.7330183773,0.9610336236,-0.1327083325,0.2150554991,0.94689442,0.9976613858,-0.7836133283,0.7420276212,0.5013540112,-0.79242883,-0.4118741473,-0.8248965927,-0.3201827203,-0.7535307324,0.8656710576,0.7664706993,0.4391122127,-0.3055813049,-0.2831354075,-0.6399888445,0.1031580032,0.3676500922,0.2985467333,-0.5331472333,-0.4136104674,0.4777797479,-0.5305023054,0.8961322411,0.1382949667,0.8649170236,0.9106032576,0.0600717656,-0.9517135935,0.6239115802,0.7233002781,-0.1202593969,0.1166753922,0.5587194103,-0.190635902,-0.2837126749,-0.663292018,0.2268495344,-0.0176894658,-0.3742157795,0.9035738114,-0.8490732933,0.9685986451,0.1895977765,-0.3929097341,0.2182748562,0.2103384516,-0.1621974034,0.1544249319,0.9494654306,-0.3595077642,-0.8408814892,0.9045643134,0.665508364,0.4752829385,-0.501157546,0.3886908448,0.4298121901,-0.8761148169,0.0400565272,0.355521571,-0.9544551316,-0.9747970139,-0.2164035896,0.9192460007,-0.0323752778,0.1046718882,0.1587862552,0.7403313795,-0.4218127394,-0.3398247382,0.0204145345,0.7322018587,-0.6378196656,-0.5454971155,-0.1985264645,0.117600659,-0.064986264,0.0186869022,0.2465316288,-0.2292281044,-0.1346129918,-0.5612116891,-0.0400150489,0.6860454589,-0.7309555141,0.3832524888,-0.2010932774,-0.7610602473,-0.8844604286,-0.3329027554,-0.0688031746,-0.0679294735,-0.5715622377,0.3180569729,-0.5068754154,0.4341304215,0.3455387804,0.5354237053,2.1644420646,-0.4343774413,0.0661737749,-0.0527347692,-0.286851673,-0.1908273457,-0.3663790765,-0.2788534498,0.2355235905,0.2069371258,-0.4767785779,0.0037857289,0.7143996405,0.5666823599,0.1342106657,0.6358288492,0.5901607242,-0.5037392552,-0.7752480312,0.2433878489,0.6298304717,0.442312731,-0.798380301,-0.3638862749,-0.1684471674,0.399252448,0.1703676276,-0.6225570914,0.8898006838,-0.5121571134,0.3569993063,2.4553361664,-0.5158064088,0.0927388443,-1.3605038904,-0.9131884835,0.1338492152,0.0782793133,0.1862605188,-0.8791996663,-0.7997363423,-0.6539172372,0.2590175408,0.7208466357,-0.6943019857,-0.3199236579,0.0587307898,-0.6943142522,-0.9373475118,-0.5527782818,-0.1319121946,-0.949398003,-0.3760066564,0.2245843803,-0.8649998565,0.670006786,0.1084552359,-0.5513587184,0.9639175282,-0.7812316053,0.6168923374,0.966829622,0.2358414589,0.5934510306,0.1203888658,-0.3438377994,-0.0391614513,0.4932190621,-0.8505737033,-0.7270095662,0.0819402948,-0.1136805873,-0.5442382342,-0.1025261032,-0.7067694128,-0.6039598508,-0.0147062994,-0.8596784034,-0.1773343735,-0.8512650016,-0.7201809205,-0.8797850399,0.4706242242,-0.2882390373,0.1249906983,0.8124419632,0.209574937,-0.6493515936,0.1591444966,-0.1372361831,-0.6960760429,-0.9487050064,-0.6572249667,-0.9441669814,0.7738694136,0.0801008123,1.2826456005,0.9034967179,-0.5307022125,-0.8468976126,0.0424189142,0.4870923775,-0.5032540583,0.2983667302,0.024742976,0.3483300165,0.6164410951,0.5078148093,0.5163044333,1.4760915339,0.4778521392,-0.4542225777,0.000462325,-1.8882949281,-0.4395243004,-0.5901562492,0.8289785208,-0.1575136198,0.619521336,0.8724797808,-1.1973950039,0.0931656,0.9299724439,0.5360698535,0.1797882377,-0.627777535,0.5453247635,-0.9483931985,1.0620936561,-0.0630033927,0.3736572439,0.0507722275,-1.430304003,-0.7338056775,-1.2393119086,0.698476512,-0.9732575746,0.5891507661,0.1250919339,-0.3968960787,-0.4380838605,-0.4536358686,0.0826177557,0.9379377267,0.9551289013,-1.0538095065,-0.2603845924,0.2665972913,-1.2234362914,0.2967193458,0.3615837764,-0.6969733322,-0.6969936287,0.4345452385,0.91663523,0.4442482865,0.6498593264,-0.2783278474,1.3001562883,0.8853157359,0.9738295501,0.1060135513,-0.8959539663,0.6079959854,-0.9299436321,-0.6397140856,-1.114091175,-0.1037019907,0.1269181228,-0.6049315215,0.0138613509,0.3269041205,-0.5268977234,-0.9202484551,1.018665041,0.7093571114,0.2877504647,-0.3841838259,0.1718269969,-0.6059848634,-0.1400644967,0.6397722873,0.7846391174,0.5117886498,1.0013019298,0.9243570233,-0.9265170858,-0.5731017147,0.651512314,0.2936950692,-0.5855238757,-0.6208599031,0.0553169569,-0.0408526795,-0.9638161557,0.9923564803,-0.9574832111,-0.6712558131,0.8175386963,-0.8591501369,-0.3933983688,0.9322724281,-0.5093831841,0.1054530713,2.9919523232,0.5570604573,-0.9750433922,0.8208065545,0.3224235741,1.1226598778,0.0387862062,-0.151828721,0.7409639542,0.8312476927,-0.518984476,-0.220383905,0.3801037527,0.3076499966,0.035992713,-0.1236784297,-0.6625264563,-0.648562995,1.9690400602,0.497279587,-0.4634663202,-0.1457109099,0.5957111936,0.9803833096,-0.289242526,0.109267762,-0.9306877642,-0.5641435376,0.1857361166,0.2894260225,0.9450931138,-0.3000082809,-0.5014987897,-0.6615831385,0.0931873389,-0.4650914183,-0.4933379013,0.5700195304,-0.7725247501,0.5942534973,-0.1477915577,-0.8425689948,-0.4597298066,0.2688468338,0.7660788605,0.2806904721,-0.564949272,-0.7984191506,0.246063552,-0.8401417961,-0.2499687626,-0.7161778987,0.9357311908,0.7870505042,-0.948305027,-0.4270725671,0.779534217,0.8449153463,0.1394621687,-0.3970057491,-0.1755700971,-0.8087357932,0.9954313521,-0.4747715392,0.2072059097,-0.1604439382,-1.2822120328,-0.0955362445,0.2581076183,0.7844822306,0.0416709116,-0.5308794422,0.9677847751,-0.8546608013,0.1777242921,-0.3094033239,-0.515627412,0.8849096055,-0.0724914723,-0.8375675865,-0.8411274267,0.0983464266,0.5183807404,0.4681737151,0.1932614978,-0.4764758356,0.6829432124,0.3931589686,-1.582356808,1.4182833726,-0.7508306261,-0.1853163312,-0.5848162666,-0.5965717076,-0.395180115,-0.9125602273,0.7414099613,1.0727548384,-0.9064729649,-0.0254229377,-0.6726550104,-0.6451475549,-2.0314632949,0.4732515082,-0.9399907283,-0.5898654782,0.3041876365,-0.4838115312,-0.3974472233,-0.656280556,0.4303824427,0.4441642014,-0.4100992023,-0.4066257148,-0.1080493153,-0.6293573342,-0.0497879926,-0.0273989376,-0.01235286,0.3487422296,-0.3925162864,-0.1936362319,-0.629129348,0.4038530196,-0.58717961,-0.1433962568,-0.9969174419,0.4179037675,0.1052431492,-0.7044673409,-0.8022744038,-0.264502867,-0.6142184671,0.9400057232,-0.1217624915,-1.0319254822,0.3593556065,0.9066781892,0.2394060284,-0.2091717693,1.1575974352,-0.0739162159,-0.8079657613,0.295126233,-0.5507017908,0.863797623,0.8607839668,0.9058536997,-0.7913431489,-0.2460784968,-0.4362878433,0.9659717296,0.5838225148,-0.2151165781,0.8499214267,-0.1513498498,0.6361387225,0.7951154145,0.735441655,-0.537998358,-0.0361780428,0.062924771,-0.5108092335,0.4074278268,0.6022095103,-0.2606517738,-0.0609943568,-0.7379155205,-0.2906343178,-0.3520376513,0.0296158628,-0.9482946231,-0.3814909286,-0.4436019863,0.3924674744,-0.2105497291,0.6017305496,0.6253336813,0.2944902237,0.7591901279,0.947045135,0.3821458304,-0.721909276,0.6960289491,0.0947285122,0.9258669722,0.5925941183,0.7246786756,-0.6374648246,0.4571526404,0.4050053146,0.595462973,0.177724922,-0.5765376495,-0.6614727687,-0.8978845365,-0.610426918,0.8219253108,-0.0292961383,-0.0406169363,-0.1350031553,0.6196718307,0.9039549508,0.3929159217,0.3713111202,-0.0918122173,-0.6221951029,0.4783945013,0.5334898011,0.257979561,-0.1673095865,-0.6662056632,0.7172122241,0.9369521443,-0.0310702807,0.7081620182,-0.1396667662,-0.1766176532,0.7313922247,-0.8129218188,0.647929425,0.6866483013,0.1050700376,0.278123157,0.6571375158,0.8674262879,0.3744516577,0.9003549398,-0.6668234571,1.0458148257,0.4018021795,-0.4112578219,-0.0487710454,-0.5363037249,0.1127858121,-0.7281857046,0.4473600729,0.0375873282,0.4055441686,0.8522876999,0.8086538692,-0.373500202,0.0716267034,0.7543471692,-0.2496263188,-0.3699093277,-0.3944067473,-0.5868075365,0.9695911545,-0.3755451903,0.1226634675,-0.6452587352,0.8059043653,-0.8455226997,0.8814344616,-0.2309531986,-0.2641575109,0.5443841572,0.125194212,0.2329982098,-0.4946886648,-0.6784171367,-0.8013943229,-0.318861997,-0.0983320105,-0.2745163071,-0.095313485,0.6094226321,-0.4025123581,-0.406502586,-0.2225238808,-0.0628571369,-0.8815882024,0.2063349192,-0.5493309706,0.8535920094,-0.8938825244,0.3593588682,-0.480172953,-0.3077280215,-0.533104744,0.6266047801,-0.1794613386,-0.3664300281,0.8397753168,-0.4443462821,0.4939795021,-0.3060712517,0.7335499521,0.2960293432,-0.2382052287,1.101833936,0.5203102722,-0.4674978979,-0.2444493485,-0.5988925575,-0.9916602416,-0.6414007669,0.1249269967,0.5387759646,-0.7372416188,-0.7784325421,-0.2490652951,0.1135305501,-0.5306529566,-0.4404760541,0.3736879233,0.908118916,0.4273224613,0.839889962,0.6289431366,-0.5204057415,-0.9048541062,-0.0595358832,0.2482483202,0.9013238327,-0.3132116849,0.5128806321,0.5399436401,-0.9896991824,0.8207355619,0.7902129992,-0.0466623442,0.3655262547,-0.1282652906,0.7094015719,-0.470330847,0.2552943092,-0.7902979629,0.3213583911,0.4159792855,-0.6084974469,-2.9285519033,-0.8885601003,-0.6896131702,-0.3362326551,0.3025731954,0.7187718114,-0.7749542539,0.4021885895,0.2326966108,0.474509242,0.6651920953,0.4326205848,0.7987822171,0.1014484661,0.5997572643,0.2598479486,0.6554677227,0.6000241703,0.3775658309,0.5395328268,-2.9804625168,0.393941382,0.4514167979,-0.1978866276,0.534831358,0.1991436043,-0.3096362623,0.1928674584,0.3824473361,0.0966980114,0.5953009163,-3.3088453986,-0.1142909643,-0.486059037,-0.5458845227,-0.1479675897,0.6125744108,1.0323129073,0.394672584,0.9633915731,0.4706017005,-0.5859091346,-0.0105583175,0.3540158657,-0.3495310306,-0.2578326654,-0.0411125613,-0.4297674911,-0.6991024548,0.3352706985,-0.689444861,-0.8340397327,0.5727085069,2.5990624032,-1.0223880198,0.1330732431,0.1739453219,-0.3024085162,-0.9442671441,-0.8732750326,-0.6546679248,-0.4297189657,1.4875960494,-0.7666444219,0.9257939682,0.2622408864,-0.2719807932,0.6654401102,0.1883630492,-0.5896635612,-0.1212706726,0.5586284507,0.5672666569,-0.4820127913,-0.6852485069,-0.6324855066,-0.4838328188,-0.3153795214,-0.9253881056,-0.8818294628,-0.2144076208,-0.1291565269,0.9433470474,-1.0007682822,0.4824937579,-0.5970803278,-0.5898466334,0.5218915297,-0.0245520332,-0.2296182266,-0.1312470288,-0.7379609173,-0.9737297441,0.0317725105,-0.6806128286,-0.287487172,-0.5549897426,-0.6378883408,0.6013890758,0.3276259672,-0.3259368248,0.4886021084,0.0751991982,-0.3606563228,0.6259422993,-0.3575482829,-0.2036993403,-0.1797924062,-0.6393876445,0.4092800037,-0.8688058931,0.4961198174,0.842067777,-0.0344491563,-0.6965660726,-0.0665707814,0.015021055,-0.6428004211,0.3511036099,-1.6661297197,0.382715636,0.0928994643,-0.8074987894,0.903011114,-0.7623876601,-0.034695134,-0.5960324058,0.0950141318,-0.1829875619,0.4251224564,-0.7013307384,-0.4562072801,-1.0443022918,-0.8991236772,-0.8293767131,0.2019394545,-0.6182438518,-0.289809177,-0.4703087677,-0.0400952371,0.0257096834,0.5550947749,-0.7545671896,0.2508511125,-1.0879443421,-0.6577647433,0.4394267106,-0.5855099091,0.2796235238,-0.8227114016,0.4291825576,-0.4149233037,-0.3924291825,1.0812653968,0.7948457626,0.1324293541,-0.9109295278,-0.0028191774,-0.813733711,0.0670762532,-0.0861637605,-0.3610966065,-1.1034807475,-0.4236697359,0.2189761438,-0.7949633922,-0.5215472756,-0.1141823588,-0.5254593902,0.1462771029,-0.0744764968,-0.1498438931,0.5040501454,-0.9096317373,0.8961307227,0.144883596,0.0694917123,0.3053273582,-0.8897761378,0.9419113071,0.2044170152,0.0237993048,1.6651228574,-0.386998982,0.1240377712,-0.4999900547,0.2607812162,0.0059919556,0.0389870138,0.4415520237,-0.8515912327,-0.9436040258,0.0239493451,0.715033099,-0.9009426384,0.2854014939,0.52489636,0.3622743796,-0.0494275155,-0.1362483082,0.2773916136,-0.8362530092,-0.713240715,0.9766154598,-0.5841408342,-0.8610461275,0.0673492834,-0.05744952,-0.0356129237,-0.6400897194,-0.4178108686,-0.8327453921,0.0836999305,0.8355649608,0.8280566441,-0.0018414376,-0.3698723923,0.1349533738,0.4410720155,-0.6078537318,-0.3101141262,0.9087530301,-1.0260560906,0.9087064804,0.6280528132,0.5045621725,0.5013724547,0.8522011732,-0.5188848929,0.7515251358,-0.0888436023,-0.742146263,0.4636234842,0.2473962734,-0.0342772458,0.1667257809,-0.1520446502,0.2315470639,-0.3662834809,0.2830649739,1.4021987639,0.0905508349,0.4804663364,-0.6111198433,-0.8210352316,0.4858536051,-0.8300280025,0.7825667057,-0.0216997098,-0.3048487127,-0.2588468588,-0.3981740518,-0.8512971146,-1.3257570759,-1.0243337994,0.0343925668,-0.0104131578,-0.9040405279,-0.6390212786,0.3137244406,-0.2004847613,-0.0182887127,-1.2512913892,-0.3448631503,0.7247359245,0.1862479838,-0.7041319608,-0.158657932,-0.5706712436,-0.9666374984,2.5230993985,-0.5801521421,0.7054379897,-0.5444941862,-0.7603999789,0.1589069852,0.097738934,-0.0543490912,-0.9419484314,0.520586479,-0.8161639196,-0.0766277563,0.144403141,-0.5653522075,0.6283331081,-0.188593522,0.5034904302,-0.979088222,0.7319634741,-0.0388784088,-0.5072139015,-0.9312647399,-0.0131270038,-0.6002330058,0.544624164,0.2788047245,-0.6013248878,0.7354509218,-0.4864850072,-0.8391211845,0.2456675683,0.1185578381,-0.6865282932,0.4180570603,-2.6623818343,0.4825502049,0.227751304,-0.0883403413,-0.2817596636,0.7255061657,-0.414336938,0.2319253712,-0.3569156217,0.056838829,0.3047217165,-1.0576037786,-0.7001316563,-0.3922074591,0.0755735899,-0.1888077964,-0.2676225712,0.6491916401,-0.4364909147,0.6835022046,2.1205061973,0.3263101193,0.2390967053,0.813265085,0.634051723,-0.2474179235,-0.3436009059,0.8203341466,-0.0497237415,0.1122799178,0.4788872181,0.9094899805,0.1661742603,0.7183749712,0.1832206048,-0.1284634998,0.5016132148,-0.4032438901,0.7269448676,1.4157362222,-0.7652454971,-0.3232431744,-3.0753653586,-0.4878798859,0.5919942842,0.9390936374,-0.2096889859,-0.4237067134,0.3946083292,-0.8546850491,0.1000843267,-0.0496576846,-0.412723087,0.8347218675,0.777826927,0.5211558789,-0.8713853624,0.453458552,-0.3806825408,0.4227293512,-0.7408880873,-0.5993640647,-0.2522034689,0.4026549605,-0.6242060101,-0.1585921185,-0.9930375105,0.5871715956,-0.8696700676,-0.642155397,-0.1190660963,-0.7450827131,0.9966030791,-0.7783069368,-0.4489141769,-1.5800651379,0.9068901115,-1.0541261232,-0.3047962581,-0.3613912952,-0.6265040661,0.9566451664,-0.4816006868,-0.7991058917,-0.0875556047,-2.5368215699,0.5000695852,0.5800048971,-0.9979917308,-0.9366937519,0.6239000492,0.1339659956,0.4206963638,0.7928573345,0.4978049819,0.0337255322,0.3968618304,-0.4408587729,0.1975265577,0.919720364,0.6500323178,0.7615106175,0.1077506605,0.8135581544,-0.2060785848,-0.6030103364,-0.5865838803,0.4503517359,0.0333725688,1.9503178398,-0.4585111173,-0.5143636863,0.4399054866,-0.6660131191,-0.3044108894,-0.7235699911,0.4557122418,-0.7793560883,0.1946538514,-0.000196328,0.8429407582,0.7926149631,0.714316767,-0.4696954622,-0.8436075154,-0.2668207058,0.8432201284,0.4374120406,-0.4496418573,-0.1402721594,-0.1377016686,-0.6791008675,-0.1149612859,0.8112135903,-0.8252398815,0.4022644469,0.1660213017,0.828414361,0.5689715587,-0.1305600087,-0.1662655544,0.5751817873,0.6100014515,-0.2128861184,-0.480691104,-0.1667435673,0.1250991136,0.3642061473,-0.1886568775,0.2494133255,0.8999504477,-0.4709846966,0.9666730788,-0.5593272212,0.4176918777,0.3621326954,-0.999870542,-0.7104192879,0.5581673211,-1.2520458589,-0.8514820774,0.2924074093,0.7651221797,0.5496469937,0.3676149701,-3.0763208267,0.0169715581,0.1566203812,0.2149642571,-0.3314028474,-0.3494932105,-0.3591400732,-0.7775016696,-1.6626178126,0.348764813,0.5706362204,-0.3068992718,0.7648748931,0.3158726341,0.5828026571,0.5067741632,-0.1995061453,0.2951606221,-0.9613947549,-1.5829119792,0.2379485129,-0.8713093778,-0.3074380682,-0.9513403951,-0.6881962757,-0.3807955585,0.6081069822,-0.4699833611,0.9127609985,-0.1895860822,0.0759765695,0.0544635005,0.8786050578,0.2679012361,0.7694297539,0.1119058227,-0.0758822503,-0.0380451396,0.419291038,-0.4071969894,-0.7626707605,-0.6161792386,0.7208001221,-0.2385756804,-0.8350680936,-0.0908911422,-0.163546386,-0.3091037373,-0.2280396921,-0.4410409243,0.2962452272,-0.8057259345,0.5261379225,-0.1985800777,0.5509962242,0.7915297119,-0.1234976341,0.2847566862,0.9675807849,0.4654007939,0.6047116205,-0.1668230307,-0.9419038623
   -0.3783951433,0.9565900536,-0.7223584259,0.663518928,-0.3544680982,-0.5176631679,0.1178168221,-0.7977723541,-0.7156745223,0.4291069249,-0.9415438563,-0.3919269631,0.8433950913,0.4988664055,-0.3825425971,0.3302464691,0.0264682035,-0.1478318797,-0.1204507271,-0.4478766208,0.906812929,0.9836059435,-0.9876708393,0.9969709288,-0.5444164332,-0.1653777164,-0.1321501449,0.6609828197,0.7779839239,-0.6733223171,-0.5181770193,-0.0834817764,0.2877108508,-0.9210719897,0.8525122065,0.9469697052,-0.8887002057,-0.2486285662,0.7300026309,0.0026101102,0.7009455226,1.3286921273,0.6829896742,0.2195674375,0.8578203763,0.3423479452,0.1144056913,0.2217483048,0.0476890423,-0.1588418622,0.2701385619,-0.0302909653,0.7447542622,-0.4966322837,-0.5822641555,-0.5611407885,-0.1555547851,0.3314719012,0.8056024194,0.0872537474,0.2469121967,-0.7995681959,-1.0831066856,0.273995612,-0.5760859444,-0.7076360301,-0.919030925,-0.3099573721,-0.4115608431,-0.8370071038,1.5885782637,0.2561864116,0.3233524582,-2.3584732204,0.3177328739,2.2288647637,-0.1185537733,0.7154885445,-0.8475666449,0.6068100557,-1.7082051066,-0.7658314777,0.2662343102,0.6103987737,0.7963623949,0.2793199665,0.3794712745,0.1312836321,0.7150945456,0.2599481347,-1.3345267562,-0.0207034404,-0.3672246235,0.8351589613,-0.6306004152,0.3408088115,-0.2473710499,0.6766414405,1.0482878254,0.3764062041,0.0120922268,-0.329320606,0.611149072,-0.5370915068,-0.9704788515,-0.6878887529,-0.0481050021,0.3824431389,0.9892330821,-0.0677744753,0.2630793302,-0.0124887131,-0.4639890611,0.094004334,0.663209987,-0.6704356226,0.602414368,0.5706793872,-0.5525663439,-0.4091314405,-0.3507628887,0.188771349,0.4377167311,-0.3862620658,-0.9125144896,-0.0743076192,-0.3283960459,0.217453647,-0.6264535659,-0.1805886008,0.7947214097,-0.3834094577,0.8026658936,-0.103925509,-0.2929847394,-0.7865030407,3.1072605391,-0.0824214165,0.504289522,0.6204891816,-0.4798842003,0.7537069372,0.707023534,0.8008447286,0.0227745944,0.6989098092,0.4381816859,0.4199961449,0.1111748508,0.4221099566,0.2548229209,2.1006190367,-0.2866202676,0.6870913596,-0.0054954585,-0.0833059115,-0.5854762196,1.1496417983,0.380223705,-0.1670211804,-0.0525127476,0.4432701889,0.3778880803,-0.7167728069,-0.153472011,-0.6219503062,-0.7472312474,-0.6281078812,-0.8127272438,0.072279489,-0.1237993428,0.4596523319,-0.2642408296,0.133642625,1.3162645769,0.2805658353,-1.539393443,-1.0995871654,-0.4574890839,-0.5158086386,-0.1320878145,0.2020924639,0.8698825998,-0.5660057803,-0.2274492754,0.2941629021,-0.5060628714,-0.2916350449,0.5146335672,0.887007161,-0.3963029045,-0.2488295619,1.0631966587,-0.0408780907,-0.9220530297,0.7361312085,-0.1278612325,-0.7795321236,-0.0701687988,-0.313683731,0.9022498585,0.1953290473,-0.4765904985,0.5213621093,0.3345336611,0.4679179984,0.0971560033,0.8058031567,0.536217856,-0.770758872,0.558580135,-0.3882367361,0.5881149515,0.4494818055,0.6066962468,-0.6054529155,0.5467005388,-0.3156516601,0.7856465726,0.2115853215,-0.6488797013,1.0048883038,0.3508864406,-0.4038578563,0.1536015978,0.2884987481,-0.9540511163,0.6321864437,0.4133061569,0.3909981259,0.7683775308,0.8927371736,1.0012790608,0.789912059,0.4755380692,0.1678820517,0.5689984715,-0.8455920395,-0.1199735984,0.048466299,-0.5761764077,-0.053559032,0.1277874105,-0.3236316332,-0.9407562833,-0.3581399063,-0.8153194942,-0.2984234011,0.4054935102,-0.2286242972,0.6934062111,-0.0409233083,-0.4566906129,0.7419550908,0.2127250928,0.0257551864,-0.0099956876,-0.7430685548,-0.1165659684,-0.1523093337,0.5645401431,1.4588952655,-0.7693049445,-0.9084935047,-0.3936287212,0.651159951,0.8736442828,-0.2208558641,0.2685469036,0.3176605591,0.0643466008,0.2770810278,-0.5580996771,0.2356925973,-0.3658256872,0.0231126418,-9.633213816,0.1244936758,0.6062276126,-0.1934927914,-0.6956696631,0.2523137978,-0.2100614716,-0.1647764147,0.9911787251,1.0997054048,-1.0021015336,-0.364283105,0.1651522365,-0.5600524891,-0.6384083718,-0.2901220214,0.9914683609,-0.5214860771,-0.95341843,0.0404533737,0.5926013415,-1.014592397,7.5817958323,0.8507190175,0.6543043715,0.1436862753,-0.6986945759,-0.6367072864,-0.3087266081,0.6757801056,-0.2110954401,0.2055800597,0.4045590244,-0.805842501,0.6631551729,0.0749862459,0.8760252355,-0.420251225,0.1878057301,-0.9619958264,-0.0140433708,-0.690692016,-0.8074058936,0.2000011739,-0.7672560501,-0.454399982,1.1055880679,0.5564957708,-0.0815559126,-0.8364188718,-0.6150460355,2.5919960302,0.2058940198,-0.0678150706,-0.1030936165,0.6609044002,0.5000353495,-0.7566885724,0.1541319806,-0.0292494151,-0.4550912415,-0.9454980939,0.3364826625,0.2341013413,-0.7469453107,-0.0266120918,0.5243218935,-0.1039286831,0.8556573105,-0.4965600661,-0.5495734147,-0.0955962616,-0.7460832086,0.1631628401,0.7897529698,0.7608998707,-0.35138618,-0.2980294818,-0.1806200759,-0.9129331923,-0.6324535213,0.2096740331,0.590259542,-0.5920949829,-0.2364096819,-0.1763200836,-0.7513948784,-0.0917759674,0.3963409921,-0.9823496286,-0.0652371016,-0.1401672461,0.0338745229,-0.048921262,-0.4673921879,0.6469259081,0.8507937748,-0.342260311,-0.242526301,-0.2177739536,0.26485756,0.9765385956,0.7858320192,-0.4887256006,3.1910223502,0.9288825472,-0.2076428055,-0.0644497176,-0.8421826223,0.5236887887,0.9915181877,0.2445010123,-0.4095693244,-0.2707363334,0.5733019033,0.953874468,0.1138139699,-0.5642038451,-0.8809648633,0.078496022,0.72377848,-0.0699240962,0.8210493635,-0.9000406137,0.7366321822,-1.0341710264,0.6143894968,-1.1705624659,0.7668083264,1.1665708122,1.4631367979,-0.9099898776,-1.0061362023,-0.9394032456,0.8780682664,0.4057624125,0.6982282963,0.238682468,0.4067791957,-0.8984400954,0.5352117648,0.5076714885,-0.7334206527,-0.1675619121,0.5005372256,0.5595526036,-0.3298754321,-0.8186814403,0.9354421375,0.517030784,-0.1866707872,-0.015923673,0.370534076,0.7446771537,0.8419606355,0.3491237256,0.2094575454,0.0773068505,0.9390156927,0.5923974743,-0.0487653953,-0.4473937857,0.4136495181,0.8819525823,-0.4880996676,0.7187044203,0.3646505153,-0.8352260796,-0.632519774,-0.1310843904,-0.105670841,0.9655432933,0.7564408159,-1.0415077439,0.3252034497,0.4141701107,-0.1482740152,0.9203668015,-0.8007491727,1.3569553237,0.7121639049,0.702202411,-0.5259250533,0.523977227,0.2335398217,0.8385268271,0.9306063898,0.4113941979,-0.1480784012,-0.0454747409,-0.5665058595,-1.0733410046,-0.2688911978,0.6962407146,-0.2786130343,0.9859958832,0.6171121574,0.8928754004,0.2294419755,-0.4427919909,-0.9064204407,0.3467201908,-0.3670701047,-0.2041800327,-0.7788058872,0.6284097783,-0.4735000593,-0.6027691741,-0.5013623737,-0.28828838,0.8420015645,-0.2371955348,-0.1276660137,0.6457182214,0.2199710617,0.0006743629,1.2540651064,-0.566730546,-0.0834039639,1.6207909012,0.7628756068,0.7224688602,-0.3447953597,-0.852756845,-0.1885832336,-0.0630568191,-0.1999872899,-0.5545340844,-0.4594595815,0.2817248239,0.3218660126,0.0191644353,0.7572921781,-0.1891041161,-0.6897713686,0.436600457,0.9627764487,-0.2634996666,-0.2104004243,0.6232745179,-0.1838115511,-0.2702900445,-0.4703798139,-0.3333427047,-0.6683280703,0.7408183309,0.8752875682,-0.3259956129,0.217480693,-0.2255256173,0.1981541872,-0.0919756394,0.3554490915,1.225420514,0.2042830083,0.3180372489,0.9658577345,-1.1975449433,-0.3133497526,-0.1997965674,-0.5993188081,0.3805968545,-0.3085994314,-0.3955338765,-0.305174233,0.8545236255,0.0898914866,0.4541867043,-0.7690043574,0.4416566195,0.0131530415,0.4820577559,0.0759551626,0.5025509419,-0.5720931965,-0.4340829413,0.7799960921,0.4515955212,-0.1046425647,-0.9645590203,-0.2437147613,0.8571659449,-0.5818383538,-0.1042546357,-0.8791264633,1.9232040045,-0.7525224927,-0.5432606656,0.7563214511,-0.8486152516,-0.4912033396,0.1182544613,-0.0100484312,0.44989955,-0.2702584936,-1.8002536123,-0.5248659044,-0.5210884232,-0.9747671079,0.2342049821,0.2350385836,0.5172511629,0.0632656505,0.343005296,-0.9282907273,0.3020063894,-0.9512960317,0.2937521412,0.6603704071,-0.2738344946,-0.3763215956,0.662156337,-0.1714186438,-0.1813875561,0.8903534748,-0.2558463331,-0.3380801399,0.8821604859,0.6811623552,0.6733667363,0.7725411396,0.2608395305,-0.4066910761,-0.7116561634,-0.8489705652,-0.4282508419,-1.0291345814,-0.9583990181,0.8731526427,0.2412361481,0.0574028732,-0.7338961586,-0.3427623545,-0.9035881161,-0.5248992215,0.1693534563,-0.2201785763,-0.7863520801,0.9270941272,-0.7851448558,-0.9678777091,-0.1477497672,-0.021031865,-0.2358753343,-1.1463547788,0.1295042133,-0.1511058842,0.6746150682,0.0486563551,0.0794022445,0.2968645285,-0.7634436572,0.3582264165,0.661486687,0.2423561839,-0.6665557366,0.4046050489,0.6428948279,0.3420220416,0.0315800027,0.8713633911,-0.1992181091,-0.2533606456,0.9322489486,0.0731491495,0.9525289907,-0.6496199416,0.7523489682,0.0870214623,0.172662667,0.6015097903,0.3606835211,0.9474737994,-0.1063009851,-1.0296092732,0.1198792275,0.1896130704,0.0605243783,-0.2441875517,0.226167153,-0.2555043197,-0.3650788965,0.3865122706,0.9483733292,-0.3345664403,-0.7986070543,-0.8696162668,-0.1203180342,-0.0542521488,-0.2977632147,0.0238271907,0.6449599156,0.0544674926,0.8562771752,0.0384185326,0.7638097376,-0.5390155246,0.9504834598,-0.2287152386,1.1296821289,-0.2287213598,-0.2918212411,0.480657149,0.6957139128,0.647139759,-0.7425149662,-0.3970216901,-0.7900474424,0.0317302069,-0.5502823855,-0.7930423294,0.9116026506,-0.9301310493,0.1516096176,0.2596187595,0.2094724829,-0.8015079946,0.1795280708,0.3022417698,0.2836967463,-0.5173506414,-0.023639851,-0.4531879263,-0.1277887243,-0.6847950604,0.1965299425,-0.1567156058,0.3198625773,0.7648206776,-0.6328502716,0.0601852077,-0.0453241766,0.494306597,-0.009080984,-0.5577152693,-0.082283093,-0.0088592333,-0.4787743574,-1.2853267341,-0.6647154046,-0.9410744358,2.2611042122,-0.2655353896,-0.6821710225,-0.5549949475,0.845603896,-1.9360553643,0.7454454137,0.2558720185,0.3245015507,-0.6214341527,0.9401838405,-0.3083749289,-0.4149053828,0.6176931884,-0.15038535,0.4673036728,-0.2850267031,-0.1893905971,0.322249873,-0.1178695613,-0.172797354,-0.1669880547,0.9688158684,0.6734695884,-0.5769180393,0.7916252396,0.7418038359,0.3043314514,-0.2199524469,-0.2307223091,0.6037906836,0.5672487735,0.8964296667,-0.6546152346,0.0477236301,-0.0675271114,0.5711335263,0.2391287883,-0.1035018939,1.0118768079,-0.2702376465,0.3531183819,0.7934585051,0.8759268235,0.3715559806,0.1393255427,-0.2906751282,0.3918941298,-0.3468462482,-0.8557003987,0.3247007882,0.3571951686,0.5459206702,0.7738933313,-0.4979594421,0.8874880807,4.159032468,0.9377008617,-0.7110974803,0.2271367355,0.575648985,-0.6420440041,-0.1183354581,0.0470762988,-0.8190931191,0.686325674,-0.0007508698,-0.809209226,-0.1868022018,0.0133943481,-0.2163396122,-0.390244233,-0.0335387478,0.0698333507,0.3350919288,-0.9555008779,0.7238322058,0.6812277026,0.5817129844,0.263778247,-0.0957538607,0.1592125869,0.4515185979,0.9966694074,0.1811285597,-0.0248099941,-0.255597464,-0.1102251473,-0.945082865,-0.0255053086,-1.838717511,0.0664001545,-0.3544555508,0.4382326353,0.2496341678,-0.0129956801,-0.4137218845,0.9596169137,-1.0525371461,0.5790398339,-0.5517000942,-0.485402762,0.5001334906,-1.3184908155,-0.4865940672,-0.5005468431,0.8263513175,-0.6506878882,0.0472912272,-0.5694835146,0.3155203759,-0.6569390562,-0.9778815169,-0.710127531,-0.4843450489,0.7604738956,-0.4993899393,0.9199685981,0.9717802357,0.5097272163,-0.7067338852,0.077227699,0.9370373525,-0.0131550813,0.4942163791,-3.2060330946,0.7093655138,-0.9297622215,0.7544734281,-0.5437256221,0.9377612606,-0.1580539059,-1.0605004117,-0.3205989654,0.1958893166,0.8908319039,-0.2985200428,0.2149516436,0.0595500437,-0.4943223119,0.5088704127,-0.9084163838,-0.6214383899,0.605490093,0.2659327576,-0.5450317504,0.8318958294,-0.014820456,0.3457567514,0.5531339845,-2.5395979988,0.2083825962,0.338002564,-0.1975745539,-0.4402536825,0.457486438,0.889696602,-0.5170406386,0.1261038645,0.0770855277,0.1077376479,0.558480504,-0.3687509811,0.0350820188,-0.6606586138,-0.0327687567,-0.6780575639,-0.9346061183,-1.5598705044,0.3106047467,-0.0232729948,-0.2296044425,-0.0830784804,-1.1804998354,-0.1675742446,0.6716929666,-0.7186381771,-0.6073486933,0.6443541127,0.9249915477,0.4639327591,-0.2154692411,-1.2132828687,-0.4818909531,0.2793466724,-0.8337799978,-0.8344497826,0.8313095907,0.618409667,0.2270821076,0.5492102944,-0.5140477567,0.5547242475,-0.6427987975,0.4357603402,0.3517631716,-0.0835643296,-0.5834344998,-0.1798459809,-0.2670119497,0.2615233878,-0.7448316256,0.5294622269,-0.0362276949,-0.7127256379,0.1580814417,0.2569929371,-0.3880508469,-0.8274836938,0.8274136807,0.6147510093,-0.3034978677,0.5418290854,0.5554495549,-0.3268349602,-0.5886099999,-0.596831841,-0.9954329457,-0.2069381569,-0.6962981888,-0.1452348907,1.119408044,0.3665770053,-0.8601463004,-0.5521877343,-0.3968063977,-0.4547435956,-0.2854542442,0.9711464418,0.1085222809,0.8425181837,-0.1202953002,-0.2187769432,0.2064279165,-0.595829163,0.1646353494,0.0949373021,-0.4770944034,-0.5364431177,0.0317476507,-0.1663699583,-0.2748007269,0.7482375059,0.3111957875,0.2035965521,0.9209970823,-0.9511768739,0.0697953297,-0.6434228359,-0.1667932493,-0.9699414253,0.098916256,-0.2072867639,0.0332890986,0.8903225,-0.7858204037,0.557364137,0.4935564425,0.3955243422,2.2572734152,-0.3808505003,0.4744362617,-0.8430025846,0.7404545026,-0.9116169893,-0.55758582,0.1134401359,-0.89674489,-0.3191324171,-0.2649314776,1.0600085754,-0.6074183081,0.6604210726,0.2220636551,-0.7718389739,0.0542214982,-1.5667400897,-0.6475622196,0.2146090842,-0.7594298326,-1.3226517887,-0.5431780852,-0.4713574138,-0.6427046127,0.5869362587,0.76120936,0.4546956914,-0.2683725287,0.7956105598,-1.0952023602,0.8395303288,-0.4278870042,-0.51884542,0.4506140248,0.6874927117,0.2835371915,-0.0392952719,0.0892448875,-0.4226539466,0.5771950147,0.9747649078,-0.4972913836,0.7438213175,-0.7526764694,-1.01080046,0.9030573328,0.6865499622,-0.0780997007,-1.0141372661,0.4338759488,0.8086984657,0.8890942557,-0.3715573216,-0.7942685094,0.9979643451,-0.1419488961,1.4241305814,0.2254275369,-0.4636599738,0.3589366788,0.1976522625,-0.1145313923,-0.3369575434,-0.0441785986,-0.8849335844,1.0437825938,-0.505451523,0.0997922346,0.4467823155,-0.1991858908,-0.0979441576,0.6503383675,0.0627403398,0.8109879036,-0.7270393364,0.9267699962,-0.5127024199,-0.5743364532,-0.2409099861,-0.0864877345,0.4868456465,0.1144428848,0.2133954232,0.4769108364,-0.9677732474,-0.5733288232,3.4037175946,0.8108104649,0.4000572146,0.898520768,-0.4609676638,-1.5275738797,0.6845886607,0.8313933272,0.5419377434,0.4112946255,-0.8180009036,-0.5749775177,0.3148881452,0.3305760729,0.5576611692,-0.0199663772,-0.9481108367,0.0475976722,-0.7473988129,-0.6666150771,-0.7278608401,-0.2442982727,-0.1646591495,-0.5251868424,-0.0686201377,-0.1247850729,-0.0115680413,0.4928442494,-0.8161294262,-0.4574535732,-1.3283733873,-0.4724048482,-0.8995163164,0.3427473051,-0.304402525,0.0410810118,-0.3621405758,-0.8313178386,-0.416903104,0.4700274374,0.9548925472,0.3244924223,-0.6420455445,-0.7422171536,-0.4362641392,0.6853529889,0.7655740517,0.3518284719,0.7351257268,0.5352075152,0.1944087453,0.0042476727,0.2579809541,-0.7602762051,-0.3699281509,1.1093530318,0.0589506637,-0.5532877484,-1.2936816142,-0.1264629331,0.8497763772,-0.9763057245,0.10149115,-0.1818587987,-0.2101736269,-0.1955466969,-0.1714701028,-0.9560276406,-0.0702568025,-0.9720272002,-0.0329100007,0.365002016,-0.3304774837,-0.4453499741,0.9459298866,1.1780933604,-0.2353051175,0.9208797065,-0.604417799,0.4981577929,-0.6981567211,0.8984716784,-0.4288628348,-0.904652283,-0.0820819152,0.5894223452,-0.8719931966,-0.6948829709,0.3950935271,0.3260292315,0.3200762718,0.6722037242,-0.5324982211,0.4172495242,0.9129380999,0.0453995361,0.2045658335,0.5897189612,-0.1065635332,-0.0002290429,-0.0714412138,0.3619556472,-0.2886801402,0.1011744598,0.4144154555,-0.9592087569,-0.0324985551,-0.3679091935,0.5123629221,-0.7339930487,0.3130173284,-0.0140054301,-1.8679262305,0.5621843088,-0.2850933361,-0.6903316314,0.4673242724,-0.508422029,0.3314483637,0.405171261,-0.052676382,-0.8012029416,0.4756494178,-2.0493729049,0.8577564686,-0.2999855528,-0.0829325844,-0.1083897433,-0.4491316705,-0.3344235203,-0.376465633,1.7487566405,0.2118703602,0.3708899042,-0.2132210714,-0.766360404,0.8820984419,-0.7385908224,1.0244759238,-0.1308861683,-0.0143836917,0.1956595669,0.5707684766,-0.4266053663,-0.3205275927,0.7652176518,0.8640481485,-0.7241379154,0.8291852104,-0.0460888548,0.2286084503,0.6771189399,-0.2292502544,-0.6404809547,0.0295945966,0.3797613946,0.4372779937,-0.7562103881,1.4588764265,0.3777555312,-0.9613909589,0.6686919496,0.2150034179,0.972763566,-0.6241262062,-0.5812859999,-0.2536153357,-0.1252129878,0.0275591847,0.8599838781,-1.2887459654,-0.2725948963,0.2080987842,0.4059170188,0.5317593144,-0.98837653,0.2006348307,0.3706385426,-0.2548776755,-0.4337951871,-0.9054960147,-0.9763356858,0.1782580931,-0.4699772333,-0.2134715604,0.8896747792,0.3055315204,0.5995028995,0.4030100564,-0.8198405174,-0.0770722476,-0.0572962314,-0.4834327225,0.3397115327,0.4833934679,-0.2141665202,-1.2918497782,-0.1447452561,1.0036135138,0.6910744102,-1.5997349554,0.1126788677,0.2793082794,0.3882847746,0.9734594566,-0.2483389665,-0.2736553,-0.169375195,-0.1894172053,0.1823449089,0.554423229,0.014741007,-0.5374115317,-0.2213017367,1.079926692,0.0800142593,0.9001428001,0.5158757764,0.1132653666,0.7627232679,-0.2746996759,0.7773640196,-0.367560125,-0.2400935776,0.8906763697,-0.1692800268,0.1622466128,0.0492040852,0.8415550364,0.4984491145,-0.5005579255,0.6222346486,0.0856400688,0.2032302794,-0.7216286106,0.1066866742,-0.9111355321,0.5347895474,-0.2371229423,-0.4788023404,0.9709989372,0.7646935365,-0.9544642989,-1.0962398797,-0.824777878,0.6576210003,-0.9882236718,0.6072112508,-0.0420588481,0.0137609226,1.3507086872,-0.0635829271,0.1618792627,0.657551967,-0.82679606,0.5892730942,-0.2571885689,-0.8161795929,-0.327876214,0.3595586661,0.2186148055,0.0405646508,0.3065333001,0.8686569433,-0.9494331215,0.415751527,-0.3598936953,-0.341283124,0.1905441849,-0.4826256244,-0.0513161756,0.67097785,0.413948886,0.925972615,-0.4593006785,0.3701018789,-2.136965737,0.91365607,-0.1858880961,0.2861408028,0.599758964,-0.6373196941,3.9106439007,0.6388883568,-0.4699062784,-0.7159844618,0.3305202923,-0.9807984908,-0.3124325651,-1.2638079377,0.2143257738,-0.5933639864,-0.8840916918,0.8362320277,0.0145795671,0.6690486781,-0.8454757177,0.2851566708,0.1572683691,-0.1798694032,4.9545597208,-0.3090157918,0.603173483,2.5699328898,-0.5572824277,0.0071944199,-0.7261373932,0.2426889707,0.8266233609,0.8466682771,-0.97405934,-0.0451180958,0.811364558,0.1075223457,-0.7449302574,-0.6201786919,0.7319861046,-0.0099823547,-0.7476016972,-0.1733373207,0.121181255,-0.2510174474,-0.373530533,-0.5643427366,0.4572838421,0.3894685359,-0.5615152365,0.9451036066,-0.381552444,-0.9794568461,0.4837317362,0.8258444476,-0.6602393495,0.5425206486,-0.7715473017,0.6496835624,0.5173586961,-0.1828027134,0.6392918474,-0.7308623253,-0.5026521686,0.3839469328,0.0279652094,-0.1325324873,-0.4090343026,-0.406797873,-0.7890408278,0.1899682902,0.1353803015,-0.4436099417,0.4405914615,-0.1452958022,0.9981333104,0.1270142485,0.92195568,-0.980930459,-0.1353701248,-0.8111835399,-0.820606336,-0.005370939,0.2215212524,-0.8644061044,0.2914370446,-0.81823423,-0.8850304716,0.5640207472,-0.0094226538,0.9349945179,-0.23127172,0.5370456403,-0.4581715979,-0.186132425,0.7336974859,0.7823469003,0.6261284429,0.0927959315,-0.5794310274,-0.7636071649,-0.2423646295,-0.3175685257,-0.5001945484,-0.0878857737,-0.262908352,0.9362465806,-0.8030089538,-0.2704292868,0.8814150677,0.4038561367,0.0090394797,0.8947279516,0.3106605307,-0.8997692359,0.7285550124,-0.6239060988,0.4265119476,-0.9852739503,-0.8265372749,-0.3672072804,2.2832948304,-0.5407481002,0.285169347,-0.1162035106,0.4643426331,0.5504267214,-0.4189919808,0.2801097627,0.428733384,0.5067712091,0.4471668203,-0.9953155728,0.9787241406,-0.280812763,0.1597818028,-0.7073288975,-0.9382939255,0.4968003559,-0.3703549218,0.9874695116,0.6898912854,-0.8825422745,-0.0793691824,-0.3435240849,0.5705492619,-0.1794292867,0.805752272,-0.334708589,0.8426031228,0.7752619245,0.8292578565,0.6768967035,-0.1845879079,-0.5542674799,-0.9842412216,0.7488375579,0.4624377949,0.7870374134,0.2442208853,0.2063366394,0.6299058642,-2.0636719905,-0.91181398,0.7472841313,-0.77444024,0.4260829285,-0.8035839943,0.3352496701,-0.6445100503,-0.8534908238,-0.2000490243,-1.0096903361,0.2282027213,2.1053928063,-0.4342507202,1.5694261886,-0.2612647994,-0.893736618,0.1268219942,0.1581992174,1.009518166,0.1831000553,0.5890355303,-0.600171517,0.1144110696,-0.748354676,0.424311572,-0.155459206,0.0463084893,0.3819649122,-0.6261145954,0.8846138444,0.0999828582,-0.4725670675,-0.616593259,-0.196161147,-0.7162582012,-0.2523648349,0.7665047559,-0.4217567413,0.7589355053,0.7952560858,-0.5058181848,-1.09993771,0.0377770877,1.4804503179,0.5074331739,0.4025833179,-0.5943238489,-0.1520252221,0.6188828672,0.7668677433,0.8277430098,0.9789282221,0.6533910088,-0.3974350592,0.8480576842,-0.3665377337,-0.2218832791,-0.1227707307,2.9810542499,0.0180284424,-0.2487224681,0.4095496486,0.1666109731,-0.9419676769,-0.6603720324,0.5097445362,0.145840888,0.4203852905,-0.8212712803,-0.4915061024,0.0313972565,-0.826795073,-0.785638198,0.9070685905,0.8579677222,-0.3113872212,-0.3128681126,0.6281065946,-0.2008631492,-0.0289869872,0.4432652901,-1.8835287595,0.209691954,-0.4906496703,0.205758517,0.679188369,0.7312324425,0.8062702277,-0.2278759963,-0.1178031563,0.328733321,-0.1143096561,0.5788296771,-0.1043433944,-0.2318138006,0.5509433176,-1.9585848665,-0.109020012,-0.8881154848,-0.298801956,0.1667160319,-0.9287012109,0.4001257864,-0.3502582543,-0.3745303833,0.846728926,0.1242738038,-0.0925559221,-0.9458746926,0.3531845972,0.4263112221,-1.2556432022,-0.7428354581,0.7933304045,-0.5030124463,-0.8129961467,1.5590656203,-0.515418429,-0.182346408,-0.9121888077,1.0448779097,0.3505035866,-0.0335825383,-0.920972685,-0.463053665,-0.2433267971,0.8709963895,-0.6127221193,-0.2525062578,-0.7643967707,-0.9867285946,0.0012931804,0.4411080367,-0.3545072473,-0.4983450625,-0.2711300901,0.6220531542,-0.2766918748,0.5650020906,-0.594853522,-0.7849883829,0.2113597373,1.4170156936,0.5956067023,-0.8588876312,-0.0965565999,-0.4299312107,-0.9726158603,0.2459906732,-0.0155094037,-0.5242396413,1.2147363665,0.2877149835,0.2322368643,-0.3209495422,-0.8139437412,-0.9170023748,0.2646360924,0.3376936695,-1.9432494104,0.8546910509,-0.2459426026,-0.6114509192,-0.8021266112,-0.6576574299,0.9761479879,-0.3156805833,-0.0251566607,0.1314277872,1.0011284044,-0.2159231075,0.2816971861,0.6300962182,-0.7397475056,0.2790791333,-0.3291223342,0.0204925899,0.0535394793,-0.6059033305,0.0852150281,-0.8671030445,0.6716808304,5.4667179865,0.6573867105,-0.3406414013,0.3809992756,-0.2443510623,0.2195702598,0.801546659,0.3034262506,0.5056130495,-0.34594368,-0.6054957878,-2.132122004,0.6722661227,-0.3171197317,-0.1794155307,1.0114205207,-1.5023148108,0.569811743,-0.8672717938,-0.5296932751,-0.210422136,0.6594179226,-0.7747333844,0.5229251214,0.4306600277,0.7460126965,0.6665179128,-0.2808883561,-0.1899565712,-0.9402441916,-0.4630708556,-0.1007054129,0.0813783032,-0.9230935621,0.1559803516,0.5854580634,0.3652997509,-0.2012657914,0.3228836042,-0.9570804992,-0.2023315597,-0.39070647,-0.1349336155,-0.517936562,0.058624782,-2.5984379391,-2.0719380578,-1.6049146575,-0.2610113001,0.8644890175,0.5827082487,0.2668295654,0.1483693857,0.3795318462,-0.5749919993,-0.6025799706,-0.8091711186,0.7861379697,0.191863421,-0.5964140832,0.7246705165,0.5729821042,-1.8126524639,0.8283850427,-0.2631906411,-1.6826374551,0.0500132138,0.8437976263,-0.7555469755,0.7420086951,0.3220120024,0.6307057991,0.6325361994,-0.781447231,-0.6273540222,0.9405953953,-0.0258914329,-0.7641451702,0.7442037844,0.0355040857,0.1051524328,0.825262632,0.6515953534,0.2663095293,0.2457491799,-0.117160227,0.1427304139,1.7439858922,-0.5817421653,0.7537889031,0.4382387337,0.7667134031,-2.6565238641,0.7924753887,1.5795875363,0.3491966736,0.2611416161,-0.3156320186,-0.6988104455,-0.4922670569,-0.6551190155,1.0272779226,-0.6630814452,0.1897016331,-0.6783485031,-0.0124512185,0.3692499032,-0.934477796,0.1722557764,-0.7042476087,-1.0776199664,0.2936843639,0.5726076919,-0.2325286003,-0.9385125198,-0.4364006828,-0.025860538,0.7113984933,0.3927497937,-0.1619454699,-0.031434317,0.6096023432,-0.1806903589,-0.3502685169,-0.8323606372,0.8301947773,-0.281406056,0.8553164942,0.3826464427,0.6198302574,-0.8080157844,-0.8898587898,-0.441351795,-0.2631258851,-0.7810151477,-0.5010810201,-0.6985647497,-0.6634638327,-0.7322984157,0.2181457942,-0.4015923938,-0.9165269952,-0.7050155723,-0.0335181127,0.2915498307,0.4396965151,-0.6294815059,-0.3177334039,0.7656451407,-0.2214708074,0.8934319298,0.3455063087,0.428749179,0.9559663112,1.3046185546,-0.2560784848,-0.7247428212,-0.5172619383,-0.4684693597,-0.952918647,0.8596086756,0.4857652786,-0.559012579,-0.65978994,-0.0277248826,0.7429262892,0.3553592514,0.1717148262,0.4130239086,-0.5294038733,0.7751264168,-0.9011290997,-0.3925572618,0.7584964781,0.2007889778,0.4409239589,-0.542173082,-0.7567343117,-0.2596779798,0.6607230323,0.0490836359,-0.373120039,-0.8688179307,-0.5441566656,0.0825722239,-0.8627965019,0.5482662088,0.2499397067,0.6124003188,0.891231793,1.3030900128,-0.3627966214,-0.2549759378,-0.7039115712,-0.6421667334,0.6163364962,0.3820917895,0.3397494704,-0.5710594949,0.0362511491,-1.103509863,-0.5604773418,-0.0830740731,-0.1667061402,-0.8290494126,0.1344313358,0.6573561893,0.2689411583,0.1465585806,0.4556823781,0.5664878208,-0.5139227713,-0.6938052764,-0.9858955782,-0.9140849442,-0.3135554263,-0.0726445951,-0.4190411281,-0.3945948305,-0.3034214511,1.1734821759,0.5336379926,-1.0208126133,-0.9565827061,-0.9565237611,-0.4603507066,0.4485532322,0.8964404275,-0.4133751738,-1.258190273,0.4297876914,-0.8999634125,-0.0242961329,-0.486481495,0.2729765141,-0.7001965775,-0.173314683,0.0541137702,0.7612653321,-0.7123067891,0.6685100972,-0.8979489555,0.7297065732,0.9703100017,1.2888266058,-0.2023288451,0.4207192454,0.119769514,-0.0434602438,1.0817097776,0.2354576673,0.342118383,0.2658645263,0.5567586012,0.8949207817,-1.3502917691,0.650630835,-0.6530013717,-2.0075768643,0.9621991746,0.0887676102,-0.3355963178,-0.5969305439,0.1469418311,0.7305136517,0.2551598922,-0.5017097312,-0.4568250569,-0.3188164528,-0.1699916312,-1.2763468745,0.2968595182,-2.2063280885,-0.8773629471,0.3631335352,-0.6227926873,0.330245655,-0.7971432597,0.7440675625,0.4475753277,-0.995628503,-0.1963707113,-0.4419376262,-0.5379772385,-0.6356146269,-0.8459020623,0.7602902639,0.7834394352,0.4927274284,-0.6642106672,-0.1093131813,-0.4210031185,1.9414193102,-0.1696229892,0.3675300728,0.3417539621,-0.8789234972,-0.4499680345,-0.7552555696,0.3900295544,-0.0364000683,-0.0489381614,-0.5104054696,0.5416666692,0.6160527205,0.1891654443,-0.5987748123,-0.0680849481,0.3374836488,-0.2629537007,-0.3286804646,0.8958275654,-0.1080510195,-0.2283384963,0.3952820975,-0.749690432,0.0509460288,-0.1638381424,-0.6243197202,-0.0237153413,-0.6208483761,-0.5521864429,-0.9899076822,-0.7013596704,0.6782867534,-0.103465604,0.5094517183,0.6336211596,-0.0189497417,0.464201977,0.3431293499,-0.0556124483,-2.089693097,-0.6887046942,-0.2278822909,0.0345010069,0.4023840977,-0.3652575565,-0.15205565,1.0282967773,0.3456013236,0.7901412362,-0.9017025859,-0.9693421683,0.3023145245,0.5959801515,-0.7042054362,-0.069107503,-0.3356522398,0.3261094151,1.0952071889,-0.6959464871,0.3178512828,-0.6292912069,-0.4776082185,-0.1270229791,0.1427315413,-0.7464617907,-0.5034895277,0.1219298559,0.3619676127,-0.1622035365,0.5594690027
   -0.0803746746,0.4192331321,-0.671042618,-0.3454938631,0.2179274715,-1.0580503547,0.6282541557,0.670501425,-0.6762359317,-0.9894988655,0.5710435356,-0.7399202664,0.7504316897,-0.0632432824,1.0266717125,0.3642664106,0.477672804,-0.2555111245,0.5316078972,0.9907043173,-0.8324775745,2.7678592121,1.3251049785,-0.1598920747,-0.4071650214,-0.0053477883,0.7377843565,-0.7641131117,0.1841123172,-1.4661779735,-0.0211961463,-0.7258271089,-0.6027983299,0.3612725045,0.4584444026,0.5405150921,2.110882442,0.9744638847,0.6106490315,-0.4861370288,0.8072741845,0.5342627131,0.2658542968,-0.6497465935,0.5880817202,0.3741489818,-0.4828786352,-0.2544550462,-0.531346462,-0.4049976985,-0.8411132839,-0.4523031391,0.16051705,-0.4607630905,-0.4891911236,-0.7908116517,0.6604823547,-9.3579203877,0.3224765547,-0.743647668,-0.5357791863,0.2735138766,-1.1250593459,2.5655452568,-0.8008107991,0.1396538604,0.3602265928,-0.2072020045,0.5868602576,0.8937805714,-0.3595018944,0.2258180032,-0.0441055803,0.2531770311,0.4542865925,0.9667798183,0.8036109538,-0.1045411829,-0.4544445768,0.3937556522,0.2419796751,-0.7630747787,-0.5989974726,-0.9113890394,0.8241860389,0.3647475117,1.081663351,1.0055239337,0.3034805297,-0.24518464,0.7192155772,0.2034448064,0.316777509,-1.0448332416,0.4177854207,0.406145088,0.6594524937,0.0546876437,-0.0390883066,-0.044849583,-0.0182297949,-0.7630777608,-0.0609966886,0.5743612613,2.8000538536,-0.813008556,-0.9304120673,0.2751741807,-0.6744109038,-0.1311239414,-0.6573323863,0.1654354904,-0.921736041,0.9571904127,-0.3855134634,0.8336936674,1.0587276961,0.2566754844,-0.8127823129,0.4100436735,0.8743849851,-0.273923039,0.5252432359,0.4938948081,-0.3396888224,0.5470490243,0.4816520444,0.1167724724,-0.3826856162,0.6965726445,0.2465615648,-0.0041617789,-0.665268883,0.5242427844,0.2161315617,-0.4129983181,0.5690113574,0.0579612355,-0.5245166667,-0.7011584177,0.6751166581,-0.2954568827,-0.4887630783,-0.1209167139,-0.3322985327,-0.0315744058,0.2417711736,0.4050196106,0.8830856894,-0.0444497574,0.8460570885,0.0107669232,0.4576022888,-0.0456596782,0.5322672638,-0.3494403595,-0.2398141414,-0.8976649741,0.7352717925,0.0507643929,0.4522113592,0.5110095159,-0.1549171958,0.4590201717,-0.7163123307,-0.1657861535,0.4303946875,-0.2385526943,-0.3191014544,0.2504564982,-0.8752647738,-0.6858713795,0.1924655709,-0.7034418767,0.1871394423,0.6613600016,-0.9177240392,-0.4623818071,-0.9097533849,0.2465299323,-0.3484770601,-4.1233331055,0.5877101871,0.4320749305,-0.5257981177,0.8096723197,-0.3897206631,0.3282596717,-0.544852258,-0.6132178971,-0.2906169144,0.3614091788,-0.0794635717,0.8491087875,0.2084948369,0.4390925615,-0.1895756316,0.4828268502,0.7769329457,-0.5519528096,0.8934764348,-0.1183099521,-0.4713989927,-0.3689566438,0.3680565668,-0.1080859466,-0.0334331769,0.0310517327,-0.0765530889,1.2028980915,-0.7864831357,0.7997186482,-0.7442938463,0.9003413666,0.560940673,-0.6536833914,0.2560820436,0.0078715735,0.0207554943,-0.2920245574,0.9081890561,-0.84430531,-0.1837509139,-0.3193473327,-0.8909239917,-0.1618873279,-0.0586905289,-0.9211795817,-1.0655791679,0.3045944046,-0.0606087975,0.6487784334,-0.8947402735,-0.7084110454,0.3641122334,-0.1265347956,0.1238102304,0.89632988,0.5362700969,-0.022700602,0.5255291484,0.2249264016,-0.2476505502,0.3220313534,-0.2904061358,-0.5423321194,-0.1060742218,0.1556271729,0.367624698,0.7229448836,-0.9579047152,0.3948750391,0.9285335333,-0.0186815973,0.2416220479,0.2235719457,0.0556691433,0.9936692785,0.9658038017,-0.154786053,-0.8171615097,-0.1147994141,-0.5873142236,-0.0569522036,-0.3936397571,0.441201867,0.765991324,-0.7617497379,0.0812430737,0.8418141018,0.9252760856,-0.8134391622,-0.0726375981,0.6050786765,1.017680294,-0.3785098772,0.4243544516,-0.9487892276,0.4112561468,-0.3884524473,-0.6759473079,-0.404924903,0.8659587859,-0.6948533443,0.9317214882,0.7843098196,-0.2197610486,0.9726895998,-0.8640940135,-0.4784669588,-0.209100755,0.9168276171,-0.8871337766,-0.0018003237,-0.1554615006,0.0660917253,-0.3234620447,-0.769870752,-0.8015797686,-0.1674400113,-0.6136335334,0.1132827533,0.6645793077,0.980412655,0.1332267756,-0.5526605117,-0.1098519306,-0.5567803713,0.674026776,0.2707389055,0.8813447406,0.7430981718,-0.405378808,0.5584263089,-1.2191072777,-1.8514444228,-0.1402797856,0.1443675509,-0.3683691104,-0.4919868333,0.966050266,0.1482699303,-0.0346306751,-1.0035466828,0.5912045206,-0.1354285093,0.1733907902,0.9245356342,-0.8486783784,-0.8278023056,0.7935875731,-0.5592136817,-0.6858518525,0.2479235965,-0.5091130231,-0.4165835817,0.8806211045,-0.041009135,-0.9855331152,0.3120690063,0.0991236147,-0.2267284013,-0.9141605766,0.1770609461,-0.1843473009,-0.0084671537,0.361415528,-0.3255432062,0.1844914543,0.9271998924,0.8599886313,0.4971823738,0.5634302976,0.9953324719,0.6012677151,0.1127324046,-0.3981428122,-0.893250724,0.1721339772,-0.9215373237,-1.5291678645,0.9587864405,-0.8293207678,0.935079739,0.0741762543,-0.0200027751,-0.163978865,1.1009489719,0.0079905437,-0.5646436878,0.8215564791,-0.9522140946,-0.0704446858,-0.0308099363,0.2517304291,-0.8934905111,0.3604193166,0.1955413997,-0.8700620818,0.3834607295,0.006258001,-0.3600881999,-0.3243343752,0.3822787332,0.635060157,-1.2429456696,0.5675106095,0.4278916226,-0.3678787077,0.458973167,-0.0091208378,-0.3544566722,0.9754978006,0.123584118,0.1120664586,-0.7975331958,-0.6874139552,0.0793307263,0.7947212404,-0.2869260009,0.5804499639,0.7057832635,-0.8942984177,-0.0486524634,-0.2851975761,-0.1132522042,-0.2108317536,-0.6341231269,0.0260674576,0.6860129551,-0.0646004097,0.4963047717,-0.1090112721,0.0188407673,0.8342142179,-0.5997156518,0.8653776898,-0.0641221143,0.3476074047,0.9091289298,-0.2425339613,-0.8466189054,-1.378909458,0.4147131021,-0.7110870446,-0.9082572922,-0.6171395352,-0.121674113,-0.8312580942,0.0851852373,-0.7169220274,-0.286870379,0.1305988346,-1.1527772127,0.5309122067,1.9705166286,-0.7632600535,0.4007223674,0.0458664125,-0.8172249793,0.5401575435,-0.7576919483,-0.4301186425,0.1960273537,0.208317058,0.9039048163,0.3788833878,-0.3299880599,-1.308996889,0.6803614079,0.5229639239,-0.313632868,0.5081452153,-0.5954001682,0.723497541,0.3492485609,-0.6051846893,-0.6773988619,-0.2600544796,0.2969933226,-0.6296014379,-0.2862700964,1.1386299395,0.429740529,-0.7310767143,-0.1070530465,0.499159222,-0.0256307827,-0.119404129,-0.7975936678,0.7660689942,-0.2225573446,-0.9108978452,0.8877586481,-0.8993301981,-0.8681613407,-0.8732877524,0.5136284779,-0.2423913631,0.4657447826,2.0227418216,0.3805339545,-1.2725155359,0.3198543374,0.0137392037,-0.095241799,0.8288518297,-0.1410954145,0.3908721131,-0.2527708494,-0.5898692931,0.0715542507,-0.0433143629,0.3855186719,-1.1567739265,-0.497543845,0.5554706235,-0.4876457083,0.8619034816,0.7513911521,0.6849148618,-0.6577720557,-0.534698784,-0.7821912427,0.7232020708,0.2802997547,0.5411807109,0.7616679719,5.6462316802,2.1024434386,0.4451232264,0.9985390524,0.4869211376,0.3214987,0.2527459689,0.2163413043,-0.799230734,-0.1040714878,-0.7416771851,0.9773877679,-0.5514665362,-0.4353039686,-0.3800322423,0.3939313057,-0.1379650504,0.0094264142,0.0478063666,0.5512084609,0.5020710934,0.9038838116,0.0567655891,-0.6492019798,-0.9464178899,1.0738532216,0.6804166518,-0.2178698758,-0.2042962652,-0.1264845476,0.5444336771,-0.0687933376,-1.1656758023,-0.1237345324,0.9623952308,-0.2196409564,0.0642137991,0.8932925325,0.4404840115,0.2267156738,-0.6289526033,0.8154491668,-0.1778196055,0.0997928857,-0.6649486342,0.9528709078,-0.6139930079,-0.5244066559,-0.2435648827,-0.0981268756,1.0180205432,0.4046311355,1.0299866988,0.581869892,0.8397700843,-0.5417490722,-0.5926757272,-0.2294038952,-0.8196710475,0.8084941643,-0.7291372827,1.1377914755,-0.0013133343,0.1134347726,-2.8101209821,0.7770118061,-0.188003643,-1.1944482417,-0.4676977749,-0.6397664058,-0.8301010741,-0.510317752,-0.3728658614,0.3372079258,0.3787389408,-0.7466638082,-0.3863433022,0.5464871384,0.8858791116,-0.1146501168,-0.6842765267,-0.1705316359,1.8123852309,-0.6096197135,0.2240493359,-0.0275965705,0.202031795,-0.1803789924,0.1531737211,0.2224136291,-0.6809008761,0.6027224794,0.1617533775,-0.4186840215,-2.8411763509,-0.6886594179,0.1301251367,-0.9593319377,-0.9944387006,-0.722608171,0.2942487087,-0.5040889714,-0.7185208553,-0.1257857816,2.6947253652,-0.3269549412,0.6425331427,0.4983641082,-1.0916823513,0.4598118078,0.797504389,-0.868742321,0.7124665023,0.2539833516,0.0064363243,-0.314761675,-0.3711347308,0.4326676024,-0.9840947674,0.575999632,-0.6740594517,0.6736321218,-0.4129189336,0.3717673422,0.1103825754,-0.3314687804,1.5318213978,-0.2941058465,-0.4175225591,-0.3655837495,0.5278348677,0.9897257256,0.7892561023,0.8540161751,-0.0083385958,-1.0009139903,0.6499670288,0.5618930828,-0.7660008828,-0.365366652,-0.6721273689,0.4922639851,0.7506205454,-0.4591898913,-0.013661216,0.403168812,-0.7721496047,-0.0933464813,-0.5406858747,0.8153166968,1.1176851276,0.0676702933,0.36131213,-0.2877535103,-0.3199623431,0.7552660282,0.5113850849,-0.3686618135,0.913772731,0.2762473583,-0.2888835042,-0.9374177765,-0.3217662232,-0.5631074598,0.3107331749,0.2139206071,-1.8048074906,-0.3090156236,-0.1216847207,0.5382252556,1.6685654622,-0.1054197941,-0.9060571684,-1.0296849795,-0.5554005085,-0.3248412699,0.5508519823,0.3366088746,-0.949602903,0.3007150257,0.6264949944,0.5771345849,-0.6575937311,-0.1610025438,0.1573470438,0.0552322971,-0.0864915265,0.3320613296,-0.6672502249,1.5762747685,0.3518718255,-0.9826624841,0.672029805,-0.9589839084,0.4341150268,0.586839328,0.2500694697,0.531792154,-0.1695613639,0.8622163886,-0.6594387611,0.7406842566,1.8815425181,0.1350639774,-1.168362598,0.3283783727,0.2587402219,-0.0633561071,-1.007357566,0.2957259692,0.4489027496,-0.9293079085,-1.3080815538,-0.4001086228,0.6238396775,0.2405903595,0.3003101104,-0.9224797389,-0.4136624885,-0.5570226581,0.9092184174,0.9543876452,0.2849958554,0.6162981632,-0.7078078965,0.9878346616,0.6137942483,0.6485216592,-0.1577776687,0.9919175832,0.6154134435,-0.1643607435,0.1444040806,-0.8254561499,0.7145716768,0.1447998415,0.1598350657,-0.5064462128,-1.2027119854,-0.0908331783,0.4272939165,-0.5784710827,-0.7442607254,0.828489616,-0.7247396934,0.0770789635,-0.1787329165,0.9944216615,-0.4040457125,-0.8525015256,-0.6085405883,0.2388268317,0.493779044,-0.9860078353,-0.9526969866,-0.0379456396,-0.9196768879,0.7388359521,-0.6186478822,0.4770610822,-0.661893329,-0.817696031,0.3411831504,0.4352719152,1.4049848032,-1.1027806753,-0.5996337749,-0.8799736809,-0.5328917547,-0.4199570683,0.7197315403,-0.671123375,0.4073492847,0.9675350087,-0.6295604813,-0.8665168955,1.3850678162,0.7713218171,0.3609104346,-0.6695213944,-0.4982758307,0.7084777214,-0.282168813,0.996411808,-0.0014996924,0.7219022825,0.4531492489,-0.6237155306,-0.7529858531,0.5946984672,-0.382041585,-0.3512944449,-0.1090543059,0.0817482864,-0.320916694,0.5959926335,0.1773494684,-0.8650747762,-0.5341114065,0.3581302843,-0.7106519041,-0.63351709,-0.7381162066,-2.7298613489,-0.1586366153,1.3954044388,0.2733973272,0.4338598601,-0.8335126835,-0.1190200108,0.5026771641,0.7257469423,-0.7317298682,-0.3304508413,-0.2267689217,-0.4849694504,-0.8766625367,-0.2271046285,-0.7485190179,-0.2670699933,2.1313937003,-0.570542194,-0.9635692181,-0.8025637384,-1.5979926005,0.3804861255,-1.0106352122,0.6365132872,0.5314071593,-0.1026235575,-0.2067480265,-0.6053809963,-0.1160682191,0.393615552,0.7143668881,0.7099808488,0.5412312906,0.7997784698,-0.8285603903,-0.4568224651,0.5675567612,-0.661393664,-0.6520729165,-0.2677862688,0.4294255066,0.3363048493,-0.1812082435,-2.0146936762,-0.0108896697,0.2389789177,0.3736784081,-0.5076897508,-0.7628151582,0.3221599665,-0.5995651955,-0.0149863405,0.8983652036,-0.1996309855,1.1480428871,-0.830333801,-0.1901531149,0.6854175418,-0.6383668092,1.6774136242,0.9862852014,0.5263396647,0.6390113698,-0.2553267125,0.1592933266,0.8448837034,2.5119116824,-0.7896962775,-0.1210174999,0.5547441844,-0.9810615259,0.5722158022,-0.2345272393,-0.1773562436,0.5352190497,0.7176884966,-0.3849060162,0.2389287719,-0.1504434257,-0.1959440106,-0.2053378201,0.5373238414,0.6830495828,-0.7967758869,-0.3655891815,-0.5815013446,0.0143900852,-0.1528757992,0.4174495924,0.2385035572,-0.3390857264,0.423493481,-0.6019019875,0.4599237698,-0.6415694751,0.4462793442,0.36797497,-0.417879241,0.2954134282,-0.7079346017,0.8045224872,-0.9138852252,-0.6946202201,0.3412799441,0.8378619929,-0.7836197301,0.361493346,-0.4233141925,-0.0965991122,0.5855260599,1.0080336093,-0.0312618217,-0.640643317,0.2711506895,0.313651893,0.1715714519,-0.3798654599,0.3854016629,1.5699179899,0.1292643005,-0.9311852352,-0.8984235329,0.5157610935,0.1257030277,-0.9158824724,1.380358802,-0.3926153721,0.0229640556,1.3920672988,-0.8475509025,0.3772944514,-0.741302625,-0.5128830151,-0.4095516197,0.2540493665,0.7793041006,0.2045085871,0.3097844373,-0.0663088089,-0.6480284141,0.0208208323,-0.7415649888,-0.292936727,0.9944736005,0.8764233293,0.0206951356,1.001233799,-0.8242012307,0.884325075,0.506715353,-0.1084870934,-0.6914737911,-0.5984621541,-0.7597903997,-0.6608195653,0.2247741039,0.1385727298,0.3300205613,-0.1886221275,-0.1099593452,0.6472201615,0.8438168477,0.9502645418,-0.5792440124,-0.2390417597,0.0926822547,-0.6240912313,-0.444136331,-0.7439601018,0.0242605886,-0.2775141151,-0.8775624926,-0.0930518911,0.6902175482,-0.5869603208,-0.6434385423,0.3372160426,1.0624524834,0.048871572,-0.042866286,-0.0804696923,-0.2287415804,0.5115635864,0.8675852579,0.1984348839,-0.0413523278,0.1959211498,0.2563921449,-1.5806058606,-0.3041292511,-0.2290174194,0.0574955295,-0.5116884524,-0.8116535256,0.4304797788,0.4745075633,4.1973822071,-0.6540883765,0.1213583803,0.087068401,-0.7400000383,-0.0868488768,0.2127550653,0.926860071,0.3243691698,-0.5733180676,-0.5710291801,0.8289639995,0.5986381315,-0.1687705425,0.0062892365,0.8562159585,0.7888099211,0.3973009484,-0.4715747472,0.025766097,0.2086853238,0.2383335291,0.1676544175,0.3139940043,0.6049490173,0.5479860889,0.8236176379,0.2698535027,-0.2376922739,-0.7994398175,0.91966127,-0.9467604963,-0.2379665776,0.0612541284,0.0270916433,-0.0872164474,-0.4792444793,0.5056127868,-0.0243162771,0.268483881,-0.4987745472,0.5820754215,0.6854004092,0.1262271144,-0.5103645197,-0.0885896352,0.9943198255,0.4851216845,-2.4152872073,0.6989221612,-0.0202329937,0.8013342864,0.5901145586,-0.0972692518,0.5444851295,0.7028443399,0.5216726849,-0.6891646153,-0.4728429892,0.7976427624,-0.0418722649,-0.3505569026,0.5058060884,0.8477928596,0.6986454904,-1.0809254999,0.7287894658,-0.0646709264,0.2014014939,-0.1436301855,0.8815409503,0.591239549,-1.0391581394,0.3503440883,0.1638690896,-0.2187434016,0.4007268144,-0.251607964,0.428172474,0.0774230901,0.2762246295,0.8501523709,0.0346627643,-1.1602726419,1.1004355267,0.1092449996,0.4750897573,0.812003134,-0.7208090916,0.3940940246,0.9287749743,-0.9270160166,0.4627371967,1.6714046326,0.7550099539,0.0697612065,0.241751921,-0.9191239603,0.7367531125,0.1325786971,-0.0685242037,-0.2368940348,0.6279346257,-0.1724063106,-0.5053968586,0.8462967219,0.3806351948,0.2106612758,-0.59793279,-1.5192262401,0.6624164635,0.4181329237,-0.6585515914,-0.4452406831,0.2487057752,-1.1936765665,0.5501148937,-0.6177818423,0.2186195428,0.6114035636,0.5183935889,0.3218390959,0.5975317223,-0.6679201508,-0.3835531813,0.5976345423,-0.0660566582,0.4262434204,0.5369684983,0.7598511402,-0.3219148013,0.4938659549,0.5814387173,0.8505068729,0.7175717731,-0.7213850748,-0.7931100464,-2.2642496858,-0.8947795335,-0.1633324592,0.1058179362,0.1687316934,0.6249766072,1.0048299748,0.1715656141,-0.5164182401,0.7204460741,-1.3028178285,0.3916788641,-0.9727158726,1.0193952816,-0.9105474206,0.8565984311,-0.5844726186,-2.2097169748,1.176394934,-0.7235807908,-0.7717931244,-0.0453464281,-0.5966571867,-0.5290042016,-0.6483426958,-0.3974127798,-0.7431395588,-0.7108607649,0.4983683436,0.7139588296,0.1014153986,-0.0339421351,0.8030183936,0.4977458118,-0.2416185559,0.9290562366,-0.3504340652,-0.1613545708,0.9255642447,0.3401583821,0.8549027484,0.3460556802,0.944971975,0.6880333731,1.7061451253,-0.0863573973,0.4973034046,-0.7498112088,-0.1000550229,-0.8712339499,-0.0657990626,0.8329062892,-0.4069654032,-0.1147434467,0.1979138382,1.8997849681,0.5895974692,-0.5552079394,0.8057663665,0.4452186842,0.1838209546,-0.5668647559,0.383480623,0.7623868889,-0.6017986814,0.3653264485,0.2855807976,-0.2935604908,0.7345383447,0.7989853159,0.4727977463,-0.9779727159,-0.6334734802,-0.6531771987,-0.4156365501,-1.8340345557,-0.6009117994,-0.7782413088,-0.6540942307,0.688722739,-0.0058994206,-0.801333021,-0.3544722905,-0.3469603128,0.2661509517,0.1149467038,0.4330190773,0.3169685134,0.2032520049,-0.1647048517,0.5149932636,-0.2479034996,-0.6482817483,-0.1356245778,0.4049935974,-0.585737853,-1.4684621988,-0.6891609615,-0.0025117685,0.131043571,-0.3087085246,-0.7702596251,-0.2846076498,-0.7219569424,0.173994123,1.8010086162,-0.2582660119,0.1027572115,-0.6512598073,-0.9535442943,-0.74495313,0.7813656527,0.6889637759,-0.8360209055,-0.171168599,0.1388241303,-0.8811751172,-0.2834055985,0.2709709715,0.2854919929,-0.986384604,1.9836621793,-0.5099353334,1.0505091216,0.2190704979,0.2615905757,-2.0660292189,-0.3049732279,0.8427625063,0.3164539661,0.9958886785,-0.4906860907,0.2612637604,0.0784473706,0.1696674058,0.5056002001,0.3863658999,-0.0009846659,0.6171335464,-0.3604386712,0.416470301,0.2018165726,-0.5733209579,0.9011572559,-0.0964940438,-0.6358699952,-0.3562984111,-0.781851661,-0.9902986044,0.7740834251,0.5062865664,0.0556857362,-0.1440865321,0.9835306653,0.5200803781,-0.0357716757,1.1805494781,0.8982372573,-0.6804025853,0.3547422961,0.9000632498,-0.5203504361,0.9186756858,0.9213078371,0.4473896423,0.7406641038,-0.0854093428,-0.228596083,0.814472498,-0.1711274182,-0.4433036961,-0.0734661259,0.7940819091,-0.5375052297,0.1381580217,0.3625625808,0.803427165,2.0904535596,-0.8105770117,0.3509075636,0.3513612209,-0.39876864,-0.044823993,-0.4171281473,-0.5226642666,0.6179648632,-0.5878357027,-0.6040720126,-0.8909130123,0.8005465906,0.2004752229,-0.8593435933,-0.835662621,-0.8949767645,-0.8083939238,1.709155906,-0.8267012291,0.683283253,0.8496182922,0.569188257,0.0112754555,0.4016585678,-0.9557918694,-0.6187179406,-1.2480076962,-0.168096065,0.3482810776,-0.5232311278,-0.7712054729,-0.7118855786,-0.6990287343,-0.7431996613,0.664303122,-0.5358211834,-0.5895730404,0.49346563,1.2478701788,-0.8362129633,0.0642261556,-0.6081183016,0.0582021684,0.3143981538,0.0863197786,0.9895101117,0.5249628857,-0.4670433144,-0.2869824502,-0.3665323611,0.8941337994,0.4982434405,0.5991401908,-0.9320949456,-0.7687658035,-0.8419155956,-0.5096131133,0.6843676722,0.7294460149,-1.2673600942,1.1403405705,-0.1270812727,0.5252159896,0.626686764,-0.5638847982,-0.2419069822,0.7992502154,-0.2721130934,-0.3425305411,-0.7390324099,0.6023641679,-0.1583125872,-0.7115719463,0.1675013822,-0.7556814359,0.4660968023,0.2503776647,0.4074003728,0.8789967143,-0.3156248029,-1.0127698487,-0.1255755633,-0.2236857005,-0.1526251412,0.7153751524,-0.4617299224,0.5794184637,0.7909890928,-0.9380365499,-0.0772208148,-0.2115469113,-0.8054240766,0.1653485704,-0.2792353676,0.2149107104,-0.5670379959,0.6445496186,0.6857217388,-1.5723229476,-0.0914785163,-0.8557235202,-0.4541123742,-0.2358977799,0.9899750573,0.9384466095,-0.2064246709,-0.8613512833,-0.008417149,-0.0266795001,-0.0824542971,-0.7203647131,-0.2374269785,0.1315646533,-0.9370322096,-0.0849521734,-0.6022661776,0.1128321826,1.0326921035,0.0216189012,0.2905235366,0.9409146619,-0.6815713298,0.1130667362,-0.2040895167,-0.3517898931,0.4091393644,-0.2090931087,0.0044502075,-0.8201233116,-0.0567098514,0.6933264993,-0.7491610917,1.5017331175,0.2217960509,-0.3365921401,-0.6910934335,-0.1174814065,0.9939959622,0.4061377874,0.7526645509,1.0440443997,-0.0753972905,-0.4061868375,0.2123081297,0.4220589144,-0.0664511377,0.063905734,0.1802456729,0.6435305512,1.1065248915,0.0893080574,0.9794848116,0.8937627937,0.4688792538,-0.472750583,-0.2545628689,-0.909732606,-0.0711223315,0.1603483385,0.5718327321,0.428003838,0.2916800994,-0.1085877273,0.3825378523,0.7146893689,-0.6124646278,-2.6528150578,-0.1741558158,0.447661857,0.6821866917,-1.1110618242,-0.3740407017,0.6527764672,-0.9020170817,0.4387853933,0.8925734978,0.0854238581,-0.8633631316,0.0402745722,-0.1842403851,-0.2621315123,0.2346689654,0.3915449608,-0.2936341138,-0.4159578531,0.2897304986,1.676954,-0.3786731998,-0.9221900504,0.6704713208,0.4107120279,0.0308656326,0.0723049344,-0.0083113126,0.5390811132,0.4920096611,0.4570954791,0.2510179562,-0.76119767,0.6205745081,0.4380645611,0.6327812806,0.9491618107,0.2830471081,0.1224394711,0.5204533791,0.731549782,0.970976118,0.3650052556,-0.2489205272,0.1900958758,-0.2034703348,-0.3403083333,0.8197272076,-0.8381137614,0.7516532834,0.2147819103,0.8690654205,0.3858543048,-0.1123213999,0.1522548132,-0.1169091826,0.6938569688,-0.4450653848,-0.2061269187,0.8749582082,-0.6425200381,0.377283753,-0.6036696035,-0.1347323145,-0.5006596825,-0.9400466573,-0.5478460408,0.4951475847,0.7269436552,-0.4771879918,-0.1873129457,0.4095252836,1.1105532454,0.6385134802,-0.2583082462,0.6697200666,0.7878688196,-0.3816660629,0.8381217522,0.5763008653,0.6928670147,0.481580409,-0.2926626198,0.5174512773,-0.4155098007,-0.9991529408,-0.08921712,0.8770485656,-1.0351782954,0.6387239009,1.2689365878,2.866715179,0.7190659456,0.5398453362,0.472858073,-0.1625584033,0.4724551156,0.6266480817,-1.3215449064,-0.3877753372,-0.6512080563,0.2928168209,-0.5390335285,-0.8570088179,0.2234312362,0.8809039836,-0.8767469824,-0.8732547865,-0.1935238188,-0.8442259751,0.7633330398,0.0830569675,0.3757031876,0.5618426946,-0.835539352,-0.8855901582,-0.5611005742,-1.2217433871,-0.4787409427,-0.5396567471,-0.7458923028,-0.3540586641,-0.8091013163,-0.4331818132,0.763030703,0.1093582519,0.0793458726,-0.8563758861,0.7314848255,0.0593249609,0.2154409266,0.0737691028,1.0167402183,-0.6298031885,0.2254977076,0.2331973339,0.126985799,-0.9234841018,-1.0583017448,-1.132632859,0.1437417787,0.0463070489,0.3231069398,0.7237651247,-0.7180540705,0.9959267909,-0.574672857,-0.0733754272,0.070060958,0.6008560428,-0.3271588716,0.6852043444,0.9339771638,0.736233274,0.3974165767,-0.9617394117,0.0035705574,0.8379245438,-0.1007265431,0.1989586002,0.4395883721,-0.5897138176,0.084333154,-0.7348973065,1.3438505658,0.6171322022,-0.4950216194,-0.1864707193,-0.2015744308,0.6210840456,-0.9661860705,-0.719777662,-0.3466729053,-1.074592299,-0.4292663208,0.5348950376,-0.7156601207,0.3801651174,0.3453359604,0.1022581611,0.8422223288,-0.154298193,2.6330287044,0.0463361902,0.5900014183,-1.0167448911,0.3964938125,-0.4748002161,1.0131687942,-0.7347592489,0.6853770202,-1.0795318237,-0.9225805496,0.2263102199,0.3294438776,-0.8825085332,0.2593903598,5.665070203,0.5455138778,-0.9626989117,-1.1301688056,-1.1682947837,-0.0598991398,0.4067426814,1.1640518522,0.8681476282,0.3268292476,-0.2328564568,-0.6082747783,-0.5708888917,1.5951282642,-0.2845470663,0.479859465,0.5631560394,-0.8214654041,0.7036767951,-1.1356072426,-0.8110053111,-0.1880478637,-1.0947666953,-0.2269042841,0.0795772224,0.533898273,0.5418454456,0.840317976,-0.6657621444,0.9425315475,-0.5167377708,-0.8864619148,0.9808044119,0.1697186402,0.4116052448,-0.6000146725,-0.4710507503,-0.5628980515,-0.4456023895,-0.7322161569,-0.1519425873,0.2877759295,-0.4062678094,0.1169339235,0.9021003751,-0.7660684156,-0.631946984,-0.8301249482,0.8140991751,-0.3697127815,0.4554027259,0.0914318768,0.4216515848,1.0956304876,-0.8083668995,0.0537597878,-0.6725082633,-0.482793608,0.4386007676,-0.2049073187,0.8892827841,0.3809756947,0.434494378,-0.6903941004,3.7406774391,0.0874040243,0.7679853034,0.9776950781,-0.6782499801,-0.3739801283,-0.048154632,0.8209334878,-0.2939241966,-0.5018435881,-0.8639468261,0.5464497659,-0.8212827998,0.378230361,-0.8710065448,0.1027407813,0.1123078847,0.2543565486,0.8688302891,1.2068641111,-0.2370193731,-0.6291787946,0.7436473901,0.4341020616,0.5022154965,-0.410146072,-0.3953576306,-0.101004836,0.6549472021,0.21140214,-0.4130049201,0.4226942057,0.1240263535,0.6787997074,-0.6010034808,0.4202447349,-0.3807972874,-0.0385630124,-0.6763488474,0.9231814335,0.1788510153,-0.9083921446,0.9036501912,-1.157666788,-0.6297174138,-0.547913508,-0.6187281503,0.7972004168,1.070968155,0.9300166086,0.7569034291,-0.2068242545,-0.4146696897,-0.0232944856,-0.5592690496,0.0230153362,0.2182351382,-0.4362099551,0.0598099933,-0.4308175872,0.4579461336,-0.7192345324,0.6417851142,-0.4590433803,-0.2514410013,0.9637507078,-0.118322292,-0.3125469959,-1.0558625989,-0.3668488682,-0.6755238501,0.8651054338,-0.3122879667,0.7125549974,-0.3990431555,-0.0716052638,0.4088434696,0.0625787965,0.6821451484,-0.8170607115,0.6528762581,-0.8749922591,0.2456262412,-0.8008908466,0.5207322933,-0.0901531572,0.3645843986,-0.2640620502,0.5518056425,-0.7689504012,-0.9036141077,0.3213704044,0.0657498109,0.2694071936,-1.7164208826,-0.1021924445,0.7981339274,-0.2890438461,0.9038631689,0.0218814048,-0.3098128018,-0.9086961038,0.2347011945,0.3567931877,0.3300967835,-0.2460074948,0.3053831104,-0.729941738,-0.6400762123,-0.3311936426,-0.6020185878,0.6315345753,-0.288967916,-0.8755150168,0.8991791503,0.6082688505,-0.9242273372,-0.9246616171,0.5195203221,-0.4932732536,-1.0591908177,0.2636872247,0.1555463138,-0.0340432965,0.0414054581,-0.5079640914,0.2470553893,-0.0451538567,-0.4153886367,0.4451270866,-0.0217293705,0.1437399317,0.8056601484,0.8944286869,-0.2895712304,-0.0405234597,0.1968377775,-1.0439706846,-0.1043676811,0.3211368188,0.9014098995,-0.2882461912,0.8130961243,-0.1987339826,0.730790806,-0.7358845058,-0.7045863987,-0.0102539523,-0.7837032226,-0.8469905353,-0.6351687836,-0.780875276,0.3392780188,-0.4174247,0.0724125574,-0.225318966,-0.3401556031,0.964054957,-0.4656308198,0.1791505094,0.3251125626,0.9384577314,1.063109956,-0.5636536864,-0.798019682,0.7648559654,0.4116678432,0.0550454666,-0.5079555249,0.6436697723,-0.5996930189,0.7306126664,0.559789499,-0.3798659981,0.7638172643,-0.5378296921,0.7466625676,0.1134893294,0.930573006,-0.7789061766,0.5180310184,0.4437180644,0.3425328512,-0.3071035381,0.0707705967,-0.0849198528,0.0349211043,-0.8013194092,0.6856405907,0.4085438222,-0.8341091675,-0.0740215471,-0.0559474453,0.7240845473,-0.05510735,0.4768239715,-0.4045591961,-0.2028218583,-0.8050308639,0.0699007781,-0.4601382895,-0.0782992065,0.5876458911,0.7824081842,-0.5169035942,-0.5414170029,0.5164999925,0.3285354398,1.8066531016,-0.8989736619,-0.4089510294,0.5417042069,0.2601387329,0.0845878995,-0.6032107893,0.8961508934,-0.3918303971,-0.9460733019,0.1659895966,0.7292838619,0.3146268871,0.1066390427,-0.0322073947,0.3031471851,-0.8990646692,0.6059493215,-0.2322076468,0.9669703712,0.5637491249,0.4494105887,-0.7050892281,-0.7850432667,-0.2730336997,0.3011366241,0.2033542737,-0.9017938395,0.4219513254,0.5946397502,0.6274548597,-0.2324167301,-0.4164817454,-0.3932069251,0.7179059944,0.5185099462,0.6633255524,-0.4999179625,-0.9522582897,-0.6344966538,-0.681475352,0.6026211328,-0.3875707665,-0.6679825307,0.9899476037,-0.3218800804,0.5015504577,0.4602482472,0.5093120835,0.2398111173,0.8644946396,0.684107238,-0.8099841018,0.8992645165,-0.0872818056,0.9271696556,-0.3296525787,-0.2749154095,-0.5953772312,0.0586722504,0.6740231892,-1.1110359535,-0.7209115143,-0.0288541192,-0.5289899517,-0.6136563598,-0.86359064,-0.296580841,0.5686057469,-0.6956304805,0.9913060511,-0.1727839068,-1.0267003801,-0.5927053436,0.9536923396,-0.7643858575,-0.3265622108,0.5333735854,0.8994082433,-0.5019068589,0.8651478918,-0.1325627398,-0.8324968499,0.5293424293,1.043558658,0.8741171341,0.1948133082,0.4546719963,0.1125322147,-0.3278426205
