encog,BasicNetwork,java,3.4.0,1,1589930883416
[BASIC]
[BASIC:PARAMS]
[BASIC:NETWORK]
beginTraining=0
connectionLimit=0
contextTargetOffset=0,0,0
contextTargetSize=0,0,0
endTraining=2
hasContext=f
inputCount=100
layerCounts=235,154,101
layerFeedCounts=235,153,100
layerContextCount=0,0,0
layerIndex=0,235,389
output=0,0,0,0,0,0,0,0,0,0,0,0,0,0,0,0,0,0,0,0,0,0,0,0,0,0,0,0,0,0,0,0,0,0,0,0,0,0,0,0,0,0,0,0,0,0,0,0,0,0,0,0,0,0,0,0,0,0,0,0,0,0,0,0,0,0,0,0,0,0,0,0,0,0,0,0,0,0,0,0,0,0,0,0,0,0,0,0,0,0,0,0,0,0,0,0,0,0,0,0,0,0,0,0,0,0,0,0,0,0,0,0,0,0,0,0,0,0,0,0,0,0,0,0,0,0,0,0,0,0,0,0,0,0,0,0,0,0,0,0,0,0,0,0,0,0,0,0,0,0,0,0,0,0,0,0,0,0,0,0,0,0,0,0,0,0,0,0,0,0,0,0,0,0,0,0,0,0,0,0,0,0,0,0,0,0,0,0,0,0,0,0,0,0,0,0,0,0,0,0,0,0,0,0,0,0,0,0,0,0,0,0,0,0,0,0,0,0,0,0,0,0,0,0,0,0,0,0,0,0,0,0,0,0,0,0,0,0,0,0,0,0,0,0,0,0,0,0,0,0,0,0,0,0,0,0,0,0,0,0,0,0,0,0,0,0,0,0,0,0,0,0,0,0,0,0,0,0,0,0,0,0,0,0,0,0,0,0,0,0,0,0,0,0,0,0,0,0,0,0,0,0,0,0,0,0,0,0,0,0,0,0,0,0,0,0,0,0,0,0,0,0,0,0,0,0,0,0,0,0,0,0,0,0,0,0,0,0,0,0,0,0,0,0,0,0,0,0,0,0,0,0,0,0,0,0,0,0,0,0,0,0,0,0,0,0,0,0,0,0,0,0,0,0,0,0,0,0,0,0,0,0,0,0,0,0,0,0,1,0,0,0,0,0,0,0,0,0,0,0,0,0,0,0,0,0,0,0,0,0,0,0,0,0,0,0,0,0,0,0,0,0,0,0,0,0,0,0,0,0,0,0,0,0,0,0,0,0,0,0,0,0,0,0,0,0,0,0,0,0,0,0,0,0,0,0,0,0,0,0,0,0,0,0,0,0,0,0,0,0,0,0,0,0,0,0,0,0,0,0,0,0,0,0,0,0,0,0,0,1
outputCount=235
weightIndex=0,36190,51643
weights=##0
##double#51643
   -0.2391103972,0.2783945234,-0.5648087276,-1.1746576339,-1.4178287238,1.4148161527,-0.2207266277,-0.3081988682,-1.568654708,-0.0855574185,-1.1150144646,0.3633181163,-0.6652756066,1.7020433329,0.4028982105,0.7963692383,-0.4088573106,-0.2814607897,0.2966217968,-0.4960989525,1.3117728317,-0.607964406,0.4675788181,0.5509643006,1.1860178016,0.060652715,0.7703631316,-1.3148616316,-0.7565769145,-0.7643796284,0.5739100215,1.4786942009,1.1362492196,1.6760959963,0.087940162,-0.8096287566,0.1526035183,0.8805865791,0.3095077714,0.7244914636,-0.583931756,-1.1023752261,-1.0601804214,-0.4485163973,0.402358535,-0.6239822608,0.6342666587,-0.1619309128,0.3618332994,-0.4270017491,1.2730644075,0.4678294083,1.9761583141,0.9453407253,0.4298502382,0.7432411951,-0.5098075299,2.1482748305,0.8743431655,1.7097401722,0.698235301,1.9851269752,0.8265210575,0.9023182263,-0.866814309,-0.6980386283,0.2276065189,3.6979619141,-0.0424821111,-1.0529735621,-0.0123597895,-0.0997738933,0.25013534,0.78495658,0.4804629896,-0.8579228608,0.6423214719,-0.9707445266,-1.4933073412,0.3099168488,0.0915895028,0.0551893883,-0.8087679867,-0.1156639634,-0.721905584,-0.0295211644,0.7168390011,-0.072622364,-1.7286052713,-0.8334716291,1.0805790197,-0.7320887673,-1.5860515956,0.5451701913,0.5703381121,-0.3495024926,-1.1079486362,-1.279869902,-0.4217899179,0.6405622189,0.1094573202,-0.5068843105,0.3990291278,1.5495161956,0.2330316553,0.2055516009,-1.0860007637,0.3411474501,0.4094238196,-1.3584008876,-0.3389309834,0.3849567596,0.7569534607,0.9170477489,-0.4173687867,0.6889827049,0.7215649399,-0.4397560067,0.2288454027,-0.8697381885,-0.7262114918,0.7429070376,1.1516925228,-0.1357876289,0.5314142992,1.4822359114,1.8993621195,0.9879995813,-0.2256470328,-0.0707214133,0.2473689293,0.8772572076,0.7797564744,0.3211983604,0.3217075496,-0.8857145817,1.3758077351,-0.0870856245,0.4771933128,-0.6253334363,-0.5553832999,-1.3066325002,-0.7732082058,-0.2229159768,-1.0713947858,-0.1180493636,0.7821300068,0.9359744643,-0.0034928468,0.1379241243,-1.2417171591,0.0834064968,1.0677686653,0.3623119167,-1.4247331656,-0.7084041473,-0.811376905,-1.7913487562,-1.0199414968,0.7893744011,2.0095513257,0.0298943356,-0.0176693826,-0.6931536142,0.1397083556,-0.6508953661,-0.8813455884,-0.4324681361,-1.106448334,0.167618721,-0.4468546875,1.4631290657,0.5091198987,-0.0761851453,-0.1084444703,1.6431858792,-0.4598341447,-0.6924331671,0.4395287122,0.1395285433,0.9990034403,-0.2454774154,-0.7015016648,0.6851454554,0.2012010154,0.5018108862,0.0653849653,0.9808247333,-1.8318772293,0.5964831913,-1.5409363638,1.155838294,0.3565194712,0.8274653182,0.4868902809,-0.7277168373,-1.0321356187,-1.0908067196,-0.595724475,0.4732703724,0.676492092,-0.4307079286,-1.4349655176,0.179910168,-0.5728236075,-1.0325684828,1.0715400928,-0.5165735136,1.0823539266,-0.3906776534,0.8859665168,1.204830496,1.2753502797,0.7926707234,1.2332053169,0.6636476169,0.5723809249,-0.6519584445,-0.5011340519,-0.8607768918,0.6911088888,0.0856821577,0.2833880225,-1.4179761285,-1.1786935765,-0.4496374269,-0.7325987778,-0.9300541216,-0.4380195173,-0.9025392085,1.0989085381,-0.515224831,1.2746800124,0.1245683443,-0.5557570562,1.4909829278,0.528793593,-0.1146490825,0.7370053487,1.0218125335,-0.1876736937,0.1372535993,-0.1541741402,0.6508107428,-0.3865363902,-0.0263848984,-0.9471629428,0.0354986408,0.2148081086,-0.5119780013,0.7279516767,0.1462033137,-0.0228662609,0.7143796904,0.5820249062,-0.6343055133,-0.2035825512,1.8991216402,-0.5919756814,-0.2559871687,-1.1232609259,-0.2481672546,0.2932254419,0.7484681034,0.3588749763,0.0127101919,1.0719774416,1.2791628679,0.6290475819,-0.0488963623,0.8295936559,0.2711878498,0.0791543358,0.1379376807,-0.5927754092,0.738347818,-0.3472232755,0.8503879628,-0.2880290927,0.0176503831,0.092354327,0.2726978509,-1.1727931741,1.1460719517,1.1871731183,1.033473525,0.6609587896,-0.7496333653,-0.4227692801,-0.9771015392,0.8559048453,0.7619527821,-1.0471846032,0.3433520022,0.5082582792,1.3353695171,0.0453901974,-0.4107864157,0.0091970165,0.0410032163,-0.2656992312,-0.2847680983,0.3006035044,1.7278362205,1.4351845045,0.7443624991,0.2286275657,1.1127517892,0.455802383,0.607298151,-0.9691699361,-1.542640151,-1.2832980389,-0.196119827,1.4272764832,-0.7812692151,0.1494468272,-0.6203771682,0.3116172811,0.3723594068,-0.8693558194,-0.1284106668,0.7448207189,0.9066391164,0.1227264855,0.0407663271,-0.2488870284,0.4979368205,-0.3671301182,0.1616285094,0.2731492078,-0.3892697912,0.8385330203,1.0578279751,3.6303388944,-0.4074760396,-0.4677828065,-0.7883670867,0.8791870638,0.4608982695,-0.7939059215,0.8978889947,0.8561357228,-0.3329620986,-0.3528967212,0.6808836737,0.3232452429,0.0866785551,1.8172845046,-1.034123072,-0.1593866473,-0.2211682488,-1.8480732318,0.745194612,0.6474176881,-0.3912396894,-0.2998453346,1.2162452069,0.5712716786,-0.1423805957,-0.1429351657,1.9259201477,0.6055288194,0.0195572495,0.0367037642,0.7284303043,-0.003602158,0.7230944339,0.0611047895,0.9816988125,0.1953243195,0.7942461551,0.835153987,0.3127995199,0.8317049665,-0.640537289,-0.3033144274,-0.1769217888,-0.0138307506,-1.6167080147,0.367244298,-0.3693870255,0.7769206103,-0.0042128975,-0.1262483642,0.0734251314,-0.6887207373,-0.095404188,0.3341597706,0.8913160632,-0.2077248975,-0.4941895916,-0.3508420356,0.8644963504,0.9508042119,-0.9558786384,0.4522591541,-0.7116665475,0.1786614485,-0.5552811,-1.0537082263,0.5748559821,0.6677151964,-0.4716273361,1.007845384,0.2123397043,-0.4450077117,0.0811165325,0.5668308025,-0.2619643764,0.2611443199,0.2440129209,-1.2737210606,0.2576854632,0.2537055693,0.9938321972,-0.5288006748,0.3588584494,-0.4450364945,-0.3559611507,-0.2548599581,1.38096621,-0.5342864308,0.4466750326,0.8766780514,0.050017415,-1.0461689947,0.0069176307,0.3572201074,0.4847149931,0.9525180388,-1.3229205617,-0.3418947273,0.4943911801,0.9360867164,0.5891272362,1.4611205703,-0.4167575693,-0.2992931868,2.1204226328,1.0801218957,-0.5061830832,-0.913684521,-0.9270256222,1.5090509911,0.7129803287,-1.2635233149,-0.177477638,-0.0670604692,0.6677681449,-0.1207000908,0.1387661349,-1.0022351156,-1.1188864084,-0.3857596044,-1.0382544262,-1.3580218075,-0.753805092,-0.4140769212,-0.0841746079,-0.0854897414,1.4086657608,-1.6384867691,0.6079194667,0.2689149112,-2.0294280445,0.2900747802,1.0467673848,0.0494898627,-0.4844536961,-0.7850553598,-0.0558101914,-1.1115787358,-0.5534270309,-0.2016480067,0.2735990528,-0.5497480782,-0.3525123194,-0.2315348379,1.7563872731,-0.4923311706,1.1967140276,-0.0605937706,-0.312010653,0.6263186694,0.0978233079,0.4572726251,0.5283092945,0.1400366683,-0.2196683768,0.581120878,-0.7731234583,-0.6290956943,0.5596677486,0.9536155169,1.2944055737,-0.1946324937,-0.1638684558,0.2132905259,1.3177100399,0.2119040656,0.5754032227,0.8121262458,-0.6989812255,-1.197889552,0.6128609929,-1.9849981083,-0.063324591,0.513600666,-0.3292016088,0.1578533283,0.4863861403,0.4523989628,-0.4123253621,0.7741737455,0.9398120356,1.0091590406,-1.1688646639,-0.7828794332,0.0243144161,-0.1322687515,1.7735130681,-0.2132095613,1.0087616428,0.1141373202,0.4560584915,-0.180597239,-0.6818620797,-0.2417280315,-0.4056809162,-0.9166078947,-0.7906305417,-0.5552763125,-1.2837531753,-0.2702993566,-1.154421303,0.9436257682,-0.6361811127,-0.3982333308,0.5138464994,2.1376539239,1.320201303,-0.7885509565,1.9152980418,-0.1374788447,-1.2730165567,-1.2121117694,0.2410983427,0.333825742,0.4130374656,1.3234807158,0.4359130265,0.4288236077,-0.5072027966,0.0436271603,0.3609087783,-0.101203134,-0.3477164015,-0.246234857,0.1506375604,0.1243278218,0.1059308482,-0.5125779104,-0.8300425842,-1.0303001031,0.8386042771,0.7614235166,1.8419299057,0.685366923,0.4949654165,-0.2673722743,-0.9142127749,-0.8874412459,0.8569339473,1.0525440204,1.2947056116,-0.9716566915,-0.2679484771,0.5018971376,0.2143904856,-0.9776373388,-0.7162789968,0.354316903,0.910412563,-0.136572613,-0.9393350591,-0.0652009463,-0.2441664103,0.7929376759,0.5230289352,-0.6687086216,0.5672680415,-1.1412486736,0.3050425903,0.8922852622,0.7903078897,-0.572081896,-0.6802112764,1.691514288,-0.38826317,0.2301622916,-0.3724216191,-0.1613876496,-0.0736646947,0.1436787045,-0.6965550129,-1.3851871594,0.0960947204,0.2726350031,-0.2904216161,-1.574374475,0.6824160677,0.8191691484,-0.2597895324,0.0691459098,0.5407151307,0.0390450423,-0.6842238942,-2.2782882153,-1.2265826186,-0.3548620311,0.7698261138,-0.082580864,0.6758524208,-0.1798673133,0.4051410344,-0.4821204394,0.2665686263,0.1883730042,0.7142432235,-0.809500718,0.0929390761,0.2937311092,-1.0959385776,-0.1205534415,0.3902388402,-0.306253079,0.055748419,0.1042070787,-0.7814140673,0.7455463298,0.5219440682,0.3031446977,0.0821594774,0.588758749,0.7457439075,1.0423823159,-1.2462691594,-0.1685236685,0.584726092,-0.3525253736,-0.0337669375,0.4459773508,1.1719149759,1.0842399918,0.2937011619,0.4934501301,-0.214791909,-0.4149911982,0.1542320658,-1.0438370032,0.2214244083,-0.3718564268,-0.9235345942,-0.6811817213,-0.0416732135,-0.2666824069,1.2988432553,-0.2491498776,0.2876432464,0.1303597533,1.2037039602,-0.5380370241,-0.7888059267,-0.2440291551,0.7324201796,-0.6343456235,-0.2442927232,0.1296863376,-0.0819803211,-0.1474458706,0.8330493792,-0.1100200413,0.1070211978,-0.2771811577,-0.1256863264,0.2438712331,-0.5010301652,0.2800906719,-0.0872466135,-0.5235507009,-0.189961472,-5.6780873691,-0.6100771839,-0.0852783487,0.7830484856,-0.6108042992,-0.8839127418,-0.2430016717,-1.2633854831,1.0984273808,0.4431799662,0.2755247988,-0.3943621235,0.4933585471,0.9062132275,-0.4587319362,-0.5023250372,-1.1940370618,0.976189062,-0.7311192806,-0.5115487907,0.7610904192,0.376286193,-0.4968660055,-0.9090428868,0.1596004482,0.3173766008,1.2871101682,0.0672137029,0.1442842499,0.057124081,-0.3339032695,1.5525705021,0.1510867608,-0.2197892268,0.5554749408,-0.7074300372,1.0590158848,0.7430322676,-0.5428794792,1.1492818976,-1.0133506539,0.2584279459,-0.5955367968,-4.3138734979,-0.2244455835,0.896888745,1.1950219845,0.6843004703,-0.1277254177,2.7104158019,0.5387180759,0.6138926722,0.4377999999,-0.680523173,0.6976392715,0.2609271818,0.4992856707,-1.0472662006,-2.1575267067,-0.4614241054,0.6150343008,-0.1009630643,-0.7466817369,-0.0234068218,0.7003248492,0.8830680404,-1.0159543844,-0.0917107698,-0.9597161412,0.75989426,-0.0419481972,0.0386591289,-0.6699000584,-0.2637493918,-0.5197904337,0.0371377299,-0.0185299803,0.8917427842,-0.361301987,0.9837600341,1.6226329154,0.600272701,-0.4270186834,0.523754985,1.0635505306,-0.0931294996,-0.915111482,0.0015384452,-1.5243155407,0.5763358215,0.5981128226,-0.9690791504,0.0890691784,0.1180034006,-0.8572843506,-0.1899244943,-0.9163221164,0.9648773542,0.2615018265,0.3700257243,0.8116185229,-0.6388305976,-0.7314693958,-0.1289829071,-0.3709328324,-0.0095863019,1.0894248511,-1.0913121,-0.2215801193,0.0216391393,-0.3918901336,0.6655927235,0.3338132805,-0.5735834516,0.9992989915,-0.3376882259,-0.1235662283,0.7922377774,-0.1600145634,-0.7825019016,-0.6815156181,-0.6025592961,0.177880367,-0.2990728222,0.4158854985,-0.8314209034,-0.8782574498,-0.169558609,-0.1299744914,-0.9264859421,-0.2045479176,0.7019334428,-0.2192365601,-0.8380754593,0.9827369224,1.2614953616,-0.4455964048,-0.0350434039,-0.6729276214,-0.8630583097,0.6831215943,0.472337928,0.4181606832,-1.2269652413,-1.6979461995,-0.3735191009,0.4266355356,0.6852205869,-0.2257113319,-0.3384573106,-0.2324553292,1.0795377169,0.4722002543,-0.3497794173,-0.6985869492,0.4204185048,-0.8090716759,0.755819008,-0.4198110528,0.9884713082,0.5247965491,-0.9676645792,-0.9943403418,-0.0415232204,0.7491022453,-0.748635158,0.4697143381,0.5814483997,2.8059254626,0.8728352131,0.5235444023,0.877551621,-0.4477726454,-0.7015447197,0.466671468,-0.5113322443,-0.8538112955,0.3849606897,0.7682989775,0.2724155341,-0.8545935702,0.8005807942,-2.8698267104,0.5390297632,0.8698747813,-0.7547272228,0.159957511,-0.7245057017,1.1723644317,-0.0901381761,1.536873139,0.6738218774,-0.8241454367,0.797757332,-0.47433195,-0.0038537873,0.2757984422,0.3177645168,0.6094092269,0.4404960577,0.19689922,2.376449557,0.6240690368,-0.6438924351,0.8549731133,0.6788882809,1.493777772,0.1853198034,-1.9673160808,-0.1458383305,0.0402222098,-0.2864468957,-0.73747512,0.1309651467,-0.1195069595,0.2535949293,-0.6760331843,-0.0150202662,0.3179795358,1.2329821777,0.4889972205,-0.5988853212,-1.4841449284,-0.0042755325,-0.7889106663,-0.8695340782,-0.7457962848,-0.0700302452,0.9455416574,-0.2337359635,0.5287814559,0.1854787535,-0.8626716643,-0.9985807805,-0.756824966,-0.5321968842,0.4845349305,1.7505098736,-0.2712621835,-0.2551896382,0.7456319417,0.8182025451,-0.4352737101,0.7045391832,-2.4473925798,0.6118293405,-0.1937059439,0.2374112958,0.8570564098,0.4586289095,0.8646603825,-0.9400302672,-0.2591402858,0.4633570958,-0.6183208451,0.3036469134,0.3821155312,1.6026091782,0.9532143448,-1.5020768421,0.5952659449,0.3674495104,-0.5234352838,1.0485530349,0.3643728849,1.8008946431,3.2944122355,0.3906242341,-0.7647936996,1.1317666891,0.9685100604,-0.6899149812,0.5592679322,-1.2420464573,-1.7365465124,0.096134898,-0.1462389222,0.6431907836,0.2773703789,-0.0591633714,-0.3389404937,-0.7186479401,-1.3177450178,0.9075223098,1.0615815296,0.1772019179,-0.1446536684,-1.3861084129,0.1508623081,1.2757652695,-0.8640735919,1.0642303708,0.3676518571,0.430046258,-0.2942455085,1.0554194372,0.8598778909,-0.0188416738,0.2724134995,-0.2294288601,0.277580051,-1.1879426308,-1.2430067543,-0.1193985332,-0.2483272811,0.7466267184,0.6079347415,-0.1542518388,-0.4477748787,0.6310212664,0.4476371612,-0.2348845803,1.0685997046,0.5663015228,0.0568991427,-0.3161866193,0.4733636936,0.9457879868,0.8189962881,-0.7722269784,0.3789099746,1.049076469,0.718923425,-0.5634439732,-2.7683011289,0.7460925366,-0.4729925843,0.5716320195,0.1032811454,0.6232029003,2.0805668116,-0.208270273,-0.1425941744,0.6208737072,-0.8800453895,1.060464516,0.242157317,-0.3779100205,0.1059663325,-0.8469246421,-1.2801681068,1.1738008186,0.2430090583,-0.9750000679,0.8443851426,0.8099809149,-0.7400687467,-0.6070885509,0.4801302039,-0.0677398176,-1.3312899511,0.8794467293,-0.3488029819,0.0929570245,-0.512702266,-1.3838820508,-0.4592477169,-0.239309964,1.3718288541,-0.8749522051,0.4753659226,0.5310006892,0.1949760868,0.270345077,1.0717661615,-0.3375933833,0.6877977149,-0.5206842407,0.6982742249,-0.241066707,-0.6877980405,0.9036301933,0.7501496356,0.1241639301,-1.0202986155,-0.7555762231,-1.2255175812,-1.8015762329,0.3471988887,1.7420112267,-0.8052006851,-0.9671993261,0.0211713531,-0.5248556916,-0.1837881837,0.8473537459,0.8533863402,0.3837735837,0.6742465333,0.4682755636,-1.0630491859,0.0541504835,0.7006987921,0.6650102728,1.888487824,0.0826075364,-0.8561412871,1.25939612,-0.3082866201,0.2984861098,0.2815878221,-0.1250041834,-1.5830011643,1.17152296,-1.0534022823,-0.0335961596,-0.2829652126,-0.6650282767,0.4440727294,1.0378085369,0.0179199179,1.5710046201,0.7428584067,-1.1665185226,-0.2271873415,0.5349396774,2.4380726232,-0.3137445353,0.2480826471,0.08541949,0.1772952008,-0.312408746,-0.9856685956,0.8608184717,0.2007057804,-0.7520884505,0.0140757052,-0.8568097207,-0.9039342501,-0.4028055788,-1.0310634975,-0.5187333123,1.3391044152,0.6579665831,0.1454296696,0.5924814861,0.8269746054,-0.1275571841,0.9730300125,0.9385132468,0.0867912353,-0.9820774817,0.9158505629,0.7027083463,-0.247767536,0.6862588967,-0.0964825274,-0.2165816975,1.4303420197,-0.6775121868,-0.8250551113,-0.769100302,0.8779320675,-1.8342071685,-0.3838318904,0.1520500154,0.0271833173,-0.0399116102,1.8763356842,0.0426071708,0.536575452,0.3479577954,0.7714844193,0.6641184016,2.5098162024,-1.9492015578,0.0104721697,0.0622610869,0.7999121787,0.0320179553,0.2539965213,0.3828924536,0.5587670577,-0.0253140579,0.4128457972,-0.1017717981,0.3854936898,-0.6074511939,-1.4849581166,1.3053027769,0.0297776234,-0.2033714715,0.3600574924,-0.2217347899,0.2967626402,-0.2359412538,0.3523723023,-2.2363375032,-1.2579507061,0.001530817,-0.7268607709,0.261272255,-1.446713891,0.4901922638,-0.8686688196,-0.949615107,0.007548255,-0.2022183517,-0.0991759846,0.9241039284,0.4084474971,-1.1425151674,0.5259158149,0.2246778862,0.3532165353,-3.4286410981,0.6321106415,0.3898593541,-0.0283189614,0.9110611666,-0.2857358834,0.536124651,2.2450159711,-0.255193814,0.9687677878,0.4379514051,-2.3862310855,0.5367161465,-0.3574224474,0.624862578,0.2757711793,-0.4524227065,-0.2715168831,-3.2034101201,0.9556767978,-0.9786888959,0.2491286408,0.4580692867,-0.7100930127,2.7961649638,-0.4306095294,-1.0205823693,-1.6232525078,0.5165629372,-0.8691136361,-0.5145956525,-0.6242832049,0.530365522,-0.1613388495,0.921063521,0.7200545772,0.8449162624,0.4305420298,-2.1192126428,-0.0011464916,1.3097729758,0.9605696758,-0.0192901758,-0.1851171882,-0.033793018,0.1226206971,-0.135233759,0.2796828394,0.6668584017,1.3441262579,0.6223428962,0.1267595043,-0.278924942,-0.8931057891,0.667282877,-0.2898924049,0.0846002074,-0.7749724495,1.4049661824,0.7190928408,-0.141305448,0.8404468088,-0.39240066,0.7233986588,-0.686157343,0.6488908224,0.5277819929,0.7728746785,1.0505839263,-1.1907482207,0.0538583626,0.609427292,-0.1245500092,-0.0461603994,0.257540461,0.8447315573,-1.1762346096,-0.7722697985,-1.728683175,-1.3600058848,0.8416986607,-0.0923189065,-0.5452515983,0.7959153378,0.7776716192,-0.4537175778,0.3309471664,0.3676833315,1.0666413536,-1.1829100872,0.4459196279,-0.183792696,0.651668068,-0.2008456262,0.9865280044,0.7146675531,0.5299368363,-0.1846823669,0.4376000491,0.5140745294,-0.7079649198,0.1406010525,-0.1929683338,-0.1503538939,-0.8175500978,0.5745785755,-2.2214599722,0.0429547939,-0.1598071898,-0.9057657474,-0.0960109126,-1.8980092067,0.5903332041,-0.650656688,-1.1242968912,0.6476702052,1.2830972069,-0.397981883,-1.2546400657,-0.3741642497,0.8380439347,-0.3475939789,-1.2736501274,-1.1096180766,0.6909213404,0.8275925725,-1.1510530192,-0.6574002864,0.8176017483,0.5452962022,0.0920775221,0.4610595504,-1.0553958614,-0.1220310278,-0.4511480444,-0.5352605784,0.8154790109,-1.9058114685,-0.7873170203,0.3909052628,0.5304709297,0.7562165871,1.2289632038,-1.3187191267,0.2712617767,0.3970493346,1.3952543679,-0.7021205961,1.6058109797,0.1132308698,0.5093590143,0.4900275849,-1.0172374221,-0.2321488403,-1.8564463831,-0.7964328043,0.4431934505,-0.5824077652,-0.5600353474,-0.5300143065,1.112505206,-0.8138040149,0.2941122394,0.6482730962,0.4940846508,-0.1022740055,2.060196231,-0.534092274,-0.6406223078,-1.4151628073,-1.5238122483,2.8692645887,0.8844893127,-1.3762073587,-0.2614634698,-0.7924203471,-0.8795274775,-0.2500753268,-0.2706605227,0.463943788,-2.6097754633,-2.2054369391,1.417543425,-1.7749765425,-0.1543749385,1.4713032838,-1.0175005915,-0.9368889041,1.793245391,0.5260568304,-0.3478305399,-0.4717890149,-1.1763685529,-0.5805173271,0.1986722648,0.6062030628,0.1155717489,-0.7081417943,-0.1789494138,-1.003454223,1.2009393096,-0.7655857999,-0.4914368019,0.5535956522,-0.2441879932,0.798476234,0.5736858157,-1.1392074232,-0.0690151139,-0.68483717,0.1187026324,0.2493731409,0.5020271204,0.7323054093,-0.0264253167,0.7922442026,-0.4053330211,0.8355097509,0.6772210303,-0.5321784836,0.5243615458,0.3056543485,0.5016509976,-0.4589277982,-0.6530108043,-3.6130770374,1.321215531,0.5132143128,0.4440886824,-0.3865464269,-0.1461351703,-0.9718114791,-0.9186141361,-1.7829192387,-0.0786513237,0.5849853027,-0.6132647262,-0.8135405499,1.0748788598,0.3867281239,-0.2776235003,1.1349010308,0.7972619694,0.4036212901,0.2934925744,-1.2037102771,0.1776883841,-2.063474338,0.1393961369,0.2334137925,0.829736942,0.2293319413,0.3652516837,-0.7217382741,-0.8430024306,-0.121903082,-0.1153175326,-0.0455413568,-0.3280357034,0.1807699225,-1.6781933757,-0.1516210791,0.85524373,0.9516663552,-0.2126982903,-0.7669675566,-0.8978383062,-1.6539886291,1.4872036846,1.7123153197,1.389395416,-0.353270296,-2.6472176787,-0.0673029037,0.1879264965,-0.2176373431,-0.5442023074,0.5766184004,0.48220161,0.452452685,-0.7540297088,-1.9428217073,1.154554729,0.5236399093,1.3356034052,0.2702977494,0.7439252012,0.8227434444,0.1105460342,0.7797572726,0.1359863412,-1.358556886,-0.2574085951,0.4246031464,0.3629655838,-0.2570344395,0.3380620294,0.6691767221,0.8113459119,-0.5207780726,-0.6254697925,0.6397147455,0.6547679176,0.6068421729,-1.083905195,0.0053233299,0.0855180553,-1.7453507434,0.5772873259,-0.0714683183,-0.0530246855,0.494756328,-0.0367419009,-2.5040513779,-0.3133957688,0.2532207942,0.4574204811,-0.327302796,0.7170168552,-0.41886328,0.6525357978,1.3197830627,-0.8238905767,-1.6881210748,0.3203463663,-0.4259395286,-0.770947729,-3.0815066571,-0.8541771558,-0.3334136673,-0.8411588798,-1.3854755588,-0.6031111781,0.762844672,-0.8001039095,0.9784588452,0.8040060315,-0.9658716305,-2.1706696817,1.0336093657,0.2915993113,-0.4540561223,-0.0101921072,0.2695141246,0.3754197341,-0.6946277857,0.5390892986,-0.0681849498,1.3218226273,-0.7359997287,-0.5597050993,0.4113559402,-1.0291818045,1.0186866063,-0.7291111816,0.104291556,-0.5458224963,1.5714776462,1.0148085755,0.7664287362,-0.6211938601,-0.3398808612,0.2891782345,-0.9119437077,-0.5063344584,-1.1839657376,-0.3696655969,-0.3396837886,1.1336982037,0.9512673073,-1.1746164205,0.0398746353,-1.0294492701,0.3880272826,0.1635920577,0.3958178544,-1.8667406418,-0.7031188119,-0.0011896047,0.5699948807,1.6908910327,1.1584437969,-0.6596648834,0.7776962385,0.7323517746,0.3985396385,0.4277557101,0.5733427758,-0.345220331,-0.3824696736,-0.0796604715,-0.3234031012,-0.2568934799,-1.0507250392,-0.2812170538,0.6558364295,1.1946049185,0.8207096676,0.5067197705,0.0499735063,0.4382851367,-0.7719504315,-0.4175314451,0.352458367,0.6423390255,-0.7338591848,0.0771770136,-0.0064126099,-0.366974372,0.4876881374,-0.8581555237,0.5501024108,-0.4442075384,-0.8034096357,-0.3827163947,-1.0041527803,-0.2635228592,-0.4736478559,-1.2382615847,-0.3428466497,0.1178533651,-0.2280240698,-0.4802178551,-1.4698371136,0.3677484577,-0.1053282261,-0.1164743432,0.1486625888,0.3030835521,1.0070638933,-0.6571959313,-0.0915162914,-0.3156297426,-1.2277167367,0.5529781051,-0.1984715876,0.4919357735,0.2814798886,-0.2799433448,1.2608567726,-0.7154410277,1.4972565358,0.0210630419,-0.3935585288,0.0459357922,-0.0946268988,0.8223216028,-0.7112347383,0.8432470158,-1.3335825393,-0.8077755124,-0.2965718647,-0.3460611207,-0.6355061158,0.3788807438,-0.1157084049,-0.709187114,0.3192061683,-0.1939236445,-0.8059751646,-0.5444593435,-0.9740827113,-1.8606799253,-0.1103926785,0.0693770764,0.334778084,0.4610154273,1.3642885291,0.4706172827,0.5503358357,0.6190634871,0.8862506271,-0.3406008605,-0.0134243004,0.394133469,0.361073343,-1.0390681947,-0.3123937324,-0.052482006,1.2390610358,-1.971691563,0.9906611297,0.8196987473,0.7407367104,0.5411186048,0.8786253706,-1.9671766154,0.3338106968,-0.1686713368,-0.5852884044,0.3616089937,0.6589972368,-0.1809768372,-0.2185107555,-0.2903971091,0.1809268341,-0.2124794622,0.2132240467,0.2009443987,0.0489598798,-1.0137423181,-2.1005252128,-0.1830848205,1.4591578094,-0.7939249003,0.1241817477,0.4416969171,-0.3266916677,-0.431252264,-0.8133523976,-0.0804198818,0.5493037572,0.6703500728,-0.0234713244,-0.1406301744,-0.1009491471,-0.6513502593,-0.5613486229,0.6848847225,0.5046178586,-0.5643087868,0.189404814,-0.1351231339,1.0378638619,0.2274544304,-0.7270381135,-0.7686694571,0.0037216671,0.611378856,0.6697975109,0.70132858,0.5867934396,0.7375584338,-1.1719038798,1.3230358347,0.9335446014,-1.0076624693,-0.6113371748,-1.5126754738,-1.5359390792,-0.505110967,-0.1852448799,1.0139710689,-0.9464664057,-0.8648288358,-1.5411302432,-0.0023941959,0.5781476917,0.0987002692,-0.2892394401,-0.5236366399,1.3022241701,-0.0129066738,-0.2779364638,0.3066264084,-0.0995937897,1.6206575014,-0.3886953281,1.0381319639,-0.4738488199,0.9661222015,-0.5131546247,-1.0054247294,-1.855630967,0.775927791,0.9400764744,-0.433339654,0.2342804069,-0.8373476313,0.6599875936,1.6340069897,-0.5803862634,1.5011515676,-0.9474765854,-0.2077877959,-0.9329035901,-0.0368976225,0.177377024,1.7166400225,1.2780998551,-1.6671244529,0.2110581799,0.5366471585,0.3642446253,-1.8126765846,-0.4976318999,0.471110041,-0.1146409622,-0.5491337891,-2.4428610482,0.2774059332,0.75669677,-0.1993798074,-1.1340454473,0.2810754547,0.7457106893,0.9535914359,0.7900190933,-0.5873934439,-0.4074624727,1.2674178052,-0.6084613541,-0.6326434237,-0.3329307973,0.1287081532,0.1840158318,-0.1831642127,0.0085312833,1.5814732139,1.8627102667,1.3157290316,-1.0009231904,-0.2579461374,0.1481432777,0.1505659511,-1.284960968,-0.5628171919,0.2742731727,0.2472379196,1.2935339124,0.3887929012,-1.2150620432,1.0573533504,0.2267034028,-0.9325926146,0.6920422708,-0.2458203921,0.0277567793,0.920633244,1.7570325327,0.847987978,-0.6518905828,-0.3528789491,1.0995004228,-0.6825673684,-0.9135460439,0.8220541737,1.154810118,-0.6419982069,0.5922678224,-1.0648339671,-0.537858252,-1.3414024697,0.4607225139,0.5933363493,-1.555958911,-0.9541297973,1.4721099151,-0.7407522103,-0.5201000308,1.0382955547,0.2633691144,-0.0770498829,0.8601825442,0.1543868635,2.184034158,-1.0132687002,1.2602442827,0.381225023,-0.7133203526,-0.4948736493,0.5282238711,1.1894621662,0.2713091234,-0.2701513355,-0.3297975642,-0.5005764487,-0.1781051813,-0.4692179871,-0.5318622779,0.1220008203,0.2636716152,0.2067613852,-0.0731300338,0.7507426855,0.5199294057,-0.7532083924,0.2003955829,0.7845130055,1.2152077401,0.5166021249,0.8835581262,-0.8479536748,0.6219525283,1.8519184141,-1.2073184653,-0.7411629207,-0.5964472683,0.6691751789,1.5292331022,-0.2564411174,-0.2753307975,-0.4621872155,-1.0197722006,-0.4572394612,-0.0582096719,0.2383677629,-0.8902996242,-0.3594820602,-1.1894013716,0.9495500178,0.5291199846,0.9708144841,0.6458704482,0.7292920218,-0.7890595434,0.1445874223,0.5644925612,-0.4029017647,-1.1269596211,0.6276470016,2.1084509979,0.4155563195,1.361535443,0.8890491538,-1.2019801431,2.8613337737,0.9320155082,0.6991744038,0.5145129929,-0.4367357369,1.2294164346,-1.8171853494,0.7628481802,-0.243147506,-0.3968939012,-0.2113853486,0.396060611,-3.2588797588,2.9544550619,-1.1452091444,1.0178941957,-0.3783347274,0.4991526543,-1.2239252898,-1.0889098819,0.2304226059,0.7018323424,-2.17679001,0.4977547921,1.7142936247,0.9676312402,-0.2923832956,0.3158086515,-0.5210342733,0.3728190972,0.4130163166,0.4143931445,-0.8134651572,-0.4656527604,0.0762768584,0.9402268716,-0.4686070879,0.0901673158,0.7522430715,0.5869177158,-0.7874227681,-1.3230938596,-1.1214127106,0.7602681538,-1.0359701622,-0.0450456595,-2.7012026871,0.0440506094,1.1620328825,-1.3153241891,0.2239833041,-0.1287372254,-1.288048267,0.4413821557,-0.7125429323,0.6954683798,1.5672287334,-0.0345304468,0.0872608196,-1.2243257341,0.4615539826,0.5921745211,0.311613562,-0.7864961227,0.6007605841,-0.6822056418,0.8384259712,0.6254316301,-0.9272079657,0.475435936,-0.5742669719,-0.0537988763,0.4687800963,-0.8285854612,0.6031628159,0.3979154656,-0.8391703429,0.6081365055,-0.6070826099,0.2302324427,-2.1243339192,-0.9109662676,-0.0992009375,-0.759823146,0.0243210264,0.8173979953,0.1593028372,0.6743906759,1.717917599,-0.1616094317,-0.3703530005,0.5151496187,-1.5068011,-0.4734912075,-0.3899443443,1.7372501972,1.150487805,-0.2711854403,0.6031416263,-0.257756003,0.3530969109,-2.4929886456,0.5034447631,1.0092883803,0.9529710911,1.6778167183,0.2639432453,0.0401080382,-0.6785069203,0.1014337972,-0.211417925,2.7814717266,0.5935343011,1.2642468547,-0.0360724834,1.1827521124,-0.932612084,0.3785481323,0.0297171942,0.3018599372,0.6200217395,-0.6141191956,1.0772648482,0.0426632515,0.5808359947,0.7275867,0.1233114627,0.2139482511,2.1440329179,-0.7039117944,-1.7236831058,-0.713780935,-0.6595261671,0.3224503023,-0.6019966778
   0.9493720634,-0.2125061439,-0.8363456241,0.1196162287,0.3064372019,0.8470248608,-0.4331647717,0.4943082392,-0.2151785741,-0.2455812221,-0.6939050746,1.2356696346,-1.028544748,0.6112938116,-0.2655548506,1.5507299708,0.7042109829,0.3967140206,-1.5268616624,-0.0216348852,-0.1443661096,-0.1813812122,-0.7118099181,0.7150086455,0.6337829865,-1.0007576214,0.1932912869,-0.7664436306,0.3411592609,0.3500120596,-0.4221422103,-1.726199174,-0.5665262973,0.30294669,0.2120157777,0.4178571726,1.0924918762,-0.0182170958,0.6488093926,0.2996378318,-0.4684099123,0.4417399934,0.9842920707,0.5569766922,-0.3276540029,-0.1041359712,0.7624148543,-0.5462880262,-0.8315669042,0.6367635072,-0.1999960543,-2.8908401433,0.1327996037,0.7355839322,-0.5949026425,0.5840087992,-0.3656341949,0.777361632,0.2742387547,1.5867729876,-1.0948550486,1.5861681126,0.5818484146,-1.1066050915,0.4536863719,0.9673097167,0.070616774,1.4620711412,0.6250536457,1.4237761284,0.3883749899,-0.3623069272,-1.2075365577,-0.8133240613,-0.8512611377,0.4755811939,-0.09418235,0.227882636,0.0044003889,0.1282679594,-1.5792451233,-4.1867192266,-0.8115571275,-0.2408773146,0.2639700934,0.8371206668,0.2391564611,0.3731952664,-0.4039845052,-0.6384870263,-0.4642746046,-0.9903574746,-0.8100726562,0.7545602169,0.6714907826,-0.5688073072,0.4002572369,-0.2588444319,0.8193864941,-0.7798158551,-1.0257216665,-0.7397500752,-0.5339155863,0.640163124,-0.0858526177,-0.5598093617,1.2529537708,0.4548867288,-0.0423409813,0.5441355616,0.7596415348,-0.1954725046,-0.7064848839,-0.5998800626,0.0308923673,-0.2978430363,-0.7865489475,0.8133090025,0.111098751,1.5241883757,0.4916036442,0.7086391893,-0.6472773843,0.5811019117,0.0264966923,0.0085916076,-1.9691249596,-0.0656917769,-0.3863434022,0.4074693086,0.1123593848,-0.368977666,0.6799948335,-0.4206949314,0.3393988577,0.5298527046,-0.3195345222,0.7014777366,0.7961208866,-0.1784008503,0.7149580846,1.0573038437,0.0747560482,0.3461140618,-1.1298481599,0.1473707671,0.3961423144,-1.486543843,1.1189168883,0.0647968148,-0.1980040947,-2.0693118991,-0.7691897115,-0.5888965916,-0.3307534633,-0.9784718034,-1.5042560138,0.0449902385,1.0329643312,0.771405325,-0.4629104013,0.8571921592,-0.6834198197,0.4199071432,0.0959550542,1.2608334026,-0.5416881498,0.1568540751,-0.0224442407,0.7174940296,2.1531782471,0.2270017442,0.9350198199,-0.644954443,0.4242996808,-0.8869474828,-0.1364281212,-1.076012303,-0.7628012043,-1.3943934419,-0.5822315006,0.9354544188,-0.4459588313,0.0976404223,1.00742984,-0.4815861917,0.6645903558,0.1284709116,-0.6728700373,-0.2637029876,-0.6750546134,0.4882230788,-0.1814336815,0.2192377326,0.565793053,-0.141594602,0.8826173111,-0.4681180266,0.5031250698,-1.3091437287,-0.9478892539,2.1544281872,0.2046734844,-0.3015459085,0.0547731858,-0.1592947413,0.6440829512,-0.5841237877,-0.7167722452,-1.0916844311,-0.9971529678,0.335330505,-1.3386607467,0.5366311468,-0.2649490712,0.183296721,-0.5699037095,-0.3836536942,-0.8240945296,0.4679922695,4.1556051637,1.2560936844,0.6898194148,0.3221120218,1.3393028639,-1.1827797836,-0.2023154468,0.0279887964,0.517619822,1.576809811,0.7427202274,-1.0175995451,-0.3438826281,1.7880781009,1.5610090571,-0.4115547102,1.2150642768,-0.5893284267,1.0713220574,1.8754674199,1.3669643413,-0.0826380053,-0.390134129,-1.3549435303,0.7761879067,-1.4924277152,-1.2655251391,0.7840725788,0.2480552888,1.0470087034,-0.179924246,0.1424742673,-0.0124637646,0.1973559511,0.5598282866,0.0950630703,-1.1353945895,0.5688181237,-0.5334892564,0.858408856,3.8297966673,1.5634617716,-0.4766456726,0.1379530215,0.7792247685,0.0445694218,-1.4562081534,1.9597210054,0.0639491024,0.9835498091,-0.7115801693,-0.1088800509,-0.9914636487,-0.7312412113,-0.4659614584,1.0755136589,2.6582751711,0.4383362108,-0.0220283322,2.0594442058,-0.8896340091,-0.6682197546,0.3806549698,-1.1918295746,-1.867743217,0.6219464293,1.3566580057,0.6849033008,0.5214864305,-1.0574098389,-0.8678941668,0.398357122,0.8072745747,1.0151676063,0.4674582355,-0.158024245,2.0134516501,-0.0123346258,0.2098219796,0.976570766,0.0552920607,0.5566602146,-0.3827206553,-1.4821797663,-1.2189049867,0.4451110789,-0.7255417013,-0.4692189645,0.5296654061,0.330497956,-1.7555727962,1.1008175466,-0.5270698534,0.314337975,0.9223619603,1.7846239331,1.6626746312,0.0371794741,0.9583051454,1.8273192367,-0.0330600687,0.6066474769,0.3722768662,1.2097903928,-0.2721414674,-0.0609026722,0.6764947065,0.1232411831,-0.9572879103,3.2111908418,0.6507868921,0.4998180646,0.3689221503,-0.9061371671,-0.9873955472,0.2074433394,-0.4872999929,-0.3354148176,0.596093895,-2.2806767281,-2.0918070847,-1.3646275217,-0.7963263035,0.164733594,0.0756061162,-0.0565544282,-0.778590723,-0.4625093122,0.1804613039,-0.3167934675,-1.8351029279,0.3574687217,-1.7840500151,1.3156731878,0.6649215103,0.2797782469,0.6146693114,0.352031297,-0.5066105077,-2.6564733442,0.7316299864,0.9372540761,-0.0206088252,0.112618023,0.449663882,-0.2936995355,-0.971354306,-0.324675672,0.3621402895,0.6500520525,-0.0494063769,0.0675629699,-0.8614481234,0.2711434254,0.2575431886,-0.4477149664,-0.4995560233,0.2455084932,-0.0133477358,0.2292533503,-1.0084463072,0.1026542893,1.1912995608,0.6487154364,0.9064787681,-1.891629192,1.354254251,1.1531900378,-0.9151082096,0.6948942055,0.377629895,0.7908923678,0.1842828084,-0.1190957656,1.1089953759,-0.6675992487,0.0546660746,0.7305406329,0.6205552718,-0.6759286941,0.1221518335,0.8160050421,-0.6956611908,-0.3679718906,0.3788330827,1.5574235882,-0.399314112,-0.4587344807,0.1683152018,-0.0552358219,-0.7346298909,0.5878538123,0.4486403238,0.7688372812,0.3457021441,0.8929508983,0.8219463615,-0.6624540325,0.9666206123,-3.0444376853,0.0621202121,0.7313866039,0.4894042949,0.699567269,-0.3089530233,-0.8826108479,-0.9558072251,0.1945120982,-0.9752373029,-0.0799742148,-0.1638059363,-0.2056067033,0.64762507,2.2153985867,-0.5910718844,0.518645076,0.1475202365,-0.1146097251,-0.792421402,-0.8313234806,0.8255398474,0.2664982928,-0.3659714588,0.5347321206,-0.4332930506,-0.2250187199,0.099484463,0.378429293,0.4607367697,1.4166504263,0.5655327667,-0.8993022933,-1.5514281041,1.7445787315,0.9352605228,0.9283022212,0.8642649771,-1.4276552829,-1.240134517,-0.3641983932,-1.8944942237,0.5141985816,0.1730731894,0.5887615825,-0.458064378,-0.7724680859,0.2763607235,0.2121269793,-0.4260197729,1.4132442839,0.522258881,-1.2426647415,-0.1721890792,1.6957948599,0.0788644361,0.835573389,0.6479289579,1.0542575621,-0.6183452282,0.567835039,0.577235575,0.8093312126,-0.5202086627,0.7887875123,-0.8677692597,-0.8357939446,-0.8437470053,0.3495469064,-0.8338656459,1.2071998623,0.0102463772,-0.9048622002,0.920734137,-0.7183023354,0.0679630253,-1.2640102885,-1.078193271,0.6940579042,-0.6050065729,-0.931704389,-0.3928567388,-0.2243899376,0.6718806507,-1.3743367148,-0.8281985815,0.8306623212,1.2739690562,-1.3056905544,0.1756543948,0.2459280089,0.1800856106,-0.3473205339,0.8430225239,-0.7996670625,-0.3853959372,-0.47991307,1.0832658897,-1.0308074214,-0.4904298615,-0.5490999225,-1.5280818846,0.8347281643,0.5007463175,0.3651057355,0.7072658974,-0.7491709102,-1.8056807503,0.5252337361,0.4657235106,2.0962168333,0.3257499348,-0.1456526632,-0.6270572559,-0.5058327205,-0.5912807933,0.0812105164,0.7198306927,-0.0971320047,-1.4090573675,-1.070174279,0.5515666584,-0.8303225368,0.7518876768,-0.3524783657,-2.8986875847,0.761450819,0.0447062986,1.2862681625,-0.1087501026,-0.3233988934,0.7549642715,-0.0341535491,1.830308758,0.1800172165,-1.1587900315,-0.946420638,-0.8852840963,-1.0740782041,-1.6723946398,0.5152114248,-0.0600218599,-0.5201539684,0.4006196923,-0.635559282,-2.4929569308,0.83479745,-0.1676724892,-0.1591862101,-0.5235210074,0.3262637378,-0.770272282,-1.5786475861,0.8923878327,0.98418797,-0.4165946206,-0.3033764159,-1.0293397875,-0.3697376362,-1.012631696,0.2624489198,0.0207070856,-0.3599483177,-0.8656819155,0.4178753615,-1.0534291867,0.5756678353,-0.3750018154,1.3106440812,0.6675322378,0.0231726613,0.2340837227,1.3971097613,-0.0787951274,-0.2417131838,2.2351258434,0.2662718528,0.9605961168,-0.4665078909,0.7447171581,-0.1842665849,1.3392756019,0.5445953427,-0.4143273105,1.8804910059,0.0152875299,-0.6693198927,-0.2683423059,0.8560159543,0.456795497,-0.2396804968,-0.455289425,-0.5789208723,-1.1499007445,-0.9558276964,0.226744773,0.1828388703,0.3050177136,1.1871225319,-2.1225018276,-0.3880247963,0.0632156863,-0.033937864,0.4629016133,-0.1220342868,0.5519714713,0.4976658737,0.4421031129,-0.8385032398,-0.9874388299,1.3578123965,-0.8999918333,1.276820605,0.4861277259,-0.8243651769,-1.2797087256,0.236869799,-0.293663864,-0.2846323452,-0.095559519,-0.7787818429,0.16296567,-0.9582783525,-0.044707433,-2.1593159521,-0.1681732896,-0.4937094967,-0.0877637089,-0.7686794309,1.115832495,-0.6821183226,0.0500996862,-0.6538987153,1.271051562,-0.021670193,0.3379111036,-0.0056657114,-0.5634978305,-1.4503196074,-1.1959346976,-0.3053667432,0.9834286648,-0.4742061288,-0.5873842912,0.3695715026,0.779123079,-0.7080290736,-0.2916461018,-1.5828073342,-0.5116619441,0.2640792686,0.388531553,-0.7725897326,-1.1678200166,0.0719943285,-0.4103138304,0.9250317867,0.3531512401,-1.9273830514,0.386311344,0.5397626285,-0.1791874884,-1.2127297986,-0.7132427453,-0.2925598325,-0.596725789,0.3980133953,-0.2063715118,-1.050714152,0.6528999729,0.7888993975,-0.2603942177,-0.3007683152,0.3501177872,-0.2884359691,1.3801922522,0.8440501542,-0.0811506994,0.5253413827,0.7173161745,0.5423177663,-1.3605975256,0.6924631279,-0.9123949884,0.0312560785,-1.4345366115,0.5632057924,0.0053720001,-0.2862926369,-0.3968990141,0.7932761999,-0.2762239336,0.3941857721,1.4023375116,-0.6060044212,-0.2255088805,-1.2578751475,-2.2710422827,0.8454411163,-0.4270218926,1.0236186613,1.0994633109,0.8344835912,-1.13336741,0.7904543928,-0.0513473189,0.4366903946,1.0090192357,-0.6209713266,0.4260475543,0.5422460164,0.5096421212,0.2729699286,-0.7649581679,0.5402186566,0.484941762,1.3589964983,-1.8122812118,0.2258997759,0.3288252718,-0.6523875877,0.8282333342,-0.1028844052,-0.2869273342,1.2418262884,-0.4764231269,-0.8850262962,-0.9112692485,0.0185639772,1.9678296364,0.8617034752,0.1885137618,-1.6013780897,0.3176222967,0.6537341261,0.17315103,0.6705023112,1.0260619239,1.1863086648,0.0167556733,-0.6875571672,-0.8184922056,-0.201925623,0.9826070253,2.7060990221,0.6619006448,0.1070097427,-0.0805516404,0.8849622071,-0.5206832604,0.0660792116,0.4103018075,-0.8663133685,-0.234097436,-0.5785657313,-0.8988079212,0.0934205505,-0.768941352,0.844445505,-0.6343700733,-1.7290698519,-0.9879490036,-0.0723678504,0.0668061394,0.3949815825,-0.4197140903,1.1059864836,0.7768466393,0.2768346425,0.0859012743,0.9186547369,-1.4608337843,-0.4556131498,-0.2923218018,-0.7463378554,-0.5908688654,0.4219659708,-0.8109898904,1.0074320387,1.1925449792,0.7975322241,0.3182391549,-0.6961982827,-1.1603646852,0.8217031661,-0.8098289402,0.4499465026,-0.4572244299,0.0660693658,0.6589331728,0.380727783,1.0667249554,-0.6421547706,-2.3766054127,0.045950812,-0.2448672283,-0.5481104539,0.2641457053,1.3922228482,0.0565425818,-0.2716847511,0.7463537351,-0.8379948597,0.8745867976,-0.8578093024,1.2326856119,-0.8609949275,0.0838078805,0.9718639425,-0.4501872767,2.2288616028,-0.0449245321,0.6280115832,-0.8893763398,1.0800330923,0.894032374,0.2962406198,-0.4115014443,1.1876062004,-0.3829037549,-0.058626651,-0.8568404926,0.2378160776,-0.5638216757,-0.9519710927,0.765064524,-0.7399182397,-0.522352346,1.6758309667,1.1491655124,1.157974769,0.6005908045,-1.8684410836,-1.2488076248,0.7974845474,0.6441245417,0.9673989213,1.1550989704,-0.2293425128,-0.5950783339,0.3660353826,-0.2729171668,-1.5040190409,-0.6058544934,-0.2936973791,1.119116153,0.4759522342,-1.5334973368,0.5063673576,-2.0746066236,-0.6425073322,-0.2177427507,-0.3789965749,-0.3896371208,0.5630792758,-0.2417953768,1.0475290252,1.7390177008,1.2208256027,-0.7062022351,0.4446403413,1.1821190679,-1.9324911793,0.0264161116,0.6217429427,1.5425018892,0.2330721513,-0.0875148333,0.0225392563,-0.7074779766,0.3338697383,-1.8244464576,-0.7013497789,-0.2878879744,-0.5460693612,-0.1685052298,0.6735660609,0.1595122819,0.617229088,0.6857206234,0.9811658445,-0.1289595135,-0.6560957178,-0.316809584,0.7628947747,0.7752884312,0.1713230688,-0.4218598823,0.710619069,-0.3208094859,-0.525367752,0.7475203155,1.1334500355,-1.6152098454,0.3370218954,-0.3340071108,1.0098907808,0.1357902649,-0.3286582535,-0.9644466605,-0.9165764958,-0.8879360221,-0.1468929463,-1.7355685807,-0.7832727533,-0.0939189316,0.7610899001,1.0247967679,-0.3633218281,0.0417901524,-0.0144125717,-0.0263629178,1.1000335644,0.3755694556,-0.5512594073,-1.0329208815,2.0210353983,0.4490001412,1.6524930254,-0.4663481367,0.2288419621,1.5081478131,1.0657517732,-0.1086310418,0.2294436007,0.0506060368,-0.9610659352,-0.6741313879,0.4568535319,-0.1564385339,-1.4577723413,-0.0461839686,-0.9227871725,0.374078913,-0.5675007414,-0.7665586923,-0.0727227766,-0.2609114583,-1.1675444295,-0.1429787268,3.3867880218,0.3969117546,-1.5407043659,0.7153986654,0.8735363728,-0.0419893622,-1.0494407578,-0.7011819116,0.3682361528,1.1493218583,-0.3043010655,0.4547153441,1.2448732252,-1.0724514102,1.9700883211,0.4011711335,-0.0243171561,-0.4250907844,0.8094420819,-0.219088962,-0.4817497206,-1.3506161826,1.0613990851,-0.5981167816,0.800272072,-0.1861834001,-0.7619759999,0.3972135424,1.2365021691,0.5526324922,-0.9781878559,1.6571052593,1.1118521529,0.0673976275,-0.066729641,-0.2435248274,-0.3871724737,-1.3958240367,-0.3843510988,-0.3817751785,0.0313243456,-0.2616238883,-0.5280894766,0.0713535792,1.3068228709,-0.1235519663,0.1576083278,-0.0280437349,0.9960098569,0.7350457497,-0.1773473548,0.7170639958,-1.0289890002,-0.076830319,-1.890972276,1.8398181001,-0.1449781063,-0.6359835068,0.3845504193,0.654988102,1.2877528996,1.0691533681,-1.108119708,-1.0291493721,-1.1124703284,0.673211865,0.4767173251,-0.4971162371,2.3577010418,1.0951152078,-0.8072609205,-0.3070330599,0.7291571263,-1.6742892089,0.8296736627,1.0443059906,-0.1132052352,1.5485261294,-0.8302853909,0.37510162,0.8524500485,0.4023830984,-0.3213929624,0.0740251253,1.042638921,-2.5621672736,0.091476561,-0.9431048943,0.1466392509,-0.0350316903,0.6381471922,-0.0348299707,-0.670879351,-0.4293222556,-0.2041795437,0.7559726761,0.4626292909,-0.6611099505,0.1480878126,1.5707896846,-0.6446515349,0.3681876538,0.6171910372,-0.3021935382,-0.6274362045,-1.1809622937,-0.3535431319,-0.3814292419,-2.0448561481,-1.4933338808,1.1099783948,-0.3396309656,0.905634231,0.7876996352,1.31664,-0.405264364,0.3764827075,-0.677187426,0.9338861952,3.1965198334,0.2134769272,-0.6334313066,-0.3382519385,0.0950418111,1.1106718355,0.2075536689,-0.1966401133,-0.2683112417,-0.7076560141,-0.4564890924,-0.4917421772,-0.4657245978,-0.5063393919,0.5674787229,0.5090762964,0.8875931921,-0.9226649012,-2.9401229431,-0.7196578944,0.3194823462,-0.7819245723,0.2313547449,-1.3494043122,1.2099414627,-0.5023261424,-1.0408861564,-1.0822986278,-1.7513420397,-0.2932154714,0.7941841455,0.0263123397,-0.6910958821,-0.5734079138,-0.3626127119,1.0669591772,0.9527434874,0.9114189579,-0.5687467099,0.3574476803,1.2532540447,-0.4076994922,0.4322823732,1.0710581912,-1.2659192139,-0.2432032376,-1.9706249288,2.7811318832,1.1139946858,-0.0020025024,0.0215251859,-1.8854381845,0.0188065875,0.6471435317,3.9390901664,0.3965652501,0.2649128894,0.1273293031,0.073836968,-0.4677376201,-0.238406534,-1.0271038769,-0.8252644324,0.183077358,-0.9485872481,-1.693980085,0.2744136392,0.8621952443,-0.0275078411,0.4089816776,-0.3075296537,0.3048266975,-1.255033342,0.5215083073,0.182699783,0.9067861935,-0.5758512056,-0.117147444,-0.9703160464,-1.438147511,-0.4192399626,1.0306810378,1.0305776376,-1.1948289995,0.4774567958,0.5808855099,0.1902717985,1.5108776112,0.8657955619,-0.417320868,0.1306098783,0.6923917113,0.6156458757,0.7331802962,-1.1840986807,-0.5516834546,0.7169796069,-0.9287366759,0.6272695722,0.2117402909,-0.0412684131,0.9631270718,-0.5060161116,0.7173577378,-0.2693827506,1.2545132273,-0.0909324798,1.9054516649,-0.1393035051,2.1851456672,0.5825283623,1.1767651272,2.4129022229,0.7888275935,1.5341434699,-0.7237696801,-0.2525729977,-0.4600997863,-0.9533985657,1.7854714961,-0.7953839401,0.5668963044,-1.0156243765,0.5904864692,-0.8615074787,-0.4368159838,-1.326662152,0.6740102991,0.308349055,0.160309616,2.4295278019,0.2917607388,0.7575689676,-0.4109066289,-0.2613303622,0.3817308698,1.320486541,0.51390539,0.6396004378,-0.7733832931,-0.3794976479,1.1129071244,-0.2803155552,-1.9044534312,-1.0723021038,1.2164795268,-0.2490062737,-0.635523669,0.2998772255,-0.354628206,-0.2885267892,0.0209550051,-1.6111284197,0.4783233114,-0.0196791591,0.1139257748,-2.1445959848,1.0615061732,-0.6646752469,-0.4025998511,0.1223476321,-0.198472549,-0.279383986,-0.4493132576,-0.3294143196,0.1800433915,-0.8319061993,1.0513002197,-0.1321703404,-0.7250687786,0.6589478631,-0.1564578191,-0.7017799598,0.0776691563,-0.608935203,0.2432944387,0.5618460561,-0.4788752956,0.6025501023,-1.9014636588,-0.5007878658,0.5648261741,-0.1714847983,-1.1524375213,1.3090904513,0.2492040591,-0.1996713758,-0.2535520858,-0.04099487,1.2611900069,1.4039901623,0.0468757354,-0.3616454767,0.6720280722,0.4650872735,-1.1171290042,0.5918754572,0.7952439683,-0.4000494091,-0.0392758559,-2.8362138846,-0.2964043765,0.6733752381,-0.6358354198,-0.4942307699,-0.2652710932,0.4607796656,0.9949296282,0.329684111,-0.2551429449,-1.7471787672,0.2578372822,-1.3906420494,-0.3898684754,0.7879090332,0.2692094757,-0.6752491227,0.8156952195,-0.2415858906,-2.0987335715,0.4802366223,1.1964637044,0.6287490776,-0.0583277242,-0.4089460041,0.0916677304,-0.5194553232,0.6106331813,-0.2380218706,1.6978349678,-0.0595920543,-0.8474411298,-0.2981294914,0.5369708943,0.5149540652,-0.7701063992,0.7135922955,0.8913471525,0.9281507696,-0.2667435097,0.1558737725,1.2181301329,0.0643400753,0.2133737514,0.486407889,0.3636907549,0.4297517635,-0.7633004267,-0.5638112073,-0.9637850293,-0.1924351335,-1.0181869908,-0.9679514897,-2.1020350594,-1.1746429896,0.1684748153,0.0330201138,0.0622389708,1.4270374949,0.0635950978,0.0319463697,-0.0045999385,-1.7350602185,2.0685896532,-0.6361420022,0.3794351251,0.3673585554,-0.3657521794,0.1457761309,-0.273526754,-0.4126524513,-0.7377218273,0.1525966244,-0.8494786708,-0.8619450305,0.4682296802,-0.7691678481,0.4440632558,-0.5135057726,-0.9497426908,0.1160626838,1.157843255,-0.0383093685,-0.1631344735,-0.4569981821,-0.0932696172,0.0337279182,0.0106453975,-0.1861259296,-0.0717220001,-0.4923952658,0.1691975611,0.9151033996,-0.0336026214,-0.4382746728,-0.963192423,-1.8987451959,0.2687009482,-0.1897538986,-0.1356284263,-0.0216745432,0.0149672759,0.2303453081,0.5048152342,-0.117841438,-0.7158818289,1.1167472692,-1.015587956,-0.8267364026,-0.2541855275,0.2899650363,0.8618980104,-0.680209397,-0.5998109607,0.0329085506,0.0839880788,0.7298795286,0.3116033174,0.7477285194,0.4601622861,-2.3632403446,0.9609633177,0.6890025549,1.35151832,0.4181793677,0.1673623323,-0.9904395313,0.7017140739,-0.8443491019,-0.6667136441,1.1490951706,-0.4081933557,-0.6695511528,-0.1944805199,-3.7332902751,0.4868148458,-0.3757947884,-0.1227400986,-0.6413962002,-1.4132535833,0.3232295109,-0.199375589,0.6736501653,1.0913221498,0.783795373,-0.9592219469,-0.6074848756,0.7919257074,0.7321584576,-0.7122831271,-0.0831488734,0.0394574338,0.6246265381,0.178875462,-1.0489653886,0.8093719858,0.9182974908,-0.6221704169,-0.1114650125,-0.2781892779,-0.92438265,-1.05941219,0.0247197492,-0.71434434,-0.0063590597,0.0856044492,-0.8491286922,0.1788336887,0.5383832246,0.5028418597,0.4769838188,-0.133013995,-1.1239487112,-0.6903586246,-0.6035236899,1.037675796,-0.8091110078,-0.3132058589,0.7727122143,-0.5415591059,-1.0252570696,0.0627463398,0.8490568635,-0.6091080031,1.2157702922,-0.1543412883,0.6205598057,0.2823476419,1.0131485185,0.1365613663,0.8239482464,0.7927941963,0.1044991939,-0.1112404112,1.1883865826,-2.2967713992,-0.3623922544,-0.666463002,0.0028866064,-0.9088413118,0.3780716017,0.8255546784,0.9274133892,2.0142437049,0.853743616,-0.7491298842,-0.3369636806,-1.0541155375,-0.6887861689,-0.4263282823,-0.3880582474,0.3934229907,0.8736045149,-0.7978015383,-0.0421929525,1.1261643271,0.0795284314,-0.0106431882,0.8631199448,-2.1141567445,-0.7701395979,0.2798552598,-1.1328467762,0.413177649,0.4204363505,0.2638409388,-0.0472123285,0.6591136696,-0.3047908331,0.6952315895,-0.5666561472,-0.5579398005,-0.6980718851,-0.7840549227,0.401540847,0.316641579,-1.3253803618,0.507012586,3.3228555957,1.0206043817,-0.2753706696,-0.626736687,0.2583144027,0.073351969,1.7987863735,-0.8899189646,1.2044534453,1.2291049015,0.2762663699,-0.2173314296,0.4120499652,-0.0512332771,-1.5595535718,1.6800217907,0.7467338597,-0.7042887264,-0.0908835065,-1.2942736449,-0.6350488115,-0.4349971946,-0.1551140044,1.3000692773,0.2644084339,-1.6737853923,-0.737219396,-0.717410967,-0.3719719654,2.586265527,0.9759728863,0.5595218861,1.8680824755,0.9847355636,-0.0739474609,0.3904854982,-0.2799581989,0.6121173224,-0.971943724,0.108553481,1.0712526682,0.3385088349,0.3772631998,2.5860282255,-0.9467829333,1.9078143333,0.9965359175,0.5917112445,-1.2206140775,-0.2079658961,-0.1630551663,1.2917649969,1.7154005537,0.4373006107,-0.1861068462,0.600356417,-0.081819749,-1.7631773313,0.2761222449,-0.1361156856,-0.5907933279,-1.3105010019,-0.1673733785,-0.9124128668,1.4101253541,-1.0474704105,-0.0093413136,-0.4042113333,-0.7951814977,0.5935194009,-0.1570835028,0.2922279047,0.2624340965,0.2656373246,1.0057127768,-0.5818950716,1.0787760803,0.1182279551,-0.6842983097,0.3142767963,-1.9736995147,0.7371228559,-1.167001493,-0.3662891081,-1.2147700862,1.2597394749,-0.415010377,-0.3886711597,-1.0047270372,0.6617774035,0.0137183778,0.5352589374,-1.4289721608,-0.2356148506,-0.1597882841,0.4257986609,-0.5589008957,0.0763415219,-0.6096862651,-1.9231227688,-1.7845269493,0.4808812313,-0.8434252975,-0.5951939747,0.2057626554,-0.3054691639,-1.4932835016,0.4081625232,-0.4440128362,1.5768338304,1.740831047,0.7367943613,0.0776700522,-0.2277302577,-0.32112838,0.7317328418,-1.6464899748,0.3175133584,1.4894874822,1.2460549577,0.9284476031,-0.2351928592,0.6276371382,-0.4319512863,-0.4383604031,1.0181973048,-0.2995186943,-0.1927379963,0.924105121,-0.3148333246,0.8004869074,2.1562680148,-0.7362049607,0.1527991441,0.9290672419,0.0454110878,-0.3846422912,-0.6668024568,-0.4439476826,-0.8037185676,-0.109348016,0.3692796708,0.5360010309,-0.8082787219,0.1482773991,-0.1413895582,-2.0678642682,0.7762329484,-0.6729150469,-1.0924264219,0.4306437592,-0.1192670107,-1.9072633702,-0.1833455435,0.7448014402,0.7745628068,-0.872838527,0.3916649701,4.357760002,-0.0902096135,1.101004014,0.2820524625,1.899463387,-0.3467597462,0.1804749845,-0.491210898,-0.3045752511,-1.610847859,-0.1880930416,1.1139342973,0.9121030194,0.4575668889,0.4079718956,-0.9623465642,-0.631247319,-0.8396581132,-0.8602395368,0.7461258069,1.0718544627,0.5577951341,0.4927259749,0.9777675726,-0.7011746185,1.6510363722,-0.3024061532,0.7694094959,0.732943098,1.0450690368,0.135095089,0.0919031868,-0.6904895903,0.2071416193,-0.4251044197,1.3153816497,0.7830864823,0.6080837381,0.4945158532,0.1130033676,-0.1580275964,-1.277424318,-0.7209004485,-1.2066185302,0.1311282048,-1.3932896223,-0.9688252147,0.1362298424,0.0127151043,0.440657651,-1.1405258728,-0.5488414569,-0.1670695922,-1.5343890644,0.6417175449,0.2951943609,0.0497353154,-0.2530211703,-1.0795914471,-0.6321954224,0.329569061,0.3446507442,0.2405073876,0.7360781952,-1.3422470345,-0.9846497673,-0.3825863415,0.8323383389,0.6927860814,-0.99009856,0.8666202256,0.5984848733,0.2701176862,-0.0685657364,-0.0506707453,-0.3123013747,0.1412764539,-0.3128731563,-0.8733677163,-0.360422108,-1.2974204095,0.0985805107,-0.6419933568,0.2809033562,-0.6063865439,0.8439114688,-0.4120353744,1.4078933141,-1.2511367526,-0.4522008004,-0.5078394174,0.1767579259,-0.5709511829,-0.7952106103,-0.2311663782,-0.4536612372,-0.7763744757,-0.6674048808,0.9977981295,0.9934116551,0.4742158891,-0.3941610145,-0.4606802988,2.0719092353,0.3622435949,1.1176003849,0.8054285694,-0.6540133802,0.0623654769,0.1748868027,0.4112936883,-0.4605064708,0.518052938,0.0864366885,0.0457512164,1.5388086233,0.116267263,0.8353859933,0.5738928706,-0.1588043172,-0.5357517907,-0.0701503566,1.0949397581,0.4051822167,-0.0226139932,0.09960895,-0.0698727943,0.7730530852,-2.7845108044,-1.1743762219,0.600097912,-1.312208765,-1.2069447434,2.0686778444,0.7553173909,0.1772853077,-1.2335140374,0.7678551132,-0.2031478388,-0.0971898,-0.3918879382,1.5783398895,1.0203295932,0.4014880582,0.1120530059,1.5084661606,-0.089000305,2.1216459082,-1.4244157148,-0.1355763257,-0.9965004657,1.2499100062,-0.2503089242,-0.2814279492,0.5990957572,-0.6536981885,0.8971143392,-0.8765262852,-0.3430179462,-0.3324891016,0.1030637752,1.3700654695,-1.5256062814,-0.3015706471,-0.1880921545,1.275073892,0.9616128756,0.4362952044,0.300954689,-0.6431495548,-0.1943747701,0.2098906055,-1.1532474701,-0.8519178179,-0.0266645814,-1.3348489265,0.7212022303,-0.2686299068,0.6266990659,-0.0215560347,0.6616213574,1.2106384952,0.1206456503,-1.8413055235,-0.5432383159,2.3771957265,-0.9654517967,1.2965483359,-1.4919527032,0.8169178133,0.9366339515,0.1364431754,-0.4404452552,-1.4188807288,-0.1996667447,0.5084477306,0.0568289752,-1.4002688765,-0.607430145,-0.1077683916,-0.7873513929,0.0385615131,0.9939108971,-2.765209186,-0.0616633673,-1.5404379224,1.5963376747,0.1419362338,-0.5793669037,0.5072124309,-0.0521744854,0.6125752172,0.7151373192,-0.6653494529,0.3947355586,-0.8889299842,-1.0962520619,0.546269873,-0.4124809922,-0.7327872254,-0.7306982647,0.6496877645,0.8165236407,0.858588937,-0.0036384921,0.9480308637,-0.1023383563,-0.087568315,0.8569138918,0.2731568619,-0.9333025625,1.4188018206,-0.8348941542,0.0100099919,-0.4423735021,-1.7364011853,-0.5423124235,0.3394973163,-1.038393753,-0.8821333636,0.7318982391,-0.4920628459,-0.1650515718,0.6956258675,-0.5856878552,0.1133848875,0.4229363451,0.2334415738,0.7031830772,0.4008664235,0.940865602,-0.8558350097,-0.4975885316,-0.4579147268,0.4712723443,1.4012692089,0.9984151393,0.0391872212,0.5628007276,2.8803773962,1.2050696109,0.1987491821,-0.435296283,-2.4137585178,0.9266387929,-0.6149284609,-0.956122388,-0.4885445269,0.0082537507,-0.7082841001,0.2028504199,-0.7842231963,-0.9302728483,-0.1868532728,-0.3172869448,0.2518128064,-0.8179045738,0.1322388255,1.1835402137,0.3201751807,0.4381808482,-0.1239187167,0.7207799718,-0.0186841118,0.5313057927,0.1141338048,-0.548529236,-0.0669149124,0.4191431626,-0.9107343318,0.5023971503,0.6411655481,-0.5469487346,-0.4183151753,-0.3801832767,0.3777874669,1.0091849586,-0.3924348651,0.3038255341,-0.3582020111,-1.0167199342,-1.0963454838,-0.4415266633,1.000733422,-0.9548659717,1.0220226242,0.1671280925,-0.5684696833,0.7986611456,-0.7341579491,1.0381117981,0.1142459648,0.2733596804,0.9331818934,0.2116883229,0.2323238744,0.0159793069,-0.2018302442,0.2256111769,0.8683242864,0.6476448862,0.3800411611,0.5905908789,-0.3894786967,-1.2816172902,0.0404343637,-0.986210413,0.4549214663,1.1139511197,-0.2945972854,-0.3217515573,0.7954296056,-0.8536156514,-1.0207041732,0.8105106304,0.2611735507,-0.5768769384,-2.7242863119,0.1139234905,1.3730599018,-1.0517682503,-0.2110042231,-1.0037645428,0.5337627947,1.3909985841,0.4041288889,-0.7259805542,-0.6530639043,0.1448010111,-0.2282615848,-0.1835411421,-0.7564657523,-1.2278004195,-0.9251729859,-0.5582876981,-0.0649369539,0.2763143363,-0.5314916995,-0.7308808943,-0.8385874043,-0.2206286032,0.594188853,-1.3156313722,1.2337857032,0.4835106613,0.2170441686,-0.2905873106,-0.3888835127,-0.2039800043,-0.6680865188,-0.4374300953,0.233645881,0.1279260494,-0.5167840905
   -1.9494692915,1.1539607907,0.8078338733,0.0896558965,0.8289403427,0.6333350369,0.015247118,-0.2106282831,0.7617479661,-1.0510610514,0.6694809232,1.133179147,-0.7072522976,-0.1101254304,-1.0785157699,0.1589465396,-0.7235201506,0.9047124399,-0.5449582437,-0.6665548774,0.8306309858,0.0526915305,-1.719292783,-0.1041115685,-0.9924208862,0.2334258886,-0.0593923001,0.0538952318,-0.0173421428,0.8587565372,1.1238640865,-0.4878586162,0.6553804308,-0.181745664,1.2766314195,0.7103339348,-0.3849786804,-0.2645445786,0.8484982071,-0.0181494657,0.7080725968,0.4813713984,0.0003949387,-0.6884539979,-0.9563616931,0.3987904726,-0.4626906912,-0.444128516,-0.41783196,1.107341314,-0.8786288952,-0.5512831616,-1.7971841255,0.0202207276,-1.7155943004,0.9348700115,-1.5391570782,-1.0026593897,0.025967082,0.4995478454,0.286416361,0.7898676062,0.3928890356,-0.802195787,0.9064817034,-1.5149721258,0.5011524227,1.0135581595,1.0209638084,0.5416686683,-0.8350448887,-0.1219213222,0.2405605884,-0.1688196774,-1.5184891513,0.8167330307,0.0708532123,-0.056460723,-0.4398048549,2.6698271449,0.4654379916,-0.6100483219,-1.1322196933,-1.9760337371,0.2604628652,0.0498052238,0.7965284009,0.2411585146,0.6117174548,-0.2846502559,0.2137393957,0.407198154,0.4227213336,1.1703022792,-0.0108953981,-0.6789812612,0.5112689666,-0.3086571596,0.4794284367,0.7407006596,-0.5917752388,0.3716323977,-0.7517640891,-1.2036189609,-0.7557647903,0.0456910559,-0.8520095173,0.3513736581,1.0540092878,0.114811307,-1.0610709655,0.4027711768,-0.6354661778,-0.6575150566,-0.2178392816,0.1934165693,1.4821779573,-1.9358939289,0.7846905856,-0.5707393861,0.4082381165,1.8589960184,0.3121883021,0.5322630089,0.7527849075,0.7676889253,-0.0552783528,0.3881076709,0.3530061136,0.3370805689,-0.0129223319,-0.5065462811,0.2140542453,-1.5389431011,0.4322521397,0.24417817,2.0530051283,-0.1669227021,0.0008799938,-0.022996988,1.1310357865,-0.4182250291,0.0167214279,2.0548179075,-0.2406137528,-0.7804013753,-0.6548141194,1.0320942824,0.2620873875,0.6270218341,-0.7670562149,0.8131324909,-1.0335807507,1.0703489488,-0.2836427978,0.8265559715,-0.6195755471,-0.5718691641,0.3919149705,0.6019677192,-0.1972421967,0.6849292505,-0.7591516331,-0.0930803416,-0.8558751788,0.5433823545,0.4415388409,0.3707106146,0.6868629347,0.3985451252,0.3147471963,0.264115185,0.4228023434,0.9484781038,1.4278834129,1.3460335061,-0.547243246,-0.4252822211,-1.5584365924,-0.3186779218,-0.0574761333,0.6516974178,0.3648714478,0.694059015,0.0348934204,-0.782609634,-1.3874237407,1.3224308731,0.0526580079,0.8829852607,-0.4153749184,0.9054786279,-0.3886959102,0.5410592099,0.8079664556,-0.8659333239,0.0427717859,-0.5307894051,0.2094620859,-0.366422922,-0.4188869826,-0.0065258653,0.8712635749,0.6681162224,0.925321452,-0.6088053297,-1.1892836851,0.6440566993,-0.6021660838,0.8804034204,-0.6314147781,-0.4037302111,0.247439677,0.5934214801,-0.7867312151,1.5219316965,-0.4791234534,0.0102560392,-0.2801142919,0.9340225565,-0.1399096881,0.2155733745,0.3220514812,-0.8526033928,0.4017926661,-0.3477912221,-0.6659752733,1.265659262,0.5657837294,-0.3599911003,-0.6595762234,0.1322686485,-1.0110464659,0.3355414236,-0.7104019694,-0.584853728,0.1094831509,0.9201398543,1.411440592,0.3938741608,-0.3920206243,-0.4614724037,0.9430228495,-0.4776337704,-0.1636439181,0.0433439942,0.5413181455,0.7125491127,0.4836965923,-0.1988568732,-0.1407532604,-0.9384350118,-0.5065033576,0.9616114939,0.8823107514,1.9197638228,0.1961272366,0.7656416836,-0.7972619915,0.9294275796,-0.6370181083,0.2226925713,0.7353629295,-0.7227219354,-0.7931249407,2.4368222828,0.3174545698,1.5106745325,0.4220850473,0.2455587959,0.7386554195,1.4030977376,0.4903074902,-0.5345022632,-0.0720204939,0.8611637594,1.8344800807,1.3704841001,1.8405149239,-0.8067741492,-0.6617225871,2.3439425152,-0.8980730388,-0.1090884515,-0.0147316815,-0.1205666093,1.4579641835,-0.9218200257,-1.223903162,-0.1981387728,-1.6724366256,0.2555026924,0.536521516,-0.6143133822,0.7856125457,-1.2253319745,1.1026380401,0.6273065663,-0.2063812932,-0.7062380751,0.4883124879,-0.2134513319,0.6319827623,-0.1153054183,-1.0671315475,0.7079792785,0.421838421,-0.6266392582,-0.0284758467,-0.3397101267,-0.7383606272,0.7990603975,0.0835306568,-1.0087797202,0.2938482418,1.2433721152,2.40751563,-0.8444430736,0.2054280801,-1.1984988172,-0.527586142,-0.6884275994,0.4996102535,-0.0644631335,-0.5499603157,-0.1799008339,-2.2901720208,-0.4030877858,-0.0646185404,0.6856281778,-0.6174455036,0.580080307,-0.4441346218,-1.7476880617,0.1277940421,0.4872190894,1.5172729242,1.4690571507,-0.4357745265,0.6023640852,-0.7669016786,-0.88479528,0.0009640976,0.3447442628,-2.3635075327,0.3654064609,-0.2126778317,-0.3668102947,-0.2873274176,-0.8093694729,-0.551488238,-0.2226691114,-0.2254932558,-0.7476368225,0.083445575,0.6476451095,-0.7667377231,-0.86157892,0.3923295329,0.1281675182,0.3425064147,-0.530861472,0.5108481571,0.85262586,-1.2271852806,-0.6854445022,-0.1500308374,0.6089759222,0.5224451266,0.8245572274,0.3346474459,0.5279763934,0.6073991692,-0.8310089491,-0.6196959321,-1.199233132,0.1024272833,0.3669935564,5.2721177942,0.6912976736,1.5290741859,0.1759100212,-1.2112116661,0.0483800272,-1.7682459781,-1.1118940935,-0.7688415019,1.9611702637,1.2483264212,-0.487965918,-1.1775567983,0.9436330335,-0.3894949183,0.4015249021,-1.0488960972,-0.015135529,0.2556760595,-0.3992015881,0.1014091707,-0.6132067192,-0.097743254,-0.2449909654,0.4243426102,0.6921313124,-0.6021309106,0.1882513668,0.6479777193,2.1093296125,1.5159785629,-0.7063937795,1.7660521562,0.3179751954,-0.7415309717,0.4248222484,2.6727521035,-0.1211022729,0.5959261871,-0.7103559481,-0.8791849336,1.4710247988,-0.3343886552,1.0397267803,-0.4497182585,-1.5579200402,-0.0553794945,0.5973081596,0.2973411196,0.2899560026,0.6073825892,1.8775756913,0.4463788032,0.5578268909,1.9677612477,-0.6330266453,-0.986850087,-2.0086132349,-10.2609108934,-1.275051638,-0.3566998005,-0.3711092412,0.5656358678,-0.2192336094,-1.2274450666,-1.9671310277,-2.0997607323,0.4935501968,-0.8847543706,0.0844781398,0.673129588,-1.606790687,-0.1115539988,1.5818909659,0.1977232531,-0.3528004093,-0.4479610495,1.1300207428,-0.2704731612,-1.4296521139,0.5190484278,-0.5454690693,0.116394056,-1.1478372776,-1.7261232631,2.8886498437,-0.577468191,-0.3212484896,0.4141393024,-0.9980786795,0.9121502676,-1.5057653737,-0.3391557724,-1.245226014,0.1388124034,1.0007385357,0.0086326523,1.5563923127,-1.1457296672,0.7693261037,0.6369181705,0.1684247466,-1.4984744806,3.8505239393,0.2501359765,0.9411684644,-1.6299576896,0.820318056,0.5899061855,0.3161554061,-0.2648248831,0.0372378783,1.0120727376,-1.3409308704,0.9901829179,0.8758635466,6.1349865737,0.7225725918,0.4957606366,0.9001941888,-0.4693506923,0.9646431204,-2.6794654414,1.01222819,-0.1703155553,-0.3905616662,-2.4725471154,0.0153420269,0.615209125,-1.5961679218,0.3880966759,0.5816780956,0.3717602662,0.6936641558,-0.3826710496,0.959159189,-0.1882754528,-1.7039051738,-1.3189486369,-0.0172568438,0.3888878222,-0.0384697103,-0.2044152736,0.6698727309,1.3111393914,-0.1874173668,-1.0723605098,0.2436991061,-0.1336690711,0.0029603965,2.1146939222,-0.4154670929,-0.4554998749,0.5174121769,-0.8444795924,-0.1233087676,-0.1630409097,-0.0847709995,-0.2613003292,-0.2463552666,-0.0367865087,0.1785320659,0.8087386346,-0.3832880212,-0.5013968679,-0.6157116117,0.7996371285,0.7673829335,0.8388980784,0.5838797522,0.701259196,-0.372806185,1.051444052,-0.9014522069,0.9632731549,0.9515163944,0.2935113972,0.6355340794,0.2566359157,1.3280505496,-0.6648570158,0.1262321667,-0.5462139144,1.3258699086,0.7095598195,-0.0386316736,0.3698023012,0.5789382862,0.0510825974,-0.9788553457,-0.2922785244,0.0943621675,0.1083246865,0.5124080078,-0.6016065446,1.0465925796,0.7241357021,0.6208176501,0.1587593838,-1.0225440035,1.5492741658,-0.4271706085,-0.6356658726,-0.4721029366,-0.9701904955,1.1683214694,0.1071547339,0.1990826109,0.6490823564,0.7098866298,-0.5958469967,1.9261377539,-1.0493695194,-0.8729296643,0.1595680329,-0.0322505919,1.0885886081,-1.1066905826,0.2332581291,-0.6819649722,-1.56041357,-0.8126090123,0.9122372879,-0.9680866483,1.3233730515,-1.5130934441,-0.3133975622,0.2481223167,1.0530025023,-1.3638660551,0.1707014205,0.2574917985,0.2537745186,-1.2071087164,0.6077195294,1.8343148268,-0.3958296436,0.3398685814,-0.6984956396,1.1869561129,0.3089930708,1.0592359132,0.0920198751,-0.8437725669,-0.1421829018,1.7718293033,-0.7132955945,0.6615774718,-1.1431670002,-0.4737879692,-0.3821657697,0.4492141246,-0.4291741685,-0.2418584654,0.3166697121,-0.8966751442,-0.1121489683,-0.6070087669,-0.2981951651,1.6817796156,-0.3854800844,0.4553396195,-1.1636238775,-1.1429049315,-0.2771905153,0.7931270645,0.2801339494,0.1446219824,0.2577969775,-1.4054165228,-0.1298410303,0.6505949003,-0.0547654443,0.3199851945,0.6935286528,1.1341361654,-0.949062665,-0.0103914347,0.7557740375,1.5773563873,0.616286619,0.5147092849,0.5066610812,-0.1734349776,-1.9101773602,-0.8793509008,-0.7570565838,-0.0410746919,-0.941866412,0.1593790068,-1.7072734758,-0.9636306614,-0.5318180737,0.1637603199,-1.0532947704,-0.7962658841,-0.075440122,-0.3555434612,-0.7668409019,0.3938924071,0.4395095562,0.98489699,1.2635758246,-1.0399447195,0.7082801879,0.4666720188,1.1757311236,-0.3054834377,-0.3361128615,-0.1595903671,-0.8441626716,0.7014831513,-0.4081418185,0.6755813472,0.3455079646,-0.3678344919,0.3599866817,0.4221836598,-0.0986114142,-0.3154200938,0.5193044758,0.2974452482,1.2746811375,-0.2308322295,1.1616952205,-0.4531914425,0.0291198743,-0.7409705201,2.0160017565,0.0815957273,0.6195541532,-0.1400014745,0.0036367382,-0.7866113056,-0.160347222,0.2429446789,0.2097103069,1.736496285,1.1832335391,1.7420276867,0.3874242557,-0.0015582537,-1.1233523535,-0.7593399153,-0.0515358591,0.1115665725,3.2191708785,0.0326921594,0.477263938,0.7683287036,-0.6608479278,-0.4406233414,0.2764715064,-1.5382931613,0.8935698709,-2.0931514065,-0.1579614827,-0.7253670874,-1.7205162592,0.8731358562,0.1118942118,-0.2389585543,-0.2138589319,0.1773987315,-0.2633556968,-0.6311488062,-0.2650683005,-0.0524226656,-0.3018658466,0.7126510783,-0.5530902236,-1.1853279937,-0.6961220755,-0.3208186381,0.8268652031,-0.7666785548,0.2271470655,-1.0629952959,1.4610819582,0.4001747538,-1.1637521458,1.6173625034,0.1099362367,-1.5394109826,1.0667803778,-0.164277438,0.0730274012,-0.3662689642,1.0666322829,-0.7812935647,-0.2776466296,-0.5569453105,-0.7048869813,0.6017404138,0.1006974391,-0.492288578,0.9230910029,-1.3517053204,-0.4902068435,-0.8448551594,0.7292749292,-0.0683414023,-1.3357221445,-0.4623743374,-1.0639135991,0.8041896529,0.511550635,-0.6669854815,-0.1613872844,-0.1289875219,0.1897256709,-0.3190691632,1.3624542491,1.9093734456,-0.2738052438,0.311053884,-0.86375151,-1.0665470344,-1.6713037083,-0.4080101908,1.8172289491,-0.9316673617,0.2933926118,1.1755967225,-0.3413930094,0.140611511,0.4605654663,-0.2970972173,-1.8098644184,-0.4062752537,1.0684479983,2.0365683578,1.3377630473,-0.3553735174,-0.8121586043,-1.4176547933,0.4468867631,-0.0488368724,-0.2406919719,0.8409521529,0.294978794,1.2624743772,0.5441584314,-0.0724439395,-1.0998732416,-0.1743755833,-1.4877588838,-0.0037802923,-1.3798448123,0.5860453144,0.3416555633,-0.3776134929,0.312246003,1.8190197398,0.4663141825,0.6209186317,0.9178247093,-2.2420150368,-1.4043533767,0.1645796116,0.7308333398,-0.2899167647,0.2685121319,-0.3445137295,-0.0754734166,0.8307806317,0.2695661934,-0.0144854628,-0.408237565,0.2170821784,0.4319113254,1.1157400489,0.2614055765,-0.1389537342,-0.1805625859,0.1953063631,-0.4224992177,-0.4596735214,0.371018092,0.1868783489,0.5513603934,0.468436693,-0.1375819961,0.4972439956,0.0949194089,0.5452612588,-0.4794696233,1.189400138,-2.0169960169,-0.9097278588,-1.2654724081,0.3994126847,1.0596283044,-0.6643613851,-0.105724164,-2.2285975682,-0.8678703802,0.8259929172,0.8310862906,0.485765413,-0.0548761739,0.4663894687,-0.0775007646,-0.3249415369,-0.7147330244,0.2567001845,0.6216605034,0.8180031766,0.2222167755,-0.1738608563,0.1114813251,1.3916661689,-0.8802016089,1.053971351,-0.3492458448,-0.1108267779,-0.2230414674,0.2764204156,0.9736977671,-0.399742348,-0.4555675561,-2.28576124,-0.2985855456,-0.9517714706,1.5640965588,-2.0592619988,0.8077449393,1.0346709771,0.0979135695,-0.6309339352,0.5416203589,0.3122451313,0.0901514503,0.0090261825,0.2693679817,1.1536986533,-0.5586917078,-1.5780500067,0.9200696364,0.634583625,0.87813249,-1.7101627268,-0.1369378489,0.9139378759,1.1244605512,0.6634819472,-0.6329701855,0.3762727064,0.3189028555,0.0784569493,-0.0114334002,0.8703738207,0.2352623338,0.5994446089,0.2852325053,-1.8935893299,-1.2012780082,0.7009263958,0.5836408922,0.5662074842,0.4742217054,-1.0217592582,0.4859748493,-0.4995092249,0.5445027167,0.9644331991,0.2975359689,0.1967643176,0.0447683759,-0.0100075382,1.0230167247,0.2144324767,-0.7428525671,0.6674587365,0.1370299499,0.5847454936,0.2027035114,-0.5859055377,-0.6628598018,-0.0754393502,0.6107958093,-0.1012842872,0.6569499361,0.616026294,-0.4959662109,1.0827045443,0.2947515809,-0.3444429173,-0.5425073136,-1.6864962735,0.4428924145,-0.8559091574,-1.1085359791,0.2049674715,0.0370081788,2.528194175,0.2694928217,-0.2315089549,-0.4133853767,-1.6401427004,0.0134386178,0.8628950327,-0.489137559,0.2827690642,1.3329683888,-0.3647854653,0.6651918072,1.603785672,-2.134952134,1.0642540561,-0.3141333087,-0.6216424662,-0.403793198,0.6812982762,0.7227478127,-0.7515446374,-0.5965403059,0.6784798227,-0.7978595299,-0.3596866386,-1.4935261528,-0.1305373726,-0.4322119106,-0.1378966047,-0.3342326307,0.267495295,-1.5283088894,0.8054725952,0.0378133013,2.5095693696,0.0212172784,1.0034689047,-0.0447088478,-0.3503579866,0.5780855474,0.473818091,0.7807560202,-0.2967383516,0.3258203548,0.2714734851,-0.7593040764,-0.07039603,2.216123569,0.5072624669,-1.3164995463,0.7416038256,0.3164471239,0.3865937546,0.2340270575,1.2441603758,-2.3591338265,-0.2526789243,-1.8816200123,-0.8703670445,1.0237074633,-0.7354424672,-1.042266585,0.9107162173,0.240859467,-0.9282716446,-0.0317326446,-0.3467880549,-0.0420688851,-0.5476749959,0.4586546752,1.6991656203,1.3406820704,0.9405850729,-0.9135379167,0.0722239585,0.6998801822,0.3995780563,-0.7243223482,-0.8697498777,0.3275634635,0.353777305,-0.4506451154,-0.3909506376,0.1966668369,-0.3045322387,-0.276371159,0.7343358785,0.7952361334,-0.7052795438,-1.280129759,-0.4919144711,1.2755448627,-1.6404450241,-0.7279843849,0.2100077182,-0.117892688,0.2119817793,-0.6881185466,-0.2476033404,1.030897479,-1.2858913316,0.181913733,0.8056015965,-0.7107805777,0.6817507591,-1.8110543743,0.4800926117,0.927570092,-0.5051694404,-0.7801982776,-1.7427764352,1.414122361,-0.8030745063,-0.0795841173,-0.9530006291,-0.8034317213,1.2444891584,-1.3908864468,1.3650743051,-0.5289653592,-0.1771912498,-0.4549120415,-0.7410554296,0.0057071719,0.6585741718,0.868168629,1.9247140562,-1.0145398412,-0.7087680785,-0.2211028406,-0.2124905564,-0.5916217173,0.4428908715,0.6121028146,1.1013377796,0.0007581996,0.712673635,-1.1844308451,0.3246735704,-0.9039852536,0.2837694812,1.01747776,0.7112954645,-0.1987817923,0.6824533309,1.2991859721,0.5986140147,1.1988258097,0.379919363,1.488678615,-0.2526950726,1.1000237393,-0.5982557045,0.9571702875,0.6410084746,-2.9337873674,0.1728630491,-1.5291259752,0.5800663875,1.2983424536,-0.5730284014,-1.9124538818,-0.2869920238,1.0910666159,1.2144467678,-0.252932704,1.191017245,-1.8447953183,0.5139045773,0.5983041704,-0.2726293914,-0.9682939384,0.5135023773,0.9291243675,-0.0347378402,-1.9111296494,-1.0773233226,-0.1018794552,-0.0832734849,-0.2693392116,0.9825378842,-0.4911840434,-0.10590122,0.8381395253,-0.2431369597,1.1812396529,0.2357691596,0.6411848287,0.5332910124,-0.1691275925,0.5117306797,-0.321492812,0.3843691401,0.199949045,-0.7187515134,0.3777899473,-0.3252873336,1.1588679754,0.6011544024,0.3427016115,0.9888540423,-0.949890334,0.1284269094,-0.2589924213,0.7076956541,0.9990220313,0.5356075414,0.2429656311,-0.268893741,0.453948481,-0.1615576477,-1.6965095828,-0.6489524265,0.4345498887,-0.2552686426,-0.8265557169,0.9512988723,-0.5506588852,0.4506369261,2.3408288127,1.0068754362,0.6820108098,-0.8154426954,0.2481403885,1.5272345964,0.1865486389,-0.0959664033,-0.2950589459,0.6118121805,0.3000534091,-0.1715303506,0.0175193683,-0.6431340103,-0.6559704115,0.5141549882,-0.4704962576,0.2592663119,-0.8267000102,-1.0080625976,-1.0981320476,0.563601987,0.6152764528,0.2886507022,-0.5568616021,-0.5805849642,-1.1055713629,-1.2255514724,-0.8265502334,1.4201236132,-0.7263914218,0.3922547439,0.6173556533,0.3946090738,-0.1526433519,-1.2599461319,-0.3223879309,-0.3111129997,-0.6968387651,-0.9158966197,-1.5163590409,0.6155724339,-0.1155510884,0.3251654697,-0.0970207984,-1.5408493802,0.7113834788,-0.1411755673,0.4116854254,-0.2875514566,0.7278600195,0.987498953,-0.1748972671,1.8748563384,0.4170898327,0.3684905264,-1.064924078,0.0265884706,0.0277058971,-0.0632246863,-0.0532298505,0.5460115032,-0.5996513871,1.0102489208,-0.1153496342,-0.9946310151,-0.633709906,1.3749340878,0.2388516178,0.6456333909,0.0889053511,-0.5627655114,-1.6480405829,1.3223778002,-0.8147242191,1.2137139635,-0.5386689082,-0.3726509012,0.9108094397,2.2730316668,0.7468779451,0.6458778927,0.1627707156,-0.0599982376,-0.5788596888,0.1229033901,0.3665196333,0.6277160168,-0.1400833828,2.2277829613,-0.0964489232,-0.090908034,0.1909442606,0.0219110668,3.0204842795,0.8084817387,-0.0570109135,2.3871341602,0.8283540501,-0.8146671336,0.3654988687,1.5787313505,0.9744165685,0.0100146722,0.8904791885,-0.388962978,-0.6867021023,0.4397607849,-0.0625847354,-0.1679351048,1.2630993362,-1.1614120716,-0.5022517052,-0.6769661533,-1.6054030045,-0.5471238865,-0.3037478483,0.7065440571,-0.4219874834,-0.6789335693,-1.0544500241,-0.3198107963,0.7412005419,2.6402371816,-0.1114533569,0.2494944294,-0.0893964996,0.3584912214,-0.5266953996,-0.1835929932,-0.2762494322,0.998949337,0.9805170498,1.3228419489,-0.0363944456,0.7608984265,-0.5802929822,-0.5966683663,-0.876063503,-0.5497185498,0.4997442904,-0.0970253856,1.6114132023,0.3388390893,-0.1935823595,-0.1463582336,-0.3597954658,-0.9134418809,0.3075775416,-3.0778370637,1.4388425855,0.9403822134,2.0033260334,0.8504111116,0.6012082643,0.2720368448,-0.0401551665,0.1093301375,0.5249916652,0.3690990219,-0.7713937455,0.1007696785,-0.4980147871,0.6661705264,1.7544385289,1.3674351251,0.5894853071,-0.5692376206,-2.1993909419,0.1385740319,0.4119889561,-1.1274966704,-0.108346827,-0.9854600108,0.6984662557,-0.4191012882,0.0597963244,-0.378810706,-2.3593904185,-0.2940404205,0.8532771578,-0.7660086816,0.8987896048,0.1544733718,1.1529099581,-1.0782890844,0.5053571574,1.1228891386,0.8183724971,0.2151756706,-0.8128396691,-0.4072874008,0.3151504877,-0.104578453,0.0553235938,0.3103525934,0.7228687664,-0.3623333028,-0.265869413,-0.6425482246,0.022716756,0.3624864678,1.9136947848,-0.1991659996,-2.6631396742,0.6992632073,-1.2897640486,0.1536868409,0.7636627965,-0.1585674657,1.415710496,-1.2047897305,0.8515780373,0.2875866332,2.5152195479,-0.2961099906,-0.5067148081,0.3849472871,-0.1467436337,0.6212892034,-2.2309327237,0.9158281003,-0.1835955581,0.2831969715,-1.0032185902,-0.9578274385,0.5887686113,0.7581731509,0.6870851141,-0.2575860164,-1.0661691472,-0.9827522063,-0.0577716727,0.761054008,0.8292894104,-0.8173859705,-0.8504525625,-0.019989667,-0.3603028503,-0.1513428024,0.0673237594,0.2394046642,0.7934670793,-1.379405137,-0.9078223616,-0.5614875588,-0.4370314746,-0.262924003,-0.7891465768,0.7106873778,-0.607009831,-0.2624831919,0.2510767084,-0.0531736461,0.4122050662,2.1710438668,-0.2121495608,0.8325701179,-0.1530102728,-0.2796499441,0.8033038036,0.0065540027,0.3442089877,0.1206330675,0.6829258333,-0.0946759636,-1.4425178987,1.1129521774,-0.8115769599,-1.0679688754,-0.066299599,-0.5001349653,0.1682224544,0.314443385,0.3765685318,-1.1138970278,0.5292690512,-0.3758900594,1.2358516207,1.1465816918,0.8746691208,-0.8287897624,0.1520488362,-0.3263083493,0.5519691142,0.4530552335,-0.2357279239,-0.2484176552,0.6805121064,-1.0362419233,0.3783962966,-0.7224080891,-0.1890230361,0.8054359523,-0.2203547171,-1.1482904034,0.1082611007,-0.7255572467,-0.8818246055,-0.3906754555,-0.1480485023,0.3810348334,-1.4873113784,-1.2246215803,-0.8287517929,-0.6660783284,0.302426031,0.3588517052,0.8277171499,-0.7279994232,-0.988640388,0.1254849027,0.5568656733,0.9561855344,-0.688109028,0.3939300975,0.952645579,0.2888531735,1.3871859942,-1.4928982212,-1.2686457154,-0.0776565246,-0.0984071216,0.7229594282,0.2275517834,-0.6420462913,-0.0486875588,0.1727279096,1.4133384045,0.2055123313,-1.0023990543,-0.2627758277,-0.2684526859,0.1553912186,0.5317294649,-0.8062948232,-0.3842267284,0.1309711658,0.7246962699,-0.5912692393,-0.4167123435,-0.1965771585,-0.434021903,0.0114608677,1.1669155027,0.5167737727,-0.496840239,-0.1031593497,-1.2574394355,0.3652978248,-0.2773395664,-0.4095295992,-0.3890416489,0.3707548308,0.7757105886,-0.2554678259,0.5287493138,0.556187828,-0.0547104129,0.0567078761,-0.3804516353,0.4316329834,0.6651283018,0.120804361,-1.1121833124,4.0728458084,0.2799514655,-0.858949576,1.1578261378,0.2638979186,0.4318038516,0.3826378236,-0.1013736917,-1.3015662223,-0.7234335611,-0.0696263732,0.7100606862,0.8993936143,-0.8931993954,0.990027192,-0.0248969978,0.0688840043,1.5544398774,0.4937804187,-0.6238922456,0.394428308,-1.5671961871,0.6512095802,-0.2409056535,-0.2771127601,-0.6226511491,-1.1031958616,-0.257191084,0.5565217285,-1.0525056543,0.1336614849,0.5468571509,0.7458860186,-1.4430866953,-0.8269877828,0.2632325867,0.2321524628,0.7570661829,0.1762182403,-0.047278844,-0.1867293002,1.1369999147,1.0097244693,0.9293778643,0.9072182349,-0.8068644104,-0.2048658964,-0.3865644315,-1.1860630528,-1.7142328817,1.3232468453,0.3873827347,0.8303137394,-0.5178419825,0.62872883,-0.0925267929,0.6084102049,0.5218169073,-0.7430671934,2.0007808784,-0.6054421251,-0.3579946504,-1.5374534259,-1.1715033619,0.3786093443,-1.4317636833,1.4784310472,-1.519186884,-0.4149154464,0.1609730164,1.0598643138,0.5066499909,0.0446715025,-1.078532338,0.2920261168,0.4826936155,-0.4004022654,-0.2649461803,1.0482583888,-1.4443124434,-0.4698865522,-0.6311370836,1.3935144811,0.5801029185,0.9347077062,0.323360054,-0.4271659273,-0.6515182337,0.2180749482,0.8611570349,0.0056628095,-0.6951256783,0.3442859741,-0.2645131743,0.2994538257,-1.1050761118,0.1336040227,0.3590742038,0.8529605427,-0.4410169672,-0.3144439407,-0.8467704353,1.4628489158,-1.1735094186,0.7386041735,0.0713412347,0.4980671748,-0.4346064618,0.1790430104,-0.7079796529,0.7091664392,-0.6586793697,-0.5122083259,-0.5285078381,0.2658403841,-1.347579966,-1.5115223174,1.0614704287,0.6593226583,1.2343262179,1.224149698,1.7341258942,-0.1055892501,0.1767599749,0.18467362,0.5511019865,-0.4983333288,0.7868870333,-1.2878921528,-0.0153909588,0.1599261233,0.5813359194,0.4962456655,-1.5989255006,1.2216385475,-0.742216488,-1.0668117757,-0.0549177072,-0.2747375977,-0.4939252789,1.3345613083,-0.7210825174,0.7167366435,0.8524831348,0.4726811245,0.4015255117,-1.2498992081,0.202420888,-0.0267565395,-0.4454987846,0.8056449119,0.5788677947,0.1001962113,0.4869411503,-0.7281281415,0.3511005089,0.4626374732,0.6735075644,0.4453712804,-0.1926049465,0.2113739877,1.0329788793,0.0623649291,-1.2334839215,-0.309792535,0.0180962076,-0.9348272286,0.7449614192,-1.6835622704,0.4674171826,1.1963413056,0.6535286197,1.8656794232,-0.0055356985,0.5156333146,0.9229359194,0.1844245427,1.4703634082,-1.0998551332,-0.2337862221,-0.2479644157,-0.3963644592,0.2806683287,-0.5735807987,-0.2010924144,-0.0564379611,0.3339249961,-0.8287378775,-1.2035922283,0.533250137,-1.1439879789,0.7384795633,-0.1759125424,-0.8888998091,0.7371210156,1.4442580811,-0.42674986,-0.021533855,0.965345624,0.5736903098,-0.065197964,1.586123267,0.8023389913,2.6345856637,-1.0150110659,0.2182026527,0.5888353566,-0.8673592576,0.7209123807,0.0411273825,-0.2747274255,0.1221801299,0.7159743184,-0.775016699,-0.2566213477,-2.5983958134,-0.8663232979,-0.3723252007,0.3528632814,-0.9419810313,0.9031415774,2.6182910421,0.3978450844,-0.4028675433,0.1561548951,2.8476973444,-0.7966379215,-0.0902349153,0.6848850125,0.5137242746,1.0221080098,0.2061867135,1.3897187102,-0.8197256482,-0.2272544349,1.1126377425,-0.0708991849,0.6781357066,1.126694208,0.2073912317,-1.3888399798,0.1153170276,-0.1125969485,-2.3217517794,-0.6481116635,1.0098675679,-1.7139291699,0.6304637084,-0.6547415444,0.7639937003,1.5704652825,0.0684647986,-1.1270229568,0.619410779,-0.2828334578,0.693668742,0.239258343,0.1381087214,0.6714014108,1.0708239323,0.199458124,0.8521578576,0.175059594,-2.5671385545,1.7534174683,0.0702682651,0.4596678539,0.8419899369,0.6113601455,-0.8553796041,-0.2833305301,-0.3172709929,0.4012035995,-1.8451015169,-0.694713522,0.4066610301,-0.4614742706,1.4294259319,-0.3621728125,0.368602033,0.219214758,-0.1141893773,-0.2747868416,0.3374928536,-0.5782784839,0.7401654808,-1.7467124221,0.3490763585,2.3914590337,-0.9156656657,0.3589579281,-0.8686163948,1.4135678346,2.8535616102,0.6740080328,-0.3064939306,-1.7001465343,0.3003035499,0.2531826638,0.7306892486,0.5987485201,-0.2425807136,0.3712807672,-0.0517220341,-0.2716648828,-0.4625850427,-0.5507563772,-1.3191600048,5.4540083449,0.3629431164,-2.0194878695,2.5574679266,0.741192812,0.1224428733,-0.6437168027,-0.6349176732,-1.2257655923,-1.3740325084,0.5640695055,-0.5362607337,1.7190100269,-0.225487222,-1.3118430757,0.1581252826,-0.5936535065,0.7473832748,0.0127662269,-1.1069592542,0.6705663596,-0.647866613,0.6848082433,-0.2576739365,-1.7454206933,-1.8176729353,-1.4953169206,-0.5272949516,0.0403691509,-0.2536016942,-0.6290652158,-0.4011336933,0.0485711564,-0.760044856,-1.4146388124,-0.3413103201,-1.5905591115,-0.496732597,1.0037173758,0.3857585425,2.9849823332,-0.3329008256,-1.5696874164,0.8498265359,0.06457149,-0.0022397003,-0.0602681349,-0.8292510813,1.4593168755,-0.3228136572,0.240169033,-2.0792696701,0.7925048792,-0.9651487405,0.0513225093,-1.2067507127,-0.0849058545,-0.7986736467,0.1050813033,-2.1524507999,0.1290701883,-1.6492435837,0.1413661538,-0.2966900413,0.6016847685,-0.1489299694,0.0955207383,-0.2635753835,0.6763243313,0.4166592537,0.549071039,1.2297444722,-0.0343536592,1.8075462285,-0.9300008868,0.5436304185,0.2120992716,-0.4533333623,0.3152711088,-0.7926303016,0.869699689,-1.9572514274,0.3891449971,0.224925546,0.051584025,-0.3806533146,0.307972068,-0.2356007217,-0.713202662,-0.180704996,0.8863841354,0.2500729043,0.4639385136,-0.5715213179,0.3606250588,-0.8214071056,0.6254638427,0.4222122081,-0.8903354115,0.7859633976,1.0243184196,0.2010302127,1.8153965678,3.0491934725,-0.4572747428,-0.6692297831,0.6897425327,2.3843129325,-0.2995954545,0.7426527972,0.1924565033,1.1778991451,0.598456357,0.0830848223,-1.2789745945,0.0467360272,-1.2201185861,-0.625873279,-0.0055849483,-1.3017324626,-0.1272453481,-0.6787754051,-1.0066203218,-0.2418178386,-0.6205015168,0.2157647969,0.807199345,0.5229332092,0.8418137122,0.660210988,-0.5175101698,-0.0179797217,-0.311365888,-0.1961550783,-0.4461228785,-0.8820382023,-1.7655481729,-2.7896886634,-0.171398373,-0.4538536263,0.0400911036,-0.6462515762,-0.0992867636,-0.150654123,-0.0828100362,0.8998103618,0.9378555973,-0.599460835,-0.3833804772,-2.2650876135,1.7473782782,-1.0146530925,-0.821318239,0.344460663,0.6281737953,0.6892065005,0.0495930643,1.8633817568,1.7942151728,-0.1434194303,2.1029573599,0.7783057112,-0.7589435565,-0.9049448953,-0.5620749402,1.4030010865,-0.151602927,-1.1133141758,-0.4827598653,0.7965701453,1.159858481,-0.5150858926,-0.5598035063,0.1740646837,0.5264845797,-0.664015682,1.117214923,-0.1835811793,1.1122047819,-1.1790734012,-0.5594445948,-0.2603132897,-0.7686089408
